{"learner":{"attributes":{"scikit_learn":"{\"_estimator_type\": \"classifier\"}"},"feature_names":[],"feature_types":[],"gradient_booster":{"model":{"gbtree_model_param":{"num_parallel_tree":"1","num_trees":"100"},"iteration_indptr":[0,1,2,3,4,5,6,7,8,9,10,11,12,13,14,15,16,17,18,19,20,21,22,23,24,25,26,27,28,29,30,31,32,33,34,35,36,37,38,39,40,41,42,43,44,45,46,47,48,49,50,51,52,53,54,55,56,57,58,59,60,61,62,63,64,65,66,67,68,69,70,71,72,73,74,75,76,77,78,79,80,81,82,83,84,85,86,87,88,89,90,91,92,93,94,95,96,97,98,99,100],"tree_info":[0,0,0,0,0,0,0,0,0,0,0,0,0,0,0,0,0,0,0,0,0,0,0,0,0,0,0,0,0,0,0,0,0,0,0,0,0,0,0,0,0,0,0,0,0,0,0,0,0,0,0,0,0,0,0,0,0,0,0,0,0,0,0,0,0,0,0,0,0,0,0,0,0,0,0,0,0,0,0,0,0,0,0,0,0,0,0,0,0,0,0,0,0,0,0,0,0,0,0,0],"trees":[{"base_weights":[3.2622642E-3,-6.3635844E-1,8.6651456E-1,-7.587698E-1,-1.7197646E-1,4.9435154E-1,1.2440528E0,-1.0229659E0,4.00399E-1,-1.32499235E-2,-7.333042E-1,1.0437144E0,1.5149911E-1,8.312714E-1,1.6740739E0,-1.3641168E0,-7.9390013E-1,7.4003404E-1,5.8157463E-3,-4.6270382E-1,8.099117E-1,-1.282887E0,-2.8198102E-1,9.1802895E-1,1.5302868E-1,3.9404896E-1,-2.5151607E-1,1.1649302E0,5.9824735E-1,1.7106941E-1,1.3158249E0,-1.3818575E-1,-8.052194E-2,-3.9791513E-2,-1.0335897E-1,8.895358E-2,1.8928804E-2,-4.1296065E-2,1.8172456E-2,-7.083285E-2,-2.5879646E-2,2.2193424E-2,1.0511137E-1,-1.4327408E-1,-4.9289986E-2,-8.444046E-2,5.2611645E-2,5.128193E-2,1.44656E-1,-4.010375E-2,5.1698893E-2,-3.9968476E-2,7.045736E-2,1.1668581E-1,-0E0,7.7627435E-2,-4.2278385E-3,1.3547106E-1,5.0713643E-2],"categories":[],"categories_nodes":[],"categories_segments":[],"categories_sizes":[],"default_left":[1,1,1,1,1,0,1,0,1,1,1,0,0,1,0,0,1,0,0,1,0,1,1,1,0,0,1,0,1,0,0,0,0,0,0,0,0,0,0,0,0,0,0,0,0,0,0,0,0,0,0,0,0,0,0,0,0,0,0],"id":0,"left_children":[1,3,5,7,9,11,13,15,17,19,21,23,25,27,29,31,33,35,37,39,41,43,45,47,-1,49,51,53,55,-1,57,-1,-1,-1,-1,-1,-1,-1,-1,-1,-1,-1,-1,-1,-1,-1,-1,-1,-1,-1,-1,-1,-1,-1,-1,-1,-1,-1,-1],"loss_changes":[1.4833379E3,8.66062E1,1.5836243E2,3.7419073E2,2.8175257E1,1.0770401E2,9.6539795E1,7.438147E1,2.9561703E1,9.457225E1,1.547892E1,1.097583E1,3.5315365E1,2.023317E1,3.7340698E0,9.860657E0,6.078546E1,1.0402283E1,8.254807E0,7.565281E0,1.2818939E1,1.8838806E0,2.0682087E1,3.815567E1,0E0,2.589238E1,2.1129951E1,6.1218567E0,2.3743893E1,0E0,1.4853897E0,0E0,0E0,0E0,0E0,0E0,0E0,0E0,0E0,0E0,0E0,0E0,0E0,0E0,0E0,0E0,0E0,0E0,0E0,0E0,0E0,0E0,0E0,0E0,0E0,0E0,0E0,0E0,0E0],"parents":[2147483647,0,0,1,1,2,2,3,3,4,4,5,5,6,6,7,7,8,8,9,9,10,10,11,11,12,12,13,13,14,14,15,15,16,16,17,17,18,18,19,19,20,20,21,21,22,22,23,23,25,25,26,26,27,27,28,28,30,30],"right_children":[2,4,6,8,10,12,14,16,18,20,22,24,26,28,30,32,34,36,38,40,42,44,46,48,-1,50,52,54,56,-1,58,-1,-1,-1,-1,-1,-1,-1,-1,-1,-1,-1,-1,-1,-1,-1,-1,-1,-1,-1,-1,-1,-1,-1,-1,-1,-1,-1,-1],"split_conditions":[2E0,1E0,1E0,1E0,2E0,1E0,1E0,1E0,1E0,1E0,1E0,1E0,1E0,1E0,1E0,1E0,1E0,1E0,1E0,1E0,1E0,1E0,1E0,1E0,1.5302868E-1,1E0,1E0,3E0,1E0,1.7106941E-1,9E0,-1.3818575E-1,-8.052194E-2,-3.9791513E-2,-1.0335897E-1,8.895358E-2,1.8928804E-2,-4.1296065E-2,1.8172456E-2,-7.083285E-2,-2.5879646E-2,2.2193424E-2,1.0511137E-1,-1.4327408E-1,-4.9289986E-2,-8.444046E-2,5.2611645E-2,5.128193E-2,1.44656E-1,-4.010375E-2,5.1698893E-2,-3.9968476E-2,7.045736E-2,1.1668581E-1,-0E0,7.7627435E-2,-4.2278385E-3,1.3547106E-1,5.0713643E-2],"split_indices":[19,11,14,10,20,20,10,19,20,10,28,13,32,20,32,13,20,32,19,28,28,10,10,10,0,14,13,31,27,0,29,0,0,0,0,0,0,0,0,0,0,0,0,0,0,0,0,0,0,0,0,0,0,0,0,0,0,0,0],"split_type":[0,0,0,0,0,0,0,0,0,0,0,0,0,0,0,0,0,0,0,0,0,0,0,0,0,0,0,0,0,0,0,0,0,0,0,0,0,0,0,0,0,0,0,0,0,0,0,0,0,0,0,0,0,0,0,0,0,0,0],"sum_hessian":[2.684041E3,1.5412024E3,1.1428386E3,1.2174852E3,3.237172E2,5.780131E2,5.6482556E2,9.9230145E2,2.2518375E2,2.5454472E2,6.917247E1,2.2020732E2,3.578058E2,2.908727E2,2.7395282E2,3.9488025E2,5.974212E2,1.1918565E2,1.059981E2,1.6571533E2,8.882939E1,2.9360975E1,3.9811493E1,1.8213757E2,3.806974E1,2.2493494E2,1.3287085E2,1.1619979E2,1.7467293E2,2.1224501E2,6.1707813E1,3.4984348E2,4.503675E1,2.5155887E2,3.4586234E2,8.783411E1,3.135155E1,2.9360975E1,7.663712E1,6.6435425E1,9.927991E1,3.0356262E1,5.847313E1,2.16475E1,7.7134767E0,2.3886894E1,1.5924597E1,1.1097453E2,7.116304E1,3.1849194E1,1.9308574E2,1.1545332E2,1.7417528E1,1.12716286E2,3.4835055E0,1.3361732E2,4.10556E1,5.3994335E1,7.7134767E0],"tree_param":{"num_deleted":"0","num_feature":"35","num_nodes":"59","size_leaf_vector":"1"}},{"base_weights":[-1.211478E-3,-1.6306028E-1,6.386176E-1,-4.0499038E-1,1.0799698E0,-5.054609E-1,8.369744E-1,-4.914367E-1,3.8706776E-1,3.4252355E-1,1.2077488E0,-9.1750705E-1,-3.127444E-1,9.465329E-1,3.1349552E-1,-7.425575E-1,-2.643088E-1,6.380111E-1,-9.9712305E-2,-3.051846E-2,4.8340714E-1,1.3219233E0,6.345902E-1,-3.2806702E-2,-1.2927169E-1,1.716745E-1,-5.0220525E-1,3.8148963E-1,1.0176944E0,6.8337587E-3,8.220579E-1,-7.887548E-2,-3.8420245E-2,-3.9462753E-2,1.2147153E-2,-2.7997892E-2,7.1850136E-2,-5.012551E-2,1.11870635E-2,-0E0,7.411629E-2,1.3018332E-1,4.641213E-2,7.805964E-2,-0E0,3.1206753E-2,-2.087264E-2,-5.89301E-2,-0E0,4.4180613E-2,-3.983384E-2,-4.8998624E-2,1.07895084E-1,-8.096801E-2,1.7398417E-2,-1.3528035E-2,1.0673722E-1],"categories":[],"categories_nodes":[],"categories_segments":[],"categories_sizes":[],"default_left":[1,1,0,1,0,0,1,0,0,0,0,0,0,0,0,1,1,0,0,0,0,1,1,0,0,0,0,1,0,0,0,0,0,0,0,0,0,0,0,0,0,0,0,0,0,0,0,0,0,0,0,0,0,0,0,0,0],"id":1,"left_children":[1,3,5,7,9,11,13,15,17,19,21,23,25,27,29,31,33,35,37,-1,39,41,43,-1,-1,45,47,49,51,53,55,-1,-1,-1,-1,-1,-1,-1,-1,-1,-1,-1,-1,-1,-1,-1,-1,-1,-1,-1,-1,-1,-1,-1,-1,-1,-1],"loss_changes":[2.7238315E2,6.3254767E2,1.21190994E2,1.2099271E2,3.0301758E1,4.700081E0,2.4447113E1,8.953595E1,2.1720078E1,5.2429023E0,1.6201447E1,3.379099E0,5.6036963E0,1.3205261E1,1.1883123E1,1.7234222E1,4.7188225E1,1.1820732E1,5.7092466E0,0E0,5.772071E0,2.1096802E0,5.1489353E0,0E0,0E0,1.0600772E0,2.2479105E0,2.8953052E0,4.9645813E1,7.233568E0,9.055439E0,0E0,0E0,0E0,0E0,0E0,0E0,0E0,0E0,0E0,0E0,0E0,0E0,0E0,0E0,0E0,0E0,0E0,0E0,0E0,0E0,0E0,0E0,0E0,0E0,0E0,0E0],"parents":[2147483647,0,0,1,1,2,2,3,3,4,4,5,5,6,6,7,7,8,8,9,9,10,10,11,11,12,12,13,13,14,14,15,15,16,16,17,17,18,18,20,20,21,21,22,22,25,25,26,26,27,27,28,28,29,29,30,30],"right_children":[2,4,6,8,10,12,14,16,18,20,22,24,26,28,30,32,34,36,38,-1,40,42,44,-1,-1,46,48,50,52,54,56,-1,-1,-1,-1,-1,-1,-1,-1,-1,-1,-1,-1,-1,-1,-1,-1,-1,-1,-1,-1,-1,-1,-1,-1,-1,-1],"split_conditions":[1E0,1E0,1E0,1E0,2E0,2E0,1.1E1,2E0,6E0,3E0,1E0,1E0,1E0,2E0,4E0,1E0,4E0,1E0,1E0,-3.051846E-2,1E0,2E0,1E0,-3.2806702E-2,-1.2927169E-1,2E0,3E0,6E0,2E0,2E0,2E0,-7.887548E-2,-3.8420245E-2,-3.9462753E-2,1.2147153E-2,-2.7997892E-2,7.1850136E-2,-5.012551E-2,1.11870635E-2,-0E0,7.411629E-2,1.3018332E-1,4.641213E-2,7.805964E-2,-0E0,3.1206753E-2,-2.087264E-2,-5.89301E-2,-0E0,4.4180613E-2,-3.983384E-2,-4.8998624E-2,1.07895084E-1,-8.096801E-2,1.7398417E-2,-1.3528035E-2,1.0673722E-1],"split_indices":[9,10,10,13,23,23,33,0,33,29,32,32,31,23,15,11,15,0,8,0,28,28,26,0,0,28,0,33,15,23,23,0,0,0,0,0,0,0,0,0,0,0,0,0,0,0,0,0,0,0,0,0,0,0,0,0,0],"split_type":[0,0,0,0,0,0,0,0,0,0,0,0,0,0,0,0,0,0,0,0,0,0,0,0,0,0,0,0,0,0,0,0,0,0,0,0,0,0,0,0,0,0,0,0,0,0,0,0,0,0,0,0,0,0,0,0,0],"sum_hessian":[2.6328962E3,2.1031895E3,5.29707E2,1.761775E3,3.4141437E2,7.729526E1,4.5241168E2,1.5898938E3,1.7188113E2,5.2120384E1,2.89294E2,2.1779259E1,5.5516E1,3.7186572E2,8.054595E1,7.5189703E2,8.379968E2,1.1456473E2,5.7316406E1,7.724095E0,4.439629E1,2.3869443E2,5.0599575E1,1.0892977E1,1.0886283E1,1.4150737E1,4.136526E1,4.3877644E1,3.279881E2,5.210596E1,2.843999E1,6.1863104E2,1.3326596E2,6.145915E2,2.2340533E2,1.0414208E1,1.0415052E2,2.0584332E1,3.6732075E1,1.7443422E1,2.6952868E1,2.3070457E2,7.989854E0,3.8888798E1,1.1710779E1,1.2167522E1,1.9832143E0,3.3909985E1,7.4552774E0,4.163426E1,2.2433825E0,1.8701622E1,3.0928647E2,7.228427E0,4.4877533E1,5.7275E0,2.271249E1],"tree_param":{"num_deleted":"0","num_feature":"35","num_nodes":"57","size_leaf_vector":"1"}},{"base_weights":[-3.68953E-3,-5.4581445E-1,8.937575E-1,-8.385589E-1,3.8233295E-1,5.217337E-1,1.3943743E0,-9.8787194E-1,-1.4004946E-1,1.6489473E-1,9.1378254E-1,-3.3069684E-3,1.0335776E0,9.654981E-1,1.499421E0,-1.2804209E0,-8.7365335E-1,-2.9382402E-1,3.0116373E-1,-6.7027515E-1,3.985598E-1,-4.733512E-2,1.1370435E0,-4.3405285E-1,2.3886473E-1,7.852618E-1,1.2047244E0,6.648895E-1,1.2963109E0,1.0189561E0,1.4847626E-1,-1.4471917E-1,-1.1079786E-1,-9.248605E-2,-1.6474085E-2,-8.616463E-2,3.1606862E-3,-1.741564E-2,5.21909E-2,-7.199913E-2,-0E0,5.1148694E-2,8.347339E-3,-3.4192942E-2,5.410063E-2,1.1285571E-1,-0E0,-6.1125726E-2,8.100969E-2,-8.341389E-3,5.9142504E-2,6.422132E-2,1.2962383E-1,6.2141176E-2,1.2418694E-1,1.3111615E-1,4.4033643E-2,-0E0,1.3092603E-1,1.1841221E-1,-1.31477965E-2],"categories":[],"categories_nodes":[],"categories_segments":[],"categories_sizes":[],"default_left":[1,1,1,0,0,0,0,0,0,0,0,0,0,0,0,1,1,0,1,0,1,0,1,0,1,1,0,0,0,0,0,0,0,0,0,0,0,0,0,0,0,0,0,0,0,0,0,0,0,0,0,0,0,0,0,0,0,0,0,0,0],"id":2,"left_children":[1,3,5,7,9,11,13,15,17,19,21,23,25,27,29,31,33,35,37,39,41,43,45,47,49,51,53,55,57,59,-1,-1,-1,-1,-1,-1,-1,-1,-1,-1,-1,-1,-1,-1,-1,-1,-1,-1,-1,-1,-1,-1,-1,-1,-1,-1,-1,-1,-1,-1,-1],"loss_changes":[1.2862406E3,4.4889682E2,1.8269714E2,1.2961896E2,4.445347E1,1.551958E2,1.5122681E1,3.1230347E1,1.5235228E1,5.5242214E1,2.543969E1,2.9841457E1,9.44989E0,5.909073E0,1.3864746E0,3.969757E0,4.1657104E1,3.3546013E1,6.92613E0,3.4665642E0,8.366554E0,3.9695306E0,2.0367737E0,2.6335789E1,2.2393475E1,5.4922867E0,4.634384E0,4.76429E0,3.5222244E0,7.6569977E0,0E0,0E0,0E0,0E0,0E0,0E0,0E0,0E0,0E0,0E0,0E0,0E0,0E0,0E0,0E0,0E0,0E0,0E0,0E0,0E0,0E0,0E0,0E0,0E0,0E0,0E0,0E0,0E0,0E0,0E0,0E0],"parents":[2147483647,0,0,1,1,2,2,3,3,4,4,5,5,6,6,7,7,8,8,9,9,10,10,11,11,12,12,13,13,14,14,15,15,16,16,17,17,18,18,19,19,20,20,21,21,22,22,23,23,24,24,25,25,26,26,27,27,28,28,29,29],"right_children":[2,4,6,8,10,12,14,16,18,20,22,24,26,28,30,32,34,36,38,40,42,44,46,48,50,52,54,56,58,60,-1,-1,-1,-1,-1,-1,-1,-1,-1,-1,-1,-1,-1,-1,-1,-1,-1,-1,-1,-1,-1,-1,-1,-1,-1,-1,-1,-1,-1,-1,-1],"split_conditions":[4E0,1E0,1E0,4E0,4E0,3E0,2E0,2E0,2E0,3E0,3E0,1E0,4E0,2E0,1E0,1E0,1E0,3E0,1E0,1E0,6E0,2E0,4E0,1E0,2E0,1E0,1E0,7E0,1E0,4E0,1.4847626E-1,-1.4471917E-1,-1.1079786E-1,-9.248605E-2,-1.6474085E-2,-8.616463E-2,3.1606862E-3,-1.741564E-2,5.21909E-2,-7.199913E-2,-0E0,5.1148694E-2,8.347339E-3,-3.4192942E-2,5.410063E-2,1.1285571E-1,-0E0,-6.1125726E-2,8.100969E-2,-8.341389E-3,5.9142504E-2,6.422132E-2,1.2962383E-1,6.2141176E-2,1.2418694E-1,1.3111615E-1,4.4033643E-2,-0E0,1.3092603E-1,1.1841221E-1,-1.31477965E-2],"split_indices":[18,10,10,21,21,21,21,22,16,18,18,21,21,1,1,16,13,18,1,4,33,16,17,13,1,13,1,33,14,17,0,0,0,0,0,0,0,0,0,0,0,0,0,0,0,0,0,0,0,0,0,0,0,0,0,0,0,0,0,0,0],"split_type":[0,0,0,0,0,0,0,0,0,0,0,0,0,0,0,0,0,0,0,0,0,0,0,0,0,0,0,0,0,0,0,0,0,0,0,0,0,0,0,0,0,0,0,0,0,0,0,0,0,0,0,0,0,0,0,0,0,0,0,0,0],"sum_hessian":[2.6424236E3,1.6482585E3,9.94165E2,1.253933E3,3.943256E2,5.726504E2,4.215146E2,1.0315775E3,2.2235542E2,2.8209903E2,1.1222658E2,2.8220706E2,2.9044336E2,8.6809006E1,3.3470557E2,2.8433713E2,7.472404E2,1.6681609E2,5.5539326E1,6.032744E1,2.2177158E2,2.0459457E1,9.176712E1,1.0276248E2,1.7944456E2,1.2316923E2,1.6727414E2,4.864142E1,3.8167583E1,2.6176065E1,3.085295E2,1.0368216E2,1.8065495E2,6.6799445E2,7.9245964E1,5.9502785E1,1.0731331E2,1.7067251E1,3.8472076E1,5.5092358E1,5.235081E0,1.539416E2,6.782997E1,1.4972161E1,5.4872975E0,8.8772644E1,2.994476E0,9.0069565E1,1.2692916E1,9.4743576E1,8.4701E1,1.04214226E2,1.8955006E1,2.3026442E1,1.442477E2,8.977872E0,3.9663548E1,1.2480421E0,3.691954E1,2.2930786E1,3.2452786E0],"tree_param":{"num_deleted":"0","num_feature":"35","num_nodes":"61","size_leaf_vector":"1"}},{"base_weights":[-1.246557E-2,-4.0340143E-1,4.322293E-1,-7.548972E-1,3.7110606E-1,-6.1532575E-1,5.35572E-1,-1.0262909E0,-6.26156E-1,-1.09410256E-1,6.017945E-1,-9.389493E-1,9.34752E-1,-2.2865707E-2,1.14281E0,-1.2425028E-1,-9.132225E-1,-8.333727E-1,-1.1684434E-1,-4.0910354E-1,3.7627983E-1,2.539832E-1,9.8236185E-1,-1.1853893E-1,-4.5301777E-1,1.0840389E0,-0E0,-1.9484459E-1,6.357459E-1,1.2612296E0,1.0016559E0,-1.198218E-1,-5.4293428E-2,-1.3170579E-1,-7.4676506E-2,-5.5161912E-2,-0E0,-5.1893424E-2,1.832176E-2,8.510128E-3,6.869389E-2,-7.996179E-3,4.3492403E-2,4.7187682E-2,1.12060696E-1,-5.4001298E-2,1.962575E-2,-0E0,1.138288E-1,-4.041202E-2,1.7204297E-3,3.1060088E-2,9.6323796E-2,9.6264504E-2,1.3116753E-1,7.386555E-2,1.1423214E-1],"categories":[],"categories_nodes":[],"categories_segments":[],"categories_sizes":[],"default_left":[0,1,0,0,1,1,1,0,0,1,0,0,0,0,0,0,0,0,0,0,1,0,0,0,1,0,0,1,1,0,1,0,0,0,0,0,0,0,0,0,0,0,0,0,0,0,0,0,0,0,0,0,0,0,0,0,0],"id":3,"left_children":[1,3,5,7,9,11,13,15,17,19,21,23,25,27,29,-1,31,33,35,37,39,41,43,-1,45,47,-1,49,51,53,55,-1,-1,-1,-1,-1,-1,-1,-1,-1,-1,-1,-1,-1,-1,-1,-1,-1,-1,-1,-1,-1,-1,-1,-1,-1,-1],"loss_changes":[4.5494406E2,3.801355E2,1.3266748E2,3.1246887E1,4.87675E1,5.5776188E1,3.7916196E2,5.4896545E0,6.820511E1,2.0638813E1,3.7614876E1,1.0465057E1,3.0566502E0,6.547203E1,5.415161E0,0E0,2.2412811E1,1.2026123E1,1.0444611E1,7.1775293E0,4.2202225E0,1.0723972E1,9.864304E0,0E0,2.9926362E0,1.0419006E0,0E0,2.2292833E1,1.1858101E1,3.3744812E0,7.9088287E0,0E0,0E0,0E0,0E0,0E0,0E0,0E0,0E0,0E0,0E0,0E0,0E0,0E0,0E0,0E0,0E0,0E0,0E0,0E0,0E0,0E0,0E0,0E0,0E0,0E0,0E0],"parents":[2147483647,0,0,1,1,2,2,3,3,4,4,5,5,6,6,7,7,8,8,9,9,10,10,11,11,12,12,13,13,14,14,16,16,17,17,18,18,19,19,20,20,21,21,22,22,24,24,25,25,27,27,28,28,29,29,30,30],"right_children":[2,4,6,8,10,12,14,16,18,20,22,24,26,28,30,-1,32,34,36,38,40,42,44,-1,46,48,-1,50,52,54,56,-1,-1,-1,-1,-1,-1,-1,-1,-1,-1,-1,-1,-1,-1,-1,-1,-1,-1,-1,-1,-1,-1,-1,-1,-1,-1],"split_conditions":[3E0,4E0,2E0,3E0,2E0,4E0,4E0,2E0,3E0,1E0,2E0,3E0,2E0,3E0,1E0,-1.2425028E-1,3E0,1E0,2E0,4.00001E0,3E0,1E0,1E0,-1.1853893E-1,3E0,1E0,-0E0,1E0,1E0,1E0,1E0,-1.198218E-1,-5.4293428E-2,-1.3170579E-1,-7.4676506E-2,-5.5161912E-2,-0E0,-5.1893424E-2,1.832176E-2,8.510128E-3,6.869389E-2,-7.996179E-3,4.3492403E-2,4.7187682E-2,1.12060696E-1,-5.4001298E-2,1.962575E-2,-0E0,1.138288E-1,-4.041202E-2,1.7204297E-3,3.1060088E-2,9.6323796E-2,9.6264504E-2,1.3116753E-1,7.386555E-2,1.1423214E-1],"split_indices":[21,18,15,15,22,18,18,22,16,14,16,18,16,16,20,0,18,14,23,28,16,16,21,0,16,23,0,14,14,8,14,0,0,0,0,0,0,0,0,0,0,0,0,0,0,0,0,0,0,0,0,0,0,0,0,0,0],"split_type":[0,0,0,0,0,0,0,0,0,0,0,0,0,0,0,0,0,0,0,0,0,0,0,0,0,0,0,0,0,0,0,0,0,0,0,0,0,0,0,0,0,0,0,0,0,0,0,0,0,0,0,0,0,0,0,0,0],"sum_hessian":[2.6150825E3,1.3929061E3,1.2221765E3,9.5899884E2,4.3390723E2,1.0842931E2,1.1137472E3,3.038104E2,6.551884E2,1.3950786E2,2.9439938E2,9.056139E1,1.7867924E1,5.798302E2,5.3391705E2,8.695461E1,2.1685577E2,4.6386307E2,1.9132538E2,8.764404E1,5.1863823E1,1.5606354E2,1.3833585E2,5.4800873E1,3.576052E1,1.5630111E1,2.2378128E0,4.615351E2,1.182951E2,2.8217218E2,2.5174486E2,1.1014497E2,1.0671079E2,4.4986813E1,4.1887625E2,3.926597E1,1.5205942E2,7.377573E1,1.3868315E1,3.008867E1,2.177515E1,5.5623253E1,1.0044028E2,3.862224E1,9.971361E1,3.2279305E1,3.4812167E0,1.737603E0,1.3892508E1,2.2732635E2,2.3420874E2,6.551698E1,5.2778114E1,7.899933E1,2.0317285E2,1.1224662E2,1.3949825E2],"tree_param":{"num_deleted":"0","num_feature":"35","num_nodes":"57","size_leaf_vector":"1"}},{"base_weights":[-1.7554494E-2,-3.5956585E-1,7.576156E-1,-7.3061186E-1,4.2870465E-1,3.09065E-1,8.2313323E-1,-9.76942E-2,-5.667018E-1,-1.2312992E-3,8.283225E-1,-0E0,4.2940548E-1,4.003448E-1,1.2076619E0,1.7970787E-1,-6.440142E-1,2.1040973E-1,-3.7499687E-1,9.1160876E-1,3.7195155E-1,4.960463E-2,-5.7747597E-1,1.4796575E-3,5.4921263E-1,5.61211E-1,-0E0,5.1326466E-1,1.27421E0,-0E0,3.9225567E-2,-7.72246E-2,6.7092925E-3,-1.2951E-2,3.2985594E-2,-5.7640076E-2,-1.29830185E-2,9.449747E-2,5.1225644E-2,4.7016416E-2,-6.397685E-2,-7.215031E-2,-0E0,-1.8086545E-2,3.9456867E-2,-6.916144E-2,6.2190685E-2,-2.8740961E-2,6.805023E-2,-5.265274E-2,2.2705639E-2,6.1391916E-2,-0E0,1.2545207E-1,2.3574317E-2],"categories":[],"categories_nodes":[],"categories_segments":[],"categories_sizes":[],"default_left":[1,1,0,0,0,1,0,0,0,0,1,0,0,0,0,0,0,0,1,0,0,0,0,0,1,0,1,0,1,0,0,0,0,0,0,0,0,0,0,0,0,0,0,0,0,0,0,0,0,0,0,0,0,0,0],"id":4,"left_children":[1,3,5,7,9,11,13,-1,15,17,19,21,23,25,27,29,31,33,35,37,39,-1,41,43,45,47,49,51,53,-1,-1,-1,-1,-1,-1,-1,-1,-1,-1,-1,-1,-1,-1,-1,-1,-1,-1,-1,-1,-1,-1,-1,-1,-1,-1],"loss_changes":[6.8816205E2,5.279517E2,2.1953644E1,5.38537E1,9.993057E1,4.143241E0,1.1015677E2,0E0,4.541533E1,2.2207499E1,9.7860565E0,8.920346E0,3.383068E0,2.1444538E1,1.4187317E1,2.887474E0,7.8075226E1,8.153597E0,4.6286983E0,4.169327E0,5.9987116E0,0E0,1.731832E0,1.796473E0,7.2264805E0,2.9398415E1,1.2390052E1,1.7746325E0,5.383667E0,0E0,0E0,0E0,0E0,0E0,0E0,0E0,0E0,0E0,0E0,0E0,0E0,0E0,0E0,0E0,0E0,0E0,0E0,0E0,0E0,0E0,0E0,0E0,0E0,0E0,0E0],"parents":[2147483647,0,0,1,1,2,2,3,3,4,4,5,5,6,6,8,8,9,9,10,10,11,11,12,12,13,13,14,14,15,15,16,16,17,17,18,18,19,19,20,20,22,22,23,23,24,24,25,25,26,26,27,27,28,28],"right_children":[2,4,6,8,10,12,14,-1,16,18,20,22,24,26,28,30,32,34,36,38,40,-1,42,44,46,48,50,52,54,-1,-1,-1,-1,-1,-1,-1,-1,-1,-1,-1,-1,-1,-1,-1,-1,-1,-1,-1,-1,-1,-1,-1,-1,-1,-1],"split_conditions":[1E0,4E0,2E0,1E0,3E0,1E0,4E0,-9.76942E-2,5E0,1E0,1E0,1E0,1E0,1E0,1E0,2E0,4E0,1E0,2E0,1E0,2E0,4.960463E-2,4E0,4E0,1E0,2E0,1E0,3E0,2E0,-0E0,3.9225567E-2,-7.72246E-2,6.7092925E-3,-1.2951E-2,3.2985594E-2,-5.7640076E-2,-1.29830185E-2,9.449747E-2,5.1225644E-2,4.7016416E-2,-6.397685E-2,-7.215031E-2,-0E0,-1.8086545E-2,3.9456867E-2,-6.916144E-2,6.2190685E-2,-2.8740961E-2,6.805023E-2,-5.265274E-2,2.2705639E-2,6.1391916E-2,-0E0,1.2545207E-1,2.3574317E-2],"split_indices":[10,18,23,16,21,16,18,0,34,27,27,9,21,32,21,21,21,21,22,10,28,0,21,18,0,18,8,0,28,0,0,0,0,0,0,0,0,0,0,0,0,0,0,0,0,0,0,0,0,0,0,0,0,0,0],"split_type":[0,0,0,0,0,0,0,0,0,0,0,0,0,0,0,0,0,0,0,0,0,0,0,0,0,0,0,0,0,0,0,0,0,0,0,0,0,0,0,0,0,0,0,0,0,0,0,0,0,0,0,0,0,0,0],"sum_hessian":[2.595166E3,1.801955E3,7.93211E2,1.2261411E3,5.758139E2,1.037681E2,6.8944293E2,4.501899E2,7.759512E2,2.7665945E2,2.9915442E2,2.8023775E1,7.574432E1,3.3059555E2,3.5884738E2,7.149041E1,7.0446075E2,1.7521008E2,1.0144938E2,2.502888E2,4.8865616E1,1.4382179E1,1.3641597E1,1.861491E1,5.7129414E1,2.3582956E2,9.476598E1,3.345891E1,3.2538846E2,4.0635826E1,3.0854586E1,5.807025E2,1.2375827E2,4.5995956E1,1.2921413E2,5.0049976E1,5.1399403E1,2.1065614E2,3.9632664E1,4.537055E1,3.4950697E0,1.0911031E1,2.7305658E0,1.1404023E1,7.210888E0,2.726344E0,5.440307E1,3.225787E1,2.0357169E2,2.8359835E1,6.640614E1,2.5992132E1,7.4667783E0,3.175328E2,7.855653E0],"tree_param":{"num_deleted":"0","num_feature":"35","num_nodes":"55","size_leaf_vector":"1"}},{"base_weights":[-4.0704603E-3,-4.1138035E-1,6.713277E-1,-5.23718E-1,-2.6961789E-2,3.7311083E-1,1.0959393E0,-7.006102E-1,1.7934504E-1,-4.0308365E-1,5.836835E-1,-1.13547735E-1,4.9416655E-1,1.1203238E0,9.2668176E-2,-2.9713655E-1,-7.942263E-1,-6.8208015E-1,3.6004084E-1,-2.507708E-1,-6.6820693E-1,1.4746206E-1,6.945156E-1,-4.9506137E-1,1.8990064E-1,8.9479935E-1,3.9849347E-1,9.5077944E-1,1.1952129E-1,-4.431292E-2,4.974517E-2,-6.233164E-2,4.5577507E-2,-1.1251674E-1,-6.721053E-2,3.9154734E-3,-7.735279E-2,1.2948498E-4,7.8169465E-2,-7.648072E-2,-6.9363234E-3,-7.8421004E-2,-2.7910648E-2,4.2166393E-2,-9.238491E-2,-2.1613082E-2,8.430427E-2,-5.9601136E-2,-0E0,-1.1563004E-2,6.872953E-2,4.723184E-2,9.839306E-2,-2.710965E-2,4.267376E-2,1.00878656E-1,5.4157633E-2],"categories":[],"categories_nodes":[],"categories_segments":[],"categories_sizes":[],"default_left":[1,1,1,1,1,0,1,0,0,1,0,0,0,1,0,0,0,0,0,0,1,0,0,1,1,0,0,1,0,0,0,0,0,0,0,0,0,0,0,0,0,0,0,0,0,0,0,0,0,0,0,0,0,0,0,0,0],"id":5,"left_children":[1,3,5,7,9,11,13,15,17,19,21,23,25,27,29,31,33,35,37,39,41,43,45,47,49,51,53,55,-1,-1,-1,-1,-1,-1,-1,-1,-1,-1,-1,-1,-1,-1,-1,-1,-1,-1,-1,-1,-1,-1,-1,-1,-1,-1,-1,-1,-1],"loss_changes":[7.089005E2,6.891934E1,1.2080505E2,1.5524292E2,8.4330154E1,3.413703E1,8.415649E0,3.6237366E1,3.8766945E1,8.147697E0,5.7882805E0,1.3494637E1,1.597879E1,4.13678E0,2.9572403E0,5.129311E1,2.6952026E1,4.392189E0,3.2548107E1,1.3494524E1,3.0008163E0,9.832797E0,1.846085E1,3.2751064E0,1.0690329E1,2.24292E0,1.1038975E1,3.6564026E0,0E0,0E0,0E0,0E0,0E0,0E0,0E0,0E0,0E0,0E0,0E0,0E0,0E0,0E0,0E0,0E0,0E0,0E0,0E0,0E0,0E0,0E0,0E0,0E0,0E0,0E0,0E0,0E0,0E0],"parents":[2147483647,0,0,1,1,2,2,3,3,4,4,5,5,6,6,7,7,8,8,9,9,10,10,11,11,12,12,13,13,14,14,15,15,16,16,17,17,18,18,19,19,20,20,21,21,22,22,23,23,24,24,25,25,26,26,27,27],"right_children":[2,4,6,8,10,12,14,16,18,20,22,24,26,28,30,32,34,36,38,40,42,44,46,48,50,52,54,56,-1,-1,-1,-1,-1,-1,-1,-1,-1,-1,-1,-1,-1,-1,-1,-1,-1,-1,-1,-1,-1,-1,-1,-1,-1,-1,-1,-1,-1],"split_conditions":[4E0,1E0,1E0,1E0,3E0,3E0,1.9E1,6E0,2E0,4E0,1E0,2E0,6E0,1E0,3E0,2E0,2E0,5E0,3E0,2E0,1E0,2E0,3E0,1E0,1E0,1E0,1E0,1E1,1.1952129E-1,-4.431292E-2,4.974517E-2,-6.233164E-2,4.5577507E-2,-1.1251674E-1,-6.721053E-2,3.9154734E-3,-7.735279E-2,1.2948498E-4,7.8169465E-2,-7.648072E-2,-6.9363234E-3,-7.8421004E-2,-2.7910648E-2,4.2166393E-2,-9.238491E-2,-2.1613082E-2,8.430427E-2,-5.9601136E-2,-0E0,-1.1563004E-2,6.872953E-2,4.723184E-2,9.839306E-2,-2.710965E-2,4.267376E-2,1.00878656E-1,5.4157633E-2],"split_indices":[18,11,10,10,19,23,33,33,18,34,8,19,33,14,23,19,18,34,19,18,10,31,18,11,14,8,14,34,0,0,0,0,0,0,0,0,0,0,0,0,0,0,0,0,0,0,0,0,0,0,0,0,0,0,0,0,0],"split_type":[0,0,0,0,0,0,0,0,0,0,0,0,0,0,0,0,0,0,0,0,0,0,0,0,0,0,0,0,0,0,0,0,0,0,0,0,0,0,0,0,0,0,0,0,0,0,0,0,0,0,0,0,0,0,0,0,0],"sum_hessian":[2.5758582E3,1.6079995E3,9.6785876E2,1.2420691E3,3.659304E2,5.710369E2,3.9682187E2,9.9352246E2,2.4854665E2,2.2767401E2,1.3825638E2,1.1211651E2,4.5892044E2,3.8631894E2,1.05029125E1,1.8990617E2,8.036163E2,4.1655384E1,2.0689127E2,1.4823244E2,7.9441574E1,3.031063E1,1.07945755E2,5.0849472E1,6.1267033E1,8.484123E1,3.740792E2,1.6271877E2,2.2360017E2,3.4858873E0,7.017025E0,1.3184837E2,5.80578E1,1.6740517E2,6.362111E2,4.698771E0,3.695661E1,1.1661703E2,9.027423E1,3.4724297E1,1.1350814E2,5.5113647E1,2.4327925E1,2.522691E1,5.083721E0,1.6430983E1,9.151477E1,4.1176437E1,9.673037E0,3.7691536E1,2.3575497E1,2.254499E1,6.2296238E1,2.0216314E1,3.5386288E2,1.2856552E2,3.4153248E1],"tree_param":{"num_deleted":"0","num_feature":"35","num_nodes":"57","size_leaf_vector":"1"}},{"base_weights":[-6.1463993E-3,-2.9939798E-1,6.65024E-1,-6.0928506E-1,1.18986696E-1,1.8331802E-1,1.0161531E0,-7.823729E-1,-2.8148475E-1,-2.5866458E-1,3.622377E-1,3.559733E-1,-1.3917853E-1,8.90501E-1,1.21542454E-1,-1.0259318E0,-2.9757515E-1,-7.1330404E-1,4.2241275E-1,-5.121971E-1,9.0259457E-1,2.2270384E-1,6.212904E-1,6.8771325E-2,6.646173E-1,-4.5079616E-1,2.77439E-1,7.6324606E-1,1.108153E0,-1.1689048E-1,-8.732676E-2,-6.3433446E-2,-1.4513587E-3,-7.80525E-2,-1.5899895E-2,8.145912E-3,7.0850365E-2,-7.156638E-2,-9.818249E-3,9.274367E-2,-0E0,-6.8437112E-3,5.8613624E-2,4.0143993E-2,9.6892454E-2,-2.6988992E-2,2.1604633E-2,7.282613E-2,-9.1037795E-2,-9.448107E-2,-1.5026353E-2,-0E0,4.2290553E-2,7.98305E-2,-0E0,1.2020691E-1,6.751906E-2],"categories":[],"categories_nodes":[],"categories_segments":[],"categories_sizes":[],"default_left":[1,0,1,0,1,1,0,1,1,1,0,0,0,0,0,0,0,1,1,0,0,1,0,0,1,0,0,1,0,0,0,0,0,0,0,0,0,0,0,0,0,0,0,0,0,0,0,0,0,0,0,0,0,0,0,0,0],"id":6,"left_children":[1,3,5,7,9,11,13,15,17,19,21,23,25,27,-1,29,31,33,35,37,39,41,43,45,47,49,51,53,55,-1,-1,-1,-1,-1,-1,-1,-1,-1,-1,-1,-1,-1,-1,-1,-1,-1,-1,-1,-1,-1,-1,-1,-1,-1,-1,-1,-1],"loss_changes":[5.0269418E2,2.3131245E2,1.2989175E2,5.681537E1,6.971724E1,1.8621384E1,1.01857605E1,7.719699E1,1.0922951E2,8.705823E1,1.5728859E1,1.8456757E1,1.5052408E1,5.5798035E0,0E0,6.753357E0,2.2159218E1,1.0255447E1,1.3317434E1,2.1820793E1,2.2934608E0,3.4769894E1,1.06210785E1,6.186824E0,1.4966248E1,9.080293E0,2.271007E0,9.124588E0,2.9716034E0,0E0,0E0,0E0,0E0,0E0,0E0,0E0,0E0,0E0,0E0,0E0,0E0,0E0,0E0,0E0,0E0,0E0,0E0,0E0,0E0,0E0,0E0,0E0,0E0,0E0,0E0,0E0,0E0],"parents":[2147483647,0,0,1,1,2,2,3,3,4,4,5,5,6,6,7,7,8,8,9,9,10,10,11,11,12,12,13,13,15,15,16,16,17,17,18,18,19,19,20,20,21,21,22,22,23,23,24,24,25,25,26,26,27,27,28,28],"right_children":[2,4,6,8,10,12,14,16,18,20,22,24,26,28,-1,30,32,34,36,38,40,42,44,46,48,50,52,54,56,-1,-1,-1,-1,-1,-1,-1,-1,-1,-1,-1,-1,-1,-1,-1,-1,-1,-1,-1,-1,-1,-1,-1,-1,-1,-1,-1,-1],"split_conditions":[1E0,3E0,2E0,2E0,1E0,4E0,4E0,2E0,2E0,2E0,2E0,4E0,3E0,4E0,1.21542454E-1,1E0,1E0,1E0,1E0,1E0,4E0,3E0,3E0,1E0,4E0,1E0,1E0,2E0,4E0,-1.1689048E-1,-8.732676E-2,-6.3433446E-2,-1.4513587E-3,-7.80525E-2,-1.5899895E-2,8.145912E-3,7.0850365E-2,-7.156638E-2,-9.818249E-3,9.274367E-2,-0E0,-6.8437112E-3,5.8613624E-2,4.0143993E-2,9.6892454E-2,-2.6988992E-2,2.1604633E-2,7.282613E-2,-9.1037795E-2,-9.448107E-2,-1.5026353E-2,-0E0,4.2290553E-2,7.98305E-2,-0E0,1.2020691E-1,6.751906E-2],"split_indices":[10,21,19,1,16,34,21,19,19,19,1,21,21,19,0,19,21,13,25,19,17,19,16,19,17,19,19,25,17,0,0,0,0,0,0,0,0,0,0,0,0,0,0,0,0,0,0,0,0,0,0,0,0,0,0,0,0],"split_type":[0,0,0,0,0,0,0,0,0,0,0,0,0,0,0,0,0,0,0,0,0,0,0,0,0,0,0,0,0,0,0,0,0,0,0,0,0,0,0,0,0,0,0,0,0,0,0,0,0,0,0,0,0,0,0,0,0],"sum_hessian":[2.553904E3,1.7787614E3,7.7514264E2,1.0229911E3,7.557702E2,3.2864804E2,4.464946E2,6.6658044E2,3.5641068E2,2.9445285E2,4.6131738E2,2.160032E2,1.12644844E2,2.9855945E2,1.4793513E2,4.4156326E2,2.2501718E2,2.2176935E2,1.3464133E2,2.4285211E2,5.1600746E1,3.035408E2,1.5777658E2,1.14199814E2,1.0180338E2,6.576947E1,4.6875378E1,1.9414787E2,1.0441157E2,1.724671E2,2.6909616E2,9.718197E1,1.2783521E2,1.8773187E2,3.4037468E1,6.646654E1,6.817478E1,1.5434074E2,8.851136E1,4.8201786E1,3.398959E0,1.7079852E2,1.3274226E2,1.0520608E2,5.2570507E1,3.2884777E1,8.131504E1,9.7631E1,4.1723847E0,2.1642778E1,4.412669E1,1.665746E1,3.0217918E1,1.796403E2,1.4507574E1,7.545242E1,2.895915E1],"tree_param":{"num_deleted":"0","num_feature":"35","num_nodes":"57","size_leaf_vector":"1"}},{"base_weights":[4.946628E-3,-4.0454167E-1,6.6815233E-1,-5.5019426E-1,1.4325587E-1,1.5110984E-1,8.5463977E-1,-9.467928E-1,-3.6159074E-1,-1.0545602E-1,6.7465866E-1,-1.0315079E-1,4.6184847E-1,6.692254E-1,1.0663855E0,-1.1294078E0,-8.153924E-1,-5.9216696E-1,2.9975984E-1,-3.1040615E-1,1.06915005E-1,9.1756445E-1,4.0894473E-1,-3.7653065E-1,5.9609055E-3,1.0697979E-1,9.672139E-1,4.922068E-1,9.001613E-2,9.0978324E-1,1.1377624E-1,-8.6655125E-2,-1.2295581E-1,-9.2018515E-2,-6.46146E-2,-8.441359E-3,-7.1680576E-2,-3.5493866E-2,3.5161406E-2,-2.5941975E-2,-8.214392E-2,-5.071364E-3,4.9372774E-2,-0E0,9.719554E-2,-3.564825E-2,6.000693E-2,-5.1101867E-2,-7.039879E-5,-2.0023422E-2,5.364727E-2,-7.6624036E-2,5.44806E-2,2.3983398E-2,1.055219E-1,8.521486E-3,5.1867433E-2,9.998458E-2,5.5057626E-2],"categories":[],"categories_nodes":[],"categories_segments":[],"categories_sizes":[],"default_left":[1,0,0,0,1,0,0,1,1,1,1,0,1,1,1,0,1,0,0,1,0,0,0,0,1,0,0,0,0,0,0,0,0,0,0,0,0,0,0,0,0,0,0,0,0,0,0,0,0,0,0,0,0,0,0,0,0,0,0],"id":7,"left_children":[1,3,5,7,9,11,13,15,17,19,21,23,25,27,29,31,33,35,37,39,41,43,45,47,49,51,53,55,-1,57,-1,-1,-1,-1,-1,-1,-1,-1,-1,-1,-1,-1,-1,-1,-1,-1,-1,-1,-1,-1,-1,-1,-1,-1,-1,-1,-1,-1,-1],"loss_changes":[6.822639E2,1.2429323E2,9.138971E1,9.016092E1,4.3630272E1,2.0711224E1,2.517395E1,6.570801E0,1.2782666E2,9.862482E0,5.082962E0,4.560508E0,1.9913538E1,1.5658325E1,2.368225E0,1.9287415E0,2.4541779E0,4.5556274E1,9.232128E0,1.2881966E0,7.351008E0,4.260166E0,9.322986E0,1.8973093E0,1.1974343E1,2.943939E1,2.560688E0,3.388424E0,0E0,3.7265854E0,0E0,0E0,0E0,0E0,0E0,0E0,0E0,0E0,0E0,0E0,0E0,0E0,0E0,0E0,0E0,0E0,0E0,0E0,0E0,0E0,0E0,0E0,0E0,0E0,0E0,0E0,0E0,0E0,0E0],"parents":[2147483647,0,0,1,1,2,2,3,3,4,4,5,5,6,6,7,7,8,8,9,9,10,10,11,11,12,12,13,13,14,14,15,15,16,16,17,17,18,18,19,19,20,20,21,21,22,22,23,23,24,24,25,25,26,26,27,27,29,29],"right_children":[2,4,6,8,10,12,14,16,18,20,22,24,26,28,30,32,34,36,38,40,42,44,46,48,50,52,54,56,-1,58,-1,-1,-1,-1,-1,-1,-1,-1,-1,-1,-1,-1,-1,-1,-1,-1,-1,-1,-1,-1,-1,-1,-1,-1,-1,-1,-1,-1,-1],"split_conditions":[4E0,4E0,2E0,1E0,1E0,2E0,4E0,3E0,1E0,2E0,1E0,3E0,1E0,1E0,1E0,1.6E1,1E0,6E0,1E0,4E0,7E0,2E0,2E0,1E0,1E0,2E0,2E0,2E0,9.001613E-2,3E0,1.1377624E-1,-8.6655125E-2,-1.2295581E-1,-9.2018515E-2,-6.46146E-2,-8.441359E-3,-7.1680576E-2,-3.5493866E-2,3.5161406E-2,-2.5941975E-2,-8.214392E-2,-5.071364E-3,4.9372774E-2,-0E0,9.719554E-2,-3.564825E-2,6.000693E-2,-5.1101867E-2,-7.039879E-5,-2.0023422E-2,5.364727E-2,-7.6624036E-2,5.44806E-2,2.3983398E-2,1.055219E-1,8.521486E-3,5.1867433E-2,9.998458E-2,5.5057626E-2],"split_indices":[18,21,21,16,10,16,21,18,10,0,26,23,10,10,14,33,14,33,23,17,29,23,18,21,10,23,23,23,0,0,0,0,0,0,0,0,0,0,0,0,0,0,0,0,0,0,0,0,0,0,0,0,0,0,0,0,0,0,0],"split_type":[0,0,0,0,0,0,0,0,0,0,0,0,0,0,0,0,0,0,0,0,0,0,0,0,0,0,0,0,0,0,0,0,0,0,0,0,0,0,0,0,0,0,0,0,0,0,0,0,0,0,0,0,0,0,0,0,0,0,0],"sum_hessian":[2.509283E3,1.5507026E3,9.5858026E2,1.2264309E3,3.2427173E2,2.5599591E2,7.0258435E2,3.922594E2,8.341716E2,2.2015334E2,1.0411839E2,1.3939027E2,1.1660564E2,3.793186E2,3.2326578E2,1.5777902E2,2.3448038E2,6.197247E2,2.1444688E2,1.1419539E2,1.0595794E2,5.1145985E1,5.297241E1,4.1678547E1,9.771173E1,7.037713E1,4.6228508E1,2.298542E2,1.4946439E2,1.400897E2,1.8317607E2,6.456969E1,9.320933E1,1.1625999E2,1.1822039E2,1.4248763E2,4.7723703E2,1.6845816E1,1.9760107E2,1.0895242E2,5.242969E0,7.4787544E1,3.1170393E1,4.3543806E0,4.6791603E1,1.0132926E1,4.283948E1,2.7531021E1,1.4147524E1,6.952292E1,2.8188812E1,2.269879E1,4.7678333E1,8.360519E0,3.786799E1,2.4862778E1,2.0499142E2,9.933989E1,4.0749817E1],"tree_param":{"num_deleted":"0","num_feature":"35","num_nodes":"59","size_leaf_vector":"1"}},{"base_weights":[4.2412E-3,1.357819E-1,-2.8629252E-1,-1.1597275E-1,6.5263426E-1,-5.645195E-1,2.6899028E-1,-4.1328835E-1,4.1057333E-1,7.3031336E-1,2.3261609E-2,-6.470306E-1,-1.8246327E-1,1.8635426E-2,6.897791E-1,-5.5378443E-1,-0E0,-1.5467148E-1,6.074293E-1,-5.454106E-1,8.3969074E-1,-6.004584E-1,1.3899553E-1,-7.480413E-1,-4.359929E-2,-4.7908545E-1,6.125243E-2,2.7023274E-1,-2.4925198E-1,-0E0,7.685825E-1,-6.8286754E-2,1.6406674E-2,-5.90179E-2,1.2057577E-2,-3.82989E-2,7.074154E-2,6.228078E-2,-1.7357727E-4,-5.9290674E-2,-0E0,5.9380423E-2,9.779462E-2,-8.377725E-2,-0E0,-1.3782872E-2,2.41509E-2,-1.0669431E-1,-6.2266417E-2,-4.7876988E-2,7.739914E-3,-6.999984E-2,-0E0,2.7411487E-2,-2.150201E-2,-3.0513441E-2,3.9954767E-2,-7.049802E-2,-3.689937E-3,4.2994473E-2,-2.1359285E-2,8.089954E-2,-1.631822E-2],"categories":[],"categories_nodes":[],"categories_segments":[],"categories_sizes":[],"default_left":[1,1,1,1,0,0,1,0,0,0,0,1,1,0,0,1,0,1,1,0,0,1,0,1,0,0,0,0,0,0,0,0,0,0,0,0,0,0,0,0,0,0,0,0,0,0,0,0,0,0,0,0,0,0,0,0,0,0,0,0,0,0,0],"id":8,"left_children":[1,3,5,7,9,11,13,15,17,19,21,23,25,27,29,31,33,35,37,39,41,43,45,47,49,51,53,55,57,59,61,-1,-1,-1,-1,-1,-1,-1,-1,-1,-1,-1,-1,-1,-1,-1,-1,-1,-1,-1,-1,-1,-1,-1,-1,-1,-1,-1,-1,-1,-1,-1,-1],"loss_changes":[9.3928345E1,2.2140677E2,1.186098E2,1.7873409E2,2.6472885E1,1.5162781E1,2.6118887E1,4.2303635E1,4.6269295E1,6.9763855E1,4.217952E0,2.4638214E1,7.265165E0,1.1024464E1,4.8725815E0,6.036638E1,1.4364058E1,2.2480843E1,7.3292084E0,1.1840382E0,1.5369934E1,1.5698352E0,1.8786439E0,1.0780609E1,3.9289858E0,5.140254E0,3.3179095E0,7.4048853E0,7.009809E0,1.2316357E0,6.0541496E0,0E0,0E0,0E0,0E0,0E0,0E0,0E0,0E0,0E0,0E0,0E0,0E0,0E0,0E0,0E0,0E0,0E0,0E0,0E0,0E0,0E0,0E0,0E0,0E0,0E0,0E0,0E0,0E0,0E0,0E0,0E0,0E0],"parents":[2147483647,0,0,1,1,2,2,3,3,4,4,5,5,6,6,7,7,8,8,9,9,10,10,11,11,12,12,13,13,14,14,15,15,16,16,17,17,18,18,19,19,20,20,21,21,22,22,23,23,24,24,25,25,26,26,27,27,28,28,29,29,30,30],"right_children":[2,4,6,8,10,12,14,16,18,20,22,24,26,28,30,32,34,36,38,40,42,44,46,48,50,52,54,56,58,60,62,-1,-1,-1,-1,-1,-1,-1,-1,-1,-1,-1,-1,-1,-1,-1,-1,-1,-1,-1,-1,-1,-1,-1,-1,-1,-1,-1,-1,-1,-1,-1,-1],"split_conditions":[6E0,1E0,4E0,4E0,2E0,1E0,1E0,4E0,2E0,2E0,3E0,1E0,2E0,1E0,2E0,4E0,2E0,4E0,2E0,3E0,4E0,1E0,1E0,2E0,3E0,3E0,1E0,3E0,1E0,1E0,2E1,-6.8286754E-2,1.6406674E-2,-5.90179E-2,1.2057577E-2,-3.82989E-2,7.074154E-2,6.228078E-2,-1.7357727E-4,-5.9290674E-2,-0E0,5.9380423E-2,9.779462E-2,-8.377725E-2,-0E0,-1.3782872E-2,2.41509E-2,-1.0669431E-1,-6.2266417E-2,-4.7876988E-2,7.739914E-3,-6.999984E-2,-0E0,2.7411487E-2,-2.150201E-2,-3.0513441E-2,3.9954767E-2,-7.049802E-2,-3.689937E-3,4.2994473E-2,-2.1359285E-2,8.089954E-2,-1.631822E-2],"split_indices":[33,10,18,18,28,11,10,21,21,18,18,10,0,24,23,33,18,33,28,0,18,11,8,18,18,21,6,23,21,9,33,0,0,0,0,0,0,0,0,0,0,0,0,0,0,0,0,0,0,0,0,0,0,0,0,0,0,0,0,0,0,0,0],"split_type":[0,0,0,0,0,0,0,0,0,0,0,0,0,0,0,0,0,0,0,0,0,0,0,0,0,0,0,0,0,0,0,0,0,0,0,0,0,0,0,0,0,0,0,0,0,0,0,0,0,0,0,0,0,0,0,0,0,0,0,0,0,0,0],"sum_hessian":[2.459684E3,1.6958524E3,7.638317E2,1.1396022E3,5.5625024E2,5.1005203E2,2.537797E2,7.2969324E2,4.099089E2,4.9358163E2,6.2668602E1,4.167396E2,9.3312454E1,1.612577E2,9.252199E1,5.4390967E2,1.8578358E2,1.04625534E2,3.0528336E2,3.793992E1,4.5564172E2,7.8005652E0,5.486804E1,3.55358E2,6.1381577E1,4.350304E1,4.980941E1,8.50777E1,7.618001E1,9.946057E0,8.257593E1,4.5086505E2,9.304461E1,3.1162344E1,1.5462125E2,8.3569046E1,2.1056486E1,2.8982144E2,1.5461919E1,3.3045986E1,4.8939304E0,2.0015735E2,2.5548438E2,5.334604E0,2.4659612E0,1.2833273E1,4.2034763E1,7.690406E1,2.7845395E2,1.4296033E1,4.7085545E1,2.8374962E1,1.5128079E1,2.9914768E1,1.9894644E1,1.503872E1,7.003897E1,2.1111872E1,5.5068134E1,3.377956E0,6.568102E0,7.816431E1,4.4116287E0],"tree_param":{"num_deleted":"0","num_feature":"35","num_nodes":"63","size_leaf_vector":"1"}},{"base_weights":[-1.8439142E-2,-3.3150452E-1,4.9712482E-1,-6.2719476E-1,2.0346765E-1,2.9906976E-1,6.8584E-1,-7.543927E-1,-1.1063251E-1,-4.5559514E-2,5.3652096E-1,-3.3851767E-1,4.3388975E-1,1.5716386E-1,9.984981E-1,-8.49763E-1,-3.2090074E-1,1.9139457E-1,-3.6715135E-1,-2.6269978E-1,5.052155E-1,1.3199922E-2,6.692208E-1,-6.050662E-1,-5.3365365E-2,4.7440976E-1,-1.9957851E-1,-2.6584834E-1,3.66066E-1,4.9764758E-1,1.0639398E0,-1.014398E-1,-7.520498E-2,-1.8906636E-2,-8.214357E-2,-5.562431E-3,6.348517E-2,-5.4652542E-2,-6.6719814E-3,-3.4418624E-2,4.535991E-2,2.3808451E-2,8.304262E-2,-7.238954E-2,2.2953983E-2,8.603553E-2,2.7681448E-2,-7.001166E-2,-0E0,-2.7691627E-2,1.13059364E-1,3.0352233E-2,6.948373E-2,2.1699987E-2,-4.798077E-2,-7.738395E-2,7.5819376E-3,4.92252E-3,8.569943E-2,8.060801E-2,2.1863315E-2,4.8041083E-2,1.06868684E-1],"categories":[],"categories_nodes":[],"categories_segments":[],"categories_sizes":[],"default_left":[1,0,1,1,1,0,0,0,0,1,0,1,0,0,0,0,1,0,1,1,0,0,0,1,1,0,0,0,0,0,0,0,0,0,0,0,0,0,0,0,0,0,0,0,0,0,0,0,0,0,0,0,0,0,0,0,0,0,0,0,0,0,0],"id":9,"left_children":[1,3,5,7,9,11,13,15,17,19,21,23,25,27,29,31,33,35,37,39,41,43,45,47,49,51,53,55,57,59,61,-1,-1,-1,-1,-1,-1,-1,-1,-1,-1,-1,-1,-1,-1,-1,-1,-1,-1,-1,-1,-1,-1,-1,-1,-1,-1,-1,-1,-1,-1,-1,-1],"loss_changes":[3.9439526E2,2.4133179E2,3.328488E1,6.3558105E1,4.5417442E1,3.9303288E1,7.620543E1,3.1053467E1,1.5485894E1,3.68418E1,1.5517998E1,5.282092E0,1.0042023E1,1.58081455E1,7.5227966E0,6.6376038E0,8.415908E0,1.0942928E1,5.712905E0,1.5222161E1,6.5833454E0,8.142808E0,1.4100128E1,2.4715424E0,1.1064334E1,1.2677086E1,3.1259081E0,1.1320149E1,1.8696266E1,2.1712923E0,3.66156E0,0E0,0E0,0E0,0E0,0E0,0E0,0E0,0E0,0E0,0E0,0E0,0E0,0E0,0E0,0E0,0E0,0E0,0E0,0E0,0E0,0E0,0E0,0E0,0E0,0E0,0E0,0E0,0E0,0E0,0E0,0E0,0E0],"parents":[2147483647,0,0,1,1,2,2,3,3,4,4,5,5,6,6,7,7,8,8,9,9,10,10,11,11,12,12,13,13,14,14,15,15,16,16,17,17,18,18,19,19,20,20,21,21,22,22,23,23,24,24,25,25,26,26,27,27,28,28,29,29,30,30],"right_children":[2,4,6,8,10,12,14,16,18,20,22,24,26,28,30,32,34,36,38,40,42,44,46,48,50,52,54,56,58,60,62,-1,-1,-1,-1,-1,-1,-1,-1,-1,-1,-1,-1,-1,-1,-1,-1,-1,-1,-1,-1,-1,-1,-1,-1,-1,-1,-1,-1,-1,-1,-1,-1],"split_conditions":[4E0,2E0,1E0,1E0,1E0,1E0,2E0,4E0,1E0,1E0,1E0,3E0,3E0,1E0,1E0,2E0,2E0,4E0,2E0,1E0,2E0,3E0,2E0,1E0,1E0,4E0,1E0,3E0,1E0,1E0,1E0,-1.014398E-1,-7.520498E-2,-1.8906636E-2,-8.214357E-2,-5.562431E-3,6.348517E-2,-5.4652542E-2,-6.6719814E-3,-3.4418624E-2,4.535991E-2,2.3808451E-2,8.304262E-2,-7.238954E-2,2.2953983E-2,8.603553E-2,2.7681448E-2,-7.001166E-2,-0E0,-2.7691627E-2,1.13059364E-1,3.0352233E-2,6.948373E-2,2.1699987E-2,-4.798077E-2,-7.738395E-2,7.5819376E-3,4.92252E-3,8.569943E-2,8.060801E-2,2.1863315E-2,4.8041083E-2,1.06868684E-1],"split_indices":[18,19,14,10,14,21,19,21,9,10,21,19,32,19,21,18,20,21,1,13,1,18,20,10,13,21,20,21,10,20,1,0,0,0,0,0,0,0,0,0,0,0,0,0,0,0,0,0,0,0,0,0,0,0,0,0,0,0,0,0,0,0,0],"split_type":[0,0,0,0,0,0,0,0,0,0,0,0,0,0,0,0,0,0,0,0,0,0,0,0,0,0,0,0,0,0,0,0,0,0,0,0,0,0,0,0,0,0,0,0,0,0,0,0,0,0,0,0,0,0,0,0,0,0,0,0,0,0,0],"sum_hessian":[2.442515E3,1.5211346E3,9.213804E2,9.8075037E2,5.403842E2,4.5341196E2,4.679684E2,7.850451E2,1.9570528E2,3.079716E2,2.3241263E2,7.75825E1,3.7582947E2,1.7565422E2,2.923142E2,6.4079913E2,1.4424597E2,8.82062E1,1.0749907E2,2.2256508E2,8.5406494E1,4.875915E1,1.8365349E2,3.7706875E1,3.987562E1,3.5495438E2,2.087507E1,5.639625E1,1.1925797E2,3.6540543E1,2.5577365E2,1.653765E2,4.7542264E2,1.1913951E2,2.5106462E1,5.6596104E1,3.1610096E1,6.2139782E1,4.535929E1,1.9917107E2,2.339401E1,5.1819466E1,3.3587032E1,9.537809E0,3.9221344E1,1.1430374E2,6.934974E1,3.0827518E1,6.879358E0,3.4825314E1,5.0503073E0,2.1748215E2,1.3747224E2,7.295658E0,1.3579412E1,2.273803E1,3.3658222E1,7.6080414E1,4.317756E1,1.3798646E1,2.2741898E1,1.9302557E1,2.364711E2],"tree_param":{"num_deleted":"0","num_feature":"35","num_nodes":"63","size_leaf_vector":"1"}},{"base_weights":[1.2049218E-2,1.4732602E-1,-2.4155694E-1,8.007594E-2,6.218167E-1,-6.042638E-1,-7.4147314E-2,-3.1259903E-1,3.5849953E-1,-6.2390584E-2,7.0742154E-1,-7.0970154E-1,1.7839718E-1,-5.315734E-1,5.8894664E-2,-4.6308976E-1,-2.1680634E-2,1.0623405E-1,4.86287E-1,-5.667089E-2,2.529768E-1,7.4901587E-1,2.8207383E-1,-8.487561E-2,-5.6455977E-2,-0E0,4.0960592E-1,-2.5476837E-1,-7.42431E-1,-6.5893866E-2,2.9539394E-1,2.5277592E-2,-5.2773934E-2,2.0857671E-2,-3.4927305E-2,-1.5327838E-2,1.7589666E-2,2.5834108E-2,5.828605E-2,-2.498537E-2,7.554891E-2,4.667686E-2,9.873612E-2,5.2793313E-2,-1.3491123E-2,-1.5622565E-2,1.0432474E-1,-3.4503452E-2,3.240902E-4,-7.527508E-2,-0E0,-1.0994024E-2,4.0969815E-2,6.372222E-2,1.6513027E-2],"categories":[],"categories_nodes":[],"categories_segments":[],"categories_sizes":[],"default_left":[1,1,0,0,0,0,0,1,0,0,0,0,0,0,0,0,0,0,0,0,0,0,0,0,0,0,0,1,0,1,0,0,0,0,0,0,0,0,0,0,0,0,0,0,0,0,0,0,0,0,0,0,0,0,0],"id":10,"left_children":[1,3,5,7,9,11,13,15,17,19,21,23,25,27,29,31,33,35,37,-1,39,41,43,-1,-1,-1,45,47,49,51,53,-1,-1,-1,-1,-1,-1,-1,-1,-1,-1,-1,-1,-1,-1,-1,-1,-1,-1,-1,-1,-1,-1,-1,-1],"loss_changes":[8.225447E1,4.927855E1,4.9822475E1,1.5062218E2,1.19722595E1,2.218406E1,3.5349228E1,2.4460716E1,2.5377808E1,3.950527E0,1.8112106E0,2.9153748E0,1.4941399E0,6.448223E0,1.3316251E1,2.2592789E1,1.6113176E1,5.546973E0,1.2503677E1,0E0,4.1274996E0,9.171112E0,2.6026604E0,0E0,0E0,0E0,6.7027574E0,1.9310963E0,2.3334732E0,6.4482164E0,6.118499E0,0E0,0E0,0E0,0E0,0E0,0E0,0E0,0E0,0E0,0E0,0E0,0E0,0E0,0E0,0E0,0E0,0E0,0E0,0E0,0E0,0E0,0E0,0E0,0E0],"parents":[2147483647,0,0,1,1,2,2,3,3,4,4,5,5,6,6,7,7,8,8,9,9,10,10,11,11,12,12,13,13,14,14,15,15,16,16,17,17,18,18,20,20,21,21,22,22,26,26,27,27,28,28,29,29,30,30],"right_children":[2,4,6,8,10,12,14,16,18,20,22,24,26,28,30,32,34,36,38,-1,40,42,44,-1,-1,-1,46,48,50,52,54,-1,-1,-1,-1,-1,-1,-1,-1,-1,-1,-1,-1,-1,-1,-1,-1,-1,-1,-1,-1,-1,-1,-1,-1],"split_conditions":[7E0,1E0,1E0,3E0,1E0,4E0,1E0,2E0,4E0,1E0,9E0,2E0,1E0,1E1,3E0,4E0,2E0,3E0,1E0,-5.667089E-2,1E0,3E0,1E0,-8.487561E-2,-5.6455977E-2,-0E0,1.9E1,1E0,1E0,1E0,3E0,2.5277592E-2,-5.2773934E-2,2.0857671E-2,-3.4927305E-2,-1.5327838E-2,1.7589666E-2,2.5834108E-2,5.828605E-2,-2.498537E-2,7.554891E-2,4.667686E-2,9.873612E-2,5.2793313E-2,-1.3491123E-2,-1.5622565E-2,1.0432474E-1,-3.4503452E-2,3.240902E-4,-7.527508E-2,-0E0,-1.0994024E-2,4.0969815E-2,6.372222E-2,1.6513027E-2],"split_indices":[34,13,16,21,0,21,21,16,21,8,29,21,24,33,16,34,25,29,16,0,16,16,9,0,0,0,34,9,13,13,29,0,0,0,0,0,0,0,0,0,0,0,0,0,0,0,0,0,0,0,0,0,0,0,0],"split_type":[0,0,0,0,0,0,0,0,0,0,0,0,0,0,0,0,0,0,0,0,0,0,0,0,0,0,0,0,0,0,0,0,0,0,0,0,0,0,0,0,0,0,0,0,0,0,0,0,0,0,0,0,0,0,0],"sum_hessian":[2.3983076E3,1.5668772E3,8.3143036E2,1.3752394E3,1.9163791E2,2.5985345E2,5.715769E2,5.690146E2,8.0622473E2,2.0041706E1,1.7159619E2,2.3021103E2,2.9642435E1,1.2980412E2,4.417728E2,3.7236353E2,1.9665111E2,2.7432874E2,5.31896E2,8.410533E0,1.1631172E1,1.5347597E2,1.8120235E1,9.332705E1,1.3688399E2,1.5924375E1,1.371806E1,5.913065E1,7.067348E1,2.8688916E2,1.5488365E2,3.6405697E1,3.3595782E2,1.1420368E2,8.244742E1,5.7685997E1,2.1664273E2,1.8775774E2,3.4413828E2,5.2030835E0,6.4280887E0,8.0548775E1,7.2927185E1,1.2433699E1,5.6865377E0,6.997459E0,6.720601E0,4.4936447E1,1.4194203E1,6.82182E1,2.4552722E0,2.6397736E2,2.291178E1,3.6510296E1,1.1837335E2],"tree_param":{"num_deleted":"0","num_feature":"35","num_nodes":"55","size_leaf_vector":"1"}},{"base_weights":[8.359376E-3,-1.2587985E-1,2.9243308E-1,-8.949487E-4,-3.819246E-1,7.89056E-2,6.368112E-1,-2.9589573E-1,5.299257E-1,-5.6172496E-1,1.02544546E-1,2.8513327E-1,-3.0585054E-1,7.680813E-1,3.587971E-1,-4.6627364E-1,1.9306158E-1,3.2365254E-1,8.8583714E-1,-7.348467E-1,-4.1454443E-1,-1.14067934E-1,3.2682097E-1,6.583004E-1,3.0673703E-2,3.5312942E-1,-4.1240594E-1,2.7781775E-2,8.2917905E-1,-4.4640586E-2,4.7794023E-1,-4.695079E-2,1.2582333E-1,2.262634E-2,-4.613697E-2,3.787246E-2,-0E0,-0E0,8.72393E-2,-7.9295546E-2,-2.4714598E-2,-1.0764593E-1,-3.3960078E-2,-6.0692683E-2,-1.3016503E-4,4.2865753E-2,-1.0802557E-2,-4.4932604E-2,6.9496945E-2,-1.6061138E-2,3.242998E-2,-8.55183E-3,4.5111626E-2,-2.8732711E-2,-8.7339275E-2,9.815077E-2,6.514782E-2,2.965407E-2,-3.2439515E-2,3.2241844E-2,9.127347E-2],"categories":[],"categories_nodes":[],"categories_segments":[],"categories_sizes":[],"default_left":[1,1,1,1,1,0,0,1,1,1,1,0,0,0,0,1,1,1,0,1,0,0,1,0,0,0,1,0,1,0,1,0,0,0,0,0,0,0,0,0,0,0,0,0,0,0,0,0,0,0,0,0,0,0,0,0,0,0,0,0,0],"id":11,"left_children":[1,3,5,7,9,11,13,15,17,19,21,23,25,27,29,31,33,35,37,39,41,43,45,47,49,51,53,-1,55,57,59,-1,-1,-1,-1,-1,-1,-1,-1,-1,-1,-1,-1,-1,-1,-1,-1,-1,-1,-1,-1,-1,-1,-1,-1,-1,-1,-1,-1,-1,-1],"loss_changes":[9.091232E1,5.1257034E1,5.5563515E1,1.7029262E2,4.63953E1,3.7818497E1,9.226677E0,5.8777187E1,2.6973953E1,8.37587E0,7.1437163E0,2.8913673E1,1.177804E1,4.364067E0,5.152337E0,1.7004929E1,4.7763114E0,5.137108E0,2.6163635E0,5.692856E0,7.6628227E0,3.455188E0,4.0517693E0,8.923111E0,1.1476263E1,1.5229566E0,6.6675186E0,0E0,2.5419693E0,2.3003643E0,3.6273937E0,0E0,0E0,0E0,0E0,0E0,0E0,0E0,0E0,0E0,0E0,0E0,0E0,0E0,0E0,0E0,0E0,0E0,0E0,0E0,0E0,0E0,0E0,0E0,0E0,0E0,0E0,0E0,0E0,0E0,0E0],"parents":[2147483647,0,0,1,1,2,2,3,3,4,4,5,5,6,6,7,7,8,8,9,9,10,10,11,11,12,12,13,13,14,14,15,15,16,16,17,17,18,18,19,19,20,20,21,21,22,22,23,23,24,24,25,25,26,26,28,28,29,29,30,30],"right_children":[2,4,6,8,10,12,14,16,18,20,22,24,26,28,30,32,34,36,38,40,42,44,46,48,50,52,54,-1,56,58,60,-1,-1,-1,-1,-1,-1,-1,-1,-1,-1,-1,-1,-1,-1,-1,-1,-1,-1,-1,-1,-1,-1,-1,-1,-1,-1,-1,-1,-1,-1],"split_conditions":[2E0,6E0,1E0,4E0,4E0,1E0,1E0,1E0,1E0,1E0,1E0,1E0,8E0,2E0,2E0,5E0,4E0,1E0,1E0,1E0,1E0,1E0,1E0,2E0,4E0,1E0,1.3E1,2.7781775E-2,1E0,2E0,1E0,-4.695079E-2,1.2582333E-1,2.262634E-2,-4.613697E-2,3.787246E-2,-0E0,-0E0,8.72393E-2,-7.9295546E-2,-2.4714598E-2,-1.0764593E-1,-3.3960078E-2,-6.0692683E-2,-1.3016503E-4,4.2865753E-2,-1.0802557E-2,-4.4932604E-2,6.9496945E-2,-1.6061138E-2,3.242998E-2,-8.55183E-3,4.5111626E-2,-2.8732711E-2,-8.7339275E-2,9.815077E-2,6.514782E-2,2.965407E-2,-3.2439515E-2,3.2241844E-2,9.127347E-2],"split_indices":[16,33,10,18,18,27,32,10,10,16,14,20,34,23,23,33,20,32,34,10,14,14,27,18,18,5,33,0,20,20,13,0,0,0,0,0,0,0,0,0,0,0,0,0,0,0,0,0,0,0,0,0,0,0,0,0,0,0,0,0,0],"split_type":[0,0,0,0,0,0,0,0,0,0,0,0,0,0,0,0,0,0,0,0,0,0,0,0,0,0,0,0,0,0,0,0,0,0,0,0,0,0,0,0,0,0,0,0,0,0,0,0,0,0,0,0,0,0,0,0,0,0,0,0,0],"sum_hessian":[2.3777002E3,1.6126691E3,7.650312E2,1.086982E3,5.25687E2,4.7478152E2,2.9024966E2,7.0018463E2,3.8679745E2,3.847864E2,1.409006E2,3.1096405E2,1.6381746E2,1.9351694E2,9.6732735E1,5.2080194E2,1.7938266E2,2.4786375E2,1.3893369E2,1.7185457E2,2.1293184E2,6.965676E1,7.124384E1,1.23837845E2,1.871262E2,2.1173498E1,1.4264397E2,2.4291048E1,1.6922588E2,2.028307E1,7.644966E1,5.1663556E2,4.1663756E0,1.7114145E2,8.241207E0,2.029474E2,4.491636E1,1.4617919E0,1.374719E2,1.4382446E2,2.8030102E1,1.5156161E1,1.9777567E2,1.0132125E1,5.952463E1,5.8141735E1,1.3102106E1,5.045528E0,1.1879232E2,1.1196578E2,7.516043E1,2.549215E0,1.8624283E1,1.18344025E2,2.4299936E1,7.2148026E1,9.707786E1,7.60064E0,1.268243E1,6.122557E1,1.52240925E1],"tree_param":{"num_deleted":"0","num_feature":"35","num_nodes":"61","size_leaf_vector":"1"}},{"base_weights":[8.194179E-3,-2.6221058E-1,4.4990128E-1,-4.2189023E-1,1.7575665E-1,2.6505426E-1,7.617695E-1,-5.2399975E-1,-9.41985E-3,-4.4055974E-1,2.9869586E-1,4.2235118E-1,-2.5786582E-1,8.12225E-1,3.3915716E-1,-9.068745E-2,-4.0969193E-1,5.6642164E-2,-3.7439418E-1,-4.0230792E-2,-6.676798E-1,3.7485418E-1,7.0467055E-2,4.8732582E-1,1.0551794E-1,6.9267017E-1,-3.2581687E-1,4.71905E-1,8.208115E-2,4.2136684E-1,-1.6347403E-2,6.868585E-3,-5.3108435E-2,-4.7847103E-2,1.7185928E-2,-4.856483E-2,-0E0,-2.4834732E-2,7.1182355E-2,-7.506317E-2,-0E0,2.206739E-2,6.349912E-2,2.0821415E-2,-3.338135E-2,3.4483317E-2,7.372238E-2,3.3600673E-2,-0E0,-0E0,9.708123E-2,-9.473256E-3,-4.739727E-2,7.347242E-2,-1.1906653E-2,5.469596E-2,-1.33338105E-2],"categories":[],"categories_nodes":[],"categories_segments":[],"categories_sizes":[],"default_left":[1,1,1,0,0,1,1,0,1,0,1,0,0,0,0,0,0,0,1,0,0,0,0,0,1,0,0,0,0,0,0,0,0,0,0,0,0,0,0,0,0,0,0,0,0,0,0,0,0,0,0,0,0,0,0,0,0],"id":12,"left_children":[1,3,5,7,9,11,13,15,17,19,21,23,25,27,29,-1,31,33,35,37,39,41,43,45,47,49,51,53,-1,55,-1,-1,-1,-1,-1,-1,-1,-1,-1,-1,-1,-1,-1,-1,-1,-1,-1,-1,-1,-1,-1,-1,-1,-1,-1,-1,-1],"loss_changes":[2.7891864E2,1.0145445E2,4.993599E1,4.4178207E1,2.9192036E1,4.6401073E1,5.5615845E0,3.8321213E1,5.490052E0,5.0065947E0,5.147093E0,8.268799E0,8.180112E0,1.7878723E0,1.9434834E0,0E0,4.512995E1,1.1717551E1,1.6477332E0,3.9888852E0,2.9987068E0,8.828819E0,5.0716095E0,1.1424942E1,1.8998799E0,1.9825122E0,3.9145412E0,6.249275E0,0E0,3.3433695E0,0E0,0E0,0E0,0E0,0E0,0E0,0E0,0E0,0E0,0E0,0E0,0E0,0E0,0E0,0E0,0E0,0E0,0E0,0E0,0E0,0E0,0E0,0E0,0E0,0E0,0E0,0E0],"parents":[2147483647,0,0,1,1,2,2,3,3,4,4,5,5,6,6,7,7,8,8,9,9,10,10,11,11,12,12,13,13,14,14,16,16,17,17,18,18,19,19,20,20,21,21,22,22,23,23,24,24,25,25,26,26,27,27,29,29],"right_children":[2,4,6,8,10,12,14,16,18,20,22,24,26,28,30,-1,32,34,36,38,40,42,44,46,48,50,52,54,-1,56,-1,-1,-1,-1,-1,-1,-1,-1,-1,-1,-1,-1,-1,-1,-1,-1,-1,-1,-1,-1,-1,-1,-1,-1,-1,-1,-1],"split_conditions":[4E0,1E0,1E0,4E0,2E0,1E0,2E0,2E0,1E0,2E1,6E0,1E0,4E0,1E0,1E0,-9.068745E-2,6E0,2E0,1E0,2E0,1E0,4E0,3E0,4E0,1E0,2E0,1E0,3E0,8.208115E-2,1E0,-1.6347403E-2,6.868585E-3,-5.3108435E-2,-4.7847103E-2,1.7185928E-2,-4.856483E-2,-0E0,-2.4834732E-2,7.1182355E-2,-7.506317E-2,-0E0,2.206739E-2,6.349912E-2,2.0821415E-2,-3.338135E-2,3.4483317E-2,7.372238E-2,3.3600673E-2,-0E0,-0E0,9.708123E-2,-9.473256E-3,-4.739727E-2,7.347242E-2,-1.1906653E-2,5.469596E-2,-1.33338105E-2],"split_indices":[18,10,10,21,18,27,25,18,33,34,33,9,34,21,13,0,33,18,25,25,12,21,22,21,31,34,31,0,0,12,0,0,0,0,0,0,0,0,0,0,0,0,0,0,0,0,0,0,0,0,0,0,0,0,0,0,0],"split_type":[0,0,0,0,0,0,0,0,0,0,0,0,0,0,0,0,0,0,0,0,0,0,0,0,0,0,0,0,0,0,0,0,0,0,0,0,0,0,0,0,0,0,0,0,0,0,0,0,0,0,0,0,0,0,0,0,0],"sum_hessian":[2.3316663E3,1.4451283E3,8.865379E2,1.0607183E3,3.8441006E2,5.5979736E2,3.267405E2,8.480769E2,2.1264136E2,6.2145557E1,3.2226453E2,4.3196487E2,1.27832504E2,2.8895422E2,3.778628E1,1.8050293E2,6.67574E2,1.784466E2,3.419476E1,2.4514904E1,3.7630653E1,2.3786624E2,8.439828E1,3.5538904E2,7.657583E1,6.933455E0,1.2089905E2,3.1337421E1,2.576168E2,3.436417E1,3.4221115E0,1.4811247E2,5.194615E2,3.0064539E1,1.4838206E2,2.5156448E1,9.038311E0,2.0700277E1,3.8146267E0,3.264024E1,4.9904127E0,1.5971881E2,7.814742E1,6.474481E1,1.9653463E1,2.443917E2,1.1099736E2,2.1946194E1,5.462964E1,2.1756558E0,4.7577987E0,5.375488E1,6.714417E1,2.208818E1,9.249241E0,2.8758068E1,5.606104E0],"tree_param":{"num_deleted":"0","num_feature":"35","num_nodes":"57","size_leaf_vector":"1"}},{"base_weights":[-1.5306136E-2,-1.8892296E-1,1.711551E-1,-3.2985124E-1,2.108398E-1,-3.824449E-2,5.614296E-1,-5.2036035E-1,-2.0001096E-1,2.5307775E-1,-3.8690263E-1,-1.752337E-1,3.632595E-1,-2.2113837E-1,6.3918746E-1,1.3439906E-2,-5.687477E-1,5.1831678E-2,-3.3602583E-1,1.1848587E-2,3.25771E-1,1.5892599E-2,-5.047734E-1,-2.5610235E-1,-1.3797721E-2,5.862455E-1,-1.0038254E-1,-6.450854E-2,4.7011885E-1,2.9085386E-1,7.400294E-1,-4.6926506E-2,-7.419769E-2,-9.2668176E-2,1.47738885E-2,-2.4976812E-2,-5.5208463E-2,-4.175739E-2,1.6668191E-2,-1.9754954E-2,3.504492E-2,2.4461405E-2,-6.269666E-2,-3.463121E-2,-1.5483553E-2,-5.202744E-2,5.1646954E-3,3.315686E-2,8.1922516E-2,-3.254998E-2,2.3458399E-2,6.6913E-2,-0E0,4.8193906E-2,-1.966301E-2,7.896407E-2,4.614191E-2],"categories":[],"categories_nodes":[],"categories_segments":[],"categories_sizes":[],"default_left":[1,1,1,0,1,0,0,0,0,1,0,0,0,0,1,0,1,0,1,1,0,0,0,0,0,0,1,0,0,1,1,0,0,0,0,0,0,0,0,0,0,0,0,0,0,0,0,0,0,0,0,0,0,0,0,0,0],"id":13,"left_children":[1,3,5,7,9,11,13,15,17,19,21,23,25,27,29,-1,31,33,35,37,39,-1,41,43,45,47,49,-1,51,53,55,-1,-1,-1,-1,-1,-1,-1,-1,-1,-1,-1,-1,-1,-1,-1,-1,-1,-1,-1,-1,-1,-1,-1,-1,-1,-1],"loss_changes":[7.481656E1,6.774991E1,9.136607E1,2.1162842E1,7.8243732E0,3.9616196E1,2.4278717E1,1.1880554E1,1.8571493E1,4.795616E0,1.6822846E0,6.792736E0,1.9389454E1,1.122082E1,1.1258392E1,0E0,3.9219284E0,1.818226E1,5.4048767E0,4.934157E0,4.486105E0,0E0,2.4733677E0,2.9076958E0,7.045018E0,6.4212265E0,4.9099164E0,0E0,1.6530561E0,8.959827E0,3.756546E0,0E0,0E0,0E0,0E0,0E0,0E0,0E0,0E0,0E0,0E0,0E0,0E0,0E0,0E0,0E0,0E0,0E0,0E0,0E0,0E0,0E0,0E0,0E0,0E0,0E0,0E0],"parents":[2147483647,0,0,1,1,2,2,3,3,4,4,5,5,6,6,7,7,8,8,9,9,10,10,11,11,12,12,13,13,14,14,16,16,17,17,18,18,19,19,20,20,22,22,23,23,24,24,25,25,26,26,28,28,29,29,30,30],"right_children":[2,4,6,8,10,12,14,16,18,20,22,24,26,28,30,-1,32,34,36,38,40,-1,42,44,46,48,50,-1,52,54,56,-1,-1,-1,-1,-1,-1,-1,-1,-1,-1,-1,-1,-1,-1,-1,-1,-1,-1,-1,-1,-1,-1,-1,-1,-1,-1],"split_conditions":[1E0,1E0,1E0,2E0,2E0,2E0,1E0,4E0,1E0,1E0,1E0,2E0,2E0,2E0,1E0,1.3439906E-2,1E0,1E0,1.3E1,1E0,2E0,1.5892599E-2,2E0,1E0,2E0,2E0,4E0,-6.450854E-2,1E0,7E0,1E0,-4.6926506E-2,-7.419769E-2,-9.2668176E-2,1.47738885E-2,-2.4976812E-2,-5.5208463E-2,-4.175739E-2,1.6668191E-2,-1.9754954E-2,3.504492E-2,2.4461405E-2,-6.269666E-2,-3.463121E-2,-1.5483553E-2,-5.202744E-2,5.1646954E-3,3.315686E-2,8.1922516E-2,-3.254998E-2,2.3458399E-2,6.6913E-2,-0E0,4.8193906E-2,-1.966301E-2,7.896407E-2,4.614191E-2],"split_indices":[14,10,10,0,28,16,23,34,20,16,5,1,20,16,16,0,32,14,34,0,15,0,15,16,15,1,15,0,32,34,32,0,0,0,0,0,0,0,0,0,0,0,0,0,0,0,0,0,0,0,0,0,0,0,0,0,0],"split_type":[0,0,0,0,0,0,0,0,0,0,0,0,0,0,0,0,0,0,0,0,0,0,0,0,0,0,0,0,0,0,0,0,0,0,0,0,0,0,0,0,0,0,0,0,0,0,0,0,0,0,0,0,0,0,0,0,0],"sum_hessian":[2.3085452E3,1.1982172E3,1.1103279E3,8.878869E2,3.1033026E2,7.2153314E2,3.887948E2,3.555273E2,5.3235956E2,2.9194995E2,1.8380323E1,5.4025696E2,1.8127617E2,3.381098E1,3.5498383E2,2.2772005E1,3.327553E2,1.8432802E2,3.4803156E2,7.1060036E1,2.208899E2,1.6746821E0,1.670564E1,3.5542966E2,1.848273E2,1.2368364E2,5.759254E1,2.1468878E1,1.2342103E1,8.279384E1,2.7219E2,2.3941072E2,9.334459E1,1.5063826E1,1.6926419E2,2.6581088E2,8.222069E1,1.6771204E1,5.4288834E1,1.2059927E1,2.0882997E2,1.4168617E0,1.5288779E1,1.6648058E2,1.8894907E2,2.190475E1,1.6292255E2,6.700004E1,5.6683598E1,3.58557E1,2.1736837E1,8.634689E0,3.7074134E0,5.9771904E1,2.302193E1,2.0695343E2,6.5236565E1],"tree_param":{"num_deleted":"0","num_feature":"35","num_nodes":"57","size_leaf_vector":"1"}},{"base_weights":[-9.262079E-3,-3.745311E-1,4.1999325E-1,-7.078282E-1,-1.6500983E-1,7.4027944E-1,2.2464393E-1,-8.0846125E-1,-3.7545416E-1,-3.236049E-1,3.5030085E-1,6.471996E-1,9.625883E-1,3.7096992E-1,-5.095971E-2,-9.2122215E-1,-6.641106E-1,-6.762998E-1,1.3353765E-1,-2.0178525E-2,-5.208874E-1,6.959075E-2,3.7050836E-2,-1.5123239E-1,7.675183E-1,9.5578685E-2,-2.8999051E-2,-2.5024858E-1,4.6615627E-1,3.2143083E-1,-2.0194742E-1,-9.0495184E-2,-0E0,-7.365846E-2,-3.375103E-2,-7.5284176E-2,-2.4764866E-2,3.1178178E-2,-3.6175996E-3,-5.7425685E-2,7.2343573E-3,-5.4688655E-2,-3.0188385E-2,1.6077844E-2,-7.856179E-3,1.3915464E-2,-3.133479E-2,5.4543573E-2,8.38835E-2,3.8105607E-2,-4.6196915E-2,5.0376706E-2,2.2237314E-2,1.1934131E-2,8.396099E-2,2.4340885E-2,-3.0189682E-2],"categories":[],"categories_nodes":[],"categories_segments":[],"categories_sizes":[],"default_left":[0,0,0,0,0,1,0,0,0,0,1,0,1,0,0,0,1,0,1,0,1,0,1,0,1,0,0,0,0,0,0,0,0,0,0,0,0,0,0,0,0,0,0,0,0,0,0,0,0,0,0,0,0,0,0,0,0],"id":14,"left_children":[1,3,5,7,9,11,13,15,17,19,21,23,25,27,29,31,33,35,37,39,41,-1,43,45,47,-1,-1,49,51,53,55,-1,-1,-1,-1,-1,-1,-1,-1,-1,-1,-1,-1,-1,-1,-1,-1,-1,-1,-1,-1,-1,-1,-1,-1,-1,-1],"loss_changes":[3.6173972E2,8.615166E1,6.516162E1,1.4551117E1,6.2961937E1,6.024185E0,2.7016087E1,3.7423096E0,1.8337305E1,3.4783787E1,1.9999363E1,2.8350456E1,4.4763412E0,2.6030224E1,1.2760572E1,2.5691528E0,3.734253E0,1.9219093E0,1.6673534E0,1.3373431E1,2.216568E0,0E0,1.6207192E0,2.1281433E0,3.1506958E0,0E0,0E0,8.5973835E0,3.979103E0,5.8489876E0,8.341765E0,0E0,0E0,0E0,0E0,0E0,0E0,0E0,0E0,0E0,0E0,0E0,0E0,0E0,0E0,0E0,0E0,0E0,0E0,0E0,0E0,0E0,0E0,0E0,0E0,0E0,0E0],"parents":[2147483647,0,0,1,1,2,2,3,3,4,4,5,5,6,6,7,7,8,8,9,9,10,10,11,11,12,12,13,13,14,14,15,15,16,16,17,17,18,18,19,19,20,20,22,22,23,23,24,24,27,27,28,28,29,29,30,30],"right_children":[2,4,6,8,10,12,14,16,18,20,22,24,26,28,30,32,34,36,38,40,42,-1,44,46,48,-1,-1,50,52,54,56,-1,-1,-1,-1,-1,-1,-1,-1,-1,-1,-1,-1,-1,-1,-1,-1,-1,-1,-1,-1,-1,-1,-1,-1,-1,-1],"split_conditions":[2E0,1E0,1E0,4E0,4E0,4E0,1E0,3E0,4E0,1E0,1E0,1E0,2E1,1E0,1.2E1,2.00001E0,1E0,1E0,1E0,3E0,1E0,6.959075E-2,1E0,9E0,1E0,9.5578685E-2,-2.8999051E-2,7E0,4E0,4E0,1.3E1,-9.0495184E-2,-0E0,-7.365846E-2,-3.375103E-2,-7.5284176E-2,-2.4764866E-2,3.1178178E-2,-3.6175996E-3,-5.7425685E-2,7.2343573E-3,-5.4688655E-2,-3.0188385E-2,1.6077844E-2,-7.856179E-3,1.3915464E-2,-3.133479E-2,5.4543573E-2,8.38835E-2,3.8105607E-2,-4.6196915E-2,5.0376706E-2,2.2237314E-2,1.1934131E-2,8.396099E-2,2.4340885E-2,-3.0189682E-2],"split_indices":[19,19,20,18,21,19,32,21,21,20,20,21,33,21,34,11,11,11,6,18,11,0,26,34,31,0,0,33,20,19,33,0,0,0,0,0,0,0,0,0,0,0,0,0,0,0,0,0,0,0,0,0,0,0,0,0,0],"split_type":[0,0,0,0,0,0,0,0,0,0,0,0,0,0,0,0,0,0,0,0,0,0,0,0,0,0,0,0,0,0,0,0,0,0,0,0,0,0,0,0,0,0,0,0,0,0,0,0,0,0,0,0,0,0,0,0,0],"sum_hessian":[2.3053933E3,1.2468556E3,1.0585378E3,4.7851077E2,7.683448E2,3.9803253E2,6.605053E2,3.6389355E2,1.1461723E2,5.89293E2,1.7905174E2,2.8648987E2,1.11542656E2,4.3358484E2,2.2692044E2,1.9739055E2,1.6650299E2,7.306642E1,4.1550808E1,2.3461668E2,3.5467636E2,8.021319E1,9.883856E1,3.6396355E1,2.500935E2,1.1040168E2,1.1409788E0,5.599668E1,3.7758817E2,6.3227226E1,1.6369322E2,1.9466151E2,2.7290409E0,1.2394736E2,4.2555637E1,5.628477E1,1.6781652E1,2.2120998E1,1.942981E1,3.408983E1,2.0052686E2,2.877015E2,6.697485E1,5.1108772E1,4.772979E1,1.1348059E1,2.5048296E1,8.7080696E1,1.6301282E2,1.3251917E1,4.2744766E1,3.028111E2,7.477707E1,4.862805E1,1.4599172E1,2.9904427E1,1.3378879E2],"tree_param":{"num_deleted":"0","num_feature":"35","num_nodes":"57","size_leaf_vector":"1"}},{"base_weights":[1.826101E-2,-3.0657685E-1,4.5896697E-1,-1.5726091E-1,-4.9686918E-1,2.2277655E-1,7.422423E-1,-4.289383E-1,6.7992974E-4,-8.222959E-2,-2.9444614E-1,3.3710223E-1,-5.38909E-1,7.968667E-1,1.5712118E-1,-5.6384015E-1,-1.2321261E-1,-1.5932164E-1,8.2267776E-2,-5.593244E-3,-3.5279438E-1,5.369005E-1,2.0526452E-1,-6.577034E-2,-4.3196287E-3,7.0432013E-1,1.0760593E0,-0E0,5.342407E-1,-6.351456E-2,-2.9991124E-2,2.8685913E-3,-2.8975861E-2,-1.741007E-2,8.6815834E-2,1.4263876E-2,-4.424446E-2,-4.3573756E-2,-3.290341E-3,-0E0,5.71108E-2,-4.8434455E-4,5.0665274E-2,8.070575E-2,4.750111E-2,2.5471335E-2,1.08884566E-1,-6.0270753E-2,2.1412041E-2,9.397328E-2,-1.0148802E-2],"categories":[],"categories_nodes":[],"categories_segments":[],"categories_sizes":[],"default_left":[0,1,1,0,0,1,1,0,0,0,0,0,1,1,0,0,0,1,1,0,1,0,0,0,0,1,0,0,0,0,0,0,0,0,0,0,0,0,0,0,0,0,0,0,0,0,0,0,0,0,0],"id":15,"left_children":[1,3,5,7,9,11,13,15,17,-1,19,21,23,25,27,29,31,33,35,-1,37,39,41,-1,-1,43,45,47,49,-1,-1,-1,-1,-1,-1,-1,-1,-1,-1,-1,-1,-1,-1,-1,-1,-1,-1,-1,-1,-1,-1],"loss_changes":[3.2684952E2,3.6559708E1,6.3744354E1,3.217344E1,3.9530594E1,4.631621E1,1.2936584E1,1.055682E1,6.025961E0,0E0,4.6468906E0,1.1380981E1,4.012501E0,7.7780457E0,2.1458104E0,3.2283478E0,2.63395E0,2.7722862E0,1.0764797E1,0E0,8.535618E0,5.596863E0,1.9541195E1,0E0,0E0,6.7035675E0,2.0587769E0,4.122625E0,4.0349245E0,0E0,0E0,0E0,0E0,0E0,0E0,0E0,0E0,0E0,0E0,0E0,0E0,0E0,0E0,0E0,0E0,0E0,0E0,0E0,0E0,0E0,0E0],"parents":[2147483647,0,0,1,1,2,2,3,3,4,4,5,5,6,6,7,7,8,8,10,10,11,11,12,12,13,13,14,14,15,15,16,16,17,17,18,18,20,20,21,21,22,22,25,25,26,26,27,27,28,28],"right_children":[2,4,6,8,10,12,14,16,18,-1,20,22,24,26,28,30,32,34,36,-1,38,40,42,-1,-1,44,46,48,50,-1,-1,-1,-1,-1,-1,-1,-1,-1,-1,-1,-1,-1,-1,-1,-1,-1,-1,-1,-1,-1,-1],"split_conditions":[3E0,4E0,1E0,1E0,1E0,2E0,2E0,1E0,1E0,-8.222959E-2,1E0,2E0,1E0,4E0,2E0,1E0,3E0,3E0,2E0,-5.593244E-3,4E0,1E0,2E0,-6.577034E-2,-4.3196287E-3,1E0,1E0,1E0,4E0,-6.351456E-2,-2.9991124E-2,2.8685913E-3,-2.8975861E-2,-1.741007E-2,8.6815834E-2,1.4263876E-2,-4.424446E-2,-4.3573756E-2,-3.290341E-3,-0E0,5.71108E-2,-4.8434455E-4,5.0665274E-2,8.070575E-2,4.750111E-2,2.5471335E-2,1.08884566E-1,-6.0270753E-2,2.1412041E-2,9.397328E-2,-1.0148802E-2],"split_indices":[19,34,14,19,19,25,25,11,8,0,16,16,9,19,30,16,15,34,28,0,15,14,1,0,0,26,1,1,15,0,0,0,0,0,0,0,0,0,0,0,0,0,0,0,0,0,0,0,0,0,0],"split_type":[0,0,0,0,0,0,0,0,0,0,0,0,0,0,0,0,0,0,0,0,0,0,0,0,0,0,0,0,0,0,0,0,0,0,0,0,0,0,0,0,0,0,0,0,0,0,0,0,0,0,0],"sum_hessian":[2.280091E3,1.311465E3,9.686262E2,7.3881964E2,5.7264526E2,5.31111E2,4.3751523E2,2.7330963E2,4.6551004E2,2.0594397E2,3.6670132E2,4.6342346E2,6.768754E1,3.9826404E2,3.925117E1,1.8677829E2,8.653133E1,1.527477E2,3.1276233E2,7.630713E1,2.903942E2,1.7999141E2,2.8343204E2,5.084764E1,1.6839901E1,3.0444968E2,9.381436E1,2.9251348E1,9.999822E0,1.3301083E2,5.3767467E1,4.3725285E1,4.2806046E1,1.5158209E2,1.165604E0,2.8139526E2,3.1367077E1,2.1979578E2,7.059842E1,1.4958535E1,1.6503287E2,1.6932303E2,1.14109024E2,1.8499126E2,1.19458435E2,6.809161E0,8.70052E1,6.661383E0,2.2589966E1,6.5639205E0,3.4359016E0],"tree_param":{"num_deleted":"0","num_feature":"35","num_nodes":"51","size_leaf_vector":"1"}},{"base_weights":[1.0584169E-2,-1.0603423E-1,3.497895E-1,-2.4603821E-1,1.9998533E-1,-8.764433E-2,4.3359497E-1,-3.96769E-1,-7.411303E-2,-5.367899E-2,5.1471055E-1,-3.3167647E-3,-4.9278E-2,-7.0939E-2,4.783004E-1,-6.760153E-1,-2.8674793E-1,-5.111082E-2,-1.1992651E-2,-2.8036305E-1,1.9613291E-1,4.9905084E-2,6.011767E-1,-3.903252E-1,9.468049E-4,3.0073065E-2,5.475915E-1,-5.2083768E-2,-7.7531576E-2,-5.7472967E-2,-2.3492536E-2,-2.7310062E-2,1.4751932E-2,-3.5770137E-2,3.8564955E-3,8.503533E-3,8.598921E-2,-5.836607E-4,4.2697262E-2,4.8455738E-2,7.6390386E-2,-7.408799E-2,4.1963752E-2,4.1556817E-2,7.3259294E-2],"categories":[],"categories_nodes":[],"categories_segments":[],"categories_sizes":[],"default_left":[0,0,0,1,0,1,1,0,0,0,0,0,0,0,1,0,0,0,0,0,1,1,1,0,0,0,0,0,0,0,0,0,0,0,0,0,0,0,0,0,0,0,0,0,0],"id":16,"left_children":[1,3,5,7,9,11,13,15,17,19,21,-1,-1,23,25,27,29,-1,31,33,35,37,39,41,-1,-1,43,-1,-1,-1,-1,-1,-1,-1,-1,-1,-1,-1,-1,-1,-1,-1,-1,-1,-1],"loss_changes":[8.896732E1,7.151388E1,2.1500168E1,2.9207832E1,4.2126686E1,1.498035E0,1.1391624E1,1.7508202E1,1.4672372E1,1.6444674E1,8.748119E0,0E0,0E0,1.378613E0,4.176346E0,1.1314697E0,4.976467E0,0E0,2.138317E1,4.7220154E0,9.099169E0,1.3061482E0,2.0211487E0,3.8455496E0,0E0,0E0,6.1963654E0,0E0,0E0,0E0,0E0,0E0,0E0,0E0,0E0,0E0,0E0,0E0,0E0,0E0,0E0,0E0,0E0,0E0,0E0],"parents":[2147483647,0,0,1,1,2,2,3,3,4,4,5,5,6,6,7,7,8,8,9,9,10,10,13,13,14,14,15,15,16,16,18,18,19,19,20,20,21,21,22,22,23,23,26,26],"right_children":[2,4,6,8,10,12,14,16,18,20,22,-1,-1,24,26,28,30,-1,32,34,36,38,40,42,-1,-1,44,-1,-1,-1,-1,-1,-1,-1,-1,-1,-1,-1,-1,-1,-1,-1,-1,-1,-1],"split_conditions":[4E0,3E0,1E0,1E0,2E0,1.2E1,2E0,2E0,2E0,2E0,2E0,-3.3167647E-3,-4.9278E-2,1E0,1E0,1E0,1E0,-5.111082E-2,1E0,1E0,1E0,1E0,1E0,1E0,9.468049E-4,3.0073065E-2,2E0,-5.2083768E-2,-7.7531576E-2,-5.7472967E-2,-2.3492536E-2,-2.7310062E-2,1.4751932E-2,-3.5770137E-2,3.8564955E-3,8.503533E-3,8.598921E-2,-5.836607E-4,4.2697262E-2,4.8455738E-2,7.6390386E-2,-7.408799E-2,4.1963752E-2,4.1556817E-2,7.3259294E-2],"split_indices":[21,16,1,14,1,34,15,22,15,21,22,0,0,15,16,24,14,0,16,13,13,2,13,16,0,0,1,0,0,0,0,0,0,0,0,0,0,0,0,0,0,0,0,0,0],"split_type":[0,0,0,0,0,0,0,0,0,0,0,0,0,0,0,0,0,0,0,0,0,0,0,0,0,0,0,0,0,0,0,0,0,0,0,0,0,0,0,0,0,0,0,0,0],"sum_hessian":[2.240959E3,1.6659475E3,5.750115E2,1.1453936E3,5.205539E2,9.052516E1,4.844863E2,6.0651953E2,5.3887396E2,2.869379E2,2.3361603E2,8.341066E1,7.1145015E0,3.756638E1,4.4691992E2,1.6740147E2,4.3911807E2,6.2045155E1,4.7682883E2,1.5246709E2,1.3447081E2,3.8703693E1,1.9491234E2,9.304268E0,2.8262112E1,1.3649687E2,3.1042307E2,8.578987E1,8.16116E1,5.0769726E1,3.8834836E2,1.8242664E2,2.944022E2,1.21603004E2,3.0864079E1,1.1849697E2,1.5973834E1,3.2485325E1,6.2183685E0,1.3273282E2,6.217952E1,7.2773476E0,2.0269206E0,2.0320352E2,1.07219536E2],"tree_param":{"num_deleted":"0","num_feature":"35","num_nodes":"45","size_leaf_vector":"1"}},{"base_weights":[4.6111974E-3,-8.590272E-2,2.034893E-1,-1.5485457E-1,4.087863E-1,-4.9912766E-2,4.833562E-1,-3.2700598E-1,1.5794124E-1,-4.4707558E-1,5.360731E-1,2.7168507E-2,-2.6774052E-1,5.003399E-1,-0E0,-6.2063355E-2,-2.7638492E-1,1.9951628E-1,-5.0523514E-1,-5.289725E-2,1.972596E-2,2.5392622E-1,7.1417373E-1,6.844022E-2,-2.4673489E-1,-6.771695E-1,-1.7206122E-1,4.0054223E-1,6.457293E-1,-5.4649215E-2,-1.869255E-2,3.1871166E-2,5.3081485E-3,-0E0,-7.940878E-2,2.9680418E-2,-1.9155055E-2,4.7250364E-2,8.9650385E-2,1.289665E-2,-6.0357507E-2,-4.1821454E-2,9.4704125E-3,-0E0,-7.769094E-2,-3.3230867E-2,8.693423E-3,2.736772E-3,4.3611985E-2,4.7828604E-2,7.695595E-2],"categories":[],"categories_nodes":[],"categories_segments":[],"categories_sizes":[],"default_left":[0,1,0,1,0,0,0,0,1,0,0,0,0,0,0,0,1,1,0,0,0,1,0,0,0,0,1,0,1,0,0,0,0,0,0,0,0,0,0,0,0,0,0,0,0,0,0,0,0,0,0],"id":17,"left_children":[1,3,5,7,9,11,13,15,17,19,21,23,25,27,-1,-1,29,31,33,-1,-1,35,37,39,41,43,45,47,49,-1,-1,-1,-1,-1,-1,-1,-1,-1,-1,-1,-1,-1,-1,-1,-1,-1,-1,-1,-1,-1,-1],"loss_changes":[4.015084E1,5.182385E1,5.0031902E1,7.242412E1,2.0487785E1,6.3913207E0,2.6335068E0,1.2691124E1,1.2880754E1,1.9712834E0,7.01939E0,2.8656344E0,2.917056E0,3.3723526E0,0E0,0E0,1.7166843E1,8.016933E0,3.5036464E0,0E0,0E0,1.7535052E0,2.7765007E0,1.0196644E1,2.4254546E0,1.4995351E0,4.033916E0,3.1843052E0,1.1578178E0,0E0,0E0,0E0,0E0,0E0,0E0,0E0,0E0,0E0,0E0,0E0,0E0,0E0,0E0,0E0,0E0,0E0,0E0,0E0,0E0,0E0,0E0],"parents":[2147483647,0,0,1,1,2,2,3,3,4,4,5,5,6,6,7,7,8,8,9,9,10,10,11,11,12,12,13,13,16,16,17,17,18,18,21,21,22,22,23,23,24,24,25,25,26,26,27,27,28,28],"right_children":[2,4,6,8,10,12,14,16,18,20,22,24,26,28,-1,-1,30,32,34,-1,-1,36,38,40,42,44,46,48,50,-1,-1,-1,-1,-1,-1,-1,-1,-1,-1,-1,-1,-1,-1,-1,-1,-1,-1,-1,-1,-1,-1],"split_conditions":[1E0,1E0,4E0,4E0,2E0,1E0,6.00001E0,2E0,2E0,1E0,2E0,2E0,1E0,2E0,-0E0,-6.2063355E-2,3E0,4E0,4E0,-5.289725E-2,1.972596E-2,1E0,3E0,4E0,2E0,1E0,2E0,9E0,3E0,-5.4649215E-2,-1.869255E-2,3.1871166E-2,5.3081485E-3,-0E0,-7.940878E-2,2.9680418E-2,-1.9155055E-2,4.7250364E-2,8.9650385E-2,1.289665E-2,-6.0357507E-2,-4.1821454E-2,9.4704125E-3,-0E0,-7.769094E-2,-3.3230867E-2,8.693423E-3,2.736772E-3,4.3611985E-2,4.7828604E-2,7.695595E-2],"split_indices":[11,13,18,18,18,32,32,15,28,2,1,31,31,1,0,0,18,15,15,0,0,2,16,20,1,18,1,33,16,0,0,0,0,0,0,0,0,0,0,0,0,0,0,0,0,0,0,0,0,0,0],"split_type":[0,0,0,0,0,0,0,0,0,0,0,0,0,0,0,0,0,0,0,0,0,0,0,0,0,0,0,0,0,0,0,0,0,0,0,0,0,0,0,0,0,0,0,0,0,0,0,0,0,0,0],"sum_hessian":[2.2219456E3,1.5239166E3,6.98029E2,1.3398685E3,1.8404811E2,3.6489124E2,3.331378E2,8.662614E2,4.7360715E2,2.2486025E1,1.6156209E2,2.667741E2,9.811711E1,3.2135837E2,1.1779432E1,1.1589908E2,7.503623E2,4.4774475E2,2.5862423E1,2.0982534E1,1.5034899E0,6.563065E1,9.5931435E1,2.3566518E2,3.1108932E1,1.5454679E1,8.266243E1,1.9686206E2,1.2449629E2,1.6435843E2,5.860039E2,2.3181763E2,2.1592711E2,1.146039E1,1.4402034E1,6.1053482E1,4.5771704E0,5.027275E1,4.5658688E1,2.175532E2,1.8111977E1,2.195531E1,9.153623E0,2.4072838E0,1.3047395E1,5.2108944E1,3.055349E1,2.5823244E1,1.7103882E2,6.716624E1,5.733006E1],"tree_param":{"num_deleted":"0","num_feature":"35","num_nodes":"51","size_leaf_vector":"1"}},{"base_weights":[3.430972E-3,-1.591066E-1,3.8287163E-1,-3.7910533E-1,-5.813163E-2,1.06581226E-1,4.941952E-1,-3.2003084E-1,-5.53485E-1,-1.8406944E-1,1.7016625E-1,-2.7002907E-1,1.963774E-1,1.2795849E-1,5.301696E-1,-2.0098032E-1,-4.028515E-1,-7.304399E-2,-4.1130143E-1,-7.999061E-2,-4.59294E-1,-2.8479558E-1,2.0988636E-1,-5.217908E-1,-0E0,3.6863044E-1,4.1694067E-2,2.5369108E-1,-5.1034264E-2,2.4421544E-1,6.065454E-1,-4.1417833E-2,1.4665624E-2,-5.428252E-2,-8.954673E-3,-7.9109944E-2,-2.6201228E-2,-6.181613E-4,-3.4990672E-2,-5.3606004E-2,-7.470325E-3,-3.665847E-2,1.2433784E-2,1.362386E-2,5.09555E-2,-6.7368366E-2,-0E0,-3.198385E-2,2.3021344E-2,4.5189332E-2,-3.642692E-2,-1.1322086E-2,5.1093593E-2,-7.857758E-3,4.501719E-2,3.4751922E-2,-2.7053159E-2,5.941647E-2,-0E0],"categories":[],"categories_nodes":[],"categories_segments":[],"categories_sizes":[],"default_left":[1,0,0,1,0,0,1,0,0,1,1,0,0,1,1,0,0,0,1,0,0,0,1,1,0,1,0,0,0,0,0,0,0,0,0,0,0,0,0,0,0,0,0,0,0,0,0,0,0,0,0,0,0,0,0,0,0,0,0],"id":18,"left_children":[1,3,5,7,9,11,13,15,17,19,21,23,25,27,29,31,33,-1,35,37,39,41,43,45,47,49,51,53,-1,55,57,-1,-1,-1,-1,-1,-1,-1,-1,-1,-1,-1,-1,-1,-1,-1,-1,-1,-1,-1,-1,-1,-1,-1,-1,-1,-1,-1,-1],"loss_changes":[1.3670953E2,3.391807E1,1.981659E1,3.930481E0,3.0665066E1,6.57377E0,5.486519E0,2.942009E0,1.8583183E0,1.917953E1,6.785413E0,2.657521E0,3.8421578E0,3.647259E0,8.317017E0,1.2959947E1,9.627865E0,0E0,2.884634E0,1.0075113E1,6.048458E0,1.4084527E0,6.890868E0,2.3302102E0,1.4109613E0,5.571227E0,7.301868E0,3.288781E0,0E0,5.8472657E0,1.6726456E0,0E0,0E0,0E0,0E0,0E0,0E0,0E0,0E0,0E0,0E0,0E0,0E0,0E0,0E0,0E0,0E0,0E0,0E0,0E0,0E0,0E0,0E0,0E0,0E0,0E0,0E0,0E0,0E0],"parents":[2147483647,0,0,1,1,2,2,3,3,4,4,5,5,6,6,7,7,8,8,9,9,10,10,11,11,12,12,13,13,14,14,15,15,16,16,18,18,19,19,20,20,21,21,22,22,23,23,24,24,25,25,26,26,27,27,29,29,30,30],"right_children":[2,4,6,8,10,12,14,16,18,20,22,24,26,28,30,32,34,-1,36,38,40,42,44,46,48,50,52,54,-1,56,58,-1,-1,-1,-1,-1,-1,-1,-1,-1,-1,-1,-1,-1,-1,-1,-1,-1,-1,-1,-1,-1,-1,-1,-1,-1,-1,-1,-1],"split_conditions":[1E0,1E0,2E0,1E0,2E0,3E0,1E0,5E0,1E0,1E0,2E0,1E0,1E0,4E0,3E0,4E0,4E0,-7.304399E-2,2E0,2E0,8E0,4E0,1E0,3E0,1E0,2E0,1E0,4E0,-5.1034264E-2,1E0,2.00001E0,-4.1417833E-2,1.4665624E-2,-5.428252E-2,-8.954673E-3,-7.9109944E-2,-2.6201228E-2,-6.181613E-4,-3.4990672E-2,-5.3606004E-2,-7.470325E-3,-3.665847E-2,1.2433784E-2,1.362386E-2,5.09555E-2,-6.7368366E-2,-0E0,-3.198385E-2,2.3021344E-2,4.5189332E-2,-3.642692E-2,-1.1322086E-2,5.1093593E-2,-7.857758E-3,4.501719E-2,3.4751922E-2,-2.7053159E-2,5.941647E-2,-0E0],"split_indices":[10,16,21,32,1,15,1,29,25,27,15,21,30,17,15,21,21,0,15,32,29,21,13,32,17,25,13,21,0,32,13,0,0,0,0,0,0,0,0,0,0,0,0,0,0,0,0,0,0,0,0,0,0,0,0,0,0,0,0],"split_type":[0,0,0,0,0,0,0,0,0,0,0,0,0,0,0,0,0,0,0,0,0,0,0,0,0,0,0,0,0,0,0,0,0,0,0,0,0,0,0,0,0,0,0,0,0,0,0,0,0,0,0,0,0,0,0,0,0,0,0],"sum_hessian":[2.211055E3,1.5465278E3,6.64527E2,4.8253946E2,1.0639884E3,1.9399565E2,4.705313E2,3.668364E2,1.1570305E2,6.886673E2,3.7532114E2,3.481906E1,1.5917659E2,4.4978893E1,4.2555243E2,1.5685959E2,2.0997682E2,4.3245483E1,7.245757E1,5.0327353E2,1.8539374E2,2.7619196E1,3.4770193E2,1.8353497E1,1.6465563E1,7.159809E1,8.757851E1,3.9530685E1,5.44821E0,9.334725E1,3.3220517E2,9.703904E1,5.982054E1,1.365302E2,7.3446625E1,1.5585931E1,5.687164E1,4.0255624E2,1.0071731E2,1.4621785E2,3.9175888E1,2.4548655E1,3.0705419E0,2.8910303E2,5.8598904E1,1.4696492E1,3.657005E0,5.9780455E0,1.0487517E1,6.478167E1,6.8164196E0,6.504899E1,2.2529514E1,1.3699702E1,2.5830984E1,7.839634E1,1.495091E1,3.289438E2,3.2613866E0],"tree_param":{"num_deleted":"0","num_feature":"35","num_nodes":"59","size_leaf_vector":"1"}},{"base_weights":[4.7441176E-3,-1.1373302E-1,1.3747734E-1,-3.456719E-1,1.4634421E-1,3.620393E-2,4.373167E-1,-2.6819387E-1,-6.815807E-1,4.4516182E-1,-2.1294832E-2,-2.0979111E-1,6.254382E-1,1.8167342E-1,7.8701645E-1,-4.0784436E-1,1.809623E-1,-0E0,-7.229643E-1,5.3388834E-1,1.20907776E-1,-4.3912414E-1,9.450651E-2,-1.23266004E-1,-6.182146E-1,2.6908461E-2,7.117718E-1,6.7882186E-1,6.743866E-2,-7.7008784E-2,8.5894585E-1,-4.7218446E-2,1.7840233E-2,-9.773032E-3,3.8128603E-2,2.192925E-2,-4.9919967E-2,-3.9447304E-2,-7.844631E-2,5.63285E-2,-0E0,-9.929186E-3,2.8661862E-2,-5.5475123E-2,2.6715023E-2,2.8402789E-2,-3.6047362E-3,1.1834049E-3,-3.7747115E-2,-6.268966E-2,1.2117486E-2,-4.3088403E-3,5.4694552E-2,7.786661E-2,3.939798E-2,-1.4278602E-2,8.1255764E-2,-0E0,2.570039E-2,-0E0,8.799948E-2],"categories":[],"categories_nodes":[],"categories_segments":[],"categories_sizes":[],"default_left":[1,0,1,0,0,0,0,0,0,1,0,0,0,0,0,1,0,0,0,0,0,1,1,1,1,0,0,0,1,0,0,0,0,0,0,0,0,0,0,0,0,0,0,0,0,0,0,0,0,0,0,0,0,0,0,0,0,0,0,0,0],"id":19,"left_children":[1,3,5,7,9,11,13,15,17,19,21,23,25,27,29,31,33,35,37,39,41,43,45,47,49,51,53,55,57,-1,59,-1,-1,-1,-1,-1,-1,-1,-1,-1,-1,-1,-1,-1,-1,-1,-1,-1,-1,-1,-1,-1,-1,-1,-1,-1,-1,-1,-1,-1,-1],"loss_changes":[3.4660095E1,7.021091E1,3.1173742E1,1.4883301E1,2.775444E1,1.1404736E2,2.2193123E1,3.1921555E1,2.723053E0,4.9828606E0,1.723391E1,1.8688213E1,1.1234093E1,7.9281263E0,1.3055138E1,1.866957E1,7.44643E0,1.2605908E0,1.3432617E0,4.446701E0,2.0355835E0,7.8833275E0,7.38161E0,1.6953028E1,2.6537018E0,1.7655445E0,4.136635E0,4.3871536E0,1.9207245E0,0E0,3.6912003E0,0E0,0E0,0E0,0E0,0E0,0E0,0E0,0E0,0E0,0E0,0E0,0E0,0E0,0E0,0E0,0E0,0E0,0E0,0E0,0E0,0E0,0E0,0E0,0E0,0E0,0E0,0E0,0E0,0E0,0E0],"parents":[2147483647,0,0,1,1,2,2,3,3,4,4,5,5,6,6,7,7,8,8,9,9,10,10,11,11,12,12,13,13,14,14,15,15,16,16,17,17,18,18,19,19,20,20,21,21,22,22,23,23,24,24,25,25,26,26,27,27,28,28,30,30],"right_children":[2,4,6,8,10,12,14,16,18,20,22,24,26,28,30,32,34,36,38,40,42,44,46,48,50,52,54,56,58,-1,60,-1,-1,-1,-1,-1,-1,-1,-1,-1,-1,-1,-1,-1,-1,-1,-1,-1,-1,-1,-1,-1,-1,-1,-1,-1,-1,-1,-1,-1,-1],"split_conditions":[1E0,2E0,3E0,2E0,2E0,2E0,2E0,4E0,4E0,1E1,1E0,2E0,1E0,1E1,1E0,1E0,1E0,3E0,1E0,4E0,2E0,1E0,1E0,6E0,2E0,4E0,2E0,2E0,1.1E1,-7.7008784E-2,1E0,-4.7218446E-2,1.7840233E-2,-9.773032E-3,3.8128603E-2,2.192925E-2,-4.9919967E-2,-3.9447304E-2,-7.844631E-2,5.63285E-2,-0E0,-9.929186E-3,2.8661862E-2,-5.5475123E-2,2.6715023E-2,2.8402789E-2,-3.6047362E-3,1.1834049E-3,-3.7747115E-2,-6.268966E-2,1.2117486E-2,-4.3088403E-3,5.4694552E-2,7.786661E-2,3.939798E-2,-1.4278602E-2,8.1255764E-2,-0E0,2.570039E-2,-0E0,8.799948E-2],"split_indices":[14,19,16,20,16,19,1,21,34,33,21,20,21,34,19,13,19,21,21,17,21,13,20,33,16,19,17,19,34,0,5,0,0,0,0,0,0,0,0,0,0,0,0,0,0,0,0,0,0,0,0,0,0,0,0,0,0,0,0,0,0],"split_type":[0,0,0,0,0,0,0,0,0,0,0,0,0,0,0,0,0,0,0,0,0,0,0,0,0,0,0,0,0,0,0,0,0,0,0,0,0,0,0,0,0,0,0,0,0,0,0,0,0,0,0,0,0,0,0,0,0,0,0,0,0],"sum_hessian":[2.2005159E3,1.158792E3,1.0417239E3,6.1439014E2,5.444019E2,7.820391E2,2.5968478E2,5.0311996E2,1.1127015E2,1.972005E2,3.472014E2,5.5096686E2,2.3107224E2,1.5254669E2,1.071381E2,3.8556076E2,1.175592E2,7.2753525E0,1.039948E2,1.5190408E2,4.5296425E1,7.661304E1,2.7058835E2,4.577435E2,9.322337E1,3.0754364E1,2.0031786E2,2.5943708E1,1.2660299E2,3.616533E0,1.0352156E2,3.413878E2,4.4172974E1,4.878032E1,6.877888E1,4.6174445E0,2.657908E0,2.6240763E1,7.7754036E1,1.4090097E2,1.1003106E1,1.7574898E1,2.7721529E1,6.58786E1,1.0734435E1,1.1036422E2,1.6022414E2,3.0164813E2,1.5609538E2,9.110984E1,2.1135378E0,2.6319387E1,4.4349775E0,1.4992357E2,5.039429E1,3.2176788E0,2.272603E1,9.210743E1,3.449556E1,6.7049437E0,9.681662E1],"tree_param":{"num_deleted":"0","num_feature":"35","num_nodes":"61","size_leaf_vector":"1"}},{"base_weights":[1.1926958E-2,-2.378992E-1,3.1501707E-1,-5.0385857E-1,-7.768269E-2,1.6405983E-1,4.916761E-1,-3.6965132E-1,-6.955135E-1,2.0387849E-2,-4.0186837E-1,5.2654505E-1,8.528837E-2,5.485263E-1,-0E0,-3.1004073E-2,-4.104613E-1,-7.9984754E-1,-5.2520764E-1,6.639244E-2,-4.316968E-1,-4.7322124E-1,8.1718415E-1,-2.863958E-1,5.9027326E-1,1.4901686E-1,-2.9055265E-1,4.4812894E-1,9.145407E-1,-2.8582534E-1,8.299203E-2,-1.5302324E-2,1.1477306E-1,-6.949511E-2,-3.223415E-2,-8.012214E-2,1.3361022E-2,-1.7264364E-2,-7.381143E-2,-2.8596974E-3,3.354623E-2,-4.4306233E-3,-6.423715E-2,-3.4710187E-2,-7.9593025E-2,1.414583E-1,9.922601E-4,-7.290263E-2,-0E0,3.993477E-2,7.783437E-2,7.4923923E-3,4.2703267E-2,1.47338E-4,-4.6610363E-2,4.5319077E-2,-2.2227057E-4,3.3877656E-2,9.676031E-2,-5.80747E-2,-0E0,-2.0542199E-2,5.159385E-2],"categories":[],"categories_nodes":[],"categories_segments":[],"categories_sizes":[],"default_left":[0,0,1,1,1,0,1,0,0,1,0,1,1,1,0,1,0,0,0,1,1,0,1,0,1,1,0,1,0,0,1,0,0,0,0,0,0,0,0,0,0,0,0,0,0,0,0,0,0,0,0,0,0,0,0,0,0,0,0,0,0,0,0],"id":20,"left_children":[1,3,5,7,9,11,13,15,17,19,21,23,25,27,29,31,33,35,37,39,41,43,45,47,49,51,53,55,57,59,61,-1,-1,-1,-1,-1,-1,-1,-1,-1,-1,-1,-1,-1,-1,-1,-1,-1,-1,-1,-1,-1,-1,-1,-1,-1,-1,-1,-1,-1,-1,-1,-1],"loss_changes":[1.6449661E2,5.002333E1,2.5475853E1,1.0105339E1,2.4082983E1,1.4606931E1,1.2164673E1,3.228981E0,1.4314728E0,1.1533486E1,1.530825E1,5.2893906E0,1.05027075E1,1.297998E1,1.0371187E0,4.1639524E0,4.312687E0,3.5384598E0,5.049675E0,1.4322846E1,3.8080187E0,5.216179E0,3.3435292E0,1.4850049E0,1.7826023E0,7.425391E0,3.9497285E0,3.3343124E0,2.2921371E0,1.3025992E0,5.8270483E0,0E0,0E0,0E0,0E0,0E0,0E0,0E0,0E0,0E0,0E0,0E0,0E0,0E0,0E0,0E0,0E0,0E0,0E0,0E0,0E0,0E0,0E0,0E0,0E0,0E0,0E0,0E0,0E0,0E0,0E0,0E0,0E0],"parents":[2147483647,0,0,1,1,2,2,3,3,4,4,5,5,6,6,7,7,8,8,9,9,10,10,11,11,12,12,13,13,14,14,15,15,16,16,17,17,18,18,19,19,20,20,21,21,22,22,23,23,24,24,25,25,26,26,27,27,28,28,29,29,30,30],"right_children":[2,4,6,8,10,12,14,16,18,20,22,24,26,28,30,32,34,36,38,40,42,44,46,48,50,52,54,56,58,60,62,-1,-1,-1,-1,-1,-1,-1,-1,-1,-1,-1,-1,-1,-1,-1,-1,-1,-1,-1,-1,-1,-1,-1,-1,-1,-1,-1,-1,-1,-1,-1,-1],"split_conditions":[2E0,1E0,1E0,4E0,1E1,9E0,2E0,1.6E1,2.00001E0,2E0,1E0,1E0,2E0,4E0,2E1,3E0,2E0,2.00001E0,1E0,1E0,1E0,1E0,6E0,1E0,1E0,1E0,1E0,2E0,3E0,4E0,1E0,-1.5302324E-2,1.1477306E-1,-6.949511E-2,-3.223415E-2,-8.012214E-2,1.3361022E-2,-1.7264364E-2,-7.381143E-2,-2.8596974E-3,3.354623E-2,-4.4306233E-3,-6.423715E-2,-3.4710187E-2,-7.9593025E-2,1.414583E-1,9.922601E-4,-7.290263E-2,-0E0,3.993477E-2,7.783437E-2,7.4923923E-3,4.2703267E-2,1.47338E-4,-4.6610363E-2,4.5319077E-2,-2.2227057E-4,3.3877656E-2,9.676031E-2,-5.80747E-2,-0E0,-2.0542199E-2,5.159385E-2],"split_indices":[19,19,14,34,33,34,25,33,14,25,13,33,25,19,34,34,15,10,30,10,27,27,34,30,13,25,31,28,15,19,10,0,0,0,0,0,0,0,0,0,0,0,0,0,0,0,0,0,0,0,0,0,0,0,0,0,0,0,0,0,0,0,0],"split_type":[0,0,0,0,0,0,0,0,0,0,0,0,0,0,0,0,0,0,0,0,0,0,0,0,0,0,0,0,0,0,0,0,0,0,0,0,0,0,0,0,0,0,0,0,0,0,0,0,0,0,0,0,0,0,0,0,0,0,0,0,0,0,0],"sum_hessian":[2.1694294E3,1.1875176E3,9.819118E2,4.4328244E2,7.442351E2,5.3356415E2,4.4834763E2,2.6550662E2,1.7777582E2,5.6973505E2,1.7450006E2,9.196883E1,4.415953E2,4.004622E2,4.7885445E1,3.1379395E1,2.3412723E2,1.0430646E2,7.346936E1,5.1989514E2,4.9839935E1,1.6620403E2,8.296035E0,5.290871E0,8.6677956E1,3.8036407E2,6.1231228E1,3.1815036E2,8.2311844E1,8.270662E0,3.9614784E1,2.9944149E1,1.4352458E0,4.2905785E1,1.9122144E2,1.0246503E2,1.8414248E0,3.2255703E1,4.1213657E1,3.852674E2,1.3462773E2,2.0768866E1,2.907107E1,1.2875694E2,3.7447094E1,3.4741294E0,4.821905E0,2.5293097E0,2.7615612E0,5.1459625E1,3.521833E1,3.0921014E2,7.115394E1,2.2520536E1,3.871069E1,3.06747E2,1.1403338E1,1.2961705E1,6.9350136E1,4.7255573E0,3.5451047E0,2.289784E1,1.6716944E1],"tree_param":{"num_deleted":"0","num_feature":"35","num_nodes":"63","size_leaf_vector":"1"}},{"base_weights":[8.761913E-3,-1.159421E-1,3.0564162E-1,-3.2106173E-1,1.9908533E-1,5.3519815E-2,5.1185435E-1,-4.011204E-1,-2.3300838E-1,-3.9346623E-1,2.6725218E-1,3.4645313E-1,-2.0176037E-1,3.9572185E-1,6.627959E-1,-4.719698E-1,4.086099E-2,-1.4717655E-1,-5.161095E-1,-9.347276E-2,-0E0,-1.12137E-2,4.2963517E-1,1.3623045E-1,5.0940925E-1,-4.9150467E-1,-8.3154656E-2,6.810722E-2,2.730233E-1,7.07258E-2,-2.1929464E-1,-6.614785E-2,-3.43068E-2,-2.5468137E-2,2.6021248E-2,-4.0287983E-2,7.5032013E-3,-5.56192E-2,3.7699215E-2,1.5157249E-2,-2.80065E-2,8.60712E-3,-5.8499344E-2,1.9330384E-2,5.083914E-2,-2.6587706E-2,4.8060775E-2,5.6239255E-2,-3.85416E-2,-8.019039E-2,-1.7973147E-2,1.0601372E-3,-2.7926665E-2,-7.7629164E-3,3.1840015E-2,-1.0695209E-1,4.0546324E-2],"categories":[],"categories_nodes":[],"categories_segments":[],"categories_sizes":[],"default_left":[1,1,0,0,0,0,0,1,0,0,0,1,0,1,1,1,0,0,0,0,0,1,0,0,0,0,1,0,0,0,0,0,0,0,0,0,0,0,0,0,0,0,0,0,0,0,0,0,0,0,0,0,0,0,0,0,0],"id":21,"left_children":[1,3,5,7,9,11,13,15,17,19,21,23,25,27,29,31,33,35,37,-1,39,41,43,45,47,49,51,-1,53,-1,55,-1,-1,-1,-1,-1,-1,-1,-1,-1,-1,-1,-1,-1,-1,-1,-1,-1,-1,-1,-1,-1,-1,-1,-1,-1,-1],"loss_changes":[8.005592E1,9.820042E1,3.270618E1,5.7647247E0,2.4087248E1,2.201008E1,4.8147354E0,1.5326149E1,1.0120522E1,1.3874048E1,2.4722733E1,4.009474E0,4.695552E0,6.535557E0,9.447235E0,8.944214E0,4.550612E0,2.1340824E1,5.7380943E0,0E0,1.663429E0,1.224313E1,6.672512E0,9.86772E0,5.254402E0,3.182598E0,2.4696195E0,0E0,3.229948E0,0E0,6.9057126E0,0E0,0E0,0E0,0E0,0E0,0E0,0E0,0E0,0E0,0E0,0E0,0E0,0E0,0E0,0E0,0E0,0E0,0E0,0E0,0E0,0E0,0E0,0E0,0E0,0E0,0E0],"parents":[2147483647,0,0,1,1,2,2,3,3,4,4,5,5,6,6,7,7,8,8,9,9,10,10,11,11,12,12,13,13,14,14,15,15,16,16,17,17,18,18,20,20,21,21,22,22,23,23,24,24,25,25,26,26,28,28,30,30],"right_children":[2,4,6,8,10,12,14,16,18,20,22,24,26,28,30,32,34,36,38,-1,40,42,44,46,48,50,52,-1,54,-1,56,-1,-1,-1,-1,-1,-1,-1,-1,-1,-1,-1,-1,-1,-1,-1,-1,-1,-1,-1,-1,-1,-1,-1,-1,-1,-1],"split_conditions":[1E0,2E0,2E0,1E0,1E0,1E0,2E0,1E0,1E0,3E0,2E0,1E0,2E0,2E0,2E0,1E0,1E0,4E0,4E0,-9.347276E-2,4.00001E0,2E0,2E0,1E0,2E0,1E0,1E0,6.810722E-2,1E0,7.07258E-2,1E0,-6.614785E-2,-3.43068E-2,-2.5468137E-2,2.6021248E-2,-4.0287983E-2,7.5032013E-3,-5.56192E-2,3.7699215E-2,1.5157249E-2,-2.80065E-2,8.60712E-3,-5.8499344E-2,1.9330384E-2,5.083914E-2,-2.6587706E-2,4.8060775E-2,5.6239255E-2,-3.85416E-2,-8.019039E-2,-1.7973147E-2,1.0601372E-3,-2.7926665E-2,-7.7629164E-3,3.1840015E-2,-1.0695209E-1,4.0546324E-2],"split_indices":[10,19,19,28,1,9,1,13,32,21,21,28,22,0,25,19,19,21,21,0,25,25,22,25,32,19,32,0,1,0,6,0,0,0,0,0,0,0,0,0,0,0,0,0,0,0,0,0,0,0,0,0,0,0,0,0,0],"split_type":[0,0,0,0,0,0,0,0,0,0,0,0,0,0,0,0,0,0,0,0,0,0,0,0,0,0,0,0,0,0,0,0,0,0,0,0,0,0,0,0,0,0,0,0,0,0,0,0,0,0,0,0,0,0,0,0,0],"sum_hessian":[2.1553015E3,1.5158228E3,6.394787E2,9.1997003E2,5.958528E2,2.9046115E2,3.4901755E2,4.740493E2,4.4592075E2,5.946876E1,5.36384E2,1.3691345E2,1.535477E2,2.0304451E2,1.4597304E2,4.1044916E2,6.360013E1,3.460546E2,9.986614E1,2.3929441E1,3.553932E1,1.9564711E2,3.4073688E2,6.3267456E1,7.3646E1,4.1236034E1,1.12311676E2,5.420887E1,1.4883563E2,1.3678185E2,9.191185E0,1.4205382E2,2.6839536E2,2.5308508E1,3.829162E1,1.5914963E2,1.8690497E2,9.5201195E1,4.6649446E0,2.3974398E1,1.1564923E1,1.6667244E2,2.897467E1,1.03921844E2,2.3681505E2,2.8368425E1,3.4899033E1,6.962556E1,4.020446E0,1.7258562E1,2.397747E1,7.431871E1,3.7992966E1,1.7812222E1,1.3102342E2,4.1997943E0,4.99139E0],"tree_param":{"num_deleted":"0","num_feature":"35","num_nodes":"57","size_leaf_vector":"1"}},{"base_weights":[7.2285105E-3,1.6859809E-1,-1.1590705E-1,-6.498235E-2,2.737558E-1,1.2139135E-1,-1.7028424E-1,-1.7034808E-1,4.3525505E-1,5.9320662E-2,1.6948156E-1,-1.12721935E-1,-3.4139195E-1,-2.9698065E-1,4.5781583E-2,2.6893568E-1,5.7969254E-1,-4.3726824E-2,2.4697448E-1,-3.0350968E-1,-5.8449253E-2,-4.6876073E-1,-1.2311539E-1,-1.8394375E-2,-5.8051217E-2,-2.138669E-2,2.029858E-2,1.3221394E-2,4.4457577E-2,3.8841102E-2,7.2139196E-2,2.0883173E-2,-2.7202709E-2,1.1131878E-3,6.1494187E-2,-4.006771E-2,-2.4635384E-3,-2.3532532E-2,2.1711979E-2,-6.1015997E-2,-2.1321671E-2,-2.1587536E-2,1.3414791E-2],"categories":[],"categories_nodes":[],"categories_segments":[],"categories_sizes":[],"default_left":[0,0,0,0,1,0,1,0,1,0,0,0,1,1,0,0,1,0,0,0,0,0,0,0,0,0,0,0,0,0,0,0,0,0,0,0,0,0,0,0,0,0,0],"id":22,"left_children":[1,3,5,-1,7,9,11,13,15,17,-1,19,21,23,25,27,29,31,33,35,37,39,41,-1,-1,-1,-1,-1,-1,-1,-1,-1,-1,-1,-1,-1,-1,-1,-1,-1,-1,-1,-1],"loss_changes":[4.2098175E1,8.096866E1,1.5511303E1,0E0,5.906341E1,2.0358402E1,9.134575E0,6.215201E0,1.3465782E1,4.3483243E0,0E0,7.254305E0,6.055662E0,3.6338387E0,3.4555557E0,6.520426E0,7.9533157E0,8.46009E0,6.601478E0,4.426791E0,3.030586E1,4.9916763E0,2.5484269E0,0E0,0E0,0E0,0E0,0E0,0E0,0E0,0E0,0E0,0E0,0E0,0E0,0E0,0E0,0E0,0E0,0E0,0E0,0E0,0E0],"parents":[2147483647,0,0,1,1,2,2,4,4,5,5,6,6,7,7,8,8,9,9,11,11,12,12,13,13,14,14,15,15,16,16,17,17,18,18,19,19,20,20,21,21,22,22],"right_children":[2,4,6,-1,8,10,12,14,16,18,-1,20,22,24,26,28,30,32,34,36,38,40,42,-1,-1,-1,-1,-1,-1,-1,-1,-1,-1,-1,-1,-1,-1,-1,-1,-1,-1,-1,-1],"split_conditions":[1E0,2E0,6E0,-6.498235E-2,1E0,5E0,1E0,4E0,4E0,2E0,1.6948156E-1,1E0,4E0,1E0,1E0,3E0,1E0,5E0,4E0,4E0,4E0,3E0,2E0,-1.8394375E-2,-5.8051217E-2,-2.138669E-2,2.029858E-2,1.3221394E-2,4.4457577E-2,3.8841102E-2,7.2139196E-2,2.0883173E-2,-2.7202709E-2,1.1131878E-3,6.1494187E-2,-4.006771E-2,-2.4635384E-3,-2.3532532E-2,2.1711979E-2,-6.1015997E-2,-2.1321671E-2,-2.1587536E-2,1.3414791E-2],"split_indices":[20,18,33,0,19,33,27,18,18,16,0,16,18,27,3,19,14,29,18,18,18,19,1,0,0,0,0,0,0,0,0,0,0,0,0,0,0,0,0,0,0,0,0],"split_type":[0,0,0,0,0,0,0,0,0,0,0,0,0,0,0,0,0,0,0,0,0,0,0,0,0,0,0,0,0,0,0,0,0,0,0,0,0,0,0,0,0,0,0],"sum_hessian":[2.1140093E3,9.183113E2,1.1956981E3,1.005389E2,8.177724E2,2.1925626E2,9.7644183E2,2.1641364E2,6.0135876E2,2.1279857E2,6.457676E0,7.362599E2,2.4018199E2,1.3914182E2,7.727183E1,2.8405527E2,3.173035E2,1.3442111E2,7.8377464E1,1.5795924E2,5.783006E2,1.4805817E2,9.2123825E1,1.0643887E2,3.270294E1,2.6955687E1,5.0316143E1,1.7161328E2,1.1244197E2,1.5714969E2,1.601538E2,6.2238544E1,7.218256E1,5.102777E1,2.7349693E1,1.10164696E2,4.779455E1,3.520724E2,2.2622823E2,8.638656E1,6.1671608E1,6.955272E1,2.2571104E1],"tree_param":{"num_deleted":"0","num_feature":"35","num_nodes":"43","size_leaf_vector":"1"}},{"base_weights":[3.0826367E-4,-1.6899022E-1,8.112102E-2,-2.776944E-1,1.3941902E-1,-1.8873716E-2,1.3061011E-1,-3.5290664E-1,2.593485E-3,-9.4463676E-2,2.735038E-1,-3.9083877E-1,2.6555678E-1,-2.2787924E-1,1.6235162E-1,-2.3957628E-1,-4.890172E-1,-3.9529672E-1,1.5573032E-1,7.904442E-2,-2.1923508E-1,7.285088E-2,4.2031103E-1,-6.3302356E-1,-3.187166E-1,-3.571429E-2,3.2944772E-1,-3.6882707E-1,1.3553578E-1,8.4256366E-2,2.546161E-1,-4.8805945E-2,-1.6439388E-2,-2.9380346E-2,-6.7450866E-2,-6.4682946E-2,-0E0,2.6183182E-2,-4.922384E-2,2.62575E-2,-3.6057103E-2,-2.670251E-2,2.7671862E-2,-5.500079E-3,4.465328E-2,2.4470486E-2,7.110136E-2,2.3223849E-2,-7.1206085E-2,-4.56441E-2,-6.864798E-3,4.4552335E-3,-4.5670137E-2,3.9612748E-2,8.75213E-3,-1.5994271E-2,-5.3020727E-2,2.6838956E-2,-5.5654973E-2,1.6872756E-2,-7.307583E-3,2.662943E-2,-2.5958315E-2],"categories":[],"categories_nodes":[],"categories_segments":[],"categories_sizes":[],"default_left":[0,0,0,1,0,0,0,1,0,1,0,1,0,0,0,0,0,1,0,1,0,1,1,0,0,0,0,1,0,1,1,0,0,0,0,0,0,0,0,0,0,0,0,0,0,0,0,0,0,0,0,0,0,0,0,0,0,0,0,0,0,0,0],"id":23,"left_children":[1,3,5,7,9,11,13,15,17,19,21,23,25,27,29,31,33,35,37,39,41,43,45,47,49,51,53,55,57,59,61,-1,-1,-1,-1,-1,-1,-1,-1,-1,-1,-1,-1,-1,-1,-1,-1,-1,-1,-1,-1,-1,-1,-1,-1,-1,-1,-1,-1,-1,-1,-1,-1],"loss_changes":[2.8623808E1,2.27754E1,7.163595E0,1.0915611E1,5.659585E0,4.9508957E1,1.0892094E1,5.292473E0,6.171239E0,1.4869192E0,2.8205185E0,2.405653E0,5.368349E0,4.171955E0,6.0150356E0,3.3586931E0,5.5632668E0,2.976996E0,5.8242717E0,2.001051E0,1.1925212E0,3.0517461E0,2.1150618E0,4.4772205E0,5.5628986E0,2.0218205E0,3.6515045E0,1.2702742E0,1.870854E0,7.107716E0,4.3431587E0,0E0,0E0,0E0,0E0,0E0,0E0,0E0,0E0,0E0,0E0,0E0,0E0,0E0,0E0,0E0,0E0,0E0,0E0,0E0,0E0,0E0,0E0,0E0,0E0,0E0,0E0,0E0,0E0,0E0,0E0,0E0,0E0],"parents":[2147483647,0,0,1,1,2,2,3,3,4,4,5,5,6,6,7,7,8,8,9,9,10,10,11,11,12,12,13,13,14,14,15,15,16,16,17,17,18,18,19,19,20,20,21,21,22,22,23,23,24,24,25,25,26,26,27,27,28,28,29,29,30,30],"right_children":[2,4,6,8,10,12,14,16,18,20,22,24,26,28,30,32,34,36,38,40,42,44,46,48,50,52,54,56,58,60,62,-1,-1,-1,-1,-1,-1,-1,-1,-1,-1,-1,-1,-1,-1,-1,-1,-1,-1,-1,-1,-1,-1,-1,-1,-1,-1,-1,-1,-1,-1,-1,-1],"split_conditions":[1E0,4E0,2E0,3E0,2E0,3E0,1E0,1E0,3E0,1E0,1E0,3E0,2E0,4E0,3E0,2E0,6E0,1E0,2E0,4E0,4E0,1E0,1E0,1E0,2E0,1E0,1E0,3E0,8E0,3E0,2E0,-4.8805945E-2,-1.6439388E-2,-2.9380346E-2,-6.7450866E-2,-6.4682946E-2,-0E0,2.6183182E-2,-4.922384E-2,2.62575E-2,-3.6057103E-2,-2.670251E-2,2.7671862E-2,-5.500079E-3,4.465328E-2,2.4470486E-2,7.110136E-2,2.3223849E-2,-7.1206085E-2,-4.56441E-2,-6.864798E-3,4.4552335E-3,-4.5670137E-2,3.9612748E-2,8.75213E-3,-1.5994271E-2,-5.3020727E-2,2.6838956E-2,-5.5654973E-2,1.6872756E-2,-7.307583E-3,2.662943E-2,-2.5958315E-2],"split_indices":[8,21,22,16,22,21,23,26,23,26,30,15,23,15,21,22,29,28,28,15,16,10,10,29,21,4,22,22,29,22,28,0,0,0,0,0,0,0,0,0,0,0,0,0,0,0,0,0,0,0,0,0,0,0,0,0,0,0,0,0,0,0,0],"split_type":[0,0,0,0,0,0,0,0,0,0,0,0,0,0,0,0,0,0,0,0,0,0,0,0,0,0,0,0,0,0,0,0,0,0,0,0,0,0,0,0,0,0,0,0,0,0,0,0,0,0,0,0,0,0,0,0,0,0,0,0,0,0,0],"sum_hessian":[2.0965781E3,6.730688E2,1.4235093E3,5.00131E2,1.729378E2,4.6479135E2,9.587179E2,3.9692825E2,1.0320277E2,6.0407375E1,1.1253043E2,2.0276558E2,2.6202576E2,7.491722E1,8.8380066E2,2.2210391E2,1.7482434E2,2.6426989E1,7.677578E1,2.2069366E1,3.8338005E1,5.1056038E1,6.1474392E1,4.1561268E1,1.6120432E2,4.318426E1,2.188415E2,5.5953037E1,1.8964188E1,4.855604E2,3.982403E2,4.2072643E1,1.8003127E2,9.616413E1,7.866021E1,1.5272315E1,1.1154673E1,6.725828E1,9.517498E0,1.7314217E1,4.75515E0,3.6665703E1,1.672303E0,3.6986156E1,1.4069883E1,4.3339134E1,1.8135258E1,3.198431E0,3.8362835E1,9.668445E1,6.4519875E1,3.5188633E1,7.995627E0,1.604567E2,5.8384815E1,2.9674017E1,2.6279018E1,1.7493029E1,1.4711598E0,3.1450092E2,1.7105948E2,3.8556195E2,1.2678352E1],"tree_param":{"num_deleted":"0","num_feature":"35","num_nodes":"63","size_leaf_vector":"1"}},{"base_weights":[7.61657E-4,-8.7085344E-2,1.5662567E-1,-5.371936E-1,-1.5103185E-3,-4.4681352E-1,2.2591148E-1,-8.928154E-2,-4.7102997E-1,-4.5877114E-2,3.3284735E-2,-4.9967286E-1,5.1883407E-2,7.5288326E-2,3.9307144E-1,-5.4081637E-1,-2.2073974E-1,-9.2105776E-2,2.0012477E-1,-5.336587E-1,-0E0,-1.6311934E-2,5.959752E-2,-4.4312793E-1,1.2413523E-1,2.7166414E-1,6.1732334E-1,-8.858944E-2,-4.7093637E-2,-1.00258915E-2,-8.656156E-2,-2.3542158E-3,-2.5752438E-2,2.5844786E-2,-2.674827E-2,1.7336893E-3,-5.5284917E-2,-4.908076E-2,-0E0,1.7265268E-2,-2.2497276E-2,-1.3005675E-2,2.983099E-2,2.0584684E-2,6.625298E-2],"categories":[],"categories_nodes":[],"categories_segments":[],"categories_sizes":[],"default_left":[0,0,0,0,0,1,1,0,1,0,1,1,0,0,0,0,0,0,0,0,0,0,0,0,0,0,0,0,0,0,0,0,0,0,0,0,0,0,0,0,0,0,0,0,0],"id":24,"left_children":[1,3,5,7,9,11,13,-1,15,-1,17,19,21,23,25,27,29,31,33,35,-1,-1,-1,37,39,41,43,-1,-1,-1,-1,-1,-1,-1,-1,-1,-1,-1,-1,-1,-1,-1,-1,-1,-1],"loss_changes":[2.8860537E1,5.1101315E1,3.1740889E1,3.5797691E0,1.9017498E1,2.5123053E0,1.676693E1,0E0,2.3579025E0,0E0,2.2110605E1,1.6331081E0,1.3586823E0,8.980934E0,7.6999283E0,1.0280151E0,2.4796267E0,6.742768E0,1.4535055E1,1.9787121E0,0E0,0E0,0E0,1.2626286E0,6.481842E0,3.3717432E0,1.9196243E0,0E0,0E0,0E0,0E0,0E0,0E0,0E0,0E0,0E0,0E0,0E0,0E0,0E0,0E0,0E0,0E0,0E0,0E0],"parents":[2147483647,0,0,1,1,2,2,3,3,4,4,5,5,6,6,8,8,10,10,11,11,12,12,13,13,14,14,15,15,16,16,17,17,18,18,19,19,23,23,24,24,25,25,26,26],"right_children":[2,4,6,8,10,12,14,-1,16,-1,18,20,22,24,26,28,30,32,34,36,-1,-1,-1,38,40,42,44,-1,-1,-1,-1,-1,-1,-1,-1,-1,-1,-1,-1,-1,-1,-1,-1,-1,-1],"split_conditions":[2E0,3E0,2E0,1E0,1E0,1E0,1E0,-8.928154E-2,1E0,-4.5877114E-2,4E0,1E0,1E0,3E0,2E0,1E0,4E0,2E0,4E0,1E0,-0E0,-1.6311934E-2,5.959752E-2,1E0,4E0,2E0,3E0,-8.858944E-2,-4.7093637E-2,-1.00258915E-2,-8.656156E-2,-2.3542158E-3,-2.5752438E-2,2.5844786E-2,-2.674827E-2,1.7336893E-3,-5.5284917E-2,-4.908076E-2,-0E0,1.7265268E-2,-2.2497276E-2,-1.3005675E-2,2.983099E-2,2.0584684E-2,6.625298E-2],"split_indices":[1,18,18,23,14,4,14,0,11,0,18,2,11,33,16,14,17,30,17,33,0,0,0,4,16,23,23,0,0,0,0,0,0,0,0,0,0,0,0,0,0,0,0,0,0],"split_type":[0,0,0,0,0,0,0,0,0,0,0,0,0,0,0,0,0,0,0,0,0,0,0,0,0,0,0,0,0,0,0,0,0,0,0,0,0,0,0,0,0,0,0,0,0],"sum_hessian":[2.1007356E3,1.3396926E3,7.6104297E2,2.1130513E2,1.1283876E3,7.633424E1,6.847087E2,2.6877548E1,1.8442758E2,7.85276E1,1.0498599E3,7.08299E1,5.5043397E0,3.6407953E2,3.2062918E2,1.4018483E2,4.424274E1,5.96219E2,4.5364093E2,6.770672E1,3.1231878E0,3.1858628E0,2.3184772E0,2.8892899E1,3.351866E2,2.1234097E2,1.0828819E2,1.3456189E1,1.26728645E2,3.993171E1,4.3110323E0,4.3393103E2,1.6228795E2,4.0007153E2,5.356938E1,2.628942E0,6.5077774E1,2.6755348E1,2.13755E0,2.9382892E2,4.1357708E1,1.5009237E1,1.9733174E2,1.8087059E1,9.020113E1],"tree_param":{"num_deleted":"0","num_feature":"35","num_nodes":"45","size_leaf_vector":"1"}},{"base_weights":[1.3788725E-2,-1.3589236E-1,1.8103503E-1,1.7734186E-1,-2.43132E-1,7.175499E-2,2.7967143E-1,-2.503686E-5,3.4915483E-1,-3.158711E-1,-5.7013925E-2,1.2800124E-1,-2.2395724E-1,3.528677E-1,7.012639E-2,-5.515703E-2,1.1021575E-1,5.2655403E-2,6.2942415E-1,-1.0505161E-1,-3.8209987E-1,1.0654667E-2,-4.0611544E-1,-1.4357366E-1,1.8409094E-1,-4.2764178E-1,-3.2208085E-2,4.2037296E-1,1.7378062E-1,-2.5282187E-2,2.7406064E-1,-6.264009E-2,6.151531E-4,-6.0596634E-3,3.4760658E-2,7.527775E-2,2.026546E-2,-1.8227793E-2,1.4244399E-2,-4.0545464E-2,-3.7895762E-3,-1.0382003E-2,2.418726E-2,-5.5168044E-2,2.3302933E-2,3.3214008E-3,-3.1112257E-2,5.468162E-3,2.8153004E-2,-0E0,-5.188733E-2,5.6883977E-3,-8.03822E-2,-0E0,4.46692E-2,1.2095901E-2,6.364683E-2,-5.00341E-2,1.7009416E-3,1.8481467E-3,4.9122997E-2],"categories":[],"categories_nodes":[],"categories_segments":[],"categories_sizes":[],"default_left":[0,0,1,1,0,1,0,0,0,0,1,0,0,0,0,0,0,0,0,1,0,0,1,0,0,0,1,0,0,1,0,0,0,0,0,0,0,0,0,0,0,0,0,0,0,0,0,0,0,0,0,0,0,0,0,0,0,0,0,0,0],"id":25,"left_children":[1,3,5,7,9,11,13,15,17,19,21,23,25,27,29,31,-1,33,35,37,39,41,43,45,47,49,51,53,55,57,59,-1,-1,-1,-1,-1,-1,-1,-1,-1,-1,-1,-1,-1,-1,-1,-1,-1,-1,-1,-1,-1,-1,-1,-1,-1,-1,-1,-1,-1,-1],"loss_changes":[5.168314E1,3.6569824E1,1.0163147E1,8.730503E0,1.0593876E1,7.746832E0,7.3519974E0,7.356076E0,1.1132151E1,7.561245E0,5.9060583E0,6.132598E0,2.3619294E0,3.8432426E0,2.9102857E0,5.344088E0,0E0,2.8646295E0,3.2962646E0,3.0795345E0,5.0198174E0,5.633776E0,4.7296987E0,2.3747568E0,4.177167E0,1.5227866E0,3.7968433E0,4.342331E0,1.6843662E0,2.4147482E0,2.2543387E0,0E0,0E0,0E0,0E0,0E0,0E0,0E0,0E0,0E0,0E0,0E0,0E0,0E0,0E0,0E0,0E0,0E0,0E0,0E0,0E0,0E0,0E0,0E0,0E0,0E0,0E0,0E0,0E0,0E0,0E0],"parents":[2147483647,0,0,1,1,2,2,3,3,4,4,5,5,6,6,7,7,8,8,9,9,10,10,11,11,12,12,13,13,14,14,15,15,17,17,18,18,19,19,20,20,21,21,22,22,23,23,24,24,25,25,26,26,27,27,28,28,29,29,30,30],"right_children":[2,4,6,8,10,12,14,16,18,20,22,24,26,28,30,32,-1,34,36,38,40,42,44,46,48,50,52,54,56,58,60,-1,-1,-1,-1,-1,-1,-1,-1,-1,-1,-1,-1,-1,-1,-1,-1,-1,-1,-1,-1,-1,-1,-1,-1,-1,-1,-1,-1,-1,-1],"split_conditions":[3E0,6E0,1E0,1E0,4E0,1E0,2E0,5E0,4E0,1.1E1,2E0,1E0,4E0,2E0,1E0,1E0,1.1021575E-1,4E0,2E0,1E0,4.00001E0,1E0,1.5E1,1E0,4E0,9E0,5E0,2E0,1E0,2E0,1E0,-6.264009E-2,6.151531E-4,-6.0596634E-3,3.4760658E-2,7.527775E-2,2.026546E-2,-1.8227793E-2,1.4244399E-2,-4.0545464E-2,-3.7895762E-3,-1.0382003E-2,2.418726E-2,-5.5168044E-2,2.3302933E-2,3.3214008E-3,-3.1112257E-2,5.468162E-3,2.8153004E-2,-0E0,-5.188733E-2,5.6883977E-3,-8.03822E-2,-0E0,4.46692E-2,1.2095901E-2,6.364683E-2,-5.00341E-2,1.7009416E-3,1.8481467E-3,4.9122997E-2],"split_indices":[21,33,14,14,15,27,17,33,33,34,25,5,21,30,9,23,0,15,17,6,28,9,34,17,21,33,34,15,12,15,25,0,0,0,0,0,0,0,0,0,0,0,0,0,0,0,0,0,0,0,0,0,0,0,0,0,0,0,0,0,0],"split_type":[0,0,0,0,0,0,0,0,0,0,0,0,0,0,0,0,0,0,0,0,0,0,0,0,0,0,0,0,0,0,0,0,0,0,0,0,0,0,0,0,0,0,0,0,0,0,0,0,0,0,0,0,0,0,0,0,0,0,0,0,0],"sum_hessian":[2.0607642E3,1.0844331E3,9.763312E2,2.7403394E2,8.103992E2,4.6880466E2,5.0752652E2,1.3246574E2,1.4156819E2,5.783119E2,2.3208728E2,3.9720303E2,7.160161E1,3.72094E2,1.3543253E2,1.2809221E2,4.3735294E0,7.110327E1,7.046492E1,1.42474E2,4.358379E2,1.9281726E2,3.9270023E1,6.4674416E1,3.3252863E2,3.1594818E1,4.0006794E1,2.6519858E2,1.0689541E2,8.952272E1,4.590981E1,1.2694322E1,1.1539789E2,4.9874386E1,2.1228886E1,4.9711834E1,2.0753086E1,1.1029682E2,3.2177174E1,3.9090253E2,4.493535E1,1.26724365E2,6.60929E1,3.2667892E1,6.602131E0,2.9918741E1,3.4755672E1,1.5637827E2,1.7615036E2,6.5380898E0,2.5056728E1,3.561998E1,4.386813E0,2.4800234E1,2.4039833E2,1.0010935E2,6.7860513E0,8.163576E0,8.135914E1,2.4501163E1,2.1408648E1],"tree_param":{"num_deleted":"0","num_feature":"35","num_nodes":"61","size_leaf_vector":"1"}},{"base_weights":[-9.987166E-3,-4.8196573E-2,2.941591E-1,4.184908E-2,-1.7855188E-1,-3.784094E-2,3.8453376E-1,2.149175E-2,1.394346E-1,-3.4847054E-1,1.2683263E-1,2.5037277E-1,5.44846E-1,9.659529E-2,-1.9660893E-1,-6.945536E-2,-2.6928127E-1,4.2636212E-2,3.0567294E-1,3.6905867E-1,-9.63639E-2,5.86297E-1,-0E0,-2.692293E-2,1.5945805E-2,-3.967432E-2,-1.037614E-2,-6.372897E-2,-2.1317242E-2,2.8308528E-2,-2.4205154E-4,-1.1721479E-2,4.723175E-2,-4.8238266E-2,4.4791557E-2,1.3563223E-2,-6.7695394E-2,5.9260625E-2,-0E0],"categories":[],"categories_nodes":[],"categories_segments":[],"categories_sizes":[],"default_left":[1,1,0,1,0,0,0,0,0,0,1,0,0,0,0,0,1,0,0,0,0,0,0,0,0,0,0,0,0,0,0,0,0,0,0,0,0,0,0],"id":26,"left_children":[1,3,5,7,9,-1,11,13,-1,15,17,19,21,23,25,-1,27,29,31,33,35,37,-1,-1,-1,-1,-1,-1,-1,-1,-1,-1,-1,-1,-1,-1,-1,-1,-1],"loss_changes":[2.3436438E1,2.142633E1,1.4043396E1,2.8926546E1,3.894919E1,0E0,3.3730621E0,1.720027E1,0E0,1.2881527E1,3.6309829E0,5.0081882E0,1.9860954E0,2.0060057E1,4.5326233E0,0E0,6.618696E0,2.3786533E0,6.7148037E0,7.2906523E0,4.6150455E0,1.4262085E0,0E0,0E0,0E0,0E0,0E0,0E0,0E0,0E0,0E0,0E0,0E0,0E0,0E0,0E0,0E0,0E0,0E0],"parents":[2147483647,0,0,1,1,2,2,3,3,4,4,6,6,7,7,9,9,10,10,11,11,12,12,13,13,14,14,16,16,17,17,18,18,19,19,20,20,21,21],"right_children":[2,4,6,8,10,-1,12,14,-1,16,18,20,22,24,26,-1,28,30,32,34,36,38,-1,-1,-1,-1,-1,-1,-1,-1,-1,-1,-1,-1,-1,-1,-1,-1,-1],"split_conditions":[1E0,4E0,2E0,3E0,4E0,-3.784094E-2,4E0,1E0,1.394346E-1,2E0,1E0,1.3E1,2.00001E0,3E0,2E0,-6.945536E-2,1E0,6E0,2E0,1E0,7E0,3E0,-0E0,-2.692293E-2,1.5945805E-2,-3.967432E-2,-1.037614E-2,-6.372897E-2,-2.1317242E-2,2.8308528E-2,-2.4205154E-4,-1.1721479E-2,4.723175E-2,-4.8238266E-2,4.4791557E-2,1.3563223E-2,-6.7695394E-2,5.9260625E-2,-0E0],"split_indices":[13,34,18,34,18,0,18,32,0,18,7,33,10,18,22,0,0,34,23,23,29,31,0,0,0,0,0,0,0,0,0,0,0,0,0,0,0,0,0],"split_type":[0,0,0,0,0,0,0,0,0,0,0,0,0,0,0,0,0,0,0,0,0,0,0,0,0,0,0,0,0,0,0,0,0,0,0,0,0,0,0],"sum_hessian":[2.035633E3,1.8121101E3,2.2352304E2,1.06763E3,7.444801E2,2.4375841E1,1.991472E2,1.0540154E3,1.3614552E1,4.803452E2,2.6413486E2,1.13206955E2,8.594024E1,7.87857E2,2.6615845E2,8.1234566E1,3.9911066E2,1.8423068E2,7.990418E1,8.643905E1,2.6767912E1,7.985933E1,6.080904E0,1.1844418E2,6.694128E2,7.430395E1,1.918545E2,4.106876E1,3.580419E2,3.0751932E1,1.5347874E2,2.2362247E1,5.7541935E1,6.955627E0,7.948342E1,1.858638E1,8.181533E0,7.699991E1,2.8594246E0],"tree_param":{"num_deleted":"0","num_feature":"35","num_nodes":"39","size_leaf_vector":"1"}},{"base_weights":[-2.0052018E-2,-9.538091E-2,1.17988706E-1,-3.2269884E-2,-2.3312995E-1,2.2761734E-2,3.0637074E-1,-1.6117696E-1,1.7329636E-1,-3.2199132E-1,8.9103796E-2,-2.1279177E-1,1.3485435E-1,3.7856302E-1,-0E0,5.690022E-2,-2.6549393E-1,-2.0975048E-2,2.3816818E-1,-3.8657817E-1,-1.1027172E-1,1.5854373E-3,7.1971816E-1,-4.8558615E-2,-1.6702072E-1,2.6246613E-1,-0E0,5.353009E-1,1.7530666E-1,5.104397E-2,-8.602807E-2,-3.2787792E-2,1.3114294E-2,-4.8569724E-2,-1.8581746E-2,-7.159984E-3,4.0004376E-2,-7.2657843E-3,2.417534E-2,-4.4184294E-2,-8.278835E-3,-1.9448534E-2,6.1662175E-2,1.0781973E-1,-0E0,-3.0088404E-2,-4.7759684E-3,3.601873E-2,2.6851636E-3,-2.5633967E-2,1.132354E-2,8.314031E-2,2.4226967E-2,3.142734E-2,8.816427E-4,-2.2563217E-2,1.701085E-2],"categories":[],"categories_nodes":[],"categories_segments":[],"categories_sizes":[],"default_left":[1,1,1,0,1,0,1,0,0,0,0,0,1,1,0,0,0,0,0,0,0,0,0,0,0,1,0,1,1,0,0,0,0,0,0,0,0,0,0,0,0,0,0,0,0,0,0,0,0,0,0,0,0,0,0,0,0],"id":27,"left_children":[1,3,5,7,9,11,13,15,17,19,21,23,25,27,29,31,33,35,37,39,41,-1,43,-1,45,47,49,51,53,-1,55,-1,-1,-1,-1,-1,-1,-1,-1,-1,-1,-1,-1,-1,-1,-1,-1,-1,-1,-1,-1,-1,-1,-1,-1,-1,-1],"loss_changes":[2.1310862E1,1.1305354E1,1.2574334E1,2.4381748E1,1.2096876E1,1.2694366E1,5.3715477E0,1.3159622E1,4.656746E0,3.9270058E0,3.2741346E0,1.2714767E0,5.777182E0,5.356575E0,1.9915094E0,5.4885883E0,5.950161E0,1.6496778E0,1.1598797E0,4.5926056E0,5.20002E0,0E0,1.526814E0,0E0,1.9366872E0,3.9901762E0,5.0479994E0,8.442059E0,1.8583333E0,0E0,1.6591408E0,0E0,0E0,0E0,0E0,0E0,0E0,0E0,0E0,0E0,0E0,0E0,0E0,0E0,0E0,0E0,0E0,0E0,0E0,0E0,0E0,0E0,0E0,0E0,0E0,0E0,0E0],"parents":[2147483647,0,0,1,1,2,2,3,3,4,4,5,5,6,6,7,7,8,8,9,9,10,10,11,11,12,12,13,13,14,14,15,15,16,16,17,17,18,18,19,19,20,20,22,22,24,24,25,25,26,26,27,27,28,28,30,30],"right_children":[2,4,6,8,10,12,14,16,18,20,22,24,26,28,30,32,34,36,38,40,42,-1,44,-1,46,48,50,52,54,-1,56,-1,-1,-1,-1,-1,-1,-1,-1,-1,-1,-1,-1,-1,-1,-1,-1,-1,-1,-1,-1,-1,-1,-1,-1,-1,-1],"split_conditions":[2E0,9E0,2E0,4E0,1E0,1E0,1E0,1E0,1E0,8E0,4E0,4E0,1E0,4E0,4E0,2E0,2E0,2.00001E0,7E0,2.1E1,4E0,1.5854373E-3,6E0,-4.8558615E-2,1E0,6E0,1E0,1E0,7E0,5.104397E-2,3E0,-3.2787792E-2,1.3114294E-2,-4.8569724E-2,-1.8581746E-2,-7.159984E-3,4.0004376E-2,-7.2657843E-3,2.417534E-2,-4.4184294E-2,-8.278835E-3,-1.9448534E-2,6.1662175E-2,1.0781973E-1,-0E0,-3.0088404E-2,-4.7759684E-3,3.601873E-2,2.6851636E-3,-2.5633967E-2,1.132354E-2,8.314031E-2,2.4226967E-2,3.142734E-2,8.816427E-4,-2.2563217E-2,1.701085E-2],"split_indices":[1,34,16,21,11,8,27,28,1,29,16,33,20,34,34,34,23,11,34,34,21,0,29,0,30,34,16,20,33,0,20,0,0,0,0,0,0,0,0,0,0,0,0,0,0,0,0,0,0,0,0,0,0,0,0,0,0],"split_type":[0,0,0,0,0,0,0,0,0,0,0,0,0,0,0,0,0,0,0,0,0,0,0,0,0,0,0,0,0,0,0,0,0,0,0,0,0,0,0,0,0,0,0,0,0,0,0,0,0,0,0,0,0,0,0,0,0],"sum_hessian":[2.0495178E3,1.3308342E3,7.186836E2,9.1850586E2,4.123283E2,4.8164276E2,2.3704085E2,5.676333E2,3.5087256E2,3.2563348E2,8.669482E1,1.5213142E2,3.2951135E2,1.9239046E2,4.465038E1,1.807142E2,3.869191E2,8.414511E1,2.6672745E2,2.4526439E2,8.036911E1,8.007186E1,6.622956E0,1.6464006E1,1.3566742E2,1.701137E2,1.5939764E2,1.0492541E2,8.746506E1,5.08498E0,3.95654E1,2.7283476E1,1.5343073E2,8.729818E1,2.996209E2,7.778648E1,6.358624E0,6.1917634E0,2.605357E2,1.9600119E2,4.92632E1,7.3523026E1,6.846082E0,3.415234E0,3.2077217E0,5.6510246E1,7.915717E1,1.12679985E2,5.7433712E1,4.9343628E1,1.1005402E2,4.6571255E1,5.8354153E1,4.2405037E1,4.5060024E1,2.785125E1,1.1714149E1],"tree_param":{"num_deleted":"0","num_feature":"35","num_nodes":"57","size_leaf_vector":"1"}},{"base_weights":[2.7583743E-2,-1.8859659E-1,2.868901E-1,-2.922364E-1,1.2327226E-1,4.564746E-1,1.9022404E-1,-5.183621E-1,-1.5168215E-1,2.2957489E-2,3.3693087E-1,5.8718733E-2,5.241687E-1,2.6915774E-1,3.6900256E-2,-5.9466827E-1,-2.4814077E-1,1.1491894E-1,-3.355349E-1,2.0077465E-1,-1.4110379E-1,-1.6385438E-1,3.9543623E-1,-5.9244685E-2,1.5867409E-1,5.758323E-1,-0E0,-4.1849285E-2,3.460842E-1,-1.15177356E-1,3.5263148E-1,-4.9832642E-2,-7.26347E-2,-5.5731453E-2,-1.5525089E-3,-1.6173435E-2,4.316042E-2,-6.103573E-2,-2.8670352E-2,-1.2568734E-3,3.462315E-2,-6.952359E-3,-6.6732995E-2,3.7001573E-2,-4.6134066E-2,5.2989963E-2,1.3292676E-2,-0E0,4.571927E-2,5.895627E-3,5.90199E-2,2.4484359E-2,-2.2283012E-2,-6.273063E-2,4.790011E-3,3.692395E-2,-0E0,-1.6598819E-2,3.256496E-2,1.0608592E-2,7.891976E-2],"categories":[],"categories_nodes":[],"categories_segments":[],"categories_sizes":[],"default_left":[0,1,0,0,0,0,0,0,0,0,0,0,0,0,1,0,0,0,1,0,0,0,0,0,1,1,0,0,0,1,0,0,0,0,0,0,0,0,0,0,0,0,0,0,0,0,0,0,0,0,0,0,0,0,0,0,0,0,0,0,0],"id":28,"left_children":[1,3,5,7,9,11,13,15,17,19,21,23,25,27,29,31,33,35,37,39,41,43,45,-1,47,49,51,53,55,57,59,-1,-1,-1,-1,-1,-1,-1,-1,-1,-1,-1,-1,-1,-1,-1,-1,-1,-1,-1,-1,-1,-1,-1,-1,-1,-1,-1,-1,-1,-1],"loss_changes":[1.1590761E2,3.6555088E1,1.4697823E1,2.6165535E1,5.608144E0,8.468239E0,7.0064507E0,5.637924E0,2.6058758E1,5.747199E0,2.8108406E0,3.1516774E0,7.404907E0,9.767769E0,1.0413684E1,1.422226E0,5.1292844E0,2.0257654E1,2.536148E0,3.5818725E0,2.9331758E0,1.6244365E0,2.3344336E0,0E0,2.2161837E0,3.7988281E0,1.6825728E0,4.8718624E0,3.528267E0,3.476841E0,6.96797E0,0E0,0E0,0E0,0E0,0E0,0E0,0E0,0E0,0E0,0E0,0E0,0E0,0E0,0E0,0E0,0E0,0E0,0E0,0E0,0E0,0E0,0E0,0E0,0E0,0E0,0E0,0E0,0E0,0E0,0E0],"parents":[2147483647,0,0,1,1,2,2,3,3,4,4,5,5,6,6,7,7,8,8,9,9,10,10,11,11,12,12,13,13,14,14,15,15,16,16,17,17,18,18,19,19,20,20,21,21,22,22,24,24,25,25,26,26,27,27,28,28,29,29,30,30],"right_children":[2,4,6,8,10,12,14,16,18,20,22,24,26,28,30,