{"learner":{"attributes":{"scikit_learn":"{\"_estimator_type\": \"classifier\"}"},"feature_names":["h1n1_concern","h1n1_knowledge","behavioral_antiviral_meds","behavioral_avoidance","behavioral_face_mask","behavioral_wash_hands","behavioral_large_gatherings","behavioral_outside_home","behavioral_touch_face","doctor_recc_h1n1","doctor_recc_seasonal","chronic_med_condition","child_under_6_months","health_worker","opinion_h1n1_vacc_effective","opinion_h1n1_risk","opinion_h1n1_sick_from_vacc","opinion_seas_vacc_effective","opinion_seas_risk","opinion_seas_sick_from_vacc","age_group","education","race","sex","income_poverty","marital_status","rent_or_own","employment_status","hhs_geo_region","census_msa","household_adults","household_children"],"feature_types":["c","c","c","c","c","c","c","c","c","c","c","c","c","c","c","c","c","c","c","c","c","c","c","c","c","c","c","c","c","c","c","c"],"gradient_booster":{"model":{"gbtree_model_param":{"num_parallel_tree":"1","num_trees":"100"},"iteration_indptr":[0,1,2,3,4,5,6,7,8,9,10,11,12,13,14,15,16,17,18,19,20,21,22,23,24,25,26,27,28,29,30,31,32,33,34,35,36,37,38,39,40,41,42,43,44,45,46,47,48,49,50,51,52,53,54,55,56,57,58,59,60,61,62,63,64,65,66,67,68,69,70,71,72,73,74,75,76,77,78,79,80,81,82,83,84,85,86,87,88,89,90,91,92,93,94,95,96,97,98,99,100],"tree_info":[0,0,0,0,0,0,0,0,0,0,0,0,0,0,0,0,0,0,0,0,0,0,0,0,0,0,0,0,0,0,0,0,0,0,0,0,0,0,0,0,0,0,0,0,0,0,0,0,0,0,0,0,0,0,0,0,0,0,0,0,0,0,0,0,0,0,0,0,0,0,0,0,0,0,0,0,0,0,0,0,0,0,0,0,0,0,0,0,0,0,0,0,0,0,0,0,0,0,0,0],"trees":[{"base_weights":[-1.5214229E-1,1.5735857E0,-5.879129E-1,2.5046487E0,9.165567E-1,2.9682142E-1,-8.284495E-1,4.7169292E-1,2.3778722E0,1.5601683E0,4.0128472E-1,1.0676169E0,-2.2376056E-1,-6.990799E-1,-9.9857175E-1,2.5542626E0,2.1407442E0,1.7679431E0,9.155681E-1,8.166396E-1,-0E0,2.0528483E0,7.9190606E-1,-2.4477743E-2,-7.2003895E-1,-1.3744462E-1,-8.6409396E-1,-6.2850475E-1,-1.6474347E-1,4.2782587E-1,3.2813188E-1,3.6440915E-1,1.9128773E-1,2.9565108E-1,2.0872019E-1,1.9849738E-1,7.443578E-2,1.5160252E-1,-6.485326E-2,4.0408965E-2,-6.470737E-2,1.2940902E-1,3.380974E-1,-1.2431829E-2,1.7030767E-1,1.2074182E-1,-2.373931E-2,-3.234664E-2,-1.365744E-1,3.6278985E-2,-3.623019E-2,-1.2581621E-1,-1.853361E-1,-1.5917227E-1,-7.2109416E-2],"categories":[0,0,1,2,3,0,1,2,0,0,1,0,1,2,3,0,0,2,1,2,4,0,1,2,2,3,0,1,2,0,1,2,3,0,1,2,3,0,1,2,1,0,3,0,2,3,0,1,0,0,0,3,0,2,3,4,5,6,8,0,0,1,0],"categories_nodes":[0,1,2,3,4,5,6,8,9,10,11,12,13,14,15,16,17,18,19,20,21,22,23,24,25,26,27],"categories_segments":[0,1,5,8,9,11,15,16,18,21,24,26,29,33,37,40,41,43,46,48,49,50,51,52,59,60,62],"categories_sizes":[1,4,3,1,2,4,1,2,3,3,2,3,4,4,3,1,2,3,2,1,1,1,1,7,1,2,1],"default_left":[0,0,0,0,1,0,1,0,1,0,1,0,1,1,0,0,1,0,0,1,1,0,1,1,1,0,1,1,0,0,0,0,0,0,0,0,0,0,0,0,0,0,0,0,0,0,0,0,0,0,0,0,0,0,0],"id":0,"left_children":[1,3,5,7,9,11,13,-1,15,17,19,21,23,25,27,29,31,33,35,37,39,41,43,45,47,49,51,53,-1,-1,-1,-1,-1,-1,-1,-1,-1,-1,-1,-1,-1,-1,-1,-1,-1,-1,-1,-1,-1,-1,-1,-1,-1,-1,-1],"loss_changes":[2.9196707E3,4.7416943E2,6.6059595E2,1.466626E1,1.5035135E2,2.667382E2,5.164978E1,0E0,3.8676758E0,2.3798187E1,4.32127E1,6.9131714E1,3.8313126E1,1.27814575E2,2.8438354E1,6.9248047E0,2.0718933E1,5.551819E0,6.404911E0,2.8237541E1,1.4733145E1,6.9641113E0,6.027794E1,2.961703E1,8.627159E0,1.1860929E1,1.2981812E1,1.0355278E1,0E0,0E0,0E0,0E0,0E0,0E0,0E0,0E0,0E0,0E0,0E0,0E0,0E0,0E0,0E0,0E0,0E0,0E0,0E0,0E0,0E0,0E0,0E0,0E0,0E0,0E0,0E0],"parents":[2147483647,0,0,1,1,2,2,3,3,4,4,5,5,6,6,8,8,9,9,10,10,11,11,12,12,13,13,14,14,15,15,16,16,17,17,18,18,19,19,20,20,21,21,22,22,23,23,24,24,25,25,26,26,27,27],"right_children":[2,4,6,8,10,12,14,-1,16,18,20,22,24,26,28,30,32,34,36,38,40,42,44,46,48,50,52,54,-1,-1,-1,-1,-1,-1,-1,-1,-1,-1,-1,-1,-1,-1,-1,-1,-1,-1,-1,-1,-1,-1,-1,-1,-1,-1,-1],"split_conditions":[NaN,NaN,NaN,NaN,NaN,NaN,NaN,4.7169292E-1,NaN,NaN,NaN,NaN,NaN,NaN,NaN,NaN,NaN,NaN,NaN,NaN,NaN,NaN,NaN,NaN,NaN,NaN,NaN,NaN,-1.6474347E-1,4.2782587E-1,3.2813188E-1,3.6440915E-1,1.9128773E-1,2.9565108E-1,2.0872019E-1,1.9849738E-1,7.443578E-2,1.5160252E-1,-6.485326E-2,4.0408965E-2,-6.470737E-2,1.2940902E-1,3.380974E-1,-1.2431829E-2,1.7030767E-1,1.2074182E-1,-2.373931E-2,-3.234664E-2,-1.365744E-1,3.6278985E-2,-3.623019E-2,-1.2581621E-1,-1.853361E-1,-1.5917227E-1,-7.2109416E-2],"split_indices":[9,14,15,13,15,14,15,0,27,14,20,0,14,14,14,15,26,30,30,14,15,10,10,15,28,11,14,10,0,0,0,0,0,0,0,0,0,0,0,0,0,0,0,0,0,0,0,0,0,0,0,0,0,0,0],"split_type":[1,1,1,1,1,1,1,0,1,1,1,1,1,1,1,1,1,1,1,1,1,1,1,1,1,1,1,1,0,0,0,0,0,0,0,0,0,0,0,0,0,0,0,0,0,0,0,0,0,0,0,0,0,0,0],"sum_hessian":[3.882642E3,7.82044E2,3.1005981E3,3.2235117E2,4.5969284E2,6.6187006E2,2.438728E3,5.4425297E1,2.6792587E2,2.0309036E2,2.5660248E2,2.6737796E2,3.9449207E2,1.3900366E3,1.0486914E3,1.4848244E2,1.19443436E2,1.5176987E2,5.1320496E1,1.2638357E2,1.3021892E2,5.698219E1,2.1039577E2,2.832672E2,1.11224846E2,3.1723737E2,1.0727993E3,1.8647055E2,8.622209E2,8.985653E1,5.8625904E1,9.241342E1,2.7030012E1,1.0464998E2,4.7119884E1,2.5386295E1,2.59342E1,1.1159012E2,1.4793452E1,7.962895E1,5.0589954E1,7.670679E0,4.931151E1,5.5886375E1,1.545094E2,3.780549E1,2.4546173E2,2.9952175E1,8.1272675E1,6.42876E1,2.5294978E2,9.62305E2,1.1049431E2,4.894624E1,1.3752432E2],"tree_param":{"num_deleted":"0","num_feature":"32","num_nodes":"55","size_leaf_vector":"1"}},{"base_weights":[-1.3973473E-1,1.1776423E0,-5.291087E-1,1.7601266E0,7.2182626E-1,1.6473758E-1,-7.587334E-1,1.9528182E0,1.242772E0,9.112139E-1,-2.2909482E-1,-3.3700553E-1,3.3288544E-1,-4.8163843E-1,-9.198117E-1,2.1442006E0,1.7685045E0,1.4375144E0,7.5737613E-1,1.021455E0,-1.3000196E-1,1.5422419E-1,-6.277281E-1,-2.8421194E-3,-4.908325E-1,1.897646E0,9.1977775E-2,-1.6361511E-1,-7.141711E-1,-4.523706E-1,-9.552286E-1,3.5029185E-1,2.6474777E-1,3.1424287E-1,1.9773507E-1,2.8638524E-1,1.8118162E-1,1.5438296E-1,-0E0,1.621868E-1,-0E0,1.1237322E-2,-6.393311E-2,9.895587E-2,-1.613327E-2,-0E0,-1.12987705E-1,3.208714E-2,-5.1158436E-2,-2.8982395E-2,-8.5578404E-2,3.7375125E-1,1.569085E-1,6.7598574E-2,-3.8548753E-2,9.4513185E-3,-6.313922E-2,-9.8139614E-2,-1.3018258E-1,-2.1961905E-2,-1.3096209E-1,-1.3590781E-1,-1.6005887E-1],"categories":[0,0,1,2,3,0,1,2,3,0,1,0,0,0,1,2,3,4,6,9,0,2,3,4,0,1,0,1,2,1,3,4,7,8,9,0,0,1,2,0,0,1,3,2,3,1,1,0,1,2,4,0,1,3,4,0,1,2,3,0,1,0,1,2,3,0,1,2,0,1,0,1,4,0,1,0,1,2,0],"categories_nodes":[0,1,2,3,4,5,6,7,8,9,10,11,12,13,14,15,16,17,18,19,20,21,22,23,24,25,26,27,28,29,30],"categories_segments":[0,1,5,9,11,12,13,15,20,24,26,29,35,36,39,40,42,43,45,46,47,51,55,59,61,65,68,70,73,75,78],"categories_sizes":[1,4,4,2,1,1,2,5,4,2,3,6,1,3,1,2,1,2,1,1,4,4,4,2,4,3,2,3,2,3,1],"default_left":[0,0,0,0,1,1,1,1,0,1,1,1,0,1,0,1,0,1,1,1,0,1,1,1,0,1,0,1,1,0,1,0,0,0,0,0,0,0,0,0,0,0,0,0,0,0,0,0,0,0,0,0,0,0,0,0,0,0,0,0,0,0,0],"id":1,"left_children":[1,3,5,7,9,11,13,15,17,19,21,23,25,27,29,31,33,35,37,39,41,43,45,47,49,51,53,55,57,59,61,-1,-1,-1,-1,-1,-1,-1,-1,-1,-1,-1,-1,-1,-1,-1,-1,-1,-1,-1,-1,-1,-1,-1,-1,-1,-1,-1,-1,-1,-1,-1,-1],"loss_changes":[1.9619005E3,2.2849988E2,4.7123236E2,3.3670776E1,8.923265E1,6.195492E1,9.748889E1,3.9708252E0,7.3291016E0,4.8077393E1,1.2909937E1,8.910709E0,2.0575316E2,5.9672882E1,2.1584473E1,1.911377E0,1.5216583E1,3.9920044E0,6.2301254E0,1.3940826E1,2.6361895E0,5.7499495E0,3.0797749E0,4.403241E0,1.7511196E0,3.0041626E1,5.7887314E1,1.9940252E1,2.9288025E0,1.1613667E1,5.524414E0,0E0,0E0,0E0,0E0,0E0,0E0,0E0,0E0,0E0,0E0,0E0,0E0,0E0,0E0,0E0,0E0,0E0,0E0,0E0,0E0,0E0,0E0,0E0,0E0,0E0,0E0,0E0,0E0,0E0,0E0,0E0,0E0],"parents":[2147483647,0,0,1,1,2,2,3,3,4,4,5,5,6,6,7,7,8,8,9,9,10,10,11,11,12,12,13,13,14,14,15,15,16,16,17,17,18,18,19,19,20,20,21,21,22,22,23,23,24,24,25,25,26,26,27,27,28,28,29,29,30,30],"right_children":[2,4,6,8,10,12,14,16,18,20,22,24,26,28,30,32,34,36,38,40,42,44,46,48,50,52,54,56,58,60,62,-1,-1,-1,-1,-1,-1,-1,-1,-1,-1,-1,-1,-1,-1,-1,-1,-1,-1,-1,-1,-1,-1,-1,-1,-1,-1,-1,-1,-1,-1,-1,-1],"split_conditions":[NaN,NaN,NaN,NaN,NaN,NaN,NaN,NaN,NaN,NaN,NaN,NaN,NaN,NaN,NaN,NaN,NaN,NaN,NaN,NaN,NaN,NaN,NaN,NaN,NaN,NaN,NaN,NaN,NaN,NaN,NaN,3.5029185E-1,2.6474777E-1,3.1424287E-1,1.9773507E-1,2.8638524E-1,1.8118162E-1,1.5438296E-1,-0E0,1.621868E-1,-0E0,1.1237322E-2,-6.393311E-2,9.895587E-2,-1.613327E-2,-0E0,-1.12987705E-1,3.208714E-2,-5.1158436E-2,-2.8982395E-2,-8.5578404E-2,3.7375125E-1,1.569085E-1,6.7598574E-2,-3.8548753E-2,9.4513185E-3,-6.313922E-2,-9.8139614E-2,-1.3018258E-1,-2.1961905E-2,-1.3096209E-1,-1.3590781E-1,-1.6005887E-1],"split_indices":[9,14,14,18,18,10,18,28,18,17,14,28,13,15,13,21,0,0,0,14,14,21,17,18,18,18,18,21,21,14,18,0,0,0,0,0,0,0,0,0,0,0,0,0,0,0,0,0,0,0,0,0,0,0,0,0,0,0,0,0,0,0,0],"split_type":[1,1,1,1,1,1,1,1,1,1,1,1,1,1,1,1,1,1,1,1,1,1,1,1,1,1,1,1,1,1,1,0,0,0,0,0,0,0,0,0,0,0,0,0,0,0,0,0,0,0,0,0,0,0,0,0,0,0,0,0,0,0,0],"sum_hessian":[3.8248967E3,8.7179224E2,2.9531045E3,3.8114307E2,4.906492E2,7.3325635E2,2.2198481E3,2.7531433E2,1.05828735E2,4.100509E2,8.059829E1,1.8244196E2,5.508144E2,8.1903906E2,1.4008091E3,1.2985709E2,1.4545723E2,7.337559E1,3.2453148E1,3.716662E2,3.838471E1,3.9967285E1,4.0631E1,5.9709755E1,1.227322E2,7.248655E1,4.7832785E2,3.4809186E2,4.7094724E2,1.0111792E2,1.2996912E3,9.255046E1,3.730663E1,8.853042E1,5.692681E1,2.4387486E1,4.8988102E1,2.4175228E1,8.27792E0,3.5727533E2,1.439088E1,2.0678938E1,1.770577E1,1.4866789E1,2.5100498E1,5.781339E0,3.4849663E1,3.466151E1,2.5048243E1,2.5808256E1,9.692394E1,4.3330803E1,2.9155748E1,2.3847517E2,2.3985268E2,1.8085591E2,1.6723593E2,3.1440216E2,1.5654509E2,5.907645E1,4.204147E1,7.600002E2,5.396909E2],"tree_param":{"num_deleted":"0","num_feature":"32","num_nodes":"63","size_leaf_vector":"1"}},{"base_weights":[-1.2369895E-1,3.7758723E-1,-3.7239814E-1,1.0586501E0,-9.4168246E-2,3.7256503E-1,-6.268566E-1,1.3455992E0,-8.580067E-2,5.573264E-1,-1.2589836E-1,-5.630634E-1,5.065547E-1,4.7257745E-1,-6.7153406E-1,1.6974671E0,1.2316154E0,1.4233291E-1,-3.3087596E-1,7.3848003E-1,7.860764E-2,2.8463957E-1,-7.4348074E-1,1.7981042E-1,9.7252256E-1,6.7035663E-1,-0E0,-3.206493E-1,-7.0840037E-1,2.705968E-1,9.6592575E-2,2.0832404E-1,1.449217E-1,7.54995E-2,-2.301318E-2,5.1636957E-2,-7.3104754E-2,1.3347606E-1,9.464773E-3,4.8303735E-2,-2.4704374E-2,7.665315E-2,-7.9253785E-2,-0E0,-1.1767127E-1,7.3749326E-2,-2.0906605E-2,1.8567519E-1,6.0927905E-2,1.4043681E-1,4.655323E-2,1.90944E-2,-9.380752E-2,-5.6706187E-3,-7.898028E-2,-1.1881492E-1,-8.579737E-2],"categories":[0,0,1,2,0,1,2,0,0,0,0,1,2,3,4,1,2,3,1,2,3,2,3,2,1,2,3,0,1,2,0,2,0,1,4,1,2,3,0,0,1,2,0,1,3,1,3,0,1,2,0,1,4,1,2,0,0,1,2,3,2],"categories_nodes":[0,1,2,3,4,5,6,7,8,9,11,12,13,14,15,16,17,18,19,20,21,22,23,24,25,26,27,28],"categories_segments":[0,1,4,7,8,9,10,11,15,18,21,23,24,27,30,32,35,38,39,42,45,47,50,53,55,56,57,60],"categories_sizes":[1,3,3,1,1,1,1,4,3,3,2,1,3,3,2,3,3,1,3,3,2,3,3,2,1,1,3,1],"default_left":[0,0,0,1,1,1,0,1,1,0,0,1,0,0,0,1,1,1,1,1,1,1,1,1,1,1,1,1,0,0,0,0,0,0,0,0,0,0,0,0,0,0,0,0,0,0,0,0,0,0,0,0,0,0,0,0,0],"id":2,"left_children":[1,3,5,7,9,11,13,15,17,19,-1,21,23,25,27,29,31,33,35,37,39,41,43,45,47,49,51,53,55,-1,-1,-1,-1,-1,-1,-1,-1,-1,-1,-1,-1,-1,-1,-1,-1,-1,-1,-1,-1,-1,-1,-1,-1,-1,-1,-1,-1],"loss_changes":[4.6677536E2,3.9951556E2,4.7498846E2,1.6829083E2,3.482678E2,7.991381E1,9.208423E1,1.2390259E1,5.896731E0,3.2655907E1,0E0,1.2653952E1,8.375412E1,7.2173595E0,2.2091003E1,4.405487E0,8.605286E0,5.61366E0,5.260141E0,2.4335587E1,6.3355627E0,2.4150724E0,1.1366959E0,3.1952023E1,2.9854889E1,3.361786E0,1.9636102E0,9.106003E0,1.48098755E1,0E0,0E0,0E0,0E0,0E0,0E0,0E0,0E0,0E0,0E0,0E0,0E0,0E0,0E0,0E0,0E0,0E0,0E0,0E0,0E0,0E0,0E0,0E0,0E0,0E0,0E0,0E0,0E0],"parents":[2147483647,0,0,1,1,2,2,3,3,4,4,5,5,6,6,7,7,8,8,9,9,11,11,12,12,13,13,14,14,15,15,16,16,17,17,18,18,19,19,20,20,21,21,22,22,23,23,24,24,25,25,26,26,27,27,28,28],"right_children":[2,4,6,8,10,12,14,16,18,20,-1,22,24,26,28,30,32,34,36,38,40,42,44,46,48,50,52,54,56,-1,-1,-1,-1,-1,-1,-1,-1,-1,-1,-1,-1,-1,-1,-1,-1,-1,-1,-1,-1,-1,-1,-1,-1,-1,-1,-1,-1],"split_conditions":[NaN,NaN,NaN,NaN,NaN,NaN,NaN,NaN,NaN,NaN,-1.2589836E-1,NaN,NaN,NaN,NaN,NaN,NaN,NaN,NaN,NaN,NaN,NaN,NaN,NaN,NaN,NaN,NaN,NaN,NaN,2.705968E-1,9.6592575E-2,2.0832404E-1,1.449217E-1,7.54995E-2,-2.301318E-2,5.1636957E-2,-7.3104754E-2,1.3347606E-1,9.464773E-3,4.8303735E-2,-2.4704374E-2,7.665315E-2,-7.9253785E-2,-0E0,-1.1767127E-1,7.3749326E-2,-2.0906605E-2,1.8567519E-1,6.0927905E-2,1.4043681E-1,4.655323E-2,1.90944E-2,-9.380752E-2,-5.6706187E-3,-7.898028E-2,-1.1881492E-1,-8.579737E-2],"split_indices":[10,15,15,9,9,10,9,16,19,31,0,0,1,31,0,22,21,16,4,22,21,31,27,21,27,27,16,16,1,0,0,0,0,0,0,0,0,0,0,0,0,0,0,0,0,0,0,0,0,0,0,0,0,0,0,0,0],"split_type":[1,1,1,1,1,1,1,1,1,1,0,1,1,1,1,1,1,1,1,1,1,1,1,1,1,1,1,1,1,0,0,0,0,0,0,0,0,0,0,0,0,0,0,0,0,0,0,0,0,0,0,0,0,0,0,0,0],"sum_hessian":[3.7431016E3,1.2398197E3,2.503282E3,5.0797293E2,7.318468E2,6.362949E2,1.8669869E3,4.0676813E2,1.0120478E2,3.8578674E2,3.4606006E2,7.857955E1,5.577154E2,7.185134E1,1.7951356E3,9.572175E1,3.110464E2,5.04147E1,5.0790077E1,2.781743E2,1.0761248E2,1.2770428E1,6.580912E1,3.2948975E2,2.2822562E2,5.1522446E1,2.0328894E1,1.7369846E2,1.6214371E3,8.851631E1,7.2054405E0,2.095528E2,1.014936E2,2.431304E1,2.6101662E1,7.8224773E0,4.2967598E1,2.3079893E2,4.7375328E1,5.6146416E1,5.1466064E1,1.1180674E1,1.5897536E0,2.4553413E0,6.335378E1,1.6999077E2,1.59499E2,1.5907451E2,6.915112E1,2.8658663E1,2.2863781E1,1.6293905E1,4.034989E0,7.3242935E1,1.0045552E2,1.1017606E3,5.196765E2],"tree_param":{"num_deleted":"0","num_feature":"32","num_nodes":"57","size_leaf_vector":"1"}},{"base_weights":[-1.135512E-1,-2.7671093E-1,1.5512472E-1,2.8885525E-1,-5.0128824E-1,8.519301E-1,-2.9746807E-1,5.740165E-1,1.6400056E-1,-3.4419724E-1,-7.2872186E-1,5.3794664E-1,9.4479775E-1,-9.731626E-2,-6.033193E-1,7.166354E-1,2.1076015E-1,2.9592928E-1,-1.6149184E-1,-2.0134029E-1,-4.5082897E-1,-6.225312E-1,-1.2768744E-1,6.808779E-1,1.2422819E-1,1.1246027E0,6.6773653E-1,1.5152083E-1,-3.2074943E-1,-3.8574642E-1,-7.306077E-1,1.5143918E-1,6.9522E-2,1.2012637E-1,1.347577E-2,6.6529036E-2,2.6128175E-2,7.0461193E-3,-5.593746E-2,4.5742918E-2,-6.173625E-2,-2.283922E-2,-8.83658E-2,-6.2347054E-2,-1.0750694E-1,1.1882444E-1,5.68782E-2,7.284377E-2,-1.6904209E-2,2.0008674E-1,1.3949957E-1,1.7609745E-1,4.2547476E-2,5.4114036E-2,-0E0,3.932293E-3,-7.146486E-2,-2.6579848E-2,-8.95956E-2,-7.5603604E-2,-1.2202057E-1],"categories":[2,0,1,2,0,1,2,1,2,3,4,0,0,0,1,2,3,0,1,2,3,4,6,9,1,2,3,0,5,6,0,1,3,0,1,2,0,1,0,0,0,1,2,0,2,0,0,0,2,3,0,2,1,2,3,4,0,1,2,3,0,0,1,2,0,1,3,5,6,8,9],"categories_nodes":[0,1,2,3,4,5,6,7,8,9,10,11,12,13,14,15,16,17,18,19,20,21,23,24,25,26,27,28,29,30],"categories_segments":[0,1,4,7,11,12,13,14,17,19,24,27,30,33,36,38,39,40,43,45,46,47,48,50,52,56,57,60,61,64],"categories_sizes":[1,3,3,4,1,1,1,3,2,5,3,3,3,3,2,1,1,3,2,1,1,1,2,2,4,1,3,1,3,7],"default_left":[0,0,1,0,1,1,1,0,1,1,1,1,0,1,1,1,0,1,1,0,0,0,0,0,1,1,0,1,0,1,1,0,0,0,0,0,0,0,0,0,0,0,0,0,0,0,0,0,0,0,0,0,0,0,0,0,0,0,0,0,0],"id":3,"left_children":[1,3,5,7,9,11,13,15,17,19,21,23,25,27,29,31,33,35,37,39,41,43,-1,45,47,49,51,53,55,57,59,-1,-1,-1,-1,-1,-1,-1,-1,-1,-1,-1,-1,-1,-1,-1,-1,-1,-1,-1,-1,-1,-1,-1,-1,-1,-1,-1,-1,-1,-1],"loss_changes":[1.6022066E2,2.891679E2,4.351638E2,2.2200676E1,5.7023987E1,1.4120819E1,5.0371353E1,9.049118E0,1.9569462E1,1.404026E1,5.7564087E0,6.704277E0,1.8586334E1,2.838599E1,7.8362656E0,8.165146E0,3.1369631E0,4.9956436E0,5.774176E0,4.250205E1,2.025422E1,4.5834045E0,0E0,1.4707298E0,3.295949E0,6.9396973E0,2.992247E1,7.132552E0,1.4119186E1,4.4941845E0,1.7487717E0,0E0,0E0,0E0,0E0,0E0,0E0,0E0,0E0,0E0,0E0,0E0,0E0,0E0,0E0,0E0,0E0,0E0,0E0,0E0,0E0,0E0,0E0,0E0,0E0,0E0,0E0,0E0,0E0,0E0,0E0],"parents":[2147483647,0,0,1,1,2,2,3,3,4,4,5,5,6,6,7,7,8,8,9,9,10,10,11,11,12,12,13,13,14,14,15,15,16,16,17,17,18,18,19,19,20,20,21,21,23,23,24,24,25,25,26,26,27,27,28,28,29,29,30,30],"right_children":[2,4,6,8,10,12,14,16,18,20,22,24,26,28,30,32,34,36,38,40,42,44,-1,46,48,50,52,54,56,58,60,-1,-1,-1,-1,-1,-1,-1,-1,-1,-1,-1,-1,-1,-1,-1,-1,-1,-1,-1,-1,-1,-1,-1,-1,-1,-1,-1,-1,-1,-1],"split_conditions":[NaN,NaN,NaN,NaN,NaN,NaN,NaN,NaN,NaN,NaN,NaN,NaN,NaN,NaN,NaN,NaN,NaN,NaN,NaN,NaN,NaN,NaN,-1.2768744E-1,NaN,NaN,NaN,NaN,NaN,NaN,NaN,NaN,1.5143918E-1,6.9522E-2,1.2012637E-1,1.347577E-2,6.6529036E-2,2.6128175E-2,7.0461193E-3,-5.593746E-2,4.5742918E-2,-6.173625E-2,-2.283922E-2,-8.83658E-2,-6.2347054E-2,-1.0750694E-1,1.1882444E-1,5.68782E-2,7.284377E-2,-1.6904209E-2,2.0008674E-1,1.3949957E-1,1.7609745E-1,4.2547476E-2,5.4114036E-2,-0E0,3.932293E-3,-7.146486E-2,-2.6579848E-2,-8.95956E-2,-7.5603604E-2,-1.2202057E-1],"split_indices":[1,15,15,19,15,26,15,31,22,28,20,28,17,20,0,11,12,20,20,10,10,10,0,19,20,19,10,27,10,20,28,0,0,0,0,0,0,0,0,0,0,0,0,0,0,0,0,0,0,0,0,0,0,0,0,0,0,0,0,0,0],"split_type":[1,1,1,1,1,1,1,1,1,1,1,1,1,1,1,1,1,1,1,1,1,1,0,1,1,1,1,1,1,1,1,0,0,0,0,0,0,0,0,0,0,0,0,0,0,0,0,0,0,0,0,0,0,0,0,0,0,0,0,0,0],"sum_hessian":[3.651177E3,2.2739575E3,1.3772195E3,6.4501105E2,1.6289464E3,5.429975E2,8.34222E2,1.9344603E2,4.51565E2,9.667883E2,6.62158E2,1.2715384E2,4.1584366E2,5.0660165E2,3.2762036E2,1.3659645E2,5.684958E1,3.2353546E2,1.2802954E2,4.1780557E2,5.489827E2,3.3725845E2,3.2489957E2,9.247903E1,3.4674812E1,2.4909293E2,1.6675073E2,2.376402E2,2.6896146E2,1.2454366E2,2.0307669E2,6.432847E1,7.226799E1,8.105731E0,4.8743847E1,1.4890137E2,1.746341E2,6.1262978E1,6.676657E1,1.1878622E2,2.9901938E2,1.6524042E2,3.8374234E2,9.5935234E1,2.4132323E2,6.753883E1,2.4940193E1,1.5369061E1,1.930575E1,1.298194E2,1.1927352E2,7.28332E1,9.3917534E1,1.00176575E2,1.3746362E2,7.801787E1,1.9094359E2,6.3326168E1,6.1217495E1,4.9113758E1,1.5396294E2],"tree_param":{"num_deleted":"0","num_feature":"32","num_nodes":"61","size_leaf_vector":"1"}},{"base_weights":[-9.882127E-2,2.5900745E-1,-4.220671E-1,9.39061E-1,-1.1122187E-1,3.6904037E-1,-6.112367E-1,9.6966064E-1,4.6699174E-2,-6.2728083E-1,-5.371813E-2,4.9937123E-1,-3.1152806E-1,-3.4904787E-1,-7.1139014E-1,1.0885273E0,7.327407E-1,-2.157811E-1,3.8694334E-1,-7.75713E-1,-2.7794084E-1,1.0340211E0,-2.2183564E-1,7.3820823E-1,2.6618513E-1,-1.2927946E-2,-4.81787E-1,-2.6716536E-1,-4.9896082E-1,-1.6199967E-1,-7.588476E-1,1.8604955E-1,1.3702975E-1,1.264349E-1,6.1766464E-2,4.610752E-2,-1.0128237E-1,9.111337E-2,-0E0,-1.3682213E-2,-1.4282617E-1,7.6387316E-2,-8.669842E-2,1.9440138E-1,8.904426E-2,-4.9086947E-2,-5.843068E-3,1.2554693E-1,2.7997097E-2,8.761551E-2,5.8392985E-3,5.65844E-2,-9.049863E-2,-4.167924E-3,-1.15442775E-1,-1.4361586E-2,-6.0608834E-2,-4.8369203E-2,-1.1483027E-1,1.7228933E-2,-7.9490945E-2,-1.0334072E-1,-1.3377501E-1],"categories":[0,1,0,0,0,1,0,0,1,0,1,2,3,3,0,1,0,0,2,0,1,1,0,4,6,7,9,0,6,0,3,0,1,2,3,0,2,3,0,3,4,5,6,7,8,1,2,2,3,2,3,4,5,6,8,0,1,3,4,8,0,1,4,5,6,7,2,3,4,5,6,0,0,0],"categories_nodes":[0,1,2,3,4,5,6,7,8,9,10,11,12,13,14,15,16,17,18,19,20,21,22,23,24,25,26,27,28,29,30],"categories_segments":[0,2,3,4,6,7,9,13,14,15,16,17,19,21,22,23,27,29,31,35,38,45,46,47,49,55,60,66,71,72,73],"categories_sizes":[2,1,1,2,1,2,4,1,1,1,1,2,2,1,1,4,2,2,4,3,7,1,1,2,6,5,6,5,1,1,1],"default_left":[0,0,0,1,1,1,1,1,1,1,0,1,1,0,0,1,1,1,1,1,1,0,0,1,1,1,1,1,0,1,1,0,0,0,0,0,0,0,0,0,0,0,0,0,0,0,0,0,0,0,0,0,0,0,0,0,0,0,0,0,0,0,0],"id":4,"left_children":[1,3,5,7,9,11,13,15,17,19,21,23,25,27,29,31,33,35,37,39,41,43,45,47,49,51,53,55,57,59,61,-1,-1,-1,-1,-1,-1,-1,-1,-1,-1,-1,-1,-1,-1,-1,-1,-1,-1,-1,-1,-1,-1,-1,-1,-1,-1,-1,-1,-1,-1,-1,-1],"loss_changes":[4.1428143E2,4.283568E2,2.820662E2,1.5335083E1,3.1913551E1,3.242174E1,3.874536E1,1.4086426E1,2.1289752E0,4.4644203E0,1.8051701E2,1.5928345E1,2.4193196E0,4.375355E0,2.7621643E1,6.7538147E0,4.710045E0,2.9465482E0,1.1966908E0,6.942646E0,8.084359E0,1.1916992E1,1.5274517E1,5.740547E0,1.0395733E1,5.5247474E0,3.476243E0,5.745617E0,5.486801E0,9.227597E0,7.874817E0,0E0,0E0,0E0,0E0,0E0,0E0,0E0,0E0,0E0,0E0,0E0,0E0,0E0,0E0,0E0,0E0,0E0,0E0,0E0,0E0,0E0,0E0,0E0,0E0,0E0,0E0,0E0,0E0,0E0,0E0,0E0,0E0],"parents":[2147483647,0,0,1,1,2,2,3,3,4,4,5,5,6,6,7,7,8,8,9,9,10,10,11,11,12,12,13,13,14,14,15,15,16,16,17,17,18,18,19,19,20,20,21,21,22,22,23,23,24,24,25,25,26,26,27,27,28,28,29,29,30,30],"right_children":[2,4,6,8,10,12,14,16,18,20,22,24,26,28,30,32,34,36,38,40,42,44,46,48,50,52,54,56,58,60,62,-1,-1,-1,-1,-1,-1,-1,-1,-1,-1,-1,-1,-1,-1,-1,-1,-1,-1,-1,-1,-1,-1,-1,-1,-1,-1,-1,-1,-1,-1,-1,-1],"split_conditions":[NaN,NaN,NaN,NaN,NaN,NaN,NaN,NaN,NaN,NaN,NaN,NaN,NaN,NaN,NaN,NaN,NaN,NaN,NaN,NaN,NaN,NaN,NaN,NaN,NaN,NaN,NaN,NaN,NaN,NaN,NaN,1.8604955E-1,1.3702975E-1,1.264349E-1,6.1766464E-2,4.610752E-2,-1.0128237E-1,9.111337E-2,-0E0,-1.3682213E-2,-1.4282617E-1,7.6387316E-2,-8.669842E-2,1.9440138E-1,8.904426E-2,-4.9086947E-2,-5.843068E-3,1.2554693E-1,2.7997097E-2,8.761551E-2,5.8392985E-3,5.65844E-2,-9.049863E-2,-4.167924E-3,-1.15442775E-1,-1.4361586E-2,-6.0608834E-2,-4.8369203E-2,-1.1483027E-1,1.7228933E-2,-7.9490945E-2,-1.0334072E-1,-1.3377501E-1],"split_indices":[18,9,9,17,9,17,17,0,26,29,13,27,0,0,13,28,28,27,28,0,28,1,1,28,28,28,28,28,18,18,18,0,0,0,0,0,0,0,0,0,0,0,0,0,0,0,0,0,0,0,0,0,0,0,0,0,0,0,0,0,0,0,0],"split_type":[1,1,1,1,1,1,1,1,1,1,1,1,1,1,1,1,1,1,1,1,1,1,1,1,1,1,1,1,1,1,1,0,0,0,0,0,0,0,0,0,0,0,0,0,0,0,0,0,0,0,0,0,0,0,0,0,0,0,0,0,0,0,0],"sum_hessian":[3.579326E3,1.6973726E3,1.8819535E3,5.990145E2,1.098358E3,3.6206473E2,1.5198887E3,5.7803424E2,2.0980278E1,1.07893814E2,9.904642E2,3.052107E2,5.6854023E1,4.234637E2,1.096425E3,3.8094128E2,1.9709293E2,1.0291534E1,1.0688744E1,7.32988E1,3.459502E1,1.3145876E2,8.5900543E2,1.4814278E2,1.5706792E2,2.296255E1,3.3891476E1,2.790549E2,1.444088E2,8.9022194E1,1.00740283E3,2.2433824E2,1.5660304E2,1.5040523E2,4.6687702E1,3.8070636E0,6.4844704E0,7.59948E0,3.0892637E0,1.5044694E1,5.82541E1,8.341465E0,2.6253555E1,8.421182E1,4.724693E1,5.541942E2,3.0481125E2,1.27192986E2,2.0949791E1,6.480631E1,9.22616E1,1.2890069E1,1.007248E1,1.4287878E1,1.9603596E1,1.2279008E2,1.5626483E2,8.661012E1,5.7798676E1,4.897148E1,4.0050713E1,5.9294025E2,4.144626E2],"tree_param":{"num_deleted":"0","num_feature":"32","num_nodes":"63","size_leaf_vector":"1"}},{"base_weights":[-8.880775E-2,6.022659E-1,-3.5915852E-1,7.7327E-1,4.3560502E-1,2.1544363E-1,-5.796199E-1,1.1190758E0,4.7793773E-1,6.317631E-1,1.2593047E-1,3.04219E-1,-2.7641028E-1,-3.6923796E-1,-7.228851E-1,1.7458282E-1,-0E0,5.6490594E-1,-3.6740765E-1,9.897016E-1,5.131214E-1,1.774662E-1,-5.3464174E-1,1.1443795E0,1.574443E-1,-5.4501243E-2,-4.48765E-1,4.105433E-1,-4.7777575E-1,-6.0088843E-1,-8.8622093E-1,1.0208058E-1,6.1634436E-2,-0E0,-7.9010814E-2,1.5623872E-1,-0E0,1.3301156E-1,6.374422E-2,5.982553E-2,8.910637E-3,7.608677E-3,-1.257227E-1,1.9090933E-1,7.996395E-2,3.924916E-2,-1.5077303E-2,1.7946977E-2,-6.427315E-2,-0E0,-7.7687286E-2,-6.61711E-2,8.111755E-2,-4.6639506E-2,-8.88351E-2,1.8674722E-3,-1.0087033E-1,-1.254257E-1,-1.5390295E-1],"categories":[0,0,1,2,0,1,2,3,0,1,2,3,0,1,2,0,0,1,0,1,0,1,0,2,4,0,1,2,3,0,0,1,2,1,4,0,1,4,2,3,1,2,3,4,0,1,2,0,1,2,3,2,3,2,3,0,3,0,1,2,4,0,1,2,3,0,0,1],"categories_nodes":[0,1,2,3,4,5,6,7,8,9,10,11,12,13,14,17,18,19,20,21,22,23,24,25,26,27,28,29,30],"categories_segments":[0,1,4,8,12,15,16,18,20,22,23,25,26,29,30,33,35,38,40,44,47,51,53,55,57,61,62,65,66],"categories_sizes":[1,3,4,4,3,1,2,2,2,1,2,1,3,1,3,2,3,2,4,3,4,2,2,2,4,1,3,1,2],"default_left":[0,1,0,0,0,0,1,1,1,0,1,0,1,0,0,0,0,1,1,1,1,1,1,1,0,1,0,1,1,0,1,0,0,0,0,0,0,0,0,0,0,0,0,0,0,0,0,0,0,0,0,0,0,0,0,0,0,0,0],"id":5,"left_children":[1,3,5,7,9,11,13,15,17,19,21,23,25,27,29,-1,-1,31,33,35,37,39,41,43,45,47,49,51,53,55,57,-1,-1,-1,-1,-1,-1,-1,-1,-1,-1,-1,-1,-1,-1,-1,-1,-1,-1,-1,-1,-1,-1,-1,-1,-1,-1,-1,-1],"loss_changes":[6.5327606E2,2.6633667E1,3.1904654E2,4.73096E1,2.9680992E1,3.048322E1,5.361133E1,6.130066E0,1.956429E1,1.1207611E1,6.4015946E0,7.1616005E1,3.5039473E0,6.285959E1,1.9755249E1,0E0,0E0,2.7657928E0,1.5341713E0,1.9265823E0,6.5185776E0,4.243681E0,2.9703655E0,3.5221405E0,1.3003089E1,3.4053485E0,1.2554665E0,9.264213E0,1.0632736E1,2.3007843E1,1.4040833E0,0E0,0E0,0E0,0E0,0E0,0E0,0E0,0E0,0E0,0E0,0E0,0E0,0E0,0E0,0E0,0E0,0E0,0E0,0E0,0E0,0E0,0E0,0E0,0E0,0E0,0E0,0E0,0E0],"parents":[2147483647,0,0,1,1,2,2,3,3,4,4,5,5,6,6,7,7,8,8,9,9,10,10,11,11,12,12,13,13,14,14,17,17,18,18,19,19,20,20,21,21,22,22,23,23,24,24,25,25,26,26,27,27,28,28,29,29,30,30],"right_children":[2,4,6,8,10,12,14,16,18,20,22,24,26,28,30,-1,-1,32,34,36,38,40,42,44,46,48,50,52,54,56,58,-1,-1,-1,-1,-1,-1,-1,-1,-1,-1,-1,-1,-1,-1,-1,-1,-1,-1,-1,-1,-1,-1,-1,-1,-1,-1,-1,-1],"split_conditions":[NaN,NaN,NaN,NaN,NaN,NaN,NaN,NaN,NaN,NaN,NaN,NaN,NaN,NaN,NaN,1.7458282E-1,-0E0,NaN,NaN,NaN,NaN,NaN,NaN,NaN,NaN,NaN,NaN,NaN,NaN,NaN,NaN,1.0208058E-1,6.1634436E-2,-0E0,-7.9010814E-2,1.5623872E-1,-0E0,1.3301156E-1,6.374422E-2,5.982553E-2,8.910637E-3,7.608677E-3,-1.257227E-1,1.9090933E-1,7.996395E-2,3.924916E-2,-1.5077303E-2,1.7946977E-2,-6.427315E-2,-0E0,-7.7687286E-2,-6.61711E-2,8.111755E-2,-4.6639506E-2,-8.88351E-2,1.8674722E-3,-1.0087033E-1,-1.254257E-1,-1.5390295E-1],"split_indices":[9,20,14,14,18,18,18,17,17,13,19,13,27,13,14,0,0,16,16,27,16,16,17,30,17,30,16,9,16,13,17,0,0,0,0,0,0,0,0,0,0,0,0,0,0,0,0,0,0,0,0,0,0,0,0,0,0,0,0],"split_type":[1,1,1,1,1,1,1,1,1,1,1,1,1,1,1,0,0,1,1,1,1,1,1,1,1,1,1,1,1,1,1,0,0,0,0,0,0,0,0,0,0,0,0,0,0,0,0,0,0,0,0,0,0,0,0,0,0,0,0],"sum_hessian":[3.4968293E3,9.820961E2,2.5147332E3,4.8090015E2,5.01196E2,6.9605444E2,1.8186787E3,2.193365E2,2.6156363E2,3.045538E2,1.9664221E2,5.915058E2,1.0454866E2,7.4028925E2,1.0783894E3,2.1553654E2,3.7999582E0,2.3838072E2,2.3182915E1,7.282977E1,2.3172403E2,1.8414304E2,1.2499174E1,8.6462105E1,5.0504367E2,4.851361E1,5.6035053E1,8.916256E1,6.511267E2,6.2211914E2,4.5627032E2,1.412991E2,9.7081635E1,5.9470544E0,1.723586E1,7.0189865E1,2.6399038E0,4.6279724E1,1.854443E2,6.2553593E1,1.2158945E2,3.1100578E0,9.389116E0,7.2299385E1,1.4162717E1,3.668516E2,1.3819208E2,3.1377941E1,1.713567E1,7.5290565E0,4.8505997E1,9.896978E0,7.926559E1,2.4745947E2,4.0366724E2,5.280311E1,5.6931604E2,3.0180472E2,1.544656E2],"tree_param":{"num_deleted":"0","num_feature":"32","num_nodes":"59","size_leaf_vector":"1"}},{"base_weights":[-7.9311214E-2,1.8762435E-1,-2.737094E-1,3.220986E-1,6.2175456E-2,-1.9931169E-1,-6.018385E-1,6.512681E-1,1.53116705E-2,4.4963914E-1,-2.5179142E-1,1.4674069E-1,-3.997939E-1,-1.5530154E-3,-7.290155E-1,9.8177487E-1,5.2283746E-1,4.511075E-1,-4.1275546E-1,7.0334756E-1,-2.2242533E-2,-1.445469E-2,-4.583086E-1,2.7773973E-1,-1.7093624E-1,-2.4754018E-1,-6.326887E-1,2.7248842E-1,-9.389951E-2,-0E0,-7.969322E-1,1.6091442E-1,-0E0,8.362414E-2,1.1562965E-3,1.488612E-1,4.556829E-2,-3.3433206E-2,-7.839254E-2,1.2667991E-1,-2.2264607E-2,6.227048E-3,-9.688917E-2,3.888719E-2,-2.1268304E-2,2.3838585E-2,-7.46389E-2,1.00914175E-2,8.211152E-2,-5.0612357E-2,2.866144E-2,4.952655E-3,-5.2849345E-2,-7.2114564E-2,-1.17777765E-1,-0E0,7.1194716E-2,-1.6627647E-2,4.1886076E-2,-0E0,-1.2430818E-1],"categories":[0,1,2,3,2,3,4,6,7,0,1,0,1,2,0,1,2,0,1,0,1,2,1,2,3,4,0,1,2,3,0,1,2,3,0,1,2,3,0,1,2,0,0,1,2,0,1,2,3,1,4,3,0,1,2,0,1,0,0,0,1,2,3,2,2,1,2,3,4,0,0,1,0,1,2,3],"categories_nodes":[0,1,2,3,4,5,6,7,8,9,10,11,12,13,14,15,16,17,18,19,20,21,22,23,24,25,26,27,29,30],"categories_segments":[0,4,9,11,14,17,19,22,26,30,34,38,41,42,45,49,51,52,55,56,57,58,59,63,64,65,69,70,71,72],"categories_sizes":[4,5,2,3,3,2,3,4,4,4,4,3,1,3,4,2,1,3,1,1,1,1,4,1,1,4,1,1,1,4],"default_left":[0,1,1,1,0,1,1,1,1,0,1,0,1,0,0,1,1,1,1,1,1,1,1,0,1,0,0,1,0,1,0,0,0,0,0,0,0,0,0,0,0,0,0,0,0,0,0,0,0,0,0,0,0,0,0,0,0,0,0,0,0],"id":6,"left_children":[1,3,5,7,9,11,13,15,17,19,21,23,25,27,29,31,33,35,37,39,41,43,45,47,49,51,53,55,-1,57,59,-1,-1,-1,-1,-1,-1,-1,-1,-1,-1,-1,-1,-1,-1,-1,-1,-1,-1,-1,-1,-1,-1,-1,-1,-1,-1,-1,-1,-1,-1],"loss_changes":[1.7682677E2,2.3783775E1,4.730345E1,6.878181E1,9.099091E1,1.12075554E2,2.6900696E1,1.2264511E1,6.69217E1,4.0848328E1,1.9666388E1,2.466763E1,3.5294296E1,1.135164E1,1.4928665E1,5.538559E0,2.4104843E0,1.2892765E1,2.6978073E0,2.4009277E1,5.081944E0,6.3950715E0,4.3295555E0,2.2419014E1,9.930395E0,1.7363129E1,7.466675E0,2.2789602E0,0E0,8.1703377E-1,2.8798065E0,0E0,0E0,0E0,0E0,0E0,0E0,0E0,0E0,0E0,0E0,0E0,0E0,0E0,0E0,0E0,0E0,0E0,0E0,0E0,0E0,0E0,0E0,0E0,0E0,0E0,0E0,0E0,0E0,0E0,0E0],"parents":[2147483647,0,0,1,1,2,2,3,3,4,4,5,5,6,6,7,7,8,8,9,9,10,10,11,11,12,12,13,13,14,14,15,15,16,16,17,17,18,18,19,19,20,20,21,21,22,22,23,23,24,24,25,25,26,26,27,27,29,29,30,30],"right_children":[2,4,6,8,10,12,14,16,18,20,22,24,26,28,30,32,34,36,38,40,42,44,46,48,50,52,54,56,-1,58,60,-1,-1,-1,-1,-1,-1,-1,-1,-1,-1,-1,-1,-1,-1,-1,-1,-1,-1,-1,-1,-1,-1,-1,-1,-1,-1,-1,-1,-1,-1],"split_conditions":[NaN,NaN,NaN,NaN,NaN,NaN,NaN,NaN,NaN,NaN,NaN,NaN,NaN,NaN,NaN,NaN,NaN,NaN,NaN,NaN,NaN,NaN,NaN,NaN,NaN,NaN,NaN,NaN,-9.389951E-2,NaN,NaN,1.6091442E-1,-0E0,8.362414E-2,1.1562965E-3,1.488612E-1,4.556829E-2,-3.3433206E-2,-7.839254E-2,1.2667991E-1,-2.2264607E-2,6.227048E-3,-9.688917E-2,3.888719E-2,-2.1268304E-2,2.3838585E-2,-7.46389E-2,1.00914175E-2,8.211152E-2,-5.0612357E-2,2.866144E-2,4.952655E-3,-5.2849345E-2,-7.2114564E-2,-1.17777765E-1,-0E0,7.1194716E-2,-1.6627647E-2,4.1886076E-2,-0E0,-1.2430818E-1],"split_indices":[17,28,17,15,15,15,15,16,14,14,14,14,15,14,14,21,30,16,23,21,1,11,21,1,1,16,18,26,0,26,18,0,0,0,0,0,0,0,0,0,0,0,0,0,0,0,0,0,0,0,0,0,0,0,0,0,0,0,0,0,0],"split_type":[1,1,1,1,1,1,1,1,1,1,1,1,1,1,1,1,1,1,1,1,1,1,1,1,1,1,1,1,0,1,1,0,0,0,0,0,0,0,0,0,0,0,0,0,0,0,0,0,0,0,0,0,0,0,0,0,0,0,0,0,0],"sum_hessian":[3.4049773E3,1.4326466E3,1.9723307E3,6.872455E2,7.454011E2,1.6109093E3,3.6142136E2,3.2969647E2,3.5754904E2,3.3497433E2,4.104268E2,5.8914575E2,1.02176355E3,6.464124E1,2.9678012E2,8.918049E1,2.4051598E2,1.7831552E2,1.7923352E2,2.1906477E2,1.15909546E2,1.934533E2,2.169735E2,4.193986E2,1.6974716E2,6.210473E2,4.0071625E2,4.3719868E1,2.0921373E1,2.5003338E1,2.717768E2,8.261061E1,6.569879E0,2.2798886E2,1.2527106E1,3.8380592E1,1.3993494E2,6.474875E1,1.1448477E2,1.9201105E2,2.7053736E1,1.040224E2,1.1887148E1,5.8590866E1,1.3486241E2,8.351881E0,2.0862163E2,2.3322795E2,1.8617064E2,1.1930685E2,5.044032E1,1.5846358E2,4.6258374E2,1.8864655E2,2.1206969E2,1.8538855E1,2.5181015E1,1.742066E1,7.582678E0,6.097506E0,2.656793E2],"tree_param":{"num_deleted":"0","num_feature":"32","num_nodes":"61","size_leaf_vector":"1"}},{"base_weights":[-6.679318E-2,6.36513E-2,-1.5030527E-1,2.7243435E-1,-1.1646068E-1,7.690462E-2,-3.3860362E-1,6.286396E-1,2.4204114E-1,3.9236215E-1,-1.633948E-1,3.6118823E-1,4.1877445E-2,-0E0,-3.6576286E-1,8.3867395E-1,-8.333417E-2,5.944992E-1,-6.369955E-2,5.192418E-1,-3.7911543E-1,2.7226448E-1,-3.6137235E-1,7.2434515E-1,5.2477713E-3,3.315012E-1,-1.7322199E-1,3.185955E-1,-2.8252274E-1,-2.9829928E-1,-6.263094E-1,1.7861333E-1,6.257063E-2,1.1051596E-1,5.5430662E-2,1.197376E-2,-5.057958E-2,1.2091255E-1,3.7367162E-3,-0E0,-1.1950906E-1,5.536236E-2,2.480211E-3,-3.1150497E-2,-9.5847234E-2,1.6132921E-1,3.624454E-4,9.859468E-2,-2.9651716E-2,6.828147E-2,-3.1393631E-3,-6.5395315E-3,-4.9933024E-2,1.03956535E-1,-5.509894E-2,2.8062059E-2,-8.288268E-2,1.085919E-4,-6.4501494E-2,-4.162624E-3,-1.1445045E-1],"categories":[0,1,3,4,0,1,3,0,1,2,3,0,0,0,0,0,0,1,0,0,1,1,2,0,1,2,0,3,0,1,1,2,3,4,1,0,1,2,4,6,0,1,4,6,2,6,9,0,0,3,6,0,1,2,3,0,1,2,2,3,4,6,0,1,3,4,5,6,7,0,1,2,0,1,2],"categories_nodes":[0,1,2,3,4,5,6,7,8,9,10,11,12,13,14,15,17,18,19,20,21,22,23,24,25,26,27,28,29,30],"categories_segments":[0,4,7,11,12,13,14,15,16,18,19,21,23,26,28,30,34,35,36,40,44,47,48,51,55,58,62,64,69,72],"categories_sizes":[4,3,4,1,1,1,1,1,2,1,2,2,3,2,2,4,1,1,4,4,3,1,3,4,3,4,2,5,3,3],"default_left":[1,1,1,0,1,0,1,1,1,1,1,1,0,1,1,1,0,1,1,1,1,1,1,1,1,1,1,1,1,1,0,0,0,0,0,0,0,0,0,0,0,0,0,0,0,0,0,0,0,0,0,0,0,0,0,0,0,0,0,0,0],"id":7,"left_children":[1,3,5,7,9,11,13,15,17,19,21,23,25,27,29,31,-1,33,35,37,39,41,43,45,47,49,51,53,55,57,59,-1,-1,-1,-1,-1,-1,-1,-1,-1,-1,-1,-1,-1,-1,-1,-1,-1,-1,-1,-1,-1,-1,-1,-1,-1,-1,-1,-1,-1,-1],"loss_changes":[3.6458336E1,4.9008953E1,8.755728E1,5.599003E0,1.6401184E1,8.777298E0,1.0378021E1,1.15131645E1,6.090167E1,5.8201075E0,5.5205185E1,1.1940675E1,5.1582817E1,7.5060625E0,1.719339E1,3.6731682E0,0E0,6.5677414E0,1.159197E1,5.930395E0,1.1469102E0,4.1712847E0,1.7549397E1,1.0186239E1,7.0505786E0,1.4737534E1,9.056414E0,1.0138712E1,5.6877007E0,3.0922218E1,1.4525253E1,0E0,0E0,0E0,0E0,0E0,0E0,0E0,0E0,0E0,0E0,0E0,0E0,0E0,0E0,0E0,0E0,0E0,0E0,0E0,0E0,0E0,0E0,0E0,0E0,0E0,0E0,0E0,0E0,0E0,0E0],"parents":[2147483647,0,0,1,1,2,2,3,3,4,4,5,5,6,6,7,7,8,8,9,9,10,10,11,11,12,12,13,13,14,14,15,15,17,17,18,18,19,19,20,20,21,21,22,22,23,23,24,24,25,25,26,26,27,27,28,28,29,29,30,30],"right_children":[2,4,6,8,10,12,14,16,18,20,22,24,26,28,30,32,-1,34,36,38,40,42,44,46,48,50,52,54,56,58,60,-1,-1,-1,-1,-1,-1,-1,-1,-1,-1,-1,-1,-1,-1,-1,-1,-1,-1,-1,-1,-1,-1,-1,-1,-1,-1,-1,-1,-1,-1],"split_conditions":[NaN,NaN,NaN,NaN,NaN,NaN,NaN,NaN,NaN,NaN,NaN,NaN,NaN,NaN,NaN,NaN,-8.333417E-2,NaN,NaN,NaN,NaN,NaN,NaN,NaN,NaN,NaN,NaN,NaN,NaN,NaN,NaN,1.7861333E-1,6.257063E-2,1.1051596E-1,5.5430662E-2,1.197376E-2,-5.057958E-2,1.2091255E-1,3.7367162E-3,-0E0,-1.1950906E-1,5.536236E-2,2.480211E-3,-3.1150497E-2,-9.5847234E-2,1.6132921E-1,3.624454E-4,9.859468E-2,-2.9651716E-2,6.828147E-2,-3.1393631E-3,-6.5395315E-3,-4.9933024E-2,1.03956535E-1,-5.509894E-2,2.8062059E-2,-8.288268E-2,1.085919E-4,-6.4501494E-2,-4.162624E-3,-1.1445045E-1],"split_indices":[21,17,17,12,12,4,4,15,15,0,15,27,15,15,17,19,0,25,15,28,28,28,15,28,15,22,28,22,28,15,15,0,0,0,0,0,0,0,0,0,0,0,0,0,0,0,0,0,0,0,0,0,0,0,0,0,0,0,0,0,0],"split_type":[1,1,1,1,1,1,1,1,1,1,1,1,1,1,1,1,0,1,1,1,1,1,1,1,1,1,1,1,1,1,1,0,0,0,0,0,0,0,0,0,0,0,0,0,0,0,0,0,0,0,0,0,0,0,0,0,0,0,0,0,0],"sum_hessian":[3.3378906E3,1.2982424E3,2.0396481E3,6.0371106E2,6.945314E2,9.220527E2,1.1175955E3,4.4125706E1,5.595853E2,5.6555977E1,6.379754E2,9.7524124E1,8.2452856E2,8.2305374E1,1.03529E3,3.8265675E1,5.860033E0,2.6123254E2,2.9835278E2,4.9815166E1,6.74081E0,1.97703E2,4.402724E2,4.66358E1,5.088833E1,3.5325314E2,4.7127545E2,3.9089767E1,4.3215607E1,8.2622974E2,2.0906033E2,1.9878239E1,1.8387436E1,1.6493208E2,9.6300446E1,1.9256087E2,1.0579193E2,3.0686367E1,1.91288E1,3.6498005E0,3.0910094E0,1.4338794E2,5.4315063E1,2.7900092E2,1.6127147E2,3.0892845E1,1.5742955E1,1.3012341E1,3.7875988E1,2.6835788E2,8.489524E1,2.5839188E2,2.1288358E2,2.6475544E1,1.2614225E1,1.4129257E1,2.9086348E1,2.391443E2,5.8708545E2,3.6838367E1,1.7222195E2],"tree_param":{"num_deleted":"0","num_feature":"32","num_nodes":"61","size_leaf_vector":"1"}},{"base_weights":[-6.134233E-2,4.889506E-1,-2.931858E-1,5.4926354E-1,1.4693438E-1,3.6289525E-1,-3.7942252E-1,7.928537E-1,3.3844456E-1,2.828092E-1,-3.4563926E-1,5.5492127E-1,-4.0970963E-1,9.002693E-3,-5.60156E-1,9.041179E-1,5.7176805E-1,5.3396547E-1,1.6221666E-1,6.6136014E-1,-0E0,-0E0,-1.2641287E-1,9.556049E-1,1.3374916E-1,2.417074E-1,-8.2091935E-2,1.3468009E-1,-2.0211732E-1,-4.6931565E-1,-7.559823E-1,1.4480315E-1,8.879416E-2,1.5642825E-1,6.784476E-2,7.110061E-2,1.5516746E-1,8.121085E-2,6.6204714E-3,2.6752397E-2,1.5517853E-1,3.5811964E-2,-4.0982768E-2,8.891629E-2,-6.832713E-2,1.9665322E-1,1.2279723E-1,-6.281432E-2,4.853623E-2,1.4785816E-1,-1.3883473E-2,4.2614765E-2,-5.0555106E-2,1.5696932E-2,-4.4432715E-2,-4.3504022E-2,-8.3922006E-2,-9.987141E-2,-1.290056E-1],"categories":[0,0,0,0,1,2,3,0,1,2,0,1,2,0,1,2,3,3,0,1,2,0,1,2,3,0,1,0,1,2,0,1,2,0,0,1,2,3,4,0,0,0,0,1,2,0,2,4,0,1,2,3,0,0,0,0,1,2,4,1,2,3,1,2,3],"categories_nodes":[0,1,2,3,4,5,6,7,8,9,10,11,12,13,14,15,16,17,18,19,20,21,23,24,25,27,28,29,30],"categories_segments":[0,1,2,3,7,10,13,17,18,21,25,27,30,31,33,34,35,39,40,41,42,45,48,52,53,54,55,59,62],"categories_sizes":[1,1,1,4,3,3,4,1,3,4,2,3,1,2,1,1,4,1,1,1,3,3,4,1,1,1,4,3,3],"default_left":[0,0,0,0,1,1,1,1,1,1,0,1,0,0,1,1,1,1,0,1,1,1,0,1,1,1,0,1,1,0,1,0,0,0,0,0,0,0,0,0,0,0,0,0,0,0,0,0,0,0,0,0,0,0,0,0,0,0,0],"id":8,"left_children":[1,3,5,7,9,11,13,15,17,19,21,23,25,27,29,31,33,35,37,39,41,43,-1,45,47,49,-1,51,53,55,57,-1,-1,-1,-1,-1,-1,-1,-1,-1,-1,-1,-1,-1,-1,-1,-1,-1,-1,-1,-1,-1,-1,-1,-1,-1,-1,-1,-1],"loss_changes":[4.1966974E2,1.9363678E1,1.3115463E2,4.1136124E1,9.97081E0,4.0022026E1,1.4440002E2,7.634506E0,1.4617275E1,1.2298759E1,4.8283496E0,3.528978E1,4.7091284E0,1.7176865E1,2.3512482E1,1.6418915E0,5.9307785E0,5.214737E0,9.842333E0,7.2901535E0,4.3656607E0,4.988032E0,0E0,2.927803E0,1.0669167E1,2.7572143E0,0E0,2.746612E1,6.653414E0,1.3195206E1,2.1974945E0,0E0,0E0,0E0,0E0,0E0,0E0,0E0,0E0,0E0,0E0,0E0,0E0,0E0,0E0,0E0,0E0,0E0,0E0,0E0,0E0,0E0,0E0,0E0,0E0,0E0,0E0,0E0,0E0],"parents":[2147483647,0,0,1,1,2,2,3,3,4,4,5,5,6,6,7,7,8,8,9,9,10,10,11,11,12,12,13,13,14,14,15,15,16,16,17,17,18,18,19,19,20,20,21,21,23,23,24,24,25,25,27,27,28,28,29,29,30,30],"right_children":[2,4,6,8,10,12,14,16,18,20,22,24,26,28,30,32,34,36,38,40,42,44,-1,46,48,50,-1,52,54,56,58,-1,-1,-1,-1,-1,-1,-1,-1,-1,-1,-1,-1,-1,-1,-1,-1,-1,-1,-1,-1,-1,-1,-1,-1,-1,-1,-1,-1],"split_conditions":[NaN,NaN,NaN,NaN,NaN,NaN,NaN,NaN,NaN,NaN,NaN,NaN,NaN,NaN,NaN,NaN,NaN,NaN,NaN,NaN,NaN,NaN,-1.2641287E-1,NaN,NaN,NaN,-8.2091935E-2,NaN,NaN,NaN,NaN,1.4480315E-1,8.879416E-2,1.5642825E-1,6.784476E-2,7.110061E-2,1.5516746E-1,8.121085E-2,6.6204714E-3,2.6752397E-2,1.5517853E-1,3.5811964E-2,-4.0982768E-2,8.891629E-2,-6.832713E-2,1.9665322E-1,1.2279723E-1,-6.281432E-2,4.853623E-2,1.4785816E-1,-1.3883473E-2,4.2614765E-2,-5.0555106E-2,1.5696932E-2,-4.4432715E-2,-4.3504022E-2,-8.3922006E-2,-9.987141E-2,-1.290056E-1],"split_indices":[9,15,13,14,17,14,14,0,20,14,14,15,4,16,15,10,16,5,13,6,20,16,0,15,10,26,0,15,20,16,20,0,0,0,0,0,0,0,0,0,0,0,0,0,0,0,0,0,0,0,0,0,0,0,0,0,0,0,0],"split_type":[1,1,1,1,1,1,1,1,1,1,1,1,1,1,1,1,1,1,1,1,1,1,0,1,1,1,0,1,1,1,1,0,0,0,0,0,0,0,0,0,0,0,0,0,0,0,0,0,0,0,0,0,0,0,0,0,0,0,0],"sum_hessian":[3.289904E3,9.7376904E2,2.316135E3,8.2506256E2,1.4870648E2,2.6754547E2,2.0485896E3,3.7995935E2,4.4510318E2,1.1830439E2,3.0402084E1,2.154297E2,5.2115772E1,6.489164E2,1.3996731E3,2.4875053E2,1.3120883E2,2.0784932E2,2.3725388E2,4.9350185E1,6.895421E1,1.8419958E1,1.1982127E1,1.0886884E2,1.0656086E2,7.149506E0,4.4966267E1,4.0984042E2,2.3907596E2,9.607515E2,4.3892157E2,2.1627911E2,3.2471424E1,2.6571138E1,1.0463769E2,1.8436249E2,2.3486828E1,5.5406456E1,1.8184741E2,2.2252604E1,2.709758E1,3.8093807E1,3.0860401E1,7.5801616E0,1.0839796E1,3.1235764E1,7.763308E1,2.5348633E1,8.121223E1,2.8962643E0,4.2532415E0,3.1478885E2,9.505158E1,5.119176E1,1.878842E2,2.9292923E2,6.678223E2,2.0858992E2,2.3033165E2],"tree_param":{"num_deleted":"0","num_feature":"32","num_nodes":"59","size_leaf_vector":"1"}},{"base_weights":[-5.169233E-2,4.1708764E-1,-2.5608534E-1,7.250745E-1,3.6087322E-1,2.0433186E-2,-4.201538E-1,4.9851298E-1,9.607298E-1,6.2651014E-1,1.7373733E-1,1.4448628E-1,-4.6459815E-1,-6.591942E-2,-5.465958E-1,1.0966738E-1,1.2843448E-1,9.997897E-1,1.22681E-2,1.22131094E-1,4.825912E-1,2.4119677E-1,-9.387231E-2,7.8289586E-1,1.2315287E-2,-1.1436904E-1,-9.081255E-2,-4.503121E-1,5.9910823E-2,-1.2156615E-1,-5.902587E-1,1.5451543E-1,-1.2749644E-2,1.6772969E-1,-0E0,1.2671441E-1,5.9051875E-2,4.959765E-2,-6.342051E-3,2.7360714E-3,-8.8317946E-2,-4.3434463E-2,1.3992351E-1,3.5967913E-2,-8.670717E-3,6.806825E-3,-7.20669E-2,-3.1502936E-2,-8.42411E-2,8.254061E-2,-0E0,3.7903413E-3,-6.813171E-2,-8.2075775E-2,-1.335841E-1],"categories":[0,0,1,2,3,0,1,0,0,1,2,3,0,1,2,0,1,2,3,1,2,0,0,2,3,0,4,0,0,2,3,4,5,6,8,0,0,0,0,1,2,0,1,2,4,0,1,0,0,2,3,2,3,0,0,0,1,2,4,0,1],"categories_nodes":[0,1,2,3,4,5,6,7,8,9,10,11,12,13,14,16,17,20,21,22,23,24,25,27,28,29,30],"categories_segments":[0,1,5,7,8,12,15,19,21,22,25,27,28,35,36,37,38,41,42,45,47,48,51,53,54,55,59],"categories_sizes":[1,4,2,1,4,3,4,2,1,3,2,1,7,1,1,1,3,1,3,2,1,3,2,1,1,4,2],"default_left":[0,0,1,0,1,1,0,1,1,1,0,0,1,1,0,0,0,1,0,0,1,1,1,1,1,1,0,0,0,0,0,0,0,0,0,0,0,0,0,0,0,0,0,0,0,0,0,0,0,0,0,0,0,0,0],"id":9,"left_children":[1,3,5,7,9,11,13,15,17,19,21,23,25,27,29,-1,31,33,-1,-1,35,37,39,41,43,45,-1,47,49,51,53,-1,-1,-1,-1,-1,-1,-1,-1,-1,-1,-1,-1,-1,-1,-1,-1,-1,-1,-1,-1,-1,-1,-1,-1],"loss_changes":[3.0700427E2,1.561647E1,1.0174719E2,6.1483383E0,4.0190132E1,4.9658085E1,6.226947E1,5.4197674E0,1.2668114E0,6.9198E0,8.954169E0,5.5146904E1,6.836876E0,1.8396421E1,1.8421082E1,0E0,6.800371E0,6.7286224E0,0E0,0E0,4.937149E0,9.497757E0,5.722097E0,1.6573662E1,8.657721E0,3.1455638E0,0E0,1.4913044E0,8.359574E0,5.114502E0,1.2559448E1,0E0,0E0,0E0,0E0,0E0,0E0,0E0,0E0,0E0,0E0,0E0,0E0,0E0,0E0,0E0,0E0,0E0,0E0,0E0,0E0,0E0,0E0,0E0,0E0],"parents":[2147483647,0,0,1,1,2,2,3,3,4,4,5,5,6,6,7,7,8,8,9,9,10,10,11,11,12,12,13,13,14,14,16,16,17,17,20,20,21,21,22,22,23,23,24,24,25,25,27,27,28,28,29,29,30,30],"right_children":[2,4,6,8,10,12,14,16,18,20,22,24,26,28,30,-1,32,34,-1,-1,36,38,40,42,44,46,-1,48,50,52,54,-1,-1,-1,-1,-1,-1,-1,-1,-1,-1,-1,-1,-1,-1,-1,-1,-1,-1,-1,-1,-1,-1,-1,-1],"split_conditions":[NaN,NaN,NaN,NaN,NaN,NaN,NaN,NaN,NaN,NaN,NaN,NaN,NaN,NaN,NaN,1.0966738E-1,NaN,NaN,1.22681E-2,1.22131094E-1,NaN,NaN,NaN,NaN,NaN,NaN,-9.081255E-2,NaN,NaN,NaN,NaN,1.5451543E-1,-1.2749644E-2,1.6772969E-1,-0E0,1.2671441E-1,5.9051875E-2,4.959765E-2,-6.342051E-3,2.7360714E-3,-8.8317946E-2,-4.3434463E-2,1.3992351E-1,3.5967913E-2,-8.670717E-3,6.806825E-3,-7.20669E-2,-3.1502936E-2,-8.42411E-2,8.254061E-2,-0E0,3.7903413E-3,-6.813171E-2,-8.2075775E-2,-1.335841E-1],"split_indices":[9,15,15,7,14,14,14,20,1,20,15,13,28,10,13,0,13,14,0,0,13,14,14,9,24,24,0,11,13,14,14,0,0,0,0,0,0,0,0,0,0,0,0,0,0,0,0,0,0,0,0,0,0,0,0],"split_type":[1,1,1,1,1,1,1,1,1,1,1,1,1,1,1,0,1,1,0,0,1,1,1,1,1,1,0,1,1,1,1,0,0,0,0,0,0,0,0,0,0,0,0,0,0,0,0,0,0,0,0,0,0,0,0],"sum_hessian":[3.2047622E3,9.714148E2,2.2333474E3,1.4630128E2,8.2511346E2,8.295656E2,1.4037817E3,7.752443E1,6.8776855E1,3.3835168E2,4.8676178E2,6.6251697E2,1.6704866E2,3.7153427E2,1.0322474E3,4.6765774E1,3.0758654E1,6.4708305E1,4.06855E0,1.499923E2,1.883594E2,3.917747E2,9.4987114E1,1.119286E2,5.505884E2,4.7322292E1,1.19726364E2,9.326833E1,2.7826593E2,9.8462105E1,9.3378534E2,6.5104213E0,2.4248232E1,5.9303265E1,5.4050384E0,3.803768E1,1.5032172E2,3.054669E2,8.6307785E1,7.586363E1,1.9123484E1,1.1420898E1,1.005077E2,1.3331758E2,4.172708E2,3.1107037E1,1.6215256E1,3.049391E1,6.277442E1,3.1653166E1,2.4661278E2,6.600953E1,3.245258E1,7.891138E2,1.4467154E2],"tree_param":{"num_deleted":"0","num_feature":"32","num_nodes":"55","size_leaf_vector":"1"}},{"base_weights":[-4.6479624E-2,1.0521598E-1,-1.3907316E-1,3.491818E-1,-4.6381637E-1,1.9466425E-1,-3.2097995E-1,5.8384526E-1,1.605484E-1,1.0551872E-1,-5.259996E-1,3.4090635E-1,8.067982E-2,-2.6111677E-1,-7.4180835E-1,6.971808E-1,3.5123014E-1,2.4069072E-1,-3.6174408E-1,8.0205053E-1,-1.6043024E-1,-3.114571E-1,-5.615934E-1,4.7924107E-1,1.9497283E-1,4.130102E-1,-8.594352E-2,-9.688365E-2,-3.8377854E-1,-7.100918E-2,-8.283002E-1,1.2654431E-1,6.2465616E-2,7.207694E-2,2.5796408E-2,4.787382E-2,-7.796987E-5,1.0156492E-2,-8.769138E-2,1.7623933E-1,-0E0,-6.4310685E-2,6.6236E-2,-6.94323E-3,-7.9731286E-2,-5.3818516E-2,-9.802092E-2,1.0887893E-1,5.569544E-2,1.10790595E-1,2.176041E-2,1.0332091E-1,1.4789451E-2,-3.381635E-3,-4.123699E-2,2.1919033E-2,-2.5007067E-2,-4.5161705E-2,-8.160761E-2,-3.2795146E-2,-1.3540207E-1],"categories":[0,0,0,1,2,3,0,1,2,3,0,0,1,2,0,1,3,0,0,0,1,2,3,0,3,0,2,3,0,1,1,2,3,4,0,1,4,1,2,4,0,0,2,1,2,3,0,1,2,3,2,3,1,2,3,0,1,2,0,0,1,2,3,0,0,1,2],"categories_nodes":[0,1,2,3,4,5,6,7,8,9,10,11,12,13,14,15,16,17,18,19,20,21,22,23,24,25,26,27,28,30],"categories_segments":[0,1,2,6,10,11,14,16,17,18,19,23,25,28,30,34,36,37,40,41,42,43,46,50,52,55,58,59,63,64],"categories_sizes":[1,1,4,4,1,3,2,1,1,1,4,2,3,2,4,2,1,3,1,1,1,3,4,2,3,3,1,4,1,3],"default_left":[0,1,1,1,1,1,1,0,1,1,0,1,1,1,1,0,0,1,0,1,1,0,0,0,1,1,0,0,1,0,1,0,0,0,0,0,0,0,0,0,0,0,0,0,0,0,0,0,0,0,0,0,0,0,0,0,0,0,0,0,0],"id":10,"left_children":[1,3,5,7,9,11,13,15,17,19,21,23,25,27,29,31,33,35,37,39,41,43,45,47,49,51,53,55,57,-1,59,-1,-1,-1,-1,-1,-1,-1,-1,-1,-1,-1,-1,-1,-1,-1,-1,-1,-1,-1,-1,-1,-1,-1,-1,-1,-1,-1,-1,-1,-1],"loss_changes":[4.3935234E1,1.6387372E2,1.1822565E2,3.5859184E1,1.2953705E1,1.0975948E1,3.0669418E1,8.494637E0,1.9259884E1,6.9297957E0,1.4891357E0,5.2544136E0,2.1890787E1,2.1796791E1,2.23703E0,7.734665E0,2.037798E0,7.329731E0,5.9584785E0,1.863296E0,3.7341022E0,2.2506847E0,3.3878403E0,2.7640839E0,3.223496E0,1.0160307E1,2.726238E0,7.667035E0,7.446762E0,0E0,2.8147507E0,0E0,0E0,0E0,0E0,0E0,0E0,0E0,0E0,0E0,0E0,0E0,0E0,0E0,0E0,0E0,0E0,0E0,0E0,0E0,0E0,0E0,0E0,0E0,0E0,0E0,0E0,0E0,0E0,0E0,0E0],"parents":[2147483647,0,0,1,1,2,2,3,3,4,4,5,5,6,6,7,7,8,8,9,9,10,10,11,11,12,12,13,13,14,14,15,15,16,16,17,17,18,18,19,19,20,20,21,21,22,22,23,23,24,24,25,25,26,26,27,27,28,28,30,30],"right_children":[2,4,6,8,10,12,14,16,18,20,22,24,26,28,30,32,34,36,38,40,42,44,46,48,50,52,54,56,58,-1,60,-1,-1,-1,-1,-1,-1,-1,-1,-1,-1,-1,-1,-1,-1,-1,-1,-1,-1,-1,-1,-1,-1,-1,-1,-1,-1,-1,-1,-1,-1],"split_conditions":[NaN,NaN,NaN,NaN,NaN,NaN,NaN,NaN,NaN,NaN,NaN,NaN,NaN,NaN,NaN,NaN,NaN,NaN,NaN,NaN,NaN,NaN,NaN,NaN,NaN,NaN,NaN,NaN,NaN,-7.100918E-2,NaN,1.2654431E-1,6.2465616E-2,7.207694E-2,2.5796408E-2,4.787382E-2,-7.796987E-5,1.0156492E-2,-8.769138E-2,1.7623933E-1,-0E0,-6.4310685E-2,6.6236E-2,-6.94323E-3,-7.9731286E-2,-5.3818516E-2,-9.802092E-2,1.0887893E-1,5.569544E-2,1.10790595E-1,2.176041E-2,1.0332091E-1,1.4789451E-2,-3.381635E-3,-4.123699E-2,2.1919033E-2,-2.5007067E-2,-4.5161705E-2,-8.160761E-2,-3.2795146E-2,-1.3540207E-1],"split_indices":[10,9,14,14,4,20,14,0,18,23,18,18,24,18,20,18,18,14,11,29,29,14,14,0,0,18,18,18,18,0,0,0,0,0,0,0,0,0,0,0,0,0,0,0,0,0,0,0,0,0,0,0,0,0,0,0,0,0,0,0,0],"split_type":[1,1,1,1,1,1,1,1,1,1,1,1,1,1,1,1,1,1,1,1,1,1,1,1,1,1,1,1,1,0,1,0,0,0,0,0,0,0,0,0,0,0,0,0,0,0,0,0,0,0,0,0,0,0,0,0,0,0,0,0,0],"sum_hessian":[3.124543E3,1.1801991E3,1.944344E3,8.274013E2,3.5279782E2,6.8397284E2,1.2603711E3,3.6590228E2,4.61499E2,3.3127098E1,3.1967072E2,2.95337E2,3.8863586E2,1.1061787E3,1.541924E2,2.4249167E2,1.2341063E2,4.019887E2,5.9510273E1,9.91579E0,2.321131E1,5.015242E1,2.6951828E2,1.4753555E2,1.4780145E2,1.3153822E2,2.5709763E2,4.7679462E2,6.2938403E2,4.0110985E1,1.1408142E2,1.64158E2,7.833366E1,7.070892E1,5.2701702E1,3.123525E2,8.96362E1,1.823437E1,4.1275906E1,5.95558E0,3.9602094E0,1.740684E1,5.8044705E0,2.44685E1,2.568392E1,7.8082695E1,1.914356E2,4.514017E1,1.02395386E2,1.1106758E1,1.3669469E2,6.986195E1,6.167626E1,1.9521765E2,6.1879982E1,1.0014393E2,3.766507E2,4.0065192E2,2.2873212E2,1.1364036E1,1.02717384E2],"tree_param":{"num_deleted":"0","num_feature":"32","num_nodes":"61","size_leaf_vector":"1"}},{"base_weights":[-3.9913893E-2,2.4226849E-1,-2.026726E-1,3.0495268E-1,-1.0681887E-1,-8.7441765E-2,-4.3561143E-1,7.48173E-1,2.7013636E-1,-4.0013255E-3,-3.6705467E-1,2.6326728E-1,-1.2275382E-1,-1.9460003E-1,-5.2569026E-1,8.7374145E-1,-0E0,4.516793E-1,6.8345524E-2,-1.7653689E-1,4.2776373E-1,-1.0455989E-1,-6.9949174E-1,3.4915224E-1,-2.519417E-1,4.4349197E-1,-1.6759305E-1,-2.2931164E-2,-5.1473725E-1,-5.8921E-1,-3.6299148E-1,1.7413157E-1,5.0994575E-2,3.4169856E-2,-5.598516E-2,4.5143332E-2,8.762847E-2,2.6719633E-2,-2.3525836E-2,-1.4293685E-3,-9.129355E-2,1.0906831E-1,-7.3610805E-2,2.9778033E-2,-8.012185E-2,-0E0,-1.569606E-1,6.581302E-2,-2.0708462E-2,1.5867151E-2,-8.497685E-2,1.1512933E-1,2.01597E-2,-4.2211376E-3,-4.286622E-2,4.1716773E-2,-4.8381865E-2,-2.4256515E-3,-9.2219524E-2,-6.595667E-2,-1.0331367E-1,-1.2269157E-2,-9.1334686E-2],"categories":[0,1,2,3,0,1,0,1,2,1,2,3,1,0,0,1,4,0,0,1,2,0,2,0,1,3,0,1,1,0,1,2,3,4,0,0,2,3,4,0,2,3,0,0,2,4,0,1,2,4,0,2,0,2,3,1,2,3,0,1,2,0,1,2,0,1,2,3,0,1,3,1,2,3],"categories_nodes":[0,1,2,3,4,5,6,7,8,9,10,11,12,13,14,15,16,17,18,19,20,21,22,23,24,25,26,27,28,29,30],"categories_segments":[0,4,6,9,12,13,14,17,18,20,21,22,23,26,28,29,30,34,35,39,42,43,46,50,52,55,58,61,64,68,71],"categories_sizes":[4,2,3,3,1,1,3,1,2,1,1,1,3,2,1,1,4,1,4,3,1,3,4,2,3,3,3,3,4,3,3],"default_left":[0,1,1,1,0,0,1,1,0,1,1,1,0,1,1,1,1,0,0,1,1,0,0,0,1,0,1,1,0,0,1,0,0,0,0,0,0,0,0,0,0,0,0,0,0,0,0,0,0,0,0,0,0,0,0,0,0,0,0,0,0,0,0],"id":11,"left_children":[1,3,5,7,9,11,13,15,17,19,21,23,25,27,29,31,33,35,37,39,41,43,45,47,49,51,53,55,57,59,61,-1,-1,-1,-1,-1,-1,-1,-1,-1,-1,-1,-1,-1,-1,-1,-1,-1,-1,-1,-1,-1,-1,-1,-1,-1,-1,-1,-1,-1,-1,-1,-1],"loss_changes":[1.409633E2,2.4739746E1,5.1781128E1,1.3588417E1,4.1398706E0,1.6069386E1,1.3172943E1,6.4346123E0,3.1932014E1,9.02922E0,3.0887694E0,5.3254623E0,2.9998327E1,9.267992E0,3.7429504E0,6.5819817E0,8.755364E-1,7.8532333E0,1.0023901E1,5.762932E0,9.195326E0,3.8143017E0,4.2319736E0,4.3434725E0,2.1383862E0,7.3472157E0,1.7124487E1,1.0384275E1,2.0290928E0,3.2315903E0,8.306133E0,0E0,0E0,0E0,0E0,0E0,0E0,0E0,0E0,0E0,0E0,0E0,0E0,0E0,0E0,0E0,0E0,0E0,0E0,0E0,0E0,0E0,0E0,0E0,0E0,0E0,0E0,0E0,0E0,0E0,0E0,0E0,0E0],"parents":[2147483647,0,0,1,1,2,2,3,3,4,4,5,5,6,6,7,7,8,8,9,9,10,10,11,11,12,12,13,13,14,14,15,15,16,16,17,17,18,18,19,19,20,20,21,21,22,22,23,23,24,24,25,25,26,26,27,27,28,28,29,29,30,30],"right_children":[2,4,6,8,10,12,14,16,18,20,22,24,26,28,30,32,34,36,38,40,42,44,46,48,50,52,54,56,58,60,62,-1,-1,-1,-1,-1,-1,-1,-1,-1,-1,-1,-1,-1,-1,-1,-1,-1,-1,-1,-1,-1,-1,-1,-1,-1,-1,-1,-1,-1,-1,-1,-1],"split_conditions":[NaN,NaN,NaN,NaN,NaN,NaN,NaN,NaN,NaN,NaN,NaN,NaN,NaN,NaN,NaN,NaN,NaN,NaN,NaN,NaN,NaN,NaN,NaN,NaN,NaN,NaN,NaN,NaN,NaN,NaN,NaN,1.7413157E-1,5.0994575E-2,3.4169856E-2,-5.598516E-2,4.5143332E-2,8.762847E-2,2.6719633E-2,-2.3525836E-2,-1.4293685E-3,-9.129355E-2,1.0906831E-1,-7.3610805E-2,2.9778033E-2,-8.012185E-2,-0E0,-1.569606E-1,6.581302E-2,-2.0708462E-2,1.5867151E-2,-8.497685E-2,1.1512933E-1,2.01597E-2,-4.2211376E-3,-4.286622E-2,4.1716773E-2,-4.8381865E-2,-2.4256515E-3,-9.2219524E-2,-6.595667E-2,-1.0331367E-1,-1.2269157E-2,-9.1334686E-2],"split_indices":[14,22,14,0,16,12,15,1,15,1,29,24,15,21,29,15,16,6,15,17,3,15,17,18,15,16,20,20,18,17,20,0,0,0,0,0,0,0,0,0,0,0,0,0,0,0,0,0,0,0,0,0,0,0,0,0,0,0,0,0,0,0,0],"split_type":[1,1,1,1,1,1,1,1,1,1,1,1,1,1,1,1,1,1,1,1,1,1,1,1,1,1,1,1,1,1,1,0,0,0,0,0,0,0,0,0,0,0,0,0,0,0,0,0,0,0,0,0,0,0,0,0,0,0,0,0,0,0,0],"sum_hessian":[3.0690923E3,1.1203417E3,1.9487507E3,9.52264E2,1.6807768E2,1.307102E3,6.416487E2,6.6539055E1,8.85725E2,1.2357925E2,4.4498432E1,1.1669884E2,1.1904032E3,1.7800288E2,4.636458E2,5.7086033E1,9.453021E0,4.6333563E2,4.223893E2,9.015184E1,3.3427402E1,2.689999E1,1.7598444E1,1.01818E2,1.4880837E1,8.5396996E1,1.1050061E3,1.1823772E2,5.9765167E1,3.281298E2,1.3551602E2,3.6715008E1,2.0371023E1,5.7220187E0,3.7310026E0,2.0652023E2,2.568154E2,2.8875656E2,1.3363277E2,6.655122E1,2.360062E1,2.635709E1,7.0703144E0,1.4462968E1,1.2437022E1,5.664802E0,1.1933641E1,8.9025894E1,1.2792106E1,5.4900575E0,9.39078E0,4.091736E1,4.4479637E1,4.9692746E2,6.0807874E2,5.721473E1,6.102299E1,1.0760455E1,4.9004715E1,1.2096655E2,2.0716324E2,6.36068E1,7.190922E1],"tree_param":{"num_deleted":"0","num_feature":"32","num_nodes":"63","size_leaf_vector":"1"}},{"base_weights":[-3.6067285E-2,1.5074031E-1,-1.8379821E-1,4.4582105E-1,6.674247E-2,1.6779506E-1,-2.2836418E-1,5.173317E-1,5.2167177E-2,4.709437E-1,-7.2769653E-3,2.499894E-1,-2.727932E-1,2.1197739E-1,-3.7414256E-1,7.683003E-1,3.945372E-1,3.121989E-1,-1.5802278E-1,5.6830937E-1,-1.459514E-1,2.4822538E-1,-1.6815545E-1,3.8433298E-1,-3.1797603E-1,9.883486E-2,-4.011921E-1,5.004497E-1,7.628938E-2,-1.2611601E-1,-4.7576705E-1,1.9677216E-1,9.5727116E-2,9.4454885E-2,2.6929978E-2,1.0095193E-1,-0E0,9.795936E-3,-5.2548483E-2,6.249379E-2,1.1073061E-1,-8.756763E-2,1.0799082E-2,2.2365196E-2,5.531796E-2,-5.3659283E-2,-1.343254E-2,6.4125404E-2,-5.9934005E-2,-0E0,-6.309059E-2,-0E0,-1.017878E-1,9.485484E-2,2.2849988E-3,-8.681116E-4,7.483965E-2,2.5562588E-2,-3.103738E-2,-1.0219696E-1,-6.240564E-2],"categories":[0,1,1,2,3,4,0,0,1,2,0,0,2,0,0,1,3,0,1,4,0,1,2,0,0,1,2,0,1,2,3,0,1,2,3,0,1,2,3,0,3,4,0,1,2,0,2,3,0,0,0,0,0,4,0,1,0,2,4,0,0,0,1,2,0],"categories_nodes":[0,1,2,3,4,5,6,7,8,9,10,11,12,13,14,15,16,17,18,19,20,21,22,23,24,26,27,28,29,30],"categories_segments":[0,2,6,7,10,11,13,14,17,20,23,24,27,31,35,39,42,45,48,49,50,51,52,53,54,56,59,60,61,64],"categories_sizes":[2,4,1,3,1,2,1,3,3,3,1,3,4,4,4,3,3,3,1,1,1,1,1,1,2,3,1,1,3,1],"default_left":[1,0,0,1,0,1,0,1,1,1,0,0,1,1,0,0,1,0,0,1,1,1,1,1,0,0,1,0,1,0,1,0,0,0,0,0,0,0,0,0,0,0,0,0,0,0,0,0,0,0,0,0,0,0,0,0,0,0,0,0,0],"id":12,"left_children":[1,3,5,7,9,11,13,15,17,19,21,23,25,27,29,31,33,35,37,39,41,43,45,47,49,-1,51,53,55,57,59,-1,-1,-1,-1,-1,-1,-1,-1,-1,-1,-1,-1,-1,-1,-1,-1,-1,-1,-1,-1,-1,-1,-1,-1,-1,-1,-1,-1,-1,-1],"loss_changes":[8.35403E1,3.2522316E1,2.6600906E1,7.659649E0,3.1611423E1,6.8253703E0,9.6805214E1,6.2591934E0,2.7843044E0,1.0265846E1,3.604456E1,1.2391969E1,3.1766953E0,1.4003294E1,2.7916199E1,3.4190483E0,7.3664284E0,3.0203395E0,1.3018973E0,2.2681885E0,2.4824045E0,3.3692532E0,7.4960375E0,3.6739826E0,1.0788062E0,0E0,2.990779E0,6.153013E0,9.167619E0,7.544108E0,9.228561E0,0E0,0E0,0E0,0E0,0E0,0E0,0E0,0E0,0E0,0E0,0E0,0E0,0E0,0E0,0E0,0E0,0E0,0E0,0E0,0E0,0E0,0E0,0E0,0E0,0E0,0E0,0E0,0E0,0E0,0E0],"parents":[2147483647,0,0,1,1,2,2,3,3,4,4,5,5,6,6,7,7,8,8,9,9,10,10,11,11,12,12,13,13,14,14,15,15,16,16,17,17,18,18,19,19,20,20,21,21,22,22,23,23,24,24,26,26,27,27,28,28,29,29,30,30],"right_children":[2,4,6,8,10,12,14,16,18,20,22,24,26,28,30,32,34,36,38,40,42,44,46,48,50,-1,52,54,56,58,60,-1,-1,-1,-1,-1,-1,-1,-1,-1,-1,-1,-1,-1,-1,-1,-1,-1,-1,-1,-1,-1,-1,-1,-1,-1,-1,-1,-1,-1,-1],"split_conditions":[NaN,NaN,NaN,NaN,NaN,NaN,NaN,NaN,NaN,NaN,NaN,NaN,NaN,NaN,NaN,NaN,NaN,NaN,NaN,NaN,NaN,NaN,NaN,NaN,NaN,9.883486E-2,NaN,NaN,NaN,NaN,NaN,1.9677216E-1,9.5727116E-2,9.4454885E-2,2.6929978E-2,1.0095193E-1,-0E0,9.795936E-3,-5.2548483E-2,6.249379E-2,1.1073061E-1,-8.756763E-2,1.0799082E-2,2.2365196E-2,5.531796E-2,-5.3659283E-2,-1.343254E-2,6.4125404E-2,-5.9934005E-2,-0E0,-6.309059E-2,-0E0,-1.017878E-1,9.485484E-2,2.2849988E-3,-8.681116E-4,7.483965E-2,2.5562588E-2,-3.103738E-2,-1.0219696E-1,-6.240564E-2],"split_indices":[15,16,13,14,13,22,9,15,18,14,9,14,18,20,14,18,20,30,10,10,6,6,10,16,31,0,20,18,10,16,10,0,0,0,0,0,0,0,0,0,0,0,0,0,0,0,0,0,0,0,0,0,0,0,0,0,0,0,0,0,0],"split_type":[1,1,1,1,1,1,1,1,1,1,1,1,1,1,1,1,1,1,1,1,1,1,1,1,1,0,1,1,1,1,1,0,0,0,0,0,0,0,0,0,0,0,0,0,0,0,0,0,0,0,0,0,0,0,0,0,0,0,0,0,0],"sum_hessian":[3.024947E3,1.3328219E3,1.6921252E3,2.9223566E2,1.0405863E3,1.8768796E2,1.5044373E3,2.4503712E2,4.7198536E1,1.627397E2,8.7784656E2,1.6026364E2,2.7424326E1,3.7242456E2,1.1320127E3,7.699063E1,1.680465E2,2.3110641E1,2.4087894E1,1.4198404E2,2.0755661E1,3.3668054E2,5.41166E2,1.3115411E2,2.9109522E1,2.1682658E0,2.525606E1,1.1636693E2,2.5605762E2,3.321837E2,7.99829E2,1.4245944E1,6.2744686E1,8.046512E1,8.758138E1,1.1724462E1,1.1386181E1,8.66551E0,1.5422384E1,7.4100365E1,6.7883675E1,8.267317E0,1.2488345E1,1.824804E2,1.5420013E2,1.610192E2,3.8014682E2,1.26954735E2,4.1993794E0,5.6675763E0,2.3441944E1,9.634841E0,1.5621219E1,9.159829E1,2.4768635E1,2.1204466E2,4.4012962E1,6.612949E1,2.660542E2,2.0341937E2,5.9640967E2],"tree_param":{"num_deleted":"0","num_feature":"32","num_nodes":"61","size_leaf_vector":"1"}},{"base_weights":[-3.0124016E-2,8.9232065E-2,-8.272739E-2,1.562349E-1,-2.1757239E-1,1.0575883E-1,-2.1678181E-1,4.6141896E-1,5.8276027E-2,-1.2306253E-1,-6.456983E-2,1.7405729E-1,-2.2988732E-1,-1.2736523E-1,-4.9811634E-1,6.381002E-1,1.237944E-1,3.519846E-1,-1.4307718E-2,-8.243874E-2,-4.8628324E-1,4.113762E-1,1.0083572E-1,-6.724371E-2,-3.802154E-1,-2.0523764E-2,-2.0928062E-1,-3.8175434E-1,-1.0677889E-1,1.053868E-1,-0E0,-1.455365E-2,5.7258688E-2,7.54147E-2,-3.2273788E-2,3.263067E-2,-2.7231738E-2,2.0073943E-2,-2.8555773E-2,-0E0,-1.2564601E-1,1.2808022E-1,3.760085E-2,4.952858E-2,-7.276372E-3,2.6479669E-2,-4.6294335E-2,-6.173365E-3,-9.588519E-2,-2.1614438E-2,1.0781661E-2,-1.6249705E-2,-5.4023277E-2,-3.784644E-2,-8.596467E-2],"categories":[0,0,0,1,1,2,3,4,1,0,1,2,0,1,2,0,1,2,2,3,0,2,3,0,2,0,1,2,1,2,0,0,0,1,2,0,1,2,3,0,1,2,3,0,1,2,4,0,1,2,1,3,1,2,4,0,1,2,0,1,0],"categories_nodes":[0,1,2,3,4,5,6,7,8,9,11,12,13,14,15,16,17,18,19,20,21,22,23,24,25,26,27],"categories_segments":[0,1,2,4,8,9,12,15,18,20,21,23,25,28,30,31,32,35,39,43,47,50,52,55,58,59,60],"categories_sizes":[1,1,2,4,1,3,3,3,2,1,2,2,3,2,1,1,3,4,4,4,3,2,3,3,1,1,1],"default_left":[0,0,1,1,1,1,0,1,0,1,0,1,0,1,1,1,1,0,0,1,1,0,1,0,1,1,1,0,0,0,0,0,0,0,0,0,0,0,0,0,0,0,0,0,0,0,0,0,0,0,0,0,0,0,0],"id":13,"left_children":[1,3,5,7,9,11,13,15,17,19,-1,21,23,25,27,29,31,33,35,37,39,41,43,45,47,49,51,53,-1,-1,-1,-1,-1,-1,-1,-1,-1,-1,-1,-1,-1,-1,-1,-1,-1,-1,-1,-1,-1,-1,-1,-1,-1,-1,-1],"loss_changes":[1.8657038E1,1.8530594E1,5.239785E1,2.1728657E1,2.515039E0,1.9612719E1,2.9841671E1,9.842911E0,1.2419963E1,1.0828124E0,0E0,1.1892769E1,3.0297341E0,7.849161E0,5.530205E0,4.2107086E0,3.796877E0,9.467142E0,1.6835127E1,2.4018452E0,2.0458064E0,1.0470366E1,1.8489887E1,4.2461457E0,5.2619085E0,4.543928E0,7.1941395E0,3.6592255E0,0E0,0E0,0E0,0E0,0E0,0E0,0E0,0E0,0E0,0E0,0E0,0E0,0E0,0E0,0E0,0E0,0E0,0E0,0E0,0E0,0E0,0E0,0E0,0E0,0E0,0E0,0E0],"parents":[2147483647,0,0,1,1,2,2,3,3,4,4,5,5,6,6,7,7,8,8,9,9,11,11,12,12,13,13,14,14,15,15,16,16,17,17,18,18,19,19,20,20,21,21,22,22,23,23,24,24,25,25,26,26,27,27],"right_children":[2,4,6,8,10,12,14,16,18,20,-1,22,24,26,28,30,32,34,36,38,40,42,44,46,48,50,52,54,-1,-1,-1,-1,-1,-1,-1,-1,-1,-1,-1,-1,-1,-1,-1,-1,-1,-1,-1,-1,-1,-1,-1,-1,-1,-1,-1],"split_conditions":[NaN,NaN,NaN,NaN,NaN,NaN,NaN,NaN,NaN,NaN,-6.456983E-2,NaN,NaN,NaN,NaN,NaN,NaN,NaN,NaN,NaN,NaN,NaN,NaN,NaN,NaN,NaN,NaN,NaN,-1.0677889E-1,1.053868E-1,-0E0,-1.455365E-2,5.7258688E-2,7.54147E-2,-3.2273788E-2,3.263067E-2,-2.7231738E-2,2.0073943E-2,-2.8555773E-2,-0E0,-1.2564601E-1,1.2808022E-1,3.760085E-2,4.952858E-2,-7.276372E-3,2.6479669E-2,-4.6294335E-2,-6.173365E-3,-9.588519E-2,-2.1614438E-2,1.0781661E-2,-1.6249705E-2,-5.4023277E-2,-3.784644E-2,-8.596467E-2],"split_indices":[11,15,15,16,29,14,14,20,0,22,0,0,0,20,20,22,25,14,14,14,14,16,16,16,20,25,16,8,0,0,0,0,0,0,0,0,0,0,0,0,0,0,0,0,0,0,0,0,0,0,0,0,0,0,0],"split_type":[1,1,1,1,1,1,1,1,1,1,0,1,1,1,1,1,1,1,1,1,1,1,1,1,1,1,1,1,0,0,0,0,0,0,0,0,0,0,0,0,0,0,0,0,0,0,0,0,0,0,0,0,0,0,0],"sum_hessian":[2.9715264E3,9.031074E2,2.068419E3,7.440938E2,1.5901364E2,8.566304E2,1.2117886E3,1.7789203E2,5.662018E2,1.126335E2,4.638014E1,7.144553E2,1.4217502E2,9.2276135E2,2.8902713E2,1.145562E2,6.3335827E1,1.1454388E2,4.516579E2,1.0431193E2,8.321573E0,1.6471692E2,5.497384E2,7.181496E1,7.036007E1,4.0599884E2,5.167625E2,1.8676245E2,1.02264694E2,1.0705897E2,7.4972315E0,3.1839535E1,3.1496292E1,9.305876E1,2.1485115E1,1.8634137E2,2.6531653E2,3.102881E1,7.328312E1,2.6918359E0,5.629738E0,4.385817E1,1.2085875E2,2.221347E2,3.276037E2,3.3504078E1,3.831088E1,3.1528648E1,3.883142E1,1.790504E2,2.2694844E2,3.056682E2,2.1109431E2,1.1085058E2,7.591187E1],"tree_param":{"num_deleted":"0","num_feature":"32","num_nodes":"55","size_leaf_vector":"1"}},{"base_weights":[-2.9513E-2,3.3148447E-1,-8.848755E-2,4.663456E-1,2.4818704E-1,2.2332972E-2,-1.556887E-1,4.916057E-1,-0E0,1.8686406E-1,4.1265988E-1,4.1142115E-1,-2.4331493E-2,-2.3450638E-1,-1.1083566E-1,6.2365764E-1,3.0721727E-1,2.996788E-1,-6.355402E-2,-8.288812E-2,2.5946194E-1,4.9666342E-1,-2.5099662E-1,5.192839E-1,2.0933084E-1,6.266294E-2,-1.5083243E-1,-1.3865992E-1,-3.0081737E-1,7.7633955E-2,-2.6329517E-1,1.18486516E-1,1.3823456E-2,-7.7494E-3,8.34609E-2,1.3045228E-1,-0E0,-5.2656613E-2,1.1861935E-2,7.722726E-2,-7.552513E-3,1.1778676E-1,3.1111883E-2,-9.662685E-2,1.7742217E-2,8.529075E-2,-0E0,8.193667E-2,-0E0,2.2458894E-2,-2.591808E-2,-2.902085E-2,2.2685105E-2,-0E0,-3.336768E-2,-2.8784554E-2,-5.621447E-2,2.7756162E-2,-1.343002E-2,-2.9040573E-2,-7.479149E-2],"categories":[0,0,1,2,3,6,9,0,0,0,0,1,2,3,0,0,3,4,0,1,4,0,0,1,0,1,2,4,1,3,0,1,3,0,0,0,0,0,1,0,3,0,0,1,1,0,2,0,0,1,3,0,0,3,0],"categories_nodes":[0,1,2,3,4,5,6,7,8,9,10,11,12,13,14,15,16,17,19,20,21,22,23,24,25,26,27,28,29,30],"categories_segments":[0,1,7,8,9,10,14,15,18,21,22,24,25,28,30,33,34,35,36,37,39,41,42,44,45,47,48,51,52,54],"categories_sizes":[1,6,1,1,1,4,1,3,3,1,2,1,3,2,3,1,1,1,1,2,2,1,2,1,2,1,3,1,2,1],"default_left":[0,1,0,1,0,0,0,1,1,1,0,1,1,1,1,0,1,1,0,1,1,1,1,1,1,1,1,1,1,0,0,0,0,0,0,0,0,0,0,0,0,0,0,0,0,0,0,0,0,0,0,0,0,0,0,0,0,0,0,0,0],"id":14,"left_children":[1,3,5,7,9,11,13,15,17,19,21,23,25,27,29,31,33,35,-1,37,39,41,43,45,47,49,51,53,55,57,59,-1,-1,-1,-1,-1,-1,-1,-1,-1,-1,-1,-1,-1,-1,-1,-1,-1,-1,-1,-1,-1,-1,-1,-1,-1,-1,-1,-1,-1,-1],"loss_changes":[6.2451748E1,3.8500328E0,1.9001942E1,1.918541E0,1.9849758E0,1.7660883E1,5.2385445E0,2.4992332E0,1.0574812E0,3.9962792E0,3.9706326E0,1.4914818E0,9.419102E0,3.1360226E0,2.9438004E1,5.595497E0,6.0067444E0,9.628093E-1,0E0,1.9022865E0,1.2314585E1,3.7514849E0,1.4410659E0,1.4273186E0,3.1022668E0,9.7154255E0,4.129377E0,2.48985E0,1.8741989E0,7.874814E0,8.652012E0,0E0,0E0,0E0,0E0,0E0,0E0,0E0,0E0,0E0,0E0,0E0,0E0,0E0,0E0,0E0,0E0,0E0,0E0,0E0,0E0,0E0,0E0,0E0,0E0,0E0,0E0,0E0,0E0,0E0,0E0],"parents":[2147483647,0,0,1,1,2,2,3,3,4,4,5,5,6,6,7,7,8,8,9,9,10,10,11,11,12,12,13,13,14,14,15,15,16,16,17,17,19,19,20,20,21,21,22,22,23,23,24,24,25,25,26,26,27,27,28,28,29,29,30,30],"right_children":[2,4,6,8,10,12,14,16,18,20,22,24,26,28,30,32,34,36,-1,38,40,42,44,46,48,50,52,54,56,58,60,-1,-1,-1,-1,-1,-1,-1,-1,-1,-1,-1,-1,-1,-1,-1,-1,-1,-1,-1,-1,-1,-1,-1,-1,-1,-1,-1,-1,-1,-1],"split_conditions":[NaN,NaN,NaN,NaN,NaN,NaN,NaN,NaN,NaN,NaN,NaN,NaN,NaN,NaN,NaN,NaN,NaN,NaN,-6.355402E-2,NaN,NaN,NaN,NaN,NaN,NaN,NaN,NaN,NaN,NaN,NaN,NaN,1.18486516E-1,1.3823456E-2,-7.7494E-3,8.34609E-2,1.3045228E-1,-0E0,-5.2656613E-2,1.1861935E-2,7.722726E-2,-7.552513E-3,1.1778676E-1,3.1111883E-2,-9.662685E-2,1.7742217E-2,8.529075E-2,-0E0,8.193667E-2,-0E0,2.2458894E-2,-2.591808E-2,-2.902085E-2,2.2685105E-2,-0E0,-3.336768E-2,-2.8784554E-2,-5.621447E-2,2.7756162E-2,-1.343002E-2,-2.9040573E-2,-7.479149E-2],"split_indices":[13,28,10,22,3,15,6,21,17,26,17,11,16,16,17,8,6,6,0,6,15,15,5,17,30,15,5,21,23,30,5,0,0,0,0,0,0,0,0,0,0,0,0,0,0,0,0,0,0,0,0,0,0,0,0,0,0,0,0,0,0],"split_type":[1,1,1,1,1,1,1,1,1,1,1,1,1,1,1,1,1,1,0,1,1,1,1,1,1,1,1,1,1,1,1,0,0,0,0,0,0,0,0,0,0,0,0,0,0,0,0,0,0,0,0,0,0,0,0,0,0,0,0,0,0],"sum_hessian":[2.9436384E3,4.106694E2,2.532969E3,1.513735E2,2.5929593E2,9.50693E2,1.582276E3,1.4410655E2,7.266951E0,1.9405084E2,6.524507E1,1.03685486E2,8.470075E2,5.6505237E2,1.01722363E3,8.014063E1,6.3965916E1,3.9326944E0,3.334257E0,3.822448E1,1.5582637E2,5.9356747E1,5.8883224E0,6.388657E1,3.979892E1,4.9735065E2,3.4965683E2,2.3783153E2,3.2722086E2,4.5207523E2,5.651484E2,6.0829197E1,1.9311438E1,2.4059368E1,3.9906548E1,1.3794972E0,2.5531971E0,1.6687881E1,2.15366E1,8.845106E1,6.737531E1,2.8547913E1,3.0808834E1,4.0492043E0,1.8391176E0,5.9932137E1,3.9544318E0,1.6473204E1,2.3325716E1,3.6827866E2,1.2907199E2,3.1252863E2,3.712822E1,8.971642E1,1.481151E2,1.27955864E2,1.9926498E2,2.8142654E2,1.706487E2,4.304074E2,1.3474095E2],"tree_param":{"num_deleted":"0","num_feature":"32","num_nodes":"61","size_leaf_vector":"1"}},{"base_weights":[-2.43879E-2,1.7214788E-1,-1.4395095E-1,2.626999E-1,4.2909984E-2,1.6543335E-1,-1.9469671E-1,6.856324E-1,2.2958422E-1,1.2327464E-1,-1.1895373E-1,2.7281266E-1,-1.7750104E-1,-1.5450872E-1,-5.6029314E-1,8.617831E-1,3.1553775E-1,4.424007E-1,1.6968004E-1,4.237755E-1,-8.212658E-2,-0E0,-3.554443E-1,8.617617E-1,1.811431E-1,4.5011286E-2,-5.0893307E-1,-9.7773515E-2,-3.5852593E-1,-6.321596E-2,-6.282405E-1,1.401022E-1,-0E0,9.6297495E-2,-9.7222775E-2,7.920439E-2,6.5917703E-3,3.574753E-2,-1.7918034E-2,7.839392E-2,-0E0,1.5543215E-2,-2.8650412E-2,9.781033E-2,-1.6082497E-2,2.0408353E-2,-6.861951E-2,1.4278892E-1,-0E0,6.3696556E-2,9.329931E-3,7.917811E-2,-1.646456E-2,-0E0,-9.527898E-2,2.0628278E-3,-2.5823684E-2,-0E0,-6.393997E-2,-4.466574E-2,9.966656E-2,-7.916526E-2,-1.2235357E-1],"categories":[0,1,2,3,2,3,4,6,0,1,2,3,3,0,1,2,0,1,0,0,1,3,0,1,2,0,2,0,1,2,3,0,2,0,0,1,2,0,2,0,0,1,0,2,0,1,0,0,0,1,1,2,3,5,6,7,9,0,1,2,4,6,8,9,0,1,2,4,5,6,8,9,2,3,4,5,6,9,0,1,3,4,5,6,8,9,0,0,1,3,5],"categories_nodes":[0,1,2,3,4,5,6,7,8,9,10,11,12,13,14,15,16,17,18,19,20,21,22,23,24,25,26,27,28,29,30],"categories_segments":[0,4,8,9,12,13,16,18,19,22,25,27,31,33,34,37,39,40,42,44,46,47,48,49,50,57,64,72,78,86,87],"categories_sizes":[4,4,1,3,1,3,2,1,3,3,2,4,2,1,3,2,1,2,2,2,1,1,1,1,7,7,8,6,8,1,4],"default_left":[0,1,0,1,0,1,1,1,0,0,1,1,0,1,1,1,1,1,0,1,0,0,1,1,1,1,1,1,1,1,1,0,0,0,0,0,0,0,0,0,0,0,0,0,0,0,0,0,0,0,0,0,0,0,0,0,0,0,0,0,0,0,0],"id":15,"left_children":[1,3,5,7,9,11,13,15,17,19,21,23,25,27,29,31,33,35,37,39,41,43,45,47,49,51,53,55,57,59,61,-1,-1,-1,-1,-1,-1,-1,-1,-1,-1,-1,-1,-1,-1,-1,-1,-1,-1,-1,-1,-1,-1,-1,-1,-1,-1,-1,-1,-1,-1,-1,-1],"loss_changes":[6.8366E1,1.2537117E1,2.8505264E1,7.986782E0,5.961442E0,9.4327755E0,2.2170433E1,1.5688305E0,6.9675426E0,1.9491938E1,4.1373405E0,9.41348E0,4.780196E0,1.5836353E1,4.421543E0,8.3363724E-1,5.2142954E0,3.2615967E0,8.770506E0,4.805025E0,3.6233625E0,6.6592135E0,2.5894647E0,1.3281021E0,4.3413973E0,2.8594537E0,1.5237298E0,8.906228E0,6.7052994E0,3.099788E0,9.8857117E-1,0E0,0E0,0E0,0E0,0E0,0E0,0E0,0E0,0E0,0E0,0E0,0E0,0E0,0E0,0E0,0E0,0E0,0E0,0E0,0E0,0E0,0E0,0E0,0E0,0E0,0E0,0E0,0E0,0E0,0E0,0E0,0E0],"parents":[2147483647,0,0,1,1,2,2,3,3,4,4,5,5,6,6,7,7,8,8,9,9,10,10,11,11,12,12,13,13,14,14,15,15,16,16,17,17,18,18,19,19,20,20,21,21,22,22,23,23,24,24,25,25,26,26,27,27,28,28,29,29,30,30],"right_children":[2,4,6,8,10,12,14,16,18,20,22,24,26,28,30,32,34,36,38,40,42,44,46,48,50,52,54,56,58,60,62,-1,-1,-1,-1,-1,-1,-1,-1,-1,-1,-1,-1,-1,-1,-1,-1,-1,-1,-1,-1,-1,-1,-1,-1,-1,-1,-1,-1,-1,-1,-1,-1],"split_conditions":[NaN,NaN,NaN,NaN,NaN,NaN,NaN,NaN,NaN,NaN,NaN,NaN,NaN,NaN,NaN,NaN,NaN,NaN,NaN,NaN,NaN,NaN,NaN,NaN,NaN,NaN,NaN,NaN,NaN,NaN,NaN,1.401022E-1,-0E0,9.6297495E-2,-9.7222775E-2,7.920439E-2,6.5917703E-3,3.574753E-2,-1.7918034E-2,7.839392E-2,-0E0,1.5543215E-2,-2.8650412E-2,9.781033E-2,-1.6082497E-2,2.0408353E-2,-6.861951E-2,1.4278892E-1,-0E0,6.3696556E-2,9.329931E-3,7.917811E-2,-1.646456E-2,-0E0,-9.527898E-2,2.0628278E-3,-2.5823684E-2,-0E0,-6.393997E-2,-4.466574E-2,9.966656E-2,-7.916526E-2,-1.2235357E-1],"split_indices":[14,28,13,0,0,14,14,15,18,15,20,15,30,15,0,22,1,22,15,22,10,13,13,22,28,28,28,28,28,1,28,0,0,0,0,0,0,0,0,0,0,0,0,0,0,0,0,0,0,0,0,0,0,0,0,0,0,0,0,0,0,0,0],"split_type":[1,1,1,1,1,1,1,1,1,1,1,1,1,1,1,1,1,1,1,1,1,1,1,1,1,1,1,1,1,1,1,0,0,0,0,0,0,0,0,0,0,0,0,0,0,0,0,0,0,0,0,0,0,0,0,0,0,0,0,0,0,0,0],"sum_hessian":[2.9095757E3,1.0973008E3,1.812275E3,6.403885E2,4.5691223E2,2.5244371E2,1.5598313E3,4.361492E1,5.9677356E2,3.0951334E2,1.473989E2,1.9453658E2,5.7907135E1,1.4084332E3,1.5139809E2,2.7284632E1,1.633029E1,1.2674219E2,4.7003137E2,1.2742354E2,1.820898E2,9.8578285E1,4.8820606E1,2.4182476E1,1.703541E2,3.3101204E1,2.480593E1,1.1063715E3,3.0206174E2,2.0083887E1,1.3131421E2,2.5090364E1,2.194269E0,1.3189215E1,3.141076E0,1.0438602E2,2.235617E1,3.8716873E2,8.2862625E1,1.0525467E2,2.2168869E1,6.284599E1,1.1924381E2,1.3481269E1,8.5097015E1,6.069105E0,4.2751503E1,2.2059397E1,2.1230798E0,5.437216E1,1.1598193E2,9.388507E0,2.3712698E1,4.4831214E0,2.0322807E1,4.2588293E2,6.804885E2,4.1621693E1,2.6044003E2,1.648985E1,3.594037E0,8.4566284E1,4.674792E1],"tree_param":{"num_deleted":"0","num_feature":"32","num_nodes":"63","size_leaf_vector":"1"}},{"base_weights":[-2.1038257E-2,3.0610887E-2,-1.2839901E-1,2.956233E-1,-1.0316565E-1,-7.8463756E-2,-3.5317105E-1,3.7496692E-1,1.2321702E-1,-2.7916785E-2,-4.170274E-1,-1.2725712E-1,5.32413E-2,-1.1018193E-3,-3.964728E-1,4.2038214E-1,1.7304778E-1,2.3575136E-1,-1.8807651E-1,-3.2408878E-1,8.697271E-2,-1.534278E-1,-5.13409E-1,1.51023E-1,-2.4833083E-1,3.9301485E-1,-1.3610592E-1,8.309518E-2,-7.6909274E-2,-8.330736E-3,-5.0881445E-1,8.094533E-2,4.0720765E-2,1.2285423E-1,-0E0,5.7380367E-2,-1.1274384E-3,-5.0280476E-3,-1.0497461E-1,4.4368263E-2,-6.2077954E-2,6.7233786E-2,3.6250823E-3,1.1536542E-2,-6.247592E-2,-5.2143782E-2,-1.0119649E-1,5.5638604E-2,2.0522565E-4,-2.7914338E-2,-7.010986E-2,9.753632E-2,3.285568E-2,-0E0,-5.3574186E-2,4.1193355E-2,-6.4285524E-2,4.880601E-2,-4.8960388E-2,-5.2332904E-2,-1.13880925E-1],"categories":[1,2,0,1,2,3,0,2,0,0,1,2,0,0,2,0,0,1,0,0,1,0,1,2,0,1,6,1,2,0,0,2,3,4,5,6,1,3,4,7,9,1,2,3,4,8,9,0,2,4,0,2,3,1,2,1,3,1,3,6],"categories_nodes":[0,1,2,3,4,5,6,7,8,9,10,11,12,13,14,15,16,17,18,19,20,21,22,23,24,25,26,27,29,30],"categories_segments":[0,2,3,5,6,7,8,9,10,12,13,15,16,18,19,20,21,24,27,29,30,31,36,41,47,50,53,54,55,57],"categories_sizes":[2,1,2,1,1,1,1,1,2,1,2,1,2,1,1,1,3,3,2,1,1,5,5,6,3,3,1,1,2,3],"default_left":[1,0,0,1,1,1,1,0,0,1,0,0,1,0,0,1,0,1,0,1,0,1,1,1,1,1,1,0,0,0,1,0,0,0,0,0,0,0,0,0,0,0,0,0,0,0,0,0,0,0,0,0,0,0,0,0,0,0,0,0,0],"id":16,"left_children":[1,3,5,7,9,11,13,15,17,19,21,23,25,27,29,31,33,35,37,39,41,43,45,47,49,51,53,55,-1,57,59,-1,-1,-1,-1,-1,-1,-1,-1,-1,-1,-1,-1,-1,-1,-1,-1,-1,-1,-1,-1,-1,-1,-1,-1,-1,-1,-1,-1,-1,-1],"loss_changes":[1.606576E1,6.892183E1,1.0125216E1,8.4110565E0,2.9921059E1,5.0557036E0,2.1556416E0,3.4342346E0,7.4410925E0,3.56489E1,5.5488586E0,1.935239E1,1.342285E1,1.3404243E0,5.8725357E0,5.1301003E0,9.059014E0,5.692623E0,3.4321575E0,1.4900156E1,1.6209538E1,4.3945565E0,3.4206963E0,5.077943E0,4.8587112E0,2.3578167E0,3.978844E0,1.4984217E0,0E0,3.662785E0,3.1786594E0,0E0,0E0,0E0,0E0,0E0,0E0,0E0,0E0,0E0,0E0,0E0,0E0,0E0,0E0,0E0,0E0,0E0,0E0,0E0,0E0,0E0,0E0,0E0,0E0,0E0,0E0,0E0,0E0,0E0,0E0],"parents":[2147483647,0,0,1,1,2,2,3,3,4,4,5,5,6,6,7,7,8,8,9,9,10,10,11,11,12,12,13,13,14,14,15,15,16,16,17,17,18,18,19,19,20,20,21,21,22,22,23,23,24,24,25,25,26,26,27,27,29,29,30,30],"right_children":[2,4,6,8,10,12,14,16,18,20,22,24,26,28,30,32,34,36,38,40,42,44,46,48,50,52,54,56,-1,58,60,-1,-1,-1,-1,-1,-1,-1,-1,-1,-1,-1,-1,-1,-1,-1,-1,-1,-1,-1,-1,-1,-1,-1,-1,-1,-1,-1,-1,-1,-1],"split_conditions":[NaN,NaN,NaN,NaN,NaN,NaN,NaN,NaN,NaN,NaN,NaN,NaN,NaN,NaN,NaN,NaN,NaN,NaN,NaN,NaN,NaN,NaN,NaN,NaN,NaN,NaN,NaN,NaN,-7.6909274E-2,NaN,NaN,8.094533E-2,4.0720765E-2,1.2285423E-1,-0E0,5.7380367E-2,-1.1274384E-3,-5.0280476E-3,-1.0497461E-1,4.4368263E-2,-6.2077954E-2,6.7233786E-2,3.6250823E-3,1.1536542E-2,-6.247592E-2,-5.2143782E-2,-1.0119649E-1,5.5638604E-2,2.0522565E-4,-2.7914338E-2,-7.010986E-2,9.753632E-2,3.285568E-2,-0E0,-5.3574186E-2,4.1193355E-2,-6.4285524E-2,4.880601E-2,-4.8960388E-2,-5.2332904E-2,-1.13880925E-1],"split_indices":[16,9,14,0,18,29,13,15,31,10,15,9,15,5,9,25,18,28,15,4,13,28,28,28,28,18,25,31,0,15,28,0,0,0,0,0,0,0,0,0,0,0,0,0,0,0,0,0,0,0,0,0,0,0,0,0,0,0,0,0,0],"split_type":[1,1,1,1,1,1,1,1,1,1,1,1,1,1,1,1,1,1,1,1,1,1,1,1,1,1,1,1,0,1,1,0,0,0,0,0,0,0,0,0,0,0,0,0,0,0,0,0,0,0,0,0,0,0,0,0,0,0,0,0,0],"sum_hessian":[2.8788835E3,1.9377427E3,9.411409E2,6.523291E2,1.2854136E3,7.7423254E2,1.6690842E2,4.4238287E2,2.0994623E2,1.0398231E3,2.4559048E2,5.7047034E2,2.0376219E2,2.0855547E1,1.4605287E2,3.5669116E2,8.569171E1,1.5664005E2,5.3306183E1,2.9279968E2,7.4702344E2,6.8862946E1,1.7672754E2,1.704198E2,4.0005054E2,7.461138E1,1.2915082E2,1.6508074E1,4.347474E0,3.489316E1,1.1115971E2,2.04609E2,1.5208215E2,1.755282E1,6.813889E1,1.0199641E2,5.4643646E1,4.2568123E1,1.0738058E1,3.2820976E1,2.599787E2,1.1082047E2,6.3620294E2,3.4416424E1,3.4446526E1,8.551721E1,9.121033E1,6.734731E1,1.0307248E2,3.0888846E2,9.1162094E1,2.8555288E1,4.605609E1,7.7631325E1,5.1519485E1,1.3661717E1,2.8463562E0,1.5454705E1,1.9438457E1,6.829544E1,4.286427E1],"tree_param":{"num_deleted":"0","num_feature":"32","num_nodes":"61","size_leaf_vector":"1"}},{"base_weights":[-1.809021E-2,2.2521853E-1,-1.3636003E-1,2.7253157E-1,-3.6294676E-2,-3.683951E-1,-5.5765875E-2,3.1026065E-1,9.908138E-2,8.850231E-2,-4.716338E-1,-4.248334E-1,1.3635299E-1,8.99093E-2,-1.585813E-1,1.6129686E-1,4.1540328E-1,4.4339105E-1,2.8381519E-2,3.7702236E-1,-0E0,-1.0344394E-1,-6.7138404E-1,-3.593796E-1,-6.618902E-1,4.5868516E-1,-1.4240953E-1,3.2825437E-1,-5.6162223E-2,-9.7956836E-2,-3.1607434E-1,3.7608303E-2,-1.6077494E-2,9.198875E-2,4.8439264E-2,1.0573721E-1,-2.8972212E-2,5.0927885E-2,-1.8220259E-2,7.170488E-2,-0E0,4.114227E-2,-8.469793E-3,2.007377E-2,-1.0913633E-1,-1.2822041E-1,-0E0,-3.730006E-2,-7.646131E-2,-4.210535E-2,-1.1012456E-1,1.03870414E-1,-3.8320106E-2,2.3151744E-2,-8.26657E-2,8.811669E-2,3.1429622E-2,-3.5401575E-2,7.1740337E-3,4.2440426E-3,-3.558162E-2,-2.1406123E-2,-5.9057526E-2],"categories":[0,0,1,0,1,2,2,0,1,3,4,0,0,1,2,3,0,1,2,3,0,0,2,3,4,0,1,0,1,1,2,3,5,6,9,1,2,6,1,3,4,6,8,9,0,0,0,1,7,0,0,1,2,3,4,5,6,8,9,0,2,0,1,2,3,5,7,9,0,0,2,4,5,6,0,1,2,3,6,7,9],"categories_nodes":[0,1,2,3,4,5,6,7,8,9,10,11,12,13,14,15,16,17,18,19,20,21,22,23,24,25,26,27,28,29,30],"categories_segments":[0,1,3,4,5,6,7,11,12,16,20,21,22,25,27,28,29,35,38,44,45,46,49,50,51,59,60,61,68,69,74],"categories_sizes":[1,2,1,1,1,1,4,1,4,4,1,1,3,2,1,1,6,3,6,1,1,3,1,1,8,1,1,7,1,5,7],"default_left":[0,1,1,1,1,1,1,0,1,0,1,1,1,1,0,1,1,1,1,1,1,1,1,1,1,0,1,1,1,1,1,0,0,0,0,0,0,0,0,0,0,0,0,0,0,0,0,0,0,0,0,0,0,0,0,0,0,0,0,0,0,0,0],"id":17,"left_children":[1,3,5,7,9,11,13,15,17,19,21,23,25,27,29,31,33,35,37,39,41,43,45,47,49,51,53,55,57,59,61,-1,-1,-1,-1,-1,-1,-1,-1,-1,-1,-1,-1,-1,-1,-1,-1,-1,-1,-1,-1,-1,-1,-1,-1,-1,-1,-1,-1,-1,-1,-1,-1],"loss_changes":[8.1664986E1,1.1704273E1,3.5368828E1,4.7329636E0,7.9623427E0,1.4281998E1,2.1413832E1,9.450333E0,3.082606E0,2.483748E0,1.6105442E0,5.737091E0,4.6512794E0,2.0674332E1,7.5867233E0,6.2462444E0,5.8262787E0,4.089307E0,5.8129644E0,9.3575E-1,1.3948302E0,2.614917E0,2.4447308E0,4.9027405E0,9.754219E-1,4.2599235E0,3.2812614E0,6.016918E0,6.7112017E0,1.0556536E1,2.267767E0,0E0,0E0,0E0,0E0,0E0,0E0,0E0,0E0,0E0,0E0,0E0,0E0,0E0,0E0,0E0,0E0,0E0,0E0,0E0,0E0,0E0,0E0,0E0,0E0,0E0,0E0,0E0,0E0,0E0,0E0,0E0,0E0],"parents":[2147483647,0,0,1,1,2,2,3,3,4,4,5,5,6,6,7,7,8,8,9,9,10,10,11,11,12,12,13,13,14,14,15,15,16,16,17,17,18,18,19,19,20,20,21,21,22,22,23,23,24,24,25,25,26,26,27,27,28,28,29,29,30,30],"right_children":[2,4,6,8,10,12,14,16,18,20,22,24,26,28,30,32,34,36,38,40,42,44,46,48,50,52,54,56,58,60,62,-1,-1,-1,-1,-1,-1,-1,-1,-1,-1,-1,-1,-1,-1,-1,-1,-1,-1,-1,-1,-1,-1,-1,-1,-1,-1,-1,-1,-1,-1,-1,-1],"split_conditions":[NaN,NaN,NaN,NaN,NaN,NaN,NaN,NaN,NaN,NaN,NaN,NaN,NaN,NaN,NaN,NaN,NaN,NaN,NaN,NaN,NaN,NaN,NaN,NaN,NaN,NaN,NaN,NaN,NaN,NaN,NaN,3.7608303E-2,-1.6077494E-2,9.198875E-2,4.8439264E-2,1.0573721E-1,-2.8972212E-2,5.0927885E-2,-1.8220259E-2,7.170488E-2,-0E0,4.114227E-2,-8.469793E-3,2.007377E-2,-1.0913633E-1,-1.2822041E-1,-0E0,-3.730006E-2,-7.646131E-2,-4.210535E-2,-1.1012456E-1,1.03870414E-1,-3.8320106E-2,2.3151744E-2,-8.26657E-2,8.811669E-2,3.1429622E-2,-3.5401575E-2,7.1740337E-3,4.2440426E-3,-3.558162E-2,-2.1406123E-2,-5.9057526E-2],"split_indices":[9,22,10,26,21,26,21,6,15,15,22,15,17,15,15,29,28,28,28,1,12,28,10,29,28,5,25,28,25,28,28,0,0,0,0,0,0,0,0,0,0,0,0,0,0,0,0,0,0,0,0,0,0,0,0,0,0,0,0,0,0,0,0],"split_type":[1,1,1,1,1,1,1,1,1,1,1,1,1,1,1,1,1,1,1,1,1,1,1,1,1,1,1,1,1,1,1,0,0,0,0,0,0,0,0,0,0,0,0,0,0,0,0,0,0,0,0,0,0,0,0,0,0,0,0,0,0,0,0],"sum_hessian":[2.8400103E3,9.260465E2,1.9139636E3,7.873829E2,1.3866367E2,4.8977094E2,1.4241927E3,6.4167346E2,1.4570941E2,1.0629431E2,3.2369347E1,4.4236035E2,4.741059E1,5.8528906E2,8.389036E2,2.699433E2,3.7173013E2,2.198126E1,1.2372816E2,2.2867102E1,8.342721E1,1.3400912E1,1.8968433E1,3.5090817E2,9.145219E1,2.3498066E1,2.3912525E1,2.2475934E2,3.6052972E2,6.108781E2,2.2802556E2,2.0776323E2,6.218008E1,1.2452648E2,2.4720366E2,1.6893085E1,5.0881743E0,4.237278E1,8.135538E1,1.887577E1,3.9913325E0,1.5906677E1,6.752053E1,8.776227E0,4.624686E0,1.5470917E1,3.497516E0,1.97202E2,1.5370618E2,1.4551463E1,7.690073E1,1.9014957E1,4.483108E0,1.2492688E1,1.1419837E1,7.117116E1,1.5358818E2,1.368476E2,2.2368213E2,3.1232745E2,2.9855063E2,6.93365E1,1.5868906E2],"tree_param":{"num_deleted":"0","num_feature":"32","num_nodes":"63","size_leaf_vector":"1"}},{"base_weights":[-1.4236419E-2,1.9112158E-1,-1.15866326E-1,2.6472354E-1,2.9596075E-2,-1.7679052E-1,-1.7085176E-2,1.4400795E-1,3.5394812E-1,-1.24324076E-1,1.2085539E-1,-9.515341E-2,-2.503918E-1,3.0926022E-1,-1.014539E-1,3.1366968E-1,9.764377E-2,4.6942747E-1,2.7831617E-1,-3.188214E-1,-4.0237464E-2,5.120053E-1,1.01162195E-2,-3.890258E-2,-2.9001957E-1,-5.002759E-1,-2.2573428E-1,4.3816426E-1,1.3378856E-1,-3.135371E-2,-3.576107E-1,6.759912E-2,-5.5239502E-2,3.1616233E-2,-6.952351E-3,8.803913E-2,7.976861E-3,1.278922E-1,3.797744E-2,-8.855474E-2,2.3840928E-2,1.1388639E-2,-3.3431496E-2,8.489167E-2,-0E0,1.8394241E-2,-4.2266626E-2,-2.8447768E-2,8.919431E-3,4.534682E-2,-5.014351E-2,2.9141955E-2,-9.16606E-2,-3.0341437E-2,-8.7756135E-2,1.07343875E-1,2.6810562E-2,4.2510226E-2,-0E0,3.0003777E-2,-1.2518047E-2,3.1205492E-2,-6.1677694E-2],"categories":[0,1,2,3,2,0,0,0,1,3,0,2,3,2,3,0,0,0,0,2,0,0,1,0,2,3,0,0,1,3,4,2,0,0,1,3,0,0,1,2,3,0,1,3,4,0,1,2,0,1,4,0,1,2,3,0,1,3],"categories_nodes":[0,1,2,3,4,5,6,7,8,9,10,11,12,13,14,15,16,17,18,19,20,21,22,23,24,25,26,27,28,29,30],"categories_segments":[0,1,4,5,6,7,10,11,13,15,16,17,18,19,20,21,23,26,27,31,32,33,35,36,37,41,44,45,48,51,55],"categories_sizes":[1,3,1,1,1,3,1,2,2,1,1,1,1,1,1,2,3,1,4,1,1,2,1,1,4,3,1,3,3,4,3],"default_left":[0,0,0,1,1,1,0,0,1,1,1,1,1,0,1,1,1,0,1,1,1,1,1,0,0,0,0,1,1,1,0,0,0,0,0,0,0,0,0,0,0,0,0,0,0,0,0,0,0,0,0,0,0,0,0,0,0,0,0,0,0,0,0],"id":18,"left_children":[1,3,5,7,9,11,13,15,17,19,21,23,25,27,29,31,33,35,37,39,41,43,45,47,49,51,53,55,57,59,61,-1,-1,-1,-1,-1,-1,-1,-1,-1,-1,-1,-1,-1,-1,-1,-1,-1,-1,-1,-1,-1,-1,-1,-1,-1,-1,-1,-1,-1,-1,-1,-1],"loss_changes":[5.856592E1,1.0722996E1,1.1136143E1,6.2911873E0,4.1470084E0,6.603401E0,1.9770514E1,1.7334514E0,2.3227959E0,1.3689016E0,7.684623E0,5.765101E0,2.9327507E0,2.7178984E0,1.0001676E1,4.8377376E0,3.6111858E0,5.383013E0,2.5547981E0,3.9646676E0,1.7493279E0,9.4264126E-1,4.5981026E0,6.3704624E0,2.7524061E0,3.8866043E0,4.4400463E0,4.6820087E0,1.081936E0,5.15564E0,3.3462267E0,0E0,0E0,0E0,0E0,0E0,0E0,0E0,0E0,0E0,0E0,0E0,0E0,0E0,0E0,0E0,0E0,0E0,0E0,0E0,0E0,0E0,0E0,0E0,0E0,0E0,0E0,0E0,0E0,0E0,0E0,0E0,0E0],"parents":[2147483647,0,0,1,1,2,2,3,3,4,4,5,5,6,6,7,7,8,8,9,9,10,10,11,11,12,12,13,13,14,14,15,15,16,16,17,17,18,18,19,19,20,20,21,21,22,22,23,23,24,24,25,25,26,26,27,27,28,28,29,29,30,30],"right_children":[2,4,6,8,10,12,14,16,18,20,22,24,26,28,30,32,34,36,38,40,42,44,46,48,50,52,54,56,58,60,62,-1,-1,-1,-1,-1,-1,-1,-1,-1,-1,-1,-1,-1,-1,-1,-1,-1,-1,-1,-1,-1,-1,-1,-1,-1,-1,-1,-1,-1,-1,-1,-1],"split_conditions":[NaN,NaN,NaN,NaN,NaN,NaN,NaN,NaN,NaN,NaN,NaN,NaN,NaN,NaN,NaN,NaN,NaN,NaN,NaN,NaN,NaN,NaN,NaN,NaN,NaN,NaN,NaN,NaN,NaN,NaN,NaN,6.759912E-2,-5.5239502E-2,3.1616233E-2,-6.952351E-3,8.803913E-2,7.976861E-3,1.278922E-1,3.797744E-2,-8.855474E-2,2.3840928E-2,1.1388639E-2,-3.3431496E-2,8.489167E-2,-0E0,1.8394241E-2,-4.2266626E-2,-2.8447768E-2,8.919431E-3,4.534682E-2,-5.014351E-2,2.9141955E-2,-9.16606E-2,-3.0341437E-2,-8.7756135E-2,1.07343875E-1,2.6810562E-2,4.2510226E-2,-0E0,3.0003777E-2,-1.2518047E-2,3.1205492E-2,-6.1677694E-2],"split_indices":[9,31,1,6,25,17,13,0,0,23,12,15,9,0,15,17,27,18,17,1,27,17,0,6,19,15,19,15,17,18,18,0,0,0,0,0,0,0,0,0,0,0,0,0,0,0,0,0,0,0,0,0,0,0,0,0,0,0,0,0,0,0,0],"split_type":[1,1,1,1,1,1,1,1,1,1,1,1,1,1,1,1,1,1,1,1,1,1,1,1,1,1,1,1,1,1,1,0,0,0,0,0,0,0,0,0,0,0,0,0,0,0,0,0,0,0,0,0,0,0,0,0,0,0,0,0,0,0,0],"sum_hessian":[2.808739E3,9.2645844E2,1.8822805E3,6.3199585E2,2.9446255E2,1.1577515E3,7.24529E2,2.7388947E2,3.581064E2,1.0547278E2,1.8898978E2,5.5586255E2,6.018889E2,1.4613777E2,5.7839124E2,5.3563587E1,2.2032587E2,1.3549557E2,2.2261084E2,2.7845406E1,7.762737E1,3.9322147E1,1.4966763E2,4.3577258E2,1.20090004E2,4.9578747E1,5.523102E2,8.0550995E1,6.558678E1,4.5760336E2,1.2078789E2,4.6390987E1,7.1726003E0,1.2886383E2,9.1462036E1,1.0596567E2,2.9529913E1,9.004743E0,2.136061E2,1.9274605E1,8.570801E0,4.401591E1,3.3611465E1,3.6453182E1,2.8689642E0,1.1081969E2,3.884794E1,1.7731221E2,2.5846036E2,5.4729414E0,1.14617065E2,4.8947415E0,4.4684006E1,5.1540564E2,3.6904533E1,3.791783E1,4.2633163E1,2.8829824E1,3.6756954E1,7.926227E1,3.783411E2,7.3056874E0,1.134822E2],"tree_param":{"num_deleted":"0","num_feature":"32","num_nodes":"63","size_leaf_vector":"1"}},{"base_weights":[-1.2907093E-2,1.6250554E-1,-1.0090589E-1,3.3149004E-1,1.0021351E-1,-3.4642833E-1,-7.4657954E-2,3.8110045E-1,-1.6108854E-2,1.5374778E-1,2.0607937E-2,3.578705E-1,-4.4631863E-1,-1.6551374E-3,-3.4162796E-1,3.0033153E-1,6.777564E-1,1.9303638E-1,-4.3312064E-1,4.4755086E-1,5.925234E-2,1.8691945E-1,-1.4060077E-1,5.131665E-1,-2.1614137E-3,3.7780076E-1,-4.782569E-1,6.865994E-2,-1.3095026E-1,-1.6131641E-1,-4.5449847E-1,6.806164E-2,1.583838E-2,1.7732008E-1,-2.3941485E-2,8.970479E-2,-1.3742314E-2,4.873073E-3,-1.5526633E-1,1.6688185E-2,9.657736E-2,1.8202253E-2,-1.8619383E-2,1.0403735E-3,5.38296E-2,-3.7816486E-3,-6.7785405E-2,1.9320317E-1,1.6291068E-3,1.6908355E-1,-0E0,-8.717623E-2,4.2469207E-2,1.8098945E-2,-2.209275E-2,-3.0596647E-2,-2.9038638E-3,-4.3398827E-2,9.739256E-3,-6.1167914E-2,-1.0788451E-1],"categories":[0,0,1,2,3,0,0,1,2,3,0,1,3,4,0,1,2,0,0,1,2,3,4,6,8,9,0,1,5,6,7,2,0,1,3,4,5,6,7,8,9,1,2,0,2,3,5,6,9,0,3,4,6,2,3,5,7,9,1,2,3,0,4,0,1,2,1,0,2,3,5,6,8,9,0,0,2,3,2,2,2,4],"categories_nodes":[0,1,2,3,4,5,6,7,8,9,10,11,12,13,14,15,16,17,18,19,20,21,22,23,25,26,27,28,29,30],"categories_segments":[0,1,5,6,7,10,14,17,18,19,26,31,32,41,43,49,53,58,61,63,64,65,66,67,74,75,76,78,79,80],"categories_sizes":[1,4,1,1,3,4,3,1,1,7,5,1,9,2,6,4,5,3,2,1,1,1,1,7,1,1,2,1,1,2],"default_left":[0,1,1,1,1,1,0,1,0,1,1,1,1,0,1,1,1,1,0,1,1,1,1,1,0,1,0,1,0,0,0,0,0,0,0,0,0,0,0,0,0,0,0,0,0,0,0,0,0,0,0,0,0,0,0,0,0,0,0,0,0],"id":19,"left_children":[1,3,5,7,9,11,13,15,17,19,21,23,25,27,29,31,33,35,37,39,41,43,45,47,-1,49,51,53,55,57,59,-1,-1,-1,-1,-1,-1,-1,-1,-1,-1,-1,-1,-1,-1,-1,-1,-1,-1,-1,-1,-1,-1,-1,-1,-1,-1,-1,-1,-1,-1],"loss_changes":[4.2851593E1,9.290106E0,1.1522444E1,4.5849E0,2.7262287E0,1.2503548E1,3.2403427E1,4.115118E0,2.7670085E0,1.0574031E1,7.6147046E0,1.7033231E0,4.2693863E0,1.2092657E1,6.633354E0,4.3763876E0,1.8490305E1,2.4946983E0,4.0443106E0,5.1137123E0,3.3071208E0,3.860561E0,4.4486966E0,4.9753127E0,0E0,2.3003137E0,1.0807632E1,9.001347E0,3.4240494E0,4.1370173E0,1.7241287E0,0E0,0E0,0E0,0E0,0E0,0E0,0E0,0E0,0E0,0E0,0E0,0E0,0E0,0E0,0E0,0E0,0E0,0E0,0E0,0E0,0E0,0E0,0E0,0E0,0E0,0E0,0E0,0E0,0E0,0E0],"parents":[2147483647,0,0,1,1,2,2,3,3,4,4,5,5,6,6,7,7,8,8,9,9,10,10,11,11,12,12,13,13,14,14,15,15,16,16,17,17,18,18,19,19,20,20,21,21,22,22,23,23,25,25,26,26,27,27,28,28,29,29,30,30],"right_children":[2,4,6,8,10,12,14,16,18,20,22,24,26,28,30,32,34,36,38,40,42,44,46,48,-1,50,52,54,56,58,60,-1,-1,-1,-1,-1,-1,-1,-1,-1,-1,-1,-1,-1,-1,-1,-1,-1,-1,-1,-1,-1,-1,-1,-1,-1,-1,-1,-1,-1,-1],"split_conditions":[NaN,NaN,NaN,NaN,NaN,NaN,NaN,NaN,NaN,NaN,NaN,NaN,NaN,NaN,NaN,NaN,NaN,NaN,NaN,NaN,NaN,NaN,NaN,NaN,-2.1614137E-3,NaN,NaN,NaN,NaN,NaN,NaN,6.806164E-2,1.583838E-2,1.7732008E-1,-2.3941485E-2,8.970479E-2,-1.3742314E-2,4.873073E-3,-1.5526633E-1,1.6688185E-2,9.657736E-2,1.8202253E-2,-1.8619383E-2,1.0403735E-3,5.38296E-2,-3.7816486E-3,-6.7785405E-2,1.9320317E-1,1.6291068E-3,1.6908355E-1,-0E0,-8.717623E-2,4.2469207E-2,1.8098945E-2,-2.209275E-2,-3.0596647E-2,-2.9038638E-3,-4.3398827E-2,9.739256E-3,-6.1167914E-2,-1.0788451E-1],"split_indices":[9,20,9,1,31,16,14,3,3,28,28,29,28,16,28,28,28,24,16,6,26,1,25,28,0,27,1,31,1,1,16,0,0,0,0,0,0,0,0,0,0,0,0,0,0,0,0,0,0,0,0,0,0,0,0,0,0,0,0,0,0],"split_type":[1,1,1,1,1,1,1,1,1,1,1,1,1,1,1,1,1,1,1,1,1,1,1,1,0,1,1,1,1,1,1,0,0,0,0,0,0,0,0,0,0,0,0,0,0,0,0,0,0,0,0,0,0,0,0,0,0,0,0,0,0],"sum_hessian":[2.7790288E3,9.2447845E2,1.8545504E3,2.4411974E2,6.803587E2,1.7487064E2,1.6796798E3,2.1609717E2,2.8022572E1,3.9903543E2,2.8132327E2,2.0324717E1,1.5454591E2,1.3223184E3,3.573614E2,1.7326808E2,4.2829094E1,1.724659E1,1.0775981E1,9.40963E1,3.0493915E2,1.414741E2,1.3984915E2,1.6097351E1,4.2273645E0,4.40377E0,1.5014215E2,8.516727E2,4.7064566E2,1.4143591E2,2.1592549E2,9.6591255E1,7.667682E1,2.7792038E1,1.5037056E1,8.467065E0,8.779525E0,5.2958765E0,5.480104E0,3.530444E1,5.8791855E1,2.3351904E2,7.142009E1,7.077063E1,7.070348E1,1.0388593E2,3.596322E1,5.365278E0,1.0732074E1,1.9638609E0,2.4399092E0,1.3518558E2,1.4956569E1,6.94663E2,1.570097E2,2.8531943E2,1.8532623E2,9.438399E1,4.7051926E1,1.8163211E2,3.4293385E1],"tree_param":{"num_deleted":"0","num_feature":"32","num_nodes":"61","size_leaf_vector":"1"}},{"base_weights":[-1.1332955E-2,2.5405036E-2,-2.3111439E-1,1.6261178E-1,-4.6894416E-2,4.2034504E-1,-2.6521322E-1,1.8626751E-1,-2.1897313E-1,8.053704E-2,-1.3210927E-1,2.9836863E-1,6.988537E-2,-1.296167E-1,-3.421152E-1,1.339912E-1,4.0689537E-1,-4.2346E-1,-4.7676794E-2,3.517365E-1,2.2093646E-2,7.100965E-2,-1.6096362E-1,4.21561E-1,-3.9189562E-1,3.4863925E-1,-2.0721568E-1,2.2558998E-2,-3.6379156E-1,4.62152E-2,1.1945342E-2,8.7896965E-2,3.7052646E-2,-0E0,-1.1207957E-1,5.930884E-2,-2.6689742E-2,-8.631616E-2,7.100876E-2,1.4729616E-2,-2.0240253E-2,3.1417426E-2,-1.04869E-2,-1.689103E-3,-4.2568456E-2,1.5182362E-1,-2.1100363E-2,-1.2458323E-1,-0E0,1.9091119E-1,1.5456807E-2,1.4368042E-2,-5.5964306E-2,7.090159E-2,-8.393691E-2,-3.2978073E-2,-7.365641E-2],"categories":[0,0,0,0,1,1,2,3,4,0,0,0,0,0,0,1,2,0,3,0,1,2,3,1,3,4,0,2,0,3,1,2,3,4,0,1,2,4,0,0,1,2,1,2,4,0,0,1,2,0,1,4,1,2,3],"categories_nodes":[0,1,2,3,4,5,6,7,8,9,10,12,13,14,15,16,17,18,19,20,21,22,23,24,25,26,27,28],"categories_segments":[0,1,2,3,5,9,10,11,12,13,14,15,17,19,23,26,28,30,34,35,38,39,42,45,46,49,50,52],"categories_sizes":[1,1,1,2,4,1,1,1,1,1,1,2,2,4,3,2,2,4,1,3,1,3,3,1,3,1,2,3],"default_left":[1,0,1,1,0,1,0,1,1,1,0,0,1,1,1,1,1,1,1,1,0,1,1,1,1,1,1,1,1,0,0,0,0,0,0,0,0,0,0,0,0,0,0,0,0,0,0,0,0,0,0,0,0,0,0,0,0],"id":20,"left_children":[1,3,5,7,9,11,13,15,17,19,21,-1,23,25,27,29,31,33,35,37,39,41,43,45,47,49,51,53,55,-1,-1,-1,-1,-1,-1,-1,-1,-1,-1,-1,-1,-1,-1,-1,-1,-1,-1,-1,-1,-1,-1,-1,-1,-1,-1,-1,-1],"loss_changes":[2.2450249E1,2.3497847E1,8.751337E0,7.3727016E0,1.676941E1,7.870863E0,3.4747524E0,8.351248E0,1.1153121E0,9.329729E0,5.529316E0,0E0,2.7309377E0,5.206712E0,2.2233505E0,5.5253563E0,3.1008377E0,2.118636E0,1.3655322E0,1.0902468E1,5.7838855E0,2.2322512E0,1.4069885E1,4.3120794E0,1.2961395E0,2.6853664E0,6.2728114E0,2.8667624E0,3.2157097E0,0E0,0E0,0E0,0E0,0E0,0E0,0E0,0E0,0E0,0E0,0E0,0E0,0E0,0E0,0E0,0E0,0E0,0E0,0E0,0E0,0E0,0E0,0E0,0E0,0E0,0E0,0E0,0E0],"parents":[2147483647,0,0,1,1,2,2,3,3,4,4,5,5,6,6,7,7,8,8,9,9,10,10,12,12,13,13,14,14,15,15,16,16,17,17,18,18,19,19,20,20,21,21,22,22,23,23,24,24,25,25,26,26,27,27,28,28],"right_children":[2,4,6,8,10,12,14,16,18,20,22,-1,24,26,28,30,32,34,36,38,40,42,44,46,48,50,52,54,56,-1,-1,-1,-1,-1,-1,-1,-1,-1,-1,-1,-1,-1,-1,-1,-1,-1,-1,-1,-1,-1,-1,-1,-1,-1,-1,-1,-1],"split_conditions":[NaN,NaN,NaN,NaN,NaN,NaN,NaN,NaN,NaN,NaN,NaN,2.9836863E-1,NaN,NaN,NaN,NaN,NaN,NaN,NaN,NaN,NaN,NaN,NaN,NaN,NaN,NaN,NaN,NaN,NaN,4.62152E-2,1.1945342E-2,8.7896965E-2,3.7052646E-2,-0E0,-1.1207957E-1,5.930884E-2,-2.6689742E-2,-8.631616E-2,7.100876E-2,1.4729616E-2,-2.0240253E-2,3.1417426E-2,-1.04869E-2,-1.689103E-3,-4.2568456E-2,1.5182362E-1,-2.1100363E-2,-1.2458323E-1,-0E0,1.9091119E-1,1.5456807E-2,1.4368042E-2,-5.5964306E-2,7.090159E-2,-8.393691E-2,-3.2978073E-2,-7.365641E-2],"split_indices":[18,9,2,17,19,13,15,3,26,13,13,0,22,22,21,16,27,27,21,9,16,29,20,21,29,24,9,20,20,0,0,0,0,0,0,0,0,0,0,0,0,0,0,0,0,0,0,0,0,0,0,0,0,0,0,0,0],"split_type":[1,1,1,1,1,1,1,1,1,1,1,0,1,1,1,1,1,1,1,1,1,1,1,1,1,1,1,1,1,0,0,0,0,0,0,0,0,0,0,0,0,0,0,0,0,0,0,0,0,0,0,0,0,0,0,0,0],"sum_hessian":[2.7542136E3,2.3562498E3,3.9796387E2,8.17674E2,1.5385758E3,1.8064484E1,3.7989938E2,7.72638E2,4.5036026E1,6.118861E2,9.266897E2,2.4191449E0,1.5645339E1,1.4264922E2,2.3725017E2,6.2892334E2,1.4371465E2,1.7548403E1,2.7487623E1,1.05024055E2,5.0686206E2,1.1088295E2,8.1580676E2,1.0130742E1,5.514597E0,1.7882486E1,1.2476673E2,1.0730689E1,2.2651947E2,1.5191896E2,4.7700436E2,6.7585655E1,7.612899E1,8.068215E0,9.480186E0,4.2000036E0,2.3287619E1,1.0303014E1,9.472104E1,3.4683255E2,1.6002951E2,6.0009544E1,5.087341E1,3.621368E2,4.5366995E2,5.707412E0,4.42333E0,2.8536992E0,2.6608977E0,2.5634332E0,1.5319054E1,4.095397E1,8.381276E1,7.0927505E0,3.6379387E0,1.0465916E2,1.2186032E2],"tree_param":{"num_deleted":"0","num_feature":"32","num_nodes":"57","size_leaf_vector":"1"}},{"base_weights":[-9.8014E-3,1.1243365E-2,-2.4912967E-1,1.3276081E-1,-7.599348E-2,-3.2613114E-2,-5.1180494E-1,2.0916288E-1,6.662387E-2,2.579119E-2,-1.3769777E-1,2.2199155E-1,-7.7906825E-2,4.6894065E-1,-8.876588E-2,4.2617583E-1,1.606992E-1,-4.697573E-2,1.6704158E-1,4.4572166E-1,2.2270908E-3,1.6594675E-1,-1.7476942E-1,1.5151675E-1,1.0857867E-2,2.2467226E-1,-1.4787711E-1,9.6393865E-1,-0E0,7.829827E-2,-1.2317767E-2,3.8431536E-2,2.7300601E-3,7.929286E-3,-3.713522E-2,5.855901E-2,8.710908E-3,1.6918622E-1,-6.062912E-3,2.5676658E-2,-9.190138E-3,6.669819E-2,-2.423336E-3,-3.9641103E-3,-4.013935E-2,5.349548E-2,-9.348582E-2,1.328209E-1,-1.6611181E-2,4.0156916E-2,-3.8691767E-2,2.8049654E-1,-0E0],"categories":[0,1,0,1,2,3,0,1,2,1,2,3,4,0,0,1,3,0,0,0,0,0,0,0,0,2,3,1,2,3,0,1,2,0,2,3,4,6,7,8,2,3,4,6,8,0,2,3,4,6,8,9,1,1,2,3,5,6,9,3,0,1,2,3,4,8,9,0,1,3,4,5,6,7,8,0,2,3],"categories_nodes":[0,1,2,3,4,5,6,7,8,9,10,11,12,13,15,16,17,18,19,20,21,22,24,25,26,27],"categories_segments":[0,2,6,9,13,14,17,18,19,20,21,22,23,24,25,27,30,33,40,45,52,53,59,60,67,75],"categories_sizes":[2,4,3,4,1,3,1,1,1,1,1,1,1,1,2,3,3,7,5,7,1,6,1,7,8,3],"default_left":[1,1,0,0,1,1,0,1,1,1,0,0,0,1,0,0,0,1,1,1,1,1,1,0,1,1,1,0,0,0,0,0,0,0,0,0,0,0,0,0,0,0,0,0,0,0,0,0,0,0,0,0,0],"id":21,"left_children":[1,3,5,7,9,11,13,15,17,19,21,23,25,27,-1,29,31,33,35,37,39,41,43,-1,45,47,49,51,-1,-1,-1,-1,-1,-1,-1,-1,-1,-1,-1,-1,-1,-1,-1,-1,-1,-1,-1,-1,-1,-1,-1,-1,-1],"loss_changes":[1.3977473E1,2.6605932E1,1.2207588E1,5.0308533E0,9.239754E0,1.3129847E0,6.9140434E0,4.436205E0,6.6399226E0,4.9239373E0,1.0276241E1,1.5558202E0,2.274808E0,1.9842336E0,0E0,4.084757E0,4.8704634E0,5.2997246E0,6.868021E0,9.606489E0,5.4448266E0,5.1572742E0,1.0341671E1,0E0,2.7710068E0,4.714888E0,4.0141954E0,1.7915592E0,0E0,0E0,0E0,0E0,0E0,0E0,0E0,0E0,0E0,0E0,0E0,0E0,0E0,0E0,0E0,0E0,0E0,0E0,0E0,0E0,0E0,0E0,0E0,0E0,0E0],"parents":[2147483647,0,0,1,1,2,2,3,3,4,4,5,5,6,6,7,7,8,8,9,9,10,10,11,11,12,12,13,13,15,15,16,16,17,17,18,18,19,19,20,20,21,21,22,22,24,24,25,25,26,26,27,27],"right_children":[2,4,6,8,10,12,14,16,18,20,22,24,26,28,-1,30,32,34,36,38,40,42,44,-1,46,48,50,52,-1,-1,-1,-1,-1,-1,-1,-1,-1,-1,-1,-1,-1,-1,-1,-1,-1,-1,-1,-1,-1,-1,-1,-1,-1],"split_conditions":[NaN,NaN,NaN,NaN,NaN,NaN,NaN,NaN,NaN,NaN,NaN,NaN,NaN,NaN,-8.876588E-2,NaN,NaN,NaN,NaN,NaN,NaN,NaN,NaN,1.5151675E-1,NaN,NaN,NaN,NaN,-0E0,7.829827E-2,-1.2317767E-2,3.8431536E-2,2.7300601E-3,7.929286E-3,-3.713522E-2,5.855901E-2,8.710908E-3,1.6918622E-1,-6.062912E-3,2.5676658E-2,-9.190138E-3,6.669819E-2,-2.423336E-3,-3.9641103E-3,-4.013935E-2,5.349548E-2,-9.348582E-2,1.328209E-1,-1.6611181E-2,4.0156916E-2,-3.8691767E-2,2.8049654E-1,-0E0],"split_indices":[17,14,14,19,23,30,2,13,6,2,12,13,13,6,0,30,16,22,28,28,28,30,28,0,16,28,28,30,0,0,0,0,0,0,0,0,0,0,0,0,0,0,0,0,0,0,0,0,0,0,0,0,0],"split_type":[1,1,1,1,1,1,1,1,1,1,1,1,1,1,0,1,1,1,1,1,1,1,1,0,1,1,1,1,0,0,0,0,0,0,0,0,0,0,0,0,0,0,0,0,0,0,0,0,0,0,0,0,0],"sum_hessian":[2.7273484E3,2.5035117E3,2.2383678E2,1.0508652E3,1.4526464E3,1.2508067E2,9.8756096E1,4.8011005E2,5.707551E2,5.42273E2,9.103734E2,1.5279365E1,1.0980131E2,5.3124423E0,9.344366E1,8.319463E1,3.969154E2,2.6326678E2,3.0748837E2,2.6098898E1,5.161741E2,9.594312E1,8.144303E2,1.8856084E0,1.3393756E1,1.7743961E1,9.205735E1,3.0185018E0,2.2939403E0,7.2835075E1,1.0359556E1,2.3842555E2,1.5848984E2,1.7182452E2,9.144226E1,1.0040657E2,2.070818E2,1.1660234E1,1.44386635E1,1.4523993E2,3.7093414E2,4.0525345E1,5.5417778E1,3.062847E2,5.081456E2,9.846229E0,3.5475283E0,6.804574E0,1.0939388E1,1.6682384E1,7.537496E1,1.0119655E0,2.0065362E0],"tree_param":{"num_deleted":"0","num_feature":"32","num_nodes":"53","size_leaf_vector":"1"}},{"base_weights":[-1.0470729E-2,1.0980895E-1,-9.203302E-2,4.029466E-1,8.620052E-2,-5.142787E-2,-2.3596476E-1,5.863578E-1,-0E0,2.420825E-1,5.6454703E-2,6.5213874E-2,-1.4856963E-1,1.3692901E-2,-2.9412052E-1,8.812441E-1,4.682951E-2,1.4047459E-1,-4.0787646E-1,5.0794744E-1,-0E0,7.7614054E-2,-2.176816E-1,-2.634505E-2,1.7767142E-1,1.7860329E-1,-1.8780625E-1,2.8636613E-1,-1.5388598E-1,2.6085344E-1,-3.2941324E-1,1.6308762E-1,1.635162E-2,5.6636672E-2,-2.2151684E-2,7.30455E-2,-1.0552971E-2,-1.0253174E-1,-0E0,1.0210539E-1,1.1037358E-2,6.681109E-2,-1.6393453E-2,5.810283E-2,7.7014426E-3,4.381645E-3,-6.1315555E-2,2.2622945E-2,-4.3864217E-2,4.7064506E-2,4.050424E-3,-1.0826473E-2,6.343088E-2,3.119739E-2,-3.3467147E-2,1.5529908E-1,-0E0,-0E0,-4.98462E-2,1.0682858E-1,-1.1886874E-1,-1.1544999E-2,-6.172561E-2],"categories":[0,1,2,3,1,2,3,0,1,2,4,0,1,2,3,0,1,2,1,2,3,4,0,0,1,2,0,3,0,0,0,1,2,3,1,2,0,4,8,0,1,2,3,5,7,2,3,4,5,8,9,0,0,2,9,0,1,2,3,4,5,6,8,0,0,4,6,7,9,0,2,3,4,5,6,0,0,0,1,3,4,5,6,9,3,4,7,8,9,6,8,0],"categories_nodes":[0,1,2,3,4,5,6,7,8,9,10,11,12,13,14,15,16,17,18,19,20,21,22,23,24,25,26,27,28,29,30],"categories_segments":[0,4,7,8,11,15,18,22,23,26,28,29,30,34,36,37,39,45,51,52,55,63,64,69,70,75,76,77,84,89,91],"categories_sizes":[4,3,1,3,4,3,4,1,3,2,1,1,4,2,1,2,6,6,1,3,8,1,5,1,5,1,1,7,5,2,1],"default_left":[1,0,1,0,0,1,1,0,1,0,1,1,0,1,0,1,1,1,1,1,1,0,1,0,1,1,1,1,1,1,0,0,0,0,0,0,0,0,0,0,0,0,0,0,0,0,0,0,0,0,0,0,0,0,0,0,0,0,0,0,0,0,0],"id":22,"left_children":[1,3,5,7,9,11,13,15,17,19,21,23,25,27,29,31,33,35,37,39,41,43,45,47,49,51,53,55,57,59,61,-1,-1,-1,-1,-1,-1,-1,-1,-1,-1,-1,-1,-1,-1,-1,-1,-1,-1,-1,-1,-1,-1,-1,-1,-1,-1,-1,-1,-1,-1,-1,-1],"loss_changes":[2.6619312E1,7.054641E0,9.192651E0,5.5186205E0,4.400492E0,1.449884E1,5.3858566E0,7.479103E0,1.3824706E0,9.967516E0,4.845865E0,6.0591393E0,8.995447E0,3.062234E0,5.7593155E0,3.5040245E0,1.5170345E0,1.8535345E0,8.5429525E-1,4.407282E0,4.012347E0,6.156805E0,3.0043955E0,1.4304679E1,4.820733E0,4.617183E0,7.648121E0,6.191764E0,1.2824864E0,7.3771725E0,4.648117E0,0E0,0E0,0E0,0E0,0E0,0E0,0E0,0E0,0E0,0E0,0E0,0E0,0E0,0E0,0E0,0E0,0E0,0E0,0E0,0E0,0E0,0E0,0E0,0E0,0E0,0E0,0E0,0E0,0E0,0E0,0E0,0E0],"parents":[2147483647,0,0,1,1,2,2,3,3,4,4,5,5,6,6,7,7,8,8,9,9,10,10,11,11,12,12,13,13,14,14,15,15,16,16,17,17,18,18,19,19,20,20,21,21,22,22,23,23,24,24,25,25,26,26,27,27,28,28,29,29,30,30],"right_children":[2,4,6,8,10,12,14,16,18,20,22,24,26,28,30,32,34,36,38,40,42,44,46,48,50,52,54,56,58,60,62,-1,-1,-1,-1,-1,-1,-1,-1,-1,-1,-1,-1,-1,-1,-1,-1,-1,-1,-1,-1,-1,-1,-1,-1,-1,-1,-1,-1,-1,-1,-1,-1],"split_conditions":[NaN,NaN,NaN,NaN,NaN,NaN,NaN,NaN,NaN,NaN,NaN,NaN,NaN,NaN,NaN,NaN,NaN,NaN,NaN,NaN,NaN,NaN,NaN,NaN,NaN,NaN,NaN,NaN,NaN,NaN,NaN,1.6308762E-1,1.635162E-2,5.6636672E-2,-2.2151684E-2,7.30455E-2,-1.0552971E-2,-1.0253174E-1,-0E0,1.0210539E-1,1.1037358E-2,6.681109E-2,-1.6393453E-2,5.810283E-2,7.7014426E-3,4.381645E-3,-6.1315555E-2,2.2622945E-2,-4.3864217E-2,4.7064506E-2,4.050424E-3,-1.0826473E-2,6.343088E-2,3.119739E-2,-3.3467147E-2,1.5529908E-1,-0E0,-0E0,-4.98462E-2,1.0682858E-1,-1.1886874E-1,-1.1544999E-2,-6.172561E-2],"split_indices":[14,0,15,19,15,20,20,3,22,0,22,10,15,0,4,28,28,28,5,28,28,12,28,9,28,7,2,28,28,28,9,0,0,0,0,0,0,0,0,0,0,0,0,0,0,0,0,0,0,0,0,0,0,0,0,0,0,0,0,0,0,0,0],"split_type":[1,1,1,1,1,1,1,1,1,1,1,1,1,1,1,1,1,1,1,1,1,1,1,1,1,1,1,1,1,1,1,0,0,0,0,0,0,0,0,0,0,0,0,0,0,0,0,0,0,0,0,0,0,0,0,0,0,0,0,0,0,0,0],"sum_hessian":[2.7142185E3,1.0917826E3,1.622436E3,7.764203E1,1.0141406E3,1.2713572E3,3.5107883E2,5.245861E1,2.5183418E1,1.5658139E2,8.575592E2,5.7310803E2,6.9824915E2,6.3163525E1,2.8791528E2,3.2524464E1,1.9934149E1,1.9766499E1,5.416921E0,7.381881E1,8.276259E1,7.9981177E2,5.7747433E1,3.1123007E2,2.6187796E2,7.18653E1,6.2638385E2,2.6173897E1,3.6989628E1,1.5339244E1,2.7257605E2,2.5065123E1,7.4593415E0,9.1813965E0,1.0752752E1,9.158409E0,1.06080885E1,3.5980651E0,1.8188559E0,5.2167328E1,2.1651478E1,1.652254E1,6.624005E1,6.262874E1,7.3718304E2,2.248518E1,3.5262253E1,1.8430203E2,1.2692803E2,1.369786E2,1.2489934E2,3.3063095E1,3.880221E1,4.3362972E1,5.830209E2,7.6374373E0,1.8536459E1,1.7046015E1,1.9943613E1,1.1578664E1,3.7605808E0,6.4853806E1,2.0772224E2],"tree_param":{"num_deleted":"0","num_feature":"32","num_nodes":"63","size_leaf_vector":"1"}},{"base_weights":[-7.7229207E-3,2.1136766E-2,-1.8731757E-1,2.2495039E-1,-1.3525802E-2,3.086412E-1,-2.1639898E-1,2.7602994E-1,-1.0165907E-1,1.3993134E-3,-5.0533295E-1,8.600877E-1,-6.259466E-3,-1.351915E-1,-3.976181E-1,5.177249E-1,3.3743225E-2,7.0142627E-1,-2.796721E-1,6.345578E-2,-8.3351515E-2,-9.965361E-2,-2.7332194E-2,2.0416506E-1,-0E0,1.8571413E-1,-3.2420668E-1,-0E0,-2.2941776E-1,-9.4188794E-2,-4.0501487E-2,1.08242095E-1,2.0597119E-2,-0E0,1.9217029E-1,6.513913E-2,-6.336185E-2,-4.413985E-3,1.9135516E-2,4.3635927E-3,-1.8656537E-2,7.9596885E-2,-6.711706E-2,9.49316E-2,-1.792747E-2,2.8133791E-2,-1.11797996E-1,5.4815482E-2,-6.9271885E-3,2.0001465E-2,-4.2519234E-2],"categories":[0,0,0,0,1,2,1,1,3,0,1,2,0,1,2,3,0,1,1,1,2,3,0,4,0,0,3,0,0,1,3,4,0,0,2,1,2,1,2,0,2,3,4,0,0,1,2],"categories_nodes":[0,1,2,3,4,5,6,7,8,9,10,11,12,13,14,15,17,18,19,20,22,25,26,27,28],"categories_segments":[0,1,2,3,6,7,9,12,16,17,18,19,22,24,25,26,27,28,32,33,35,37,39,43,44],"categories_sizes":[1,1,1,3,1,2,3,4,1,1,1,3,2,1,1,1,1,4,1,2,2,2,4,1,3],"default_left":[1,0,1,1,1,0,1,1,0,1,1,0,1,0,1,1,0,1,1,1,1,0,1,0,0,1,1,1,1,0,0,0,0,0,0,0,0,0,0,0,0,0,0,0,0,0,0,0,0,0,0],"id":23,"left_children":[1,3,5,7,9,11,13,15,17,19,21,23,25,27,29,31,-1,33,35,37,39,-1,41,-1,-1,43,45,47,49,-1,-1,-1,-1,-1,-1,-1,-1,-1,-1,-1,-1,-1,-1,-1,-1,-1,-1,-1,-1,-1,-1],"loss_changes":[1.4142088E1,1.6592297E1,5.3943663E0,5.880001E0,1.502057E1,4.1957583E0,4.731062E0,3.1981544E0,5.947044E0,1.0070861E1,3.5227156E0,2.4241657E0,8.74812E-1,3.1494484E0,2.1476822E0,2.885767E0,0E0,3.4503806E0,3.6137972E0,6.439477E0,3.5697136E0,0E0,3.6841924E0,0E0,0E0,1.2728322E0,1.9532633E0,1.6269333E0,2.7459297E0,0E0,0E0,0E0,0E0,0E0,0E0,0E0,0E0,0E0,0E0,0E0,0E0,0E0,0E0,0E0,0E0,0E0,0E0,0E0,0E0,0E0,0E0],"parents":[2147483647,0,0,1,1,2,2,3,3,4,4,5,5,6,6,7,7,8,8,9,9,10,10,11,11,12,12,13,13,14,14,15,15,17,17,18,18,19,19,20,20,22,22,25,25,26,26,27,27,28,28],"right_children":[2,4,6,8,10,12,14,16,18,20,22,24,26,28,30,32,-1,34,36,38,40,-1,42,-1,-1,44,46,48,50,-1,-1,-1,-1,-1,-1,-1,-1,-1,-1,-1,-1,-1,-1,-1,-1,-1,-1,-1,-1,-1,-1],"split_conditions":[NaN,NaN,NaN,NaN,NaN,NaN,NaN,NaN,NaN,NaN,NaN,NaN,NaN,NaN,NaN,NaN,3.3743225E-2,NaN,NaN,NaN,NaN,-9.965361E-2,NaN,2.0416506E-1,-0E0,NaN,NaN,NaN,NaN,-9.4188794E-2,-4.0501487E-2,1.08242095E-1,2.0597119E-2,-0E0,1.9217029E-1,6.513913E-2,-6.336185E-2,-4.413985E-3,1.9135516E-2,4.3635927E-3,-1.8656537E-2,7.9596885E-2,-6.711706E-2,9.49316E-2,-1.792747E-2,2.8133791E-2,-1.11797996E-1,5.4815482E-2,-6.9271885E-3,2.0001465E-2,-4.2519234E-2],"split_indices":[18,13,2,14,14,0,14,15,4,25,26,17,17,15,10,0,0,7,17,6,24,0,0,0,0,24,15,12,0,0,0,0,0,0,0,0,0,0,0,0,0,0,0,0,0,0,0,0,0,0,0],"split_type":[1,1,1,1,1,1,1,1,1,1,1,1,1,1,1,1,0,1,1,1,1,0,1,0,0,1,1,1,1,0,0,0,0,0,0,0,0,0,0,0,0,0,0,0,0,0,0,0,0,0,0],"sum_hessian":[2.6957146E3,2.3180957E3,3.7761877E2,3.4072308E2,1.9773727E3,1.8756939E1,3.5886185E2,2.973469E2,4.337619E1,1.9176398E3,5.973284E1,7.6594667E0,1.1097473E1,2.5220094E2,1.06660904E2,5.1351517E1,2.4599536E2,6.593046E0,3.6783146E1,1.1138989E3,8.037409E2,4.401131E1,1.5721527E1,4.2542353E0,3.4052312E0,5.092481E0,6.0049915E0,1.0510525E2,1.4709569E2,3.6851345E1,6.980956E1,3.2313206E1,1.903831E1,2.6894937E0,3.9035525E0,4.535895E0,3.224725E1,4.396468E2,6.7425214E2,1.9966063E2,6.0408026E2,5.6495485E0,1.00719795E1,3.2301214E0,1.8623599E0,1.6997112E0,4.30528E0,1.066167E1,9.444357E1,1.4939396E1,1.321563E2],"tree_param":{"num_deleted":"0","num_feature":"32","num_nodes":"51","size_leaf_vector":"1"}},{"base_weights":[-7.1305754E-3,1.15206406E-1,-7.000511E-2,2.5336534E-1,6.4225964E-2,6.431809E-3,-1.3593327E-1,2.8315175E-1,-2.6664752E-1,2.3901248E-1,3.0009132E-2,5.794694E-2,-2.0450476E-1,7.132301E-2,-1.5901594E-1,3.075802E-1,-1.3398518E-1,1.5703069E-1,-8.9536235E-2,7.564578E-2,4.202943E-1,9.600626E-2,-5.07666E-2,1.8321912E-1,-3.151409E-2,-7.786847E-2,-3.8559654E-1,2.5786063E-1,-2.0714727E-1,-1.0835854E-1,-2.784905E-1,7.219694E-2,2.5384387E-2,5.8398783E-2,-9.912132E-2,8.962474E-2,-0E0,4.4716407E-2,-2.0115081E-2,7.827003E-2,9.940474E-3,2.32451E-2,-8.608737E-3,-6.483883E-4,-4.9946174E-2,5.0936054E-2,-1.998683E-3,6.893454E-2,-1.1485482E-2,-8.849185E-5,-7.329713E-2,6.818899E-3,-6.827556E-2,6.453404E-2,-6.856664E-2,-6.1414186E-3,-1.5669884E-1,-4.673298E-3,-5.8646876E-2,-1.7948754E-2,-5.356033E-2],"categories":[0,0,1,2,3,0,1,3,0,1,0,1,2,3,0,0,1,2,3,2,0,1,3,4,0,1,2,4,0,1,2,0,2,0,1,1,2,2,3,0,3,0,4,0,3,0,1,2,0,2,0,1,2,3,1,2,3,4,0,1,2,2,0,1,2,0,1,2,3],"categories_nodes":[0,1,2,3,4,5,6,7,8,9,10,11,12,13,14,15,16,17,19,20,21,22,23,24,25,26,27,28,29,30],"categories_segments":[0,1,5,8,10,14,15,19,20,24,25,28,31,33,35,37,39,41,42,43,45,46,48,50,54,55,58,61,62,65],"categories_sizes":[1,4,3,2,4,1,4,1,4,1,3,3,2,2,2,2,2,1,1,2,1,2,2,4,1,3,3,1,3,4],"default_left":[0,1,1,1,0,1,1,1,1,0,0,1,1,1,1,0,1,1,0,0,1,1,1,0,0,1,0,0,1,0,0,0,0,0,0,0,0,0,0,0,0,0,0,0,0,0,0,0,0,0,0,0,0,0,0,0,0,0,0,0,0],"id":24,"left_children":[1,3,5,7,9,11,13,15,17,19,21,23,25,27,29,31,33,35,-1,37,39,41,43,45,47,49,51,53,55,57,59,-1,-1,-1,-1,-1,-1,-1,-1,-1,-1,-1,-1,-1,-1,-1,-1,-1,-1,-1,-1,-1,-1,-1,-1,-1,-1,-1,-1,-1,-1],"loss_changes":[2.05916E1,6.052717E0,9.0868E0,3.7493467E0,3.719243E0,8.733345E0,4.692137E0,2.513773E0,2.006827E0,2.5822759E0,3.0508041E0,7.556178E0,3.114678E0,4.8739805E0,4.862179E0,4.391552E0,3.2191403E0,8.3731085E-1,0E0,2.8009505E0,9.190521E-1,2.801295E0,2.8370745E0,8.549871E0,7.649782E0,2.499794E0,2.0069065E0,6.746395E0,3.7200532E0,1.2791908E1,2.432932E0,0E0,0E0,0E0,0E0,0E0,0E0,0E0,0E0,0E0,0E0,0E0,0E0,0E0,