{"learner":{"attributes":{"scikit_learn":"{\"_estimator_type\": \"classifier\"}"},"feature_names":["h1n1_concern","h1n1_knowledge","behavioral_antiviral_meds","behavioral_avoidance","behavioral_face_mask","behavioral_wash_hands","behavioral_large_gatherings","behavioral_outside_home","behavioral_touch_face","doctor_recc_h1n1","doctor_recc_seasonal","chronic_med_condition","child_under_6_months","health_worker","opinion_h1n1_vacc_effective","opinion_h1n1_risk","opinion_h1n1_sick_from_vacc","opinion_seas_vacc_effective","opinion_seas_risk","opinion_seas_sick_from_vacc","age_group","education","race","sex","income_poverty","marital_status","rent_or_own","employment_status","hhs_geo_region","census_msa","household_adults","household_children"],"feature_types":["c","c","c","c","c","c","c","c","c","c","c","c","c","c","c","c","c","c","c","c","c","c","c","c","c","c","c","c","c","c","c","c"],"gradient_booster":{"model":{"gbtree_model_param":{"num_parallel_tree":"1","num_trees":"100"},"iteration_indptr":[0,1,2,3,4,5,6,7,8,9,10,11,12,13,14,15,16,17,18,19,20,21,22,23,24,25,26,27,28,29,30,31,32,33,34,35,36,37,38,39,40,41,42,43,44,45,46,47,48,49,50,51,52,53,54,55,56,57,58,59,60,61,62,63,64,65,66,67,68,69,70,71,72,73,74,75,76,77,78,79,80,81,82,83,84,85,86,87,88,89,90,91,92,93,94,95,96,97,98,99,100],"tree_info":[0,0,0,0,0,0,0,0,0,0,0,0,0,0,0,0,0,0,0,0,0,0,0,0,0,0,0,0,0,0,0,0,0,0,0,0,0,0,0,0,0,0,0,0,0,0,0,0,0,0,0,0,0,0,0,0,0,0,0,0,0,0,0,0,0,0,0,0,0,0,0,0,0,0,0,0,0,0,0,0,0,0,0,0,0,0,0,0,0,0,0,0,0,0,0,0,0,0,0,0],"trees":[{"base_weights":[5.780077E-3,1.0657705E0,-5.3097826E-1,1.3402028E0,8.6715484E-1,1.19477905E-1,-7.201566E-1,1.564987E0,9.6069515E-1,1.0621012E0,-9.378731E-1,-5.556555E-1,3.8463858E-1,3.273153E-1,-1.100414E0,1.6382459E0,1.0847116E0,1.375176E0,7.1694005E-1,1.5732826E0,7.320583E-1,-6.377197E-1,-1.0291644E0,6.0196656E-1,-7.2439444E-1,1.0408561E0,-2.3929091E-1,8.6949986E-1,-2.4821019E-1,-7.1470827E-1,-1.3213321E0,1.9244932E-1,1.6186091E-1,1.9775683E-1,8.930962E-2,1.548822E-1,7.059428E-2,8.7614976E-2,-5.732379E-3,1.6550991E-1,1.5563142E-2,9.7010344E-2,3.7063386E-2,1.2966608E-2,-1.0251906E-1,-9.119178E-2,-1.3409366E-1,1.1382707E-1,-7.7713537E-3,-4.2990077E-2,-1.1991233E-1,1.1951609E-1,-1.8114958E-2,5.293424E-2,-3.5505243E-2,1.16740584E-1,5.7288267E-2,3.482074E-4,-6.934429E-2,-6.4272724E-2,-1.2853429E-1,-1.2581952E-1,-1.6031793E-1],"categories":[0,0,1,0,1,2,0,1,3,0,1,0,0,1,2,3,2,0,1,3,0,1,2,3,0,1,3,0,0,1,2,3,0,1,2,0,1,2,1,2,3,4,0,1,2,3,1,0,1,2,0,0,1,4,0,1,4,0,2,0,4,0,2,0,1,2,3,0,1,2,3,0,0,1,0,1,2],"categories_nodes":[0,1,2,3,4,5,6,7,8,9,10,11,12,13,14,15,16,17,18,19,20,21,22,23,24,25,26,27,28,29,30],"categories_segments":[0,1,3,6,9,11,12,16,17,20,24,27,28,32,35,38,42,46,47,50,51,54,57,59,61,62,63,67,71,72,74],"categories_sizes":[1,2,3,3,2,1,4,1,3,4,3,1,4,3,3,4,4,1,3,1,3,3,2,2,1,1,4,4,1,2,3],"default_left":[1,1,1,1,1,1,1,1,1,1,1,1,1,1,1,1,1,1,1,1,1,1,1,1,1,1,1,1,1,1,1,0,0,0,0,0,0,0,0,0,0,0,0,0,0,0,0,0,0,0,0,0,0,0,0,0,0,0,0,0,0,0,0],"id":0,"left_children":[1,3,5,7,9,11,13,15,17,19,21,23,25,27,29,31,33,35,37,39,41,43,45,47,49,51,53,55,57,59,61,-1,-1,-1,-1,-1,-1,-1,-1,-1,-1,-1,-1,-1,-1,-1,-1,-1,-1,-1,-1,-1,-1,-1,-1,-1,-1,-1,-1,-1,-1,-1,-1],"loss_changes":[1.9152803E3,6.0825928E1,2.751349E2,3.9446106E1,2.3159454E2,9.005638E1,6.8987866E2,9.340881E0,1.711679E1,9.928406E1,1.1390724E0,2.7768105E1,1.4837671E2,1.4407704E2,1.07479004E2,3.0514526E0,6.3608665E0,4.2413254E0,1.1025101E1,4.57782E0,2.6644073E1,4.5412054E0,1.0671806E0,6.25967E0,1.5925446E1,2.316565E1,1.4038277E1,1.8467178E1,2.3673344E1,2.2824417E1,1.8808838E1,0E0,0E0,0E0,0E0,0E0,0E0,0E0,0E0,0E0,0E0,0E0,0E0,0E0,0E0,0E0,0E0,0E0,0E0,0E0,0E0,0E0,0E0,0E0,0E0,0E0,0E0,0E0,0E0,0E0,0E0,0E0,0E0],"parents":[2147483647,0,0,1,1,2,2,3,3,4,4,5,5,6,6,7,7,8,8,9,9,10,10,11,11,12,12,13,13,14,14,15,15,16,16,17,17,18,18,19,19,20,20,21,21,22,22,23,23,24,24,25,25,26,26,27,27,28,28,29,29,30,30],"right_children":[2,4,6,8,10,12,14,16,18,20,22,24,26,28,30,32,34,36,38,40,42,44,46,48,50,52,54,56,58,60,62,-1,-1,-1,-1,-1,-1,-1,-1,-1,-1,-1,-1,-1,-1,-1,-1,-1,-1,-1,-1,-1,-1,-1,-1,-1,-1,-1,-1,-1,-1,-1,-1],"split_conditions":[NaN,NaN,NaN,NaN,NaN,NaN,NaN,NaN,NaN,NaN,NaN,NaN,NaN,NaN,NaN,NaN,NaN,NaN,NaN,NaN,NaN,NaN,NaN,NaN,NaN,NaN,NaN,NaN,NaN,NaN,NaN,1.9244932E-1,1.6186091E-1,1.9775683E-1,8.930962E-2,1.548822E-1,7.059428E-2,8.7614976E-2,-5.732379E-3,1.6550991E-1,1.5563142E-2,9.7010344E-2,3.7063386E-2,1.2966608E-2,-1.0251906E-1,-9.119178E-2,-1.3409366E-1,1.1382707E-1,-7.7713537E-3,-4.2990077E-2,-1.1991233E-1,1.1951609E-1,-1.8114958E-2,5.293424E-2,-3.5505243E-2,1.16740584E-1,5.7288267E-2,3.482074E-4,-6.934429E-2,-6.4272724E-2,-1.2853429E-1,-1.2581952E-1,-1.6031793E-1],"split_indices":[10,15,15,17,17,26,17,24,20,20,0,13,17,20,20,16,20,0,14,14,20,16,14,16,20,24,20,20,20,14,14,0,0,0,0,0,0,0,0,0,0,0,0,0,0,0,0,0,0,0,0,0,0,0,0,0,0,0,0,0,0,0,0],"split_type":[1,1,1,1,1,1,1,1,1,1,1,1,1,1,1,1,1,1,1,1,1,1,1,1,1,1,1,1,1,1,1,0,0,0,0,0,0,0,0,0,0,0,0,0,0,0,0,0,0,0,0,0,0,0,0,0,0,0,0,0,0,0,0],"sum_hessian":[3.365699E3,1.1315475E3,2.2341514E3,4.7407724E2,6.574703E2,5.030209E2,1.7311305E3,2.9692206E2,1.7715518E2,5.935946E2,6.387567E1,1.4147462E2,3.615463E2,4.60853E2,1.2702775E3,2.5675024E2,4.017181E1,6.4873726E1,1.12281456E2,2.3229785E2,3.6129675E2,1.5968918E1,4.7906754E1,1.7715519E1,1.2375911E2,1.7640665E2,1.8513965E2,2.3753766E2,2.2331534E2,4.6334814E2,8.069294E2,7.186013E1,1.8489012E2,8.2339735E0,3.1937836E1,5.5392185E1,9.4815445E0,9.706108E1,1.5220375E1,2.2955319E2,2.7446578E0,2.3554153E2,1.25755226E2,4.7407722E0,1.1228146E1,3.1189293E1,1.671746E1,1.0479603E1,7.235916E0,7.210964E1,5.1649467E1,1.6243384E2,1.3972803E1,2.1707748E1,1.634319E2,1.322426E2,1.0529505E2,1.3897949E2,8.4335846E1,3.9073947E2,7.260867E1,5.319646E2,2.749648E2],"tree_param":{"num_deleted":"0","num_feature":"32","num_nodes":"63","size_leaf_vector":"1"}},{"base_weights":[6.4758323E-3,6.6675687E-1,-1.8666093E-1,1.1782763E0,-1.694996E-1,7.098935E-1,-7.470951E-1,1.3232466E0,-6.4614184E-2,8.160602E-3,-8.9213616E-1,1.370106E0,4.7678742E-1,6.415243E-1,-9.71026E-1,1.4499699E0,1.0395036E0,-7.767125E-1,2.7729213E-1,6.606174E-1,-1.9853778E-1,3.0417717E-1,-1.2238527E-1,1.5514822E0,1.1129172E0,8.593744E-1,-1.481061E-1,1.3062289E0,1.056504E-1,-1.9514394E-1,-1.1370165E0,1.6481555E-1,1.4256532E-1,1.11958414E-1,4.2132773E-2,-0E0,-1.1925571E-1,7.126437E-2,-6.1864194E-2,3.223795E-2,1.0717192E-1,4.482572E-3,-6.933665E-2,6.119385E-2,-0E0,1.734179E-1,1.3763584E-1,1.3969311E-1,7.883037E-2,1.0404388E-1,5.996298E-2,-6.842272E-2,9.775838E-3,1.5591577E-1,1.2432655E-1,4.11465E-2,-5.1451296E-2,1.1254464E-2,-4.374E-2,-1.00441426E-1,-1.3980961E-1],"categories":[0,0,1,0,1,0,0,0,0,0,1,0,0,1,2,3,0,1,2,3,0,1,3,0,1,0,1,2,3,0,1,2,3,0,1,2,3,0,2,0,2,0,1,0,0,2,0,2,3,4,3,4,0,1,2,0,0,0,1,0,2,4,0,4],"categories_nodes":[0,1,2,3,4,5,6,7,8,9,10,11,12,13,14,15,16,17,18,19,20,21,23,24,25,26,27,28,29,30],"categories_segments":[0,1,3,5,6,7,8,9,11,12,16,20,23,25,29,33,37,39,41,43,44,46,47,50,52,55,56,57,59,62],"categories_sizes":[1,2,2,1,1,1,1,2,1,4,4,3,2,4,4,4,2,2,2,1,2,1,3,2,3,1,1,2,3,2],"default_left":[1,1,1,1,1,1,1,1,1,1,1,1,1,1,1,1,1,1,1,1,1,1,0,1,1,1,1,1,1,1,1,0,0,0,0,0,0,0,0,0,0,0,0,0,0,0,0,0,0,0,0,0,0,0,0,0,0,0,0,0,0],"id":1,"left_children":[1,3,5,7,9,11,13,15,17,19,21,23,25,27,29,31,33,35,37,39,41,43,-1,45,47,49,51,53,55,57,59,-1,-1,-1,-1,-1,-1,-1,-1,-1,-1,-1,-1,-1,-1,-1,-1,-1,-1,-1,-1,-1,-1,-1,-1,-1,-1,-1,-1,-1,-1],"loss_changes":[4.281171E2,3.2537762E2,1.3045376E3,8.539746E1,3.7286358E1,1.5299323E2,4.9704022E2,1.4199524E1,1.2164427E1,3.1343359E1,1.9682201E1,1.1048279E1,1.7679779E2,7.853981E1,1.7678967E2,1.8911743E0,2.4273987E0,4.3475485E0,1.1803598E1,6.780159E0,1.9980371E1,9.368855E-1,0E0,2.6932373E0,8.03743E0,1.7559113E1,3.46811E1,1.0175629E0,2.1373793E1,1.6664173E1,3.9260376E1,0E0,0E0,0E0,0E0,0E0,0E0,0E0,0E0,0E0,0E0,0E0,0E0,0E0,0E0,0E0,0E0,0E0,0E0,0E0,0E0,0E0,0E0,0E0,0E0,0E0,0E0,0E0,0E0,0E0,0E0],"parents":[2147483647,0,0,1,1,2,2,3,3,4,4,5,5,6,6,7,7,8,8,9,9,10,10,11,11,12,12,13,13,14,14,15,15,16,16,17,17,18,18,19,19,20,20,21,21,23,23,24,24,25,25,26,26,27,27,28,28,29,29,30,30],"right_children":[2,4,6,8,10,12,14,16,18,20,22,24,26,28,30,32,34,36,38,40,42,44,-1,46,48,50,52,54,56,58,60,-1,-1,-1,-1,-1,-1,-1,-1,-1,-1,-1,-1,-1,-1,-1,-1,-1,-1,-1,-1,-1,-1,-1,-1,-1,-1,-1,-1,-1,-1],"split_conditions":[NaN,NaN,NaN,NaN,NaN,NaN,NaN,NaN,NaN,NaN,NaN,NaN,NaN,NaN,NaN,NaN,NaN,NaN,NaN,NaN,NaN,NaN,-1.2238527E-1,NaN,NaN,NaN,NaN,NaN,NaN,NaN,NaN,1.6481555E-1,1.4256532E-1,1.11958414E-1,4.2132773E-2,-0E0,-1.1925571E-1,7.126437E-2,-6.1864194E-2,3.223795E-2,1.0717192E-1,4.482572E-3,-6.933665E-2,6.119385E-2,-0E0,1.734179E-1,1.3763584E-1,1.3969311E-1,7.883037E-2,1.0404388E-1,5.996298E-2,-6.842272E-2,9.775838E-3,1.5591577E-1,1.2432655E-1,4.11465E-2,-5.1451296E-2,1.1254464E-2,-4.374E-2,-1.00441426E-1,-1.3980961E-1],"split_indices":[9,18,18,10,10,10,10,20,26,20,20,20,20,20,20,20,15,20,20,25,15,23,0,15,15,20,27,23,20,15,15,0,0,0,0,0,0,0,0,0,0,0,0,0,0,0,0,0,0,0,0,0,0,0,0,0,0,0,0,0,0],"split_type":[1,1,1,1,1,1,1,1,1,1,1,1,1,1,1,1,1,1,1,1,1,1,0,1,1,1,1,1,1,1,1,0,0,0,0,0,0,0,0,0,0,0,0,0,0,0,0,0,0,0,0,0,0,0,0,0,0,0,0,0,0],"sum_hessian":[3.3556707E3,7.5970044E2,2.5959702E3,4.7156412E2,2.8813632E2,9.9831805E2,1.5976521E3,4.22521E2,4.9043118E1,2.3105225E2,5.7084072E1,2.5996655E2,7.383515E2,2.2163084E2,1.3760212E3,2.908932E2,1.3162782E2,1.6140839E1,3.290228E1,5.586839E1,1.7518387E2,1.0700312E1,4.6383762E1,1.5130183E2,1.0866471E2,4.5823776E2,2.8011374E2,9.8569405E1,1.2306143E2,2.4288922E2,1.1331321E3,1.0832452E2,1.8256866E2,1.2414156E2,7.4862585E0,5.475252E0,1.0665586E1,2.269296E1,1.0209316E1,2.9169365E1,2.6699024E1,1.1511842E2,6.006544E1,5.473576E0,5.226736E0,9.987322E1,5.1428623E1,6.5457664E1,4.320705E1,3.0627756E2,1.519602E2,9.061235E1,1.8950139E2,3.493273E1,6.3636673E1,8.338771E1,3.967372E1,1.0284775E2,1.4004147E2,6.162902E2,5.168418E2],"tree_param":{"num_deleted":"0","num_feature":"32","num_nodes":"61","size_leaf_vector":"1"}},{"base_weights":[-9.817346E-3,7.519911E-1,-6.092991E-1,1.1322818E0,2.7043018E-1,2.7997744E-1,-8.8621414E-1,1.374936E0,8.590312E-1,8.9475846E-1,-1.1591373E-1,9.5323974E-1,-1.023322E-1,-1.3680199E-1,-1.0964867E0,1.5053774E-1,1.2197305E0,2.2410221E-1,1.0761945E0,9.583798E-1,4.16373E-1,2.2451168E-2,-1.0727283E0,5.199497E-1,1.0747708E0,1.6799496E-1,-6.1563206E-1,1.11687325E-1,-6.408013E-1,-9.135937E-1,-1.3902669E-1,1.3483728E-1,7.465689E-2,3.9424013E-2,-4.1157234E-2,8.845815E-2,1.408942E-1,1.069952E-1,-5.8024405E-3,6.720564E-2,-5.461008E-2,1.4450886E-2,-9.870072E-2,-6.867833E-2,-1.3252762E-1,7.78724E-2,-5.4917586E-5,1.2875035E-1,9.822219E-2,3.573167E-2,-9.1841914E-2,-3.5719045E-2,-1.028459E-1,-3.830222E-2,2.8323263E-2,-1.7939407E-2,-7.351896E-2,-8.494964E-2,-1.3743061E-1],"categories":[0,1,0,1,2,3,0,0,0,0,1,2,3,0,1,2,3,3,0,2,2,0,0,0,0,1,1,2,1,0,1,0,1,0,1,2,0,1,3,0,1,0,1,2,0,0,2,3,0,1],"categories_nodes":[0,1,2,3,4,5,6,7,8,9,10,11,12,13,14,16,17,18,19,20,21,22,23,24,25,26,27,28,29],"categories_segments":[0,2,6,7,8,9,13,17,18,19,20,21,22,23,24,25,26,27,28,29,31,33,35,36,39,41,44,45,48],"categories_sizes":[2,4,1,1,1,4,4,1,1,1,1,1,1,1,1,1,1,1,1,2,2,2,1,3,2,3,1,3,2],"default_left":[1,1,1,1,1,1,1,1,1,1,1,1,1,1,1,0,1,1,1,1,1,1,1,1,1,1,1,1,1,1,0,0,0,0,0,0,0,0,0,0,0,0,0,0,0,0,0,0,0,0,0,0,0,0,0,0,0,0,0],"id":2,"left_children":[1,3,5,7,9,11,13,15,17,19,21,23,25,27,29,-1,31,33,35,37,39,41,43,45,47,49,51,53,55,57,-1,-1,-1,-1,-1,-1,-1,-1,-1,-1,-1,-1,-1,-1,-1,-1,-1,-1,-1,-1,-1,-1,-1,-1,-1,-1,-1,-1,-1],"loss_changes":[1.5101007E3,2.661568E2,4.5597693E2,5.3044434E1,1.5535326E2,1.1335467E2,2.2203296E2,3.5908203E0,5.2432312E1,7.0047607E0,5.2892193E1,7.8164215E0,3.9012703E1,3.8971077E1,4.7112183E1,0E0,4.3524933E0,9.410778E0,1.7045166E1,1.5405457E1,6.4857607E0,3.8874016E1,3.4360924E0,4.4689627E0,1.7808533E0,3.3526745E1,9.372799E0,1.5898376E1,2.8367386E0,2.4030396E1,0E0,0E0,0E0,0E0,0E0,0E0,0E0,0E0,0E0,0E0,0E0,0E0,0E0,0E0,0E0,0E0,0E0,0E0,0E0,0E0,0E0,0E0,0E0,0E0,0E0,0E0,0E0,0E0,0E0],"parents":[2147483647,0,0,1,1,2,2,3,3,4,4,5,5,6,6,7,7,8,8,9,9,10,10,11,11,12,12,13,13,14,14,16,16,17,17,18,18,19,19,20,20,21,21,22,22,23,23,24,24,25,25,26,26,27,27,28,28,29,29],"right_children":[2,4,6,8,10,12,14,16,18,20,22,24,26,28,30,-1,32,34,36,38,40,42,44,46,48,50,52,54,56,58,-1,-1,-1,-1,-1,-1,-1,-1,-1,-1,-1,-1,-1,-1,-1,-1,-1,-1,-1,-1,-1,-1,-1,-1,-1,-1,-1,-1,-1],"split_conditions":[NaN,NaN,NaN,NaN,NaN,NaN,NaN,NaN,NaN,NaN,NaN,NaN,NaN,NaN,NaN,1.5053774E-1,NaN,NaN,NaN,NaN,NaN,NaN,NaN,NaN,NaN,NaN,NaN,NaN,NaN,NaN,-1.3902669E-1,1.3483728E-1,7.465689E-2,3.9424013E-2,-4.1157234E-2,8.845815E-2,1.408942E-1,1.069952E-1,-5.8024405E-3,6.720564E-2,-5.461008E-2,1.4450886E-2,-9.870072E-2,-6.867833E-2,-1.3252762E-1,7.78724E-2,-5.4917586E-5,1.2875035E-1,9.822219E-2,3.573167E-2,-9.1841914E-2,-3.5719045E-2,-1.028459E-1,-3.830222E-2,2.8323263E-2,-1.7939407E-2,-7.351896E-2,-8.494964E-2,-1.3743061E-1],"split_indices":[18,17,10,10,10,17,17,0,26,24,24,26,18,18,18,0,21,21,1,17,17,17,21,24,21,17,17,26,21,17,0,0,0,0,0,0,0,0,0,0,0,0,0,0,0,0,0,0,0,0,0,0,0,0,0,0,0,0,0],"split_type":[1,1,1,1,1,1,1,1,1,1,1,1,1,1,1,0,1,1,1,1,1,1,1,1,1,1,1,1,1,1,0,0,0,0,0,0,0,0,0,0,0,0,0,0,0,0,0,0,0,0,0,0,0,0,0,0,0,0,0],"sum_hessian":[3.306414E3,1.4558263E3,1.8505878E3,8.129719E2,6.428544E2,4.391605E2,1.4114272E3,4.2967087E2,3.8330106E2,2.4597112E2,3.968833E2,1.5926831E2,2.7989218E2,3.096293E2,1.101798E3,2.9363837E2,1.3603252E2,9.8129326E1,2.8517172E2,2.1639369E2,2.9577415E1,3.4658664E2,5.029664E1,3.5619617E1,1.2364869E2,1.8300896E2,9.688322E1,2.0704922E2,1.02580086E2,6.2432434E2,4.7747357E2,1.1770757E2,1.8324947E1,7.899581E1,1.913351E1,1.5751146E2,1.2766027E2,2.0294003E2,1.345367E1,2.4093872E1,5.4835434E0,3.0988727E2,3.669937E1,1.7087257E1,3.320938E1,2.5150818E1,1.04688E1,5.4011738E1,6.963695E1,1.5719485E2,2.5814112E1,5.6525673E1,4.0357544E1,5.132986E1,1.5571936E2,1.313699E1,8.944309E1,5.0373578E2,1.2058858E2],"tree_param":{"num_deleted":"0","num_feature":"32","num_nodes":"59","size_leaf_vector":"1"}},{"base_weights":[-4.941994E-3,5.3825E-1,-1.6520281E-1,9.666409E-1,-1.5081201E-1,5.533049E-1,-6.16887E-1,1.0240471E0,3.4266353E-1,-3.58219E-1,1.3992785E-1,6.782066E-2,7.134218E-1,-8.9009863E-1,-5.330392E-1,1.241653E0,9.192748E-1,7.477964E-1,-1.4119242E-1,-9.0934135E-2,-8.455665E-1,3.2351863E-1,-2.584809E-1,-1.2692104E-1,3.490574E-1,9.7346735E-1,6.417881E-1,-4.9992338E-1,-9.961179E-1,-2.8913772E-1,-9.2580074E-1,1.5060697E-1,1.11659974E-1,1.1645554E-1,8.0554835E-2,1.2526265E-1,2.318642E-2,1.6976176E-3,-8.9014284E-2,3.23956E-2,-4.0694147E-2,-5.9082445E-2,-1.3352509E-1,4.915852E-2,-4.2636752E-2,-1.6609235E-2,-1.637537E-1,-6.2833847E-3,-1.4282006E-1,5.7910297E-2,3.1097143E-4,9.171031E-2,1.3771816E-1,1.0018097E-1,4.1871823E-2,-9.519936E-2,-1.3841562E-2,-8.863173E-2,-1.2357229E-1,1.1401729E-2,-6.0702924E-2,-1.1243095E-1,-6.620237E-2],"categories":[0,0,1,0,1,1,1,0,0,0,1,2,3,0,0,0,1,0,1,2,3,0,0,1,2,3,4,1,2,3,4,1,2,3,0,1,2,3,4,1,3,4,3,4,4,2,1,2,4,0,1,2,3,4,1,0,1,3,4,1],"categories_nodes":[0,1,2,3,4,5,6,7,8,9,10,11,12,13,14,15,16,17,18,19,20,21,22,23,24,25,26,27,28,29,30],"categories_segments":[0,1,3,5,6,7,8,9,13,14,15,16,17,21,22,23,27,31,34,35,39,42,44,45,46,49,50,54,55,56,59],"categories_sizes":[1,2,2,1,1,1,1,4,1,1,1,1,4,1,1,4,4,3,1,4,3,2,1,1,3,1,4,1,1,3,1],"default_left":[1,1,1,1,1,1,1,1,1,1,1,1,1,1,1,1,1,1,1,1,1,1,1,1,1,1,1,1,1,1,1,0,0,0,0,0,0,0,0,0,0,0,0,0,0,0,0,0,0,0,0,0,0,0,0,0,0,0,0,0,0,0,0],"id":3,"left_children":[1,3,5,7,9,11,13,15,17,19,21,23,25,27,29,31,33,35,37,39,41,43,45,47,49,51,53,55,57,59,61,-1,-1,-1,-1,-1,-1,-1,-1,-1,-1,-1,-1,-1,-1,-1,-1,-1,-1,-1,-1,-1,-1,-1,-1,-1,-1,-1,-1,-1,-1,-1,-1],"loss_changes":[2.8611044E2,2.2126038E2,8.2418616E2,1.6070007E1,1.7372633E1,7.592862E1,3.5213196E1,8.79071E0,7.966165E0,2.1592701E1,8.730913E0,1.3422221E1,1.3123779E1,1.4565308E1,1.1401425E2,3.696045E0,7.5983887E0,4.7540007E0,2.2641761E0,1.3188945E1,6.4955254E0,8.965927E0,4.247237E0,1.1430245E1,7.013937E0,4.262802E0,4.3925888E1,1.1652098E1,7.1263123E0,8.647589E1,1.973172E1,0E0,0E0,0E0,0E0,0E0,0E0,0E0,0E0,0E0,0E0,0E0,0E0,0E0,0E0,0E0,0E0,0E0,0E0,0E0,0E0,0E0,0E0,0E0,0E0,0E0,0E0,0E0,0E0,0E0,0E0,0E0,0E0],"parents":[2147483647,0,0,1,1,2,2,3,3,4,4,5,5,6,6,7,7,8,8,9,9,10,10,11,11,12,12,13,13,14,14,15,15,16,16,17,17,18,18,19,19,20,20,21,21,22,22,23,23,24,24,25,25,26,26,27,27,28,28,29,29,30,30],"right_children":[2,4,6,8,10,12,14,16,18,20,22,24,26,28,30,32,34,36,38,40,42,44,46,48,50,52,54,56,58,60,62,-1,-1,-1,-1,-1,-1,-1,-1,-1,-1,-1,-1,-1,-1,-1,-1,-1,-1,-1,-1,-1,-1,-1,-1,-1,-1,-1,-1,-1,-1,-1,-1],"split_conditions":[NaN,NaN,NaN,NaN,NaN,NaN,NaN,NaN,NaN,NaN,NaN,NaN,NaN,NaN,NaN,NaN,NaN,NaN,NaN,NaN,NaN,NaN,NaN,NaN,NaN,NaN,NaN,NaN,NaN,NaN,NaN,1.5060697E-1,1.11659974E-1,1.1645554E-1,8.0554835E-2,1.2526265E-1,2.318642E-2,1.6976176E-3,-8.9014284E-2,3.23956E-2,-4.0694147E-2,-5.9082445E-2,-1.3352509E-1,4.915852E-2,-4.2636752E-2,-1.6609235E-2,-1.637537E-1,-6.2833847E-3,-1.4282006E-1,5.7910297E-2,3.1097143E-4,9.171031E-2,1.3771816E-1,1.0018097E-1,4.1871823E-2,-9.519936E-2,-1.3841562E-2,-8.863173E-2,-1.2357229E-1,1.1401729E-2,-6.0702924E-2,-1.1243095E-1,-6.620237E-2],"split_indices":[9,18,18,21,27,26,26,18,11,18,18,27,18,11,18,19,19,19,3,19,19,19,19,18,19,3,19,27,18,19,27,0,0,0,0,0,0,0,0,0,0,0,0,0,0,0,0,0,0,0,0,0,0,0,0,0,0,0,0,0,0,0,0],"split_type":[1,1,1,1,1,1,1,1,1,1,1,1,1,1,1,1,1,1,1,1,1,1,1,1,1,1,1,1,1,1,1,0,0,0,0,0,0,0,0,0,0,0,0,0,0,0,0,0,0,0,0,0,0,0,0,0,0,0,0,0,0,0,0],"sum_hessian":[3.28767E3,7.4847644E2,2.5391934E3,4.6177762E2,2.8669882E2,9.798293E2,1.5593641E3,4.223299E2,3.944773E1,1.6793135E2,1.1876749E2,2.4354263E2,7.362867E2,3.6497537E2,1.1943887E3,1.3576422E2,2.8656564E2,2.1774313E1,1.7673418E1,1.089774E2,5.8953945E1,8.185426E1,3.6913227E1,1.4329752E2,1.00245125E2,1.5767413E2,5.7861255E2,7.879076E1,2.8618463E2,7.3747406E2,4.5691464E2,6.029654E1,7.546768E1,1.20050865E2,1.665148E2,1.125039E1,1.0523924E1,1.4241845E1,3.4315734E0,4.6107574E1,6.2869823E1,3.6632854E1,2.232109E1,6.846679E1,1.3387474E1,3.470157E1,2.2116604E0,1.3640231E2,6.8951907E0,6.212381E1,3.8121315E1,1.2556732E2,3.2106815E1,2.4716354E2,3.3144897E2,3.6526684E1,4.2264072E1,1.6362282E2,1.2256182E2,3.1239566E2,4.250784E2,2.9790054E2,1.5901408E2],"tree_param":{"num_deleted":"0","num_feature":"32","num_nodes":"63","size_leaf_vector":"1"}},{"base_weights":[5.9676557E-3,7.197511E-1,-4.516074E-1,9.71266E-1,2.984909E-1,2.290874E-1,-7.4779993E-1,1.1963807E0,7.3625785E-1,9.1594845E-1,-2.2263683E-2,7.7584845E-1,-1.1223949E-1,-5.265778E-2,-9.3288654E-1,1.2248223E0,9.859623E-1,8.76517E-1,-1.05838306E-1,9.860319E-1,3.7278655E-1,6.598219E-1,-7.9732284E-2,8.5902196E-1,4.0529314E-2,7.6425266E-1,-2.414435E-1,-3.776672E-1,3.2743192E-1,-3.52234E-1,-9.8266727E-1,1.4785917E-1,1.2359601E-1,1.15982056E-1,-0E0,1.4770268E-1,7.9538845E-2,-5.7009622E-2,1.0781682E-2,6.990088E-2,1.2941587E-1,4.813823E-3,6.106589E-2,2.6289509E-3,1.2116535E-1,-3.5205692E-2,3.0205473E-2,9.2986465E-2,1.3415211E-2,-3.382314E-2,7.686572E-2,9.466603E-2,-7.323119E-2,-4.084031E-2,7.128946E-3,-1.805644E-2,-1.0259448E-1,4.605794E-2,-2.481084E-2,-1.35013545E-2,-9.400772E-2,-9.3031645E-2,-1.300335E-1],"categories":[0,1,2,3,0,1,0,1,2,0,0,0,0,2,2,2,0,0,1,4,0,0,0,0,2,0,0,1,1,0,1,0,1,1,2,0,1,0,1,0,1,0,1],"categories_nodes":[0,1,2,3,4,5,6,7,8,9,10,11,12,13,14,15,16,17,18,19,20,21,22,23,24,25,26,27,28,29,30],"categories_segments":[0,4,6,9,10,11,12,13,14,15,16,17,20,21,22,23,24,25,26,27,28,29,30,31,32,33,34,35,37,39,41],"categories_sizes":[4,2,3,1,1,1,1,1,1,1,1,3,1,1,1,1,1,1,1,1,1,1,1,1,1,1,1,2,2,2,2],"default_left":[1,1,1,1,1,1,1,1,1,1,1,1,1,1,1,1,1,1,1,1,1,1,1,1,1,1,1,1,1,1,1,0,0,0,0,0,0,0,0,0,0,0,0,0,0,0,0,0,0,0,0,0,0,0,0,0,0,0,0,0,0,0,0],"id":4,"left_children":[1,3,5,7,9,11,13,15,17,19,21,23,25,27,29,31,33,35,37,39,41,43,45,47,49,51,53,55,57,59,61,-1,-1,-1,-1,-1,-1,-1,-1,-1,-1,-1,-1,-1,-1,-1,-1,-1,-1,-1,-1,-1,-1,-1,-1,-1,-1,-1,-1,-1,-1,-1,-1],"loss_changes":[1.0571416E3,1.3354523E2,3.9775815E2,4.11297E1,9.404257E1,1.117611E2,1.7651752E2,1.5462036E0,4.610292E1,5.697525E0,1.2034076E1,1.3787598E1,4.1512524E1,3.5797516E1,3.089746E1,1.5743408E0,6.1503296E0,1.9532822E1,5.2512116E0,1.0832245E1,1.1439726E0,7.2273836E0,2.7499805E1,4.73172E0,6.255576E0,1.0120371E1,1.5082632E1,1.904125E1,8.713932E0,1.0246242E1,2.2936035E1,0E0,0E0,0E0,0E0,0E0,0E0,0E0,0E0,0E0,0E0,0E0,0E0,0E0,0E0,0E0,0E0,0E0,0E0,0E0,0E0,0E0,0E0,0E0,0E0,0E0,0E0,0E0,0E0,0E0,0E0,0E0,0E0],"parents":[2147483647,0,0,1,1,2,2,3,3,4,4,5,5,6,6,7,7,8,8,9,9,10,10,11,11,12,12,13,13,14,14,15,15,16,16,17,17,18,18,19,19,20,20,21,21,22,22,23,23,24,24,25,25,26,26,27,27,28,28,29,29,30,30],"right_children":[2,4,6,8,10,12,14,16,18,20,22,24,26,28,30,32,34,36,38,40,42,44,46,48,50,52,54,56,58,60,62,-1,-1,-1,-1,-1,-1,-1,-1,-1,-1,-1,-1,-1,-1,-1,-1,-1,-1,-1,-1,-1,-1,-1,-1,-1,-1,-1,-1,-1,-1,-1,-1],"split_conditions":[NaN,NaN,NaN,NaN,NaN,NaN,NaN,NaN,NaN,NaN,NaN,NaN,NaN,NaN,NaN,NaN,NaN,NaN,NaN,NaN,NaN,NaN,NaN,NaN,NaN,NaN,NaN,NaN,NaN,NaN,NaN,1.4785917E-1,1.2359601E-1,1.15982056E-1,-0E0,1.4770268E-1,7.9538845E-2,-5.7009622E-2,1.0781682E-2,6.990088E-2,1.2941587E-1,4.813823E-3,6.106589E-2,2.6289509E-3,1.2116535E-1,-3.5205692E-2,3.0205473E-2,9.2986465E-2,1.3415211E-2,-3.382314E-2,7.686572E-2,9.466603E-2,-7.323119E-2,-4.084031E-2,7.128946E-3,-1.805644E-2,-1.0259448E-1,4.605794E-2,-2.481084E-2,-1.35013545E-2,-9.400772E-2,-9.3031645E-2,-1.300335E-1],"split_indices":[17,18,18,10,10,10,10,24,24,24,13,17,13,9,13,13,27,13,23,27,27,25,27,1,27,17,1,17,17,17,17,0,0,0,0,0,0,0,0,0,0,0,0,0,0,0,0,0,0,0,0,0,0,0,0,0,0,0,0,0,0,0,0],"split_type":[1,1,1,1,1,1,1,1,1,1,1,1,1,1,1,1,1,1,1,1,1,1,1,1,1,1,1,1,1,1,1,0,0,0,0,0,0,0,0,0,0,0,0,0,0,0,0,0,0,0,0,0,0,0,0,0,0,0,0,0,0,0,0],"sum_hessian":[3.2361592E3,1.2643917E3,1.9717675E3,7.9111914E2,4.7327264E2,5.975336E2,1.3742338E3,4.030766E2,3.8804254E2,1.6203648E2,3.1123615E2,2.2993073E2,3.676029E2,2.8935422E2,1.0848795E3,3.5314465E2,4.993195E1,3.329486E2,5.5093952E1,1.4290445E2,1.9132038E1,2.364361E1,2.8759256E2,2.0616432E2,2.3766417E1,4.6823555E1,3.2077936E2,1.5641884E2,1.329354E2,8.625264E1,9.986269E2,5.5898663E1,2.9724597E2,4.4085003E1,5.846945E0,5.6705578E1,2.76243E2,1.8120314E1,3.697364E1,6.490051E1,7.800394E1,8.207884E0,1.0924154E1,1.080048E1,1.2843129E1,1.6982265E2,1.177699E2,1.9665208E2,9.512231E0,1.5358836E1,8.40758E0,4.286968E1,3.9538798E0,2.1650862E2,1.0427073E2,1.175623E2,3.8856537E1,1.1100342E2,2.1931973E1,6.194003E1,2.431261E1,7.481201E2,2.5050674E2],"tree_param":{"num_deleted":"0","num_feature":"32","num_nodes":"63","size_leaf_vector":"1"}},{"base_weights":[-1.6795637E-3,6.3780373E-1,-4.1683373E-1,6.758823E-1,-3.6783237E-2,4.7899313E-2,-5.239577E-1,5.204478E-1,8.872309E-1,3.0150408E-1,-2.5167054E-1,1.5769039E-1,-9.197867E-1,-3.5263652E-1,-6.8184745E-1,9.1691446E-1,-3.1552933E-2,9.8278576E-1,2.4441414E-1,6.812132E-1,-2.1296756E-1,4.9229816E-1,-5.3945446E-1,4.9733377E-1,-7.20489E-2,-3.6312246E-1,-1.0426954E0,2.7022994E-1,-4.9657807E-1,4.3943487E-3,-8.330293E-1,1.0265322E-1,7.143897E-2,2.1835824E-2,-4.253177E-2,1.2743926E-1,9.164156E-2,5.083049E-2,-1.24810925E-2,1.3461652E-1,9.825868E-3,2.4809126E-2,-7.21435E-2,9.288305E-2,-8.266407E-2,-1.5205459E-3,-9.2172846E-2,7.642839E-2,2.2038244E-2,-2.0513537E-3,-7.250979E-2,-7.496971E-3,-1.2970641E-1,-5.6170195E-2,-1.3185164E-1,5.3358216E-2,-2.8231785E-2,-2.2331772E-2,-6.150976E-2,9.234392E-3,-9.8915E-2,-4.412716E-2,-9.105359E-2],"categories":[0,1,2,3,2,0,2,0,4,0,1,0,1,0,1,2,0,1,2,0,0,1,2,0,1,3,4,0,1,2,3,0,1,2,3,3,0,0,1,2,3,0,2,3,1,2,3,4,1,3,2,3,1,2,3,5,6,0,1,2,5,9,4,0,0,3,4,5,8,9,2,3,4,0,1,2,0,0,1,2,3],"categories_nodes":[0,1,2,3,4,5,6,7,8,9,10,11,12,13,14,15,16,17,18,19,20,21,22,23,24,25,26,27,28,29,30],"categories_segments":[0,4,5,6,7,9,11,13,16,17,19,20,23,27,31,35,36,37,41,44,48,50,52,57,62,63,64,70,73,76,77],"categories_sizes":[4,1,1,1,2,2,2,3,1,2,1,3,4,4,4,1,1,4,3,4,2,2,5,5,1,1,6,3,3,1,4],"default_left":[1,1,1,1,1,1,1,1,1,1,1,1,1,1,1,1,1,1,1,1,1,1,1,1,1,1,1,1,1,1,1,0,0,0,0,0,0,0,0,0,0,0,0,0,0,0,0,0,0,0,0,0,0,0,0,0,0,0,0,0,0,0,0],"id":5,"left_children":[1,3,5,7,9,11,13,15,17,19,21,23,25,27,29,31,33,35,37,39,41,43,45,47,49,51,53,55,57,59,61,-1,-1,-1,-1,-1,-1,-1,-1,-1,-1,-1,-1,-1,-1,-1,-1,-1,-1,-1,-1,-1,-1,-1,-1,-1,-1,-1,-1,-1,-1,-1,-1],"loss_changes":[8.5116345E2,3.2615784E1,9.695474E1,3.8747437E1,4.875999E0,3.8441963E1,4.2402954E1,1.5122624E2,3.0621765E1,5.1652117E0,8.9817095E0,2.5667465E1,2.0258179E0,6.817468E1,8.548892E1,5.7433777E0,2.6253744E1,1.0081848E1,5.9786806E0,4.9685755E0,2.4662247E0,5.9952974E0,5.236951E0,8.638779E0,6.1392627E0,1.4644644E0,2.6636581E0,1.8726444E1,1.6088837E1,1.1648627E1,1.0865631E1,0E0,0E0,0E0,0E0,0E0,0E0,0E0,0E0,0E0,0E0,0E0,0E0,0E0,0E0,0E0,0E0,0E0,0E0,0E0,0E0,0E0,0E0,0E0,0E0,0E0,0E0,0E0,0E0,0E0,0E0,0E0,0E0],"parents":[2147483647,0,0,1,1,2,2,3,3,4,4,5,5,6,6,7,7,8,8,9,9,10,10,11,11,12,12,13,13,14,14,15,15,16,16,17,17,18,18,19,19,20,20,21,21,22,22,23,23,24,24,25,25,26,26,27,27,28,28,29,29,30,30],"right_children":[2,4,6,8,10,12,14,16,18,20,22,24,26,28,30,32,34,36,38,40,42,44,46,48,50,52,54,56,58,60,62,-1,-1,-1,-1,-1,-1,-1,-1,-1,-1,-1,-1,-1,-1,-1,-1,-1,-1,-1,-1,-1,-1,-1,-1,-1,-1,-1,-1,-1,-1,-1,-1],"split_conditions":[NaN,NaN,NaN,NaN,NaN,NaN,NaN,NaN,NaN,NaN,NaN,NaN,NaN,NaN,NaN,NaN,NaN,NaN,NaN,NaN,NaN,NaN,NaN,NaN,NaN,NaN,NaN,NaN,NaN,NaN,NaN,1.0265322E-1,7.143897E-2,2.1835824E-2,-4.253177E-2,1.2743926E-1,9.164156E-2,5.083049E-2,-1.24810925E-2,1.3461652E-1,9.825868E-3,2.4809126E-2,-7.21435E-2,9.288305E-2,-8.266407E-2,-1.5205459E-3,-9.2172846E-2,7.642839E-2,2.2038244E-2,-2.0513537E-3,-7.250979E-2,-7.496971E-3,-1.2970641E-1,-5.6170195E-2,-1.3185164E-1,5.3358216E-2,-2.8231785E-2,-2.2331772E-2,-6.150976E-2,9.234392E-3,-9.8915E-2,-4.412716E-2,-9.105359E-2],"split_indices":[17,27,9,1,14,14,0,20,20,20,9,20,20,20,20,0,20,20,14,19,19,19,28,28,19,0,28,19,20,14,14,0,0,0,0,0,0,0,0,0,0,0,0,0,0,0,0,0,0,0,0,0,0,0,0,0,0,0,0,0,0,0,0],"split_type":[1,1,1,1,1,1,1,1,1,1,1,1,1,1,1,1,1,1,1,1,1,1,1,1,1,1,1,1,1,1,1,0,0,0,0,0,0,0,0,0,0,0,0,0,0,0,0,0,0,0,0,0,0,0,0,0,0,0,0,0,0,0,0],"sum_hessian":[3.2060366E3,1.261719E3,1.9443176E3,1.1947384E3,6.698058E1,3.6369595E2,1.5806217E3,6.895803E2,5.051581E2,2.5435688E1,4.1544895E1,3.270374E2,3.6658527E1,7.592417E2,8.2137994E2,4.0159915E2,2.8798114E2,4.392951E2,6.586301E1,1.4952996E1,1.0482693E1,1.125783E1,3.0287064E1,1.3242921E2,1.946082E2,7.1937957E0,2.946473E1,1.4209238E2,6.1714935E2,1.4794186E2,6.734381E2,3.0834225E2,9.32569E1,1.7512134E2,1.128598E2,1.3034187E2,3.0895322E2,3.994982E1,2.5913187E1,6.978249E0,7.9747467E0,5.1077776E0,5.3749146E0,8.809089E0,2.4487402E0,1.2438677E1,1.7848387E1,7.1758606E1,6.0670612E1,1.8014566E2,1.446254E1,5.795061E0,1.3987347E0,9.630258E0,1.9834473E1,9.859199E1,4.350038E1,1.5502806E2,4.621213E2,1.3635994E2,1.1581926E1,6.2224968E1,6.1121313E2],"tree_param":{"num_deleted":"0","num_feature":"32","num_nodes":"63","size_leaf_vector":"1"}},{"base_weights":[9.504517E-3,4.100931E-1,-3.136481E-1,6.32134E-1,1.693217E-1,1.9335827E-1,-4.5613933E-1,8.4640193E-1,4.7270474E-1,3.8537106E-1,-3.4030616E-1,5.063074E-1,-1.7881836E-1,3.6435986E-1,-5.5917245E-1,1.0127283E0,7.742332E-1,6.696091E-1,1.4910725E-1,1.0392576E0,2.6302445E-1,8.872681E-3,-4.6036988E-1,6.470575E-1,-8.941393E-2,-6.416535E-2,-5.1949066E-1,1.0068418E0,-3.7855897E-2,-4.125799E-1,-8.386014E-1,1.2226989E-1,8.820674E-2,8.459764E-2,-1.8806351E-2,1.0304499E-1,4.073018E-2,2.2348886E-2,-9.481295E-2,1.1875331E-1,2.512153E-2,5.8419056E-2,5.3878063E-3,9.9082746E-2,-8.056621E-3,4.7603365E-2,-5.8246236E-2,1.01569705E-1,5.2802052E-2,4.69147E-2,-4.2646967E-2,2.0142991E-2,-5.9484005E-2,-7.780773E-2,-7.834015E-3,1.13626E-1,-1.9029409E-2,1.8679082E-2,-3.3026546E-2,-1.7894061E-2,-5.7309613E-2,-6.478076E-2,-9.486801E-2],"categories":[0,1,2,0,1,2,3,0,0,0,0,1,0,0,1,2,0,0,0,0,1,6,8,0,1,2,0,2,1,2,3,4,1,2,3,4,2,4,0,1,2,1,2,3,4,0,0,0,0,0,0,2,0,4,1,3,4,0,3,4],"categories_nodes":[0,1,2,3,4,5,6,7,8,9,10,11,12,13,14,15,16,17,18,19,20,21,22,23,24,25,26,27,28,29,30],"categories_segments":[0,3,7,8,9,10,12,13,16,17,18,19,21,23,26,28,31,32,36,38,41,45,46,47,48,49,50,51,52,54,57],"categories_sizes":[3,4,1,1,1,2,1,3,1,1,1,2,2,3,2,3,1,4,2,3,4,1,1,1,1,1,1,1,2,3,3],"default_left":[1,1,1,1,1,1,1,1,1,1,1,1,1,1,1,1,1,1,1,1,1,1,1,1,1,1,1,1,1,1,1,0,0,0,0,0,0,0,0,0,0,0,0,0,0,0,0,0,0,0,0,0,0,0,0,0,0,0,0,0,0,0,0],"id":6,"left_children":[1,3,5,7,9,11,13,15,17,19,21,23,25,27,29,31,33,35,37,39,41,43,45,47,49,51,53,55,57,59,61,-1,-1,-1,-1,-1,-1,-1,-1,-1,-1,-1,-1,-1,-1,-1,-1,-1,-1,-1,-1,-1,-1,-1,-1,-1,-1,-1,-1,-1,-1,-1,-1],"loss_changes":[4.0971503E2,7.530344E1,1.2661357E2,2.4626556E1,7.479793E1,4.482126E1,1.1570505E2,3.078064E0,2.6645035E1,3.7744873E1,8.601305E0,1.7705685E1,6.648916E0,3.9670433E1,4.934607E1,1.7028503E0,8.16745E0,2.2839851E1,1.0944371E1,5.5438538E0,2.5146235E1,4.4351783E0,1.3738274E1,7.258835E0,6.864273E0,1.7334888E1,4.1183443E0,6.1971893E0,5.722127E0,2.6205902E1,5.961609E0,0E0,0E0,0E0,0E0,0E0,0E0,0E0,0E0,0E0,0E0,0E0,0E0,0E0,0E0,0E0,0E0,0E0,0E0,0E0,0E0,0E0,0E0,0E0,0E0,0E0,0E0,0E0,0E0,0E0,0E0,0E0,0E0],"parents":[2147483647,0,0,1,1,2,2,3,3,4,4,5,5,6,6,7,7,8,8,9,9,10,10,11,11,12,12,13,13,14,14,15,15,16,16,17,17,18,18,19,19,20,20,21,21,22,22,23,23,24,24,25,25,26,26,27,27,28,28,29,29,30,30],"right_children":[2,4,6,8,10,12,14,16,18,20,22,24,26,28,30,32,34,36,38,40,42,44,46,48,50,52,54,56,58,60,62,-1,-1,-1,-1,-1,-1,-1,-1,-1,-1,-1,-1,-1,-1,-1,-1,-1,-1,-1,-1,-1,-1,-1,-1,-1,-1,-1,-1,-1,-1,-1,-1],"split_conditions":[NaN,NaN,NaN,NaN,NaN,NaN,NaN,NaN,NaN,NaN,NaN,NaN,NaN,NaN,NaN,NaN,NaN,NaN,NaN,NaN,NaN,NaN,NaN,NaN,NaN,NaN,NaN,NaN,NaN,NaN,NaN,1.2226989E-1,8.820674E-2,8.459764E-2,-1.8806351E-2,1.0304499E-1,4.073018E-2,2.2348886E-2,-9.481295E-2,1.1875331E-1,2.512153E-2,5.8419056E-2,5.3878063E-3,9.9082746E-2,-8.056621E-3,4.7603365E-2,-5.8246236E-2,1.01569705E-1,5.2802052E-2,4.69147E-2,-4.2646967E-2,2.0142991E-2,-5.9484005E-2,-7.780773E-2,-7.834015E-3,1.13626E-1,-1.9029409E-2,1.8679082E-2,-3.3026546E-2,-1.7894061E-2,-5.7309613E-2,-6.478076E-2,-9.486801E-2],"split_indices":[20,20,9,11,15,15,13,15,15,13,11,22,28,15,15,19,16,19,16,22,19,13,13,13,11,15,29,22,16,19,19,0,0,0,0,0,0,0,0,0,0,0,0,0,0,0,0,0,0,0,0,0,0,0,0,0,0,0,0,0,0,0,0],"split_type":[1,1,1,1,1,1,1,1,1,1,1,1,1,1,1,1,1,1,1,1,1,1,1,1,1,1,1,1,1,1,1,0,0,0,0,0,0,0,0,0,0,0,0,0,0,0,0,0,0,0,0,0,0,0,0,0,0,0,0,0,0,0,0],"sum_hessian":[3.1644834E3,1.4133613E3,1.7511221E3,7.344839E2,6.7887744E2,3.8368427E2,1.3674377E3,3.122445E2,4.222394E2,4.772141E2,2.016633E2,2.088492E2,1.7483507E2,1.5217894E2,1.2152588E3,9.2592125E1,2.1965237E2,2.61812E2,1.6042741E2,7.463939E1,4.0257474E2,5.0974365E1,1.5068893E2,1.6934541E2,3.9503788E1,1.3162521E2,4.320985E1,5.8799366E1,9.3379585E1,7.9806433E2,4.1719446E2,4.5583637E1,4.700849E1,2.1160399E2,8.048394E0,1.2124066E2,1.4057133E2,1.5148242E2,8.944994E0,6.587184E1,8.767543E0,1.6638226E2,2.3619247E2,4.447497E0,4.6526867E1,1.42904625E1,1.3639847E2,4.9773914E1,1.19571495E2,1.4319148E1,2.518464E1,8.6935875E1,4.4689346E1,2.8050192E1,1.5159658E1,5.517876E1,3.6206067E0,5.1929707E1,4.1449875E1,2.9111435E2,5.0695E2,1.0558586E2,3.116086E2],"tree_param":{"num_deleted":"0","num_feature":"32","num_nodes":"63","size_leaf_vector":"1"}},{"base_weights":[3.0437359E-5,5.828457E-1,-3.744886E-1,4.2077294E-1,6.7997617E-1,-2.4334721E-1,-9.040905E-1,1.4980355E-1,6.1958736E-1,1.087433E0,6.064255E-1,4.7321728E-1,-3.3882305E-1,-7.2707844E-1,-1.048354E0,2.5745308E-1,-3.107774E-1,6.611436E-1,8.882199E-2,1.1507445E-1,2.3827846E-3,4.404744E-1,7.4289906E-1,3.524369E-2,5.5059755E-1,-4.704401E-1,-1.1677708E-1,-4.2885542E-1,-8.1605476E-1,-9.8580354E-1,-1.2461548E0,8.881302E-2,1.9573431E-2,1.7688075E-2,-3.8489725E-2,7.130557E-2,1.5598382E-3,2.7642604E-2,-4.5081258E-2,4.0706247E-2,7.047081E-2,8.2777865E-2,2.983406E-2,1.7560016E-2,-1.3491644E-1,9.2496306E-2,5.2505806E-2,-6.4905E-2,-3.668125E-2,-8.35801E-3,-5.263272E-2,7.517457E-2,-5.5600308E-2,-7.016914E-2,-9.4893605E-2,-4.592836E-2,-1.0468169E-1,-6.440006E-2,-1.3629596E-1],"categories":[0,1,2,3,0,0,1,0,0,0,0,1,2,2,3,2,4,2,1,0,1,1,3,4,1,3,4,0,1,3,4,3,0,0,2,3,1,0,0,2,0,0,0,1,2,0],"categories_nodes":[0,1,2,3,4,5,6,7,8,9,10,11,12,13,14,15,16,17,18,21,22,23,24,25,26,27,28,29,30],"categories_segments":[0,4,5,7,8,9,10,13,15,17,18,19,20,21,22,24,27,31,32,33,34,36,37,38,39,40,41,42,45],"categories_sizes":[4,1,2,1,1,1,3,2,2,1,1,1,1,1,2,3,4,1,1,1,2,1,1,1,1,1,1,3,1],"default_left":[1,1,1,1,1,1,1,1,1,1,1,1,1,1,1,1,1,1,1,0,0,1,1,1,1,1,1,1,1,1,1,0,0,0,0,0,0,0,0,0,0,0,0,0,0,0,0,0,0,0,0,0,0,0,0,0,0,0,0],"id":7,"left_children":[1,3,5,7,9,11,13,15,17,19,21,23,25,27,29,31,33,35,37,-1,-1,39,41,43,45,47,49,51,53,55,57,-1,-1,-1,-1,-1,-1,-1,-1,-1,-1,-1,-1,-1,-1,-1,-1,-1,-1,-1,-1,-1,-1,-1,-1,-1,-1,-1,-1],"loss_changes":[6.8271985E2,1.8881622E1,1.318259E2,2.453946E1,2.2265625E1,1.0441792E2,8.970123E0,9.694329E0,5.5978317E0,1.7761688E0,1.4259506E1,5.887398E0,3.9190445E1,4.0957947E0,1.6792755E0,6.2425804E0,1.1035166E0,3.4806213E0,1.8012837E0,0E0,0E0,3.0763779E0,8.00061E0,4.590673E0,1.8829765E0,1.4925232E1,6.9467754E0,4.873403E0,1.1826782E0,1.1396332E0,1.1523743E0,0E0,0E0,0E0,0E0,0E0,0E0,0E0,0E0,0E0,0E0,0E0,0E0,0E0,0E0,0E0,0E0,0E0,0E0,0E0,0E0,0E0,0E0,0E0,0E0,0E0,0E0,0E0,0E0],"parents":[2147483647,0,0,1,1,2,2,3,3,4,4,5,5,6,6,7,7,8,8,9,9,10,10,11,11,12,12,13,13,14,14,15,15,16,16,17,17,18,18,21,21,22,22,23,23,24,24,25,25,26,26,27,27,28,28,29,29,30,30],"right_children":[2,4,6,8,10,12,14,16,18,20,22,24,26,28,30,32,34,36,38,-1,-1,40,42,44,46,48,50,52,54,56,58,-1,-1,-1,-1,-1,-1,-1,-1,-1,-1,-1,-1,-1,-1,-1,-1,-1,-1,-1,-1,-1,-1,-1,-1,-1,-1,-1,-1],"split_conditions":[NaN,NaN,NaN,NaN,NaN,NaN,NaN,NaN,NaN,NaN,NaN,NaN,NaN,NaN,NaN,NaN,NaN,NaN,NaN,1.1507445E-1,2.3827846E-3,NaN,NaN,NaN,NaN,NaN,NaN,NaN,NaN,NaN,NaN,8.881302E-2,1.9573431E-2,1.7688075E-2,-3.8489725E-2,7.130557E-2,1.5598382E-3,2.7642604E-2,-4.5081258E-2,4.0706247E-2,7.047081E-2,8.2777865E-2,2.983406E-2,1.7560016E-2,-1.3491644E-1,9.2496306E-2,5.2505806E-2,-6.4905E-2,-3.668125E-2,-8.35801E-3,-5.263272E-2,7.517457E-2,-5.5600308E-2,-7.016914E-2,-9.4893605E-2,-4.592836E-2,-1.0468169E-1,-6.440006E-2,-1.3629596E-1],"split_indices":[17,23,17,25,13,13,14,30,16,27,27,27,27,17,16,14,14,30,3,0,0,3,30,14,4,25,17,4,23,30,2,0,0,0,0,0,0,0,0,0,0,0,0,0,0,0,0,0,0,0,0,0,0,0,0,0,0,0,0],"split_type":[1,1,1,1,1,1,1,1,1,1,1,1,1,1,1,1,1,1,1,0,0,1,1,1,1,1,1,1,1,1,1,0,0,0,0,0,0,0,0,0,0,0,0,0,0,0,0,0,0,0,0,0,0,0,0,0,0,0,0],"sum_hessian":[3.127194E3,1.2236814E3,1.9035127E3,4.60043E2,7.636384E2,1.526357E3,3.7715558E2,1.9546341E2,2.645796E2,1.15806046E2,6.478324E2,1.7901015E2,1.3473469E3,1.707284E2,2.0642717E2,1.590326E2,3.6430805E1,2.4479277E2,1.9786808E1,1.13667465E2,2.138584E0,2.936557E2,3.541767E2,2.7512487E1,1.5149767E2,8.449447E2,5.0240225E2,4.0234142E1,1.3049425E2,1.5870705E2,4.772014E1,1.5997896E1,1.430347E2,3.3606822E0,3.307012E1,2.3577692E2,9.015859E0,1.5282333E1,4.5044756E0,2.4398633E2,4.9669357E1,3.174074E2,3.6769268E1,2.533768E1,2.174807E0,1.723531E1,1.3426236E2,3.6753412E2,4.7741058E2,4.6010217E2,4.2300076E1,3.0408568E0,3.7193283E1,5.3967957E1,7.652629E1,6.0500093E0,1.5265703E2,4.9014044E0,4.2818733E1],"tree_param":{"num_deleted":"0","num_feature":"32","num_nodes":"59","size_leaf_vector":"1"}},{"base_weights":[3.0880484E-3,5.273334E-1,-4.1328183E-1,6.7562515E-1,-9.922326E-2,2.1525447E-1,-5.937591E-1,7.249368E-1,-2.1554887E-2,1.5558127E-1,-6.4899236E-1,3.7515083E-1,-3.407971E-2,-3.059188E-1,-6.988575E-1,8.253027E-1,4.4694406E-1,7.0039906E-2,-4.6272802E-1,7.9275656E-1,-4.3736387E-2,-9.897823E-2,-4.2841658E-1,6.71685E-1,-1.3280867E-2,1.9543035E-1,-3.465756E-1,-5.8209457E-2,-6.97681E-1,-5.275458E-1,-1.03596725E-1,1.0164859E-1,7.623339E-2,1.7799914E-2,7.71363E-2,3.0055163E-2,-3.2874223E-2,-8.560503E-2,-6.7148E-3,9.909189E-2,-1.8668558E-2,-1.5517863E-2,1.1587035E-2,-5.0179925E-2,-0E0,7.366072E-2,-3.908841E-2,-6.431205E-4,3.5803437E-2,-2.1588422E-2,-6.89221E-2,4.3323723E-4,-3.7160195E-2,-1.3918021E-1,-6.740248E-2,-7.2429284E-2,-2.7310591E-2],"categories":[0,1,0,0,1,2,3,0,0,1,1,3,0,1,2,1,2,3,1,2,3,2,3,0,0,0,0,0,0,1,2,3,1,2,0,2,1,1,1,2,0,0,0,0,1],"categories_nodes":[0,1,2,3,4,5,6,7,8,9,10,11,12,13,14,15,16,17,18,19,20,22,23,25,26,27,28,29],"categories_segments":[0,2,3,7,8,10,12,15,18,21,23,24,25,26,27,28,32,33,34,35,36,37,38,40,41,42,43,44],"categories_sizes":[2,1,4,1,2,2,3,3,3,2,1,1,1,1,1,4,1,1,1,1,1,1,2,1,1,1,1,1],"default_left":[1,1,1,1,1,1,1,1,1,1,1,1,1,1,1,1,1,1,1,1,1,0,1,1,0,1,1,1,1,1,0,0,0,0,0,0,0,0,0,0,0,0,0,0,0,0,0,0,0,0,0,0,0,0,0,0,0],"id":8,"left_children":[1,3,5,7,9,11,13,15,17,19,21,23,25,27,29,31,33,35,37,39,41,-1,43,45,-1,47,49,51,53,55,-1,-1,-1,-1,-1,-1,-1,-1,-1,-1,-1,-1,-1,-1,-1,-1,-1,-1,-1,-1,-1,-1,-1,-1,-1,-1,-1],"loss_changes":[6.7523706E2,1.27441864E2,1.9566602E2,3.8308777E1,3.6848473E1,1.5426901E1,4.018106E1,2.8431458E1,3.0730507E0,2.2926823E1,5.047867E0,3.519152E1,1.0780628E1,3.463238E1,4.9102936E1,1.0049255E1,2.2043522E1,5.0544953E0,1.5960684E0,6.8813133E0,2.2297132E0,0E0,1.0298071E0,5.638977E0,0E0,2.6675806E0,2.516899E0,4.2203565E0,3.7390747E0,2.7352173E1,0E0,0E0,0E0,0E0,0E0,0E0,0E0,0E0,0E0,0E0,0E0,0E0,0E0,0E0,0E0,0E0,0E0,0E0,0E0,0E0,0E0,0E0,0E0,0E0,0E0,0E0,0E0],"parents":[2147483647,0,0,1,1,2,2,3,3,4,4,5,5,6,6,7,7,8,8,9,9,10,10,11,11,12,12,13,13,14,14,15,15,16,16,17,17,18,18,19,19,20,20,22,22,23,23,25,25,26,26,27,27,28,28,29,29],"right_children":[2,4,6,8,10,12,14,16,18,20,22,24,26,28,30,32,34,36,38,40,42,-1,44,46,-1,48,50,52,54,56,-1,-1,-1,-1,-1,-1,-1,-1,-1,-1,-1,-1,-1,-1,-1,-1,-1,-1,-1,-1,-1,-1,-1,-1,-1,-1,-1],"split_conditions":[NaN,NaN,NaN,NaN,NaN,NaN,NaN,NaN,NaN,NaN,NaN,NaN,NaN,NaN,NaN,NaN,NaN,NaN,NaN,NaN,NaN,-9.897823E-2,NaN,NaN,-1.3280867E-2,NaN,NaN,NaN,NaN,NaN,-1.03596725E-1,1.0164859E-1,7.623339E-2,1.7799914E-2,7.71363E-2,3.0055163E-2,-3.2874223E-2,-8.560503E-2,-6.7148E-3,9.909189E-2,-1.8668558E-2,-1.5517863E-2,1.1587035E-2,-5.0179925E-2,-0E0,7.366072E-2,-3.908841E-2,-6.431205E-4,3.5803437E-2,-2.1588422E-2,-6.89221E-2,4.3323723E-4,-3.7160195E-2,-1.3918021E-1,-6.740248E-2,-7.2429284E-2,-2.7310591E-2],"split_indices":[18,20,20,1,21,21,20,31,31,18,7,18,18,18,18,20,24,24,23,24,24,0,24,31,0,6,5,5,12,24,0,0,0,0,0,0,0,0,0,0,0,0,0,0,0,0,0,0,0,0,0,0,0,0,0,0,0],"split_type":[1,1,1,1,1,1,1,1,1,1,1,1,1,1,1,1,1,1,1,1,1,0,1,1,0,1,1,1,1,1,0,0,0,0,0,0,0,0,0,0,0,0,0,0,0,0,0,0,0,0,0,0,0,0,0,0,0],"sum_hessian":[3.092982E3,1.3694417E3,1.7235403E3,1.107746E3,2.6169562E2,3.841033E2,1.3394369E3,1.0349801E3,7.276586E1,1.7850656E2,8.318905E1,2.3473563E2,1.4936768E2,3.592021E2,9.8023486E2,7.593976E2,2.7558255E2,5.9779095E1,1.2986764E1,4.2797714E1,1.3570885E2,3.4364838E1,4.882421E1,1.4799304E2,8.674258E1,8.557943E1,6.378825E1,2.2065002E2,1.3855205E2,6.215447E2,3.5869022E2,2.891573E2,4.7024026E2,1.4268488E2,1.3289767E2,3.869643E1,2.1082664E1,6.3362136E0,6.650551E0,3.7074078E1,5.723634E0,8.201931E1,5.3689537E1,4.302448E1,5.7997303E0,1.4348117E2,4.511868E0,3.5442875E1,5.0136555E1,4.5083466E1,1.8704784E1,1.8178154E2,3.886849E1,9.451094E0,1.2910095E2,3.7994806E2,2.4159657E2],"tree_param":{"num_deleted":"0","num_feature":"32","num_nodes":"57","size_leaf_vector":"1"}},{"base_weights":[4.5458055E-3,5.080675E-1,-3.1388578E-1,8.773489E-1,2.2653179E-1,3.1657135E-1,-5.4906774E-1,8.0480117E-1,1.0519845E0,3.5703835E-1,-1.4468441E-2,1.4847946E-1,5.543889E-1,-4.3846935E-1,-7.471786E-1,9.3688154E-1,2.4200143E-1,1.2312946E0,9.157648E-1,5.79096E-1,-7.270884E-2,4.3078986E-1,-4.5129058E-1,5.761951E-1,-1.75649E-1,6.635533E-1,-1.0310382E-1,-1.5104245E-1,-5.779834E-1,-3.393045E-1,-8.5088134E-1,1.0444254E-1,8.768271E-2,5.9100613E-2,9.54525E-3,1.4320421E-1,9.548035E-2,1.0666927E-1,2.781211E-2,4.1983686E-2,8.502002E-2,-3.2074492E-2,2.7544726E-2,5.5952694E-2,1.9146107E-2,-6.879674E-2,-1.0736205E-2,3.0085962E-2,8.705014E-2,4.5299693E-3,-5.6074582E-2,9.542139E-2,5.2981734E-2,5.8667764E-2,-2.3832398E-2,-1.1163383E-2,-5.8610007E-2,-3.5975892E-2,-6.847588E-2,1.1316158E-2,-5.2868735E-2,-8.520667E-2,-1.22146994E-1],"categories":[0,1,2,3,0,0,1,0,4,0,0,0,1,0,1,3,0,1,0,1,2,0,1,0,1,4,0,1,2,0,1,2,3,3,4,0,1,2,4,2,3,0,2,2,2,2,2,2,0,0,0,1,2,4,0,1,2,4,0,0],"categories_nodes":[0,1,2,3,4,5,6,7,8,9,10,11,12,13,14,15,16,17,18,19,20,21,22,23,24,25,26,27,28,29,30],"categories_segments":[0,4,5,6,7,9,10,11,13,16,18,21,23,26,29,33,35,39,41,43,44,45,46,47,48,49,50,54,55,58,59],"categories_sizes":[4,1,1,1,2,1,1,2,3,2,3,2,3,3,4,2,4,2,2,1,1,1,1,1,1,1,4,1,3,1,1],"default_left":[1,1,1,1,1,1,1,1,1,1,1,1,1,1,1,1,1,1,1,1,1,1,1,1,1,1,1,1,1,1,1,0,0,0,0,0,0,0,0,0,0,0,0,0,0,0,0,0,0,0,0,0,0,0,0,0,0,0,0,0,0,0,0],"id":9,"left_children":[1,3,5,7,9,11,13,15,17,19,21,23,25,27,29,31,33,35,37,39,41,43,45,47,49,51,53,55,57,59,61,-1,-1,-1,-1,-1,-1,-1,-1,-1,-1,-1,-1,-1,-1,-1,-1,-1,-1,-1,-1,-1,-1,-1,-1,-1,-1,-1,-1,-1,-1,-1,-1],"loss_changes":[4.8796643E2,1.2223096E2,2.7643915E2,5.75354E0,2.1173733E1,2.0000854E1,2.933371E1,2.65047E1,2.7756042E0,4.1708084E1,4.5666313E1,4.138059E1,1.5167625E1,3.4757233E1,2.0111816E1,1.131897E0,3.185341E0,1.9167862E0,5.5677032E0,1.1574036E1,1.1758916E1,2.8060875E0,8.408743E0,9.211201E0,1.35822315E1,6.508438E0,2.3820758E0,4.950518E0,1.0488174E1,7.6081924E0,3.3284302E0,0E0,0E0,0E0,0E0,0E0,0E0,0E0,0E0,0E0,0E0,0E0,0E0,0E0,0E0,0E0,0E0,0E0,0E0,0E0,0E0,0E0,0E0,0E0,0E0,0E0,0E0,0E0,0E0,0E0,0E0,0E0,0E0],"parents":[2147483647,0,0,1,1,2,2,3,3,4,4,5,5,6,6,7,7,8,8,9,9,10,10,11,11,12,12,13,13,14,14,15,15,16,16,17,17,18,18,19,19,20,20,21,21,22,22,23,23,24,24,25,25,26,26,27,27,28,28,29,29,30,30],"right_children":[2,4,6,8,10,12,14,16,18,20,22,24,26,28,30,32,34,36,38,40,42,44,46,48,50,52,54,56,58,60,62,-1,-1,-1,-1,-1,-1,-1,-1,-1,-1,-1,-1,-1,-1,-1,-1,-1,-1,-1,-1,-1,-1,-1,-1,-1,-1,-1,-1,-1,-1,-1,-1],"split_conditions":[NaN,NaN,NaN,NaN,NaN,NaN,NaN,NaN,NaN,NaN,NaN,NaN,NaN,NaN,NaN,NaN,NaN,NaN,NaN,NaN,NaN,NaN,NaN,NaN,NaN,NaN,NaN,NaN,NaN,NaN,NaN,1.0444254E-1,8.768271E-2,5.9100613E-2,9.54525E-3,1.4320421E-1,9.548035E-2,1.0666927E-1,2.781211E-2,4.1983686E-2,8.502002E-2,-3.2074492E-2,2.7544726E-2,5.5952694E-2,1.9146107E-2,-6.879674E-2,-1.0736205E-2,3.0085962E-2,8.705014E-2,4.5299693E-3,-5.6074582E-2,9.542139E-2,5.2981734E-2,5.8667764E-2,-2.3832398E-2,-1.1163383E-2,-5.8610007E-2,-3.5975892E-2,-6.847588E-2,1.1316158E-2,-5.2868735E-2,-8.520667E-2,-1.22146994E-1],"split_indices":[17,10,10,24,15,9,15,20,20,20,20,15,17,20,20,15,15,15,15,1,1,29,1,1,15,11,15,1,15,11,1,0,0,0,0,0,0,0,0,0,0,0,0,0,0,0,0,0,0,0,0,0,0,0,0,0,0,0,0,0,0,0,0],"split_type":[1,1,1,1,1,1,1,1,1,1,1,1,1,1,1,1,1,1,1,1,1,1,1,1,1,1,1,1,1,1,1,0,0,0,0,0,0,0,0,0,0,0,0,0,0,0,0,0,0,0,0,0,0,0,0,0,0,0,0,0,0,0,0],"sum_hessian":[3.0427007E3,1.17911E3,1.8635908E3,5.0945486E2,6.696551E2,5.0593927E2,1.3576515E3,3.6178134E2,1.4767352E2,4.3519907E2,2.3445602E2,2.9733054E2,2.0860873E2,8.725728E2,4.8507874E2,2.9248822E2,6.929312E1,6.2248505E1,8.542501E1,2.873758E2,1.4782326E2,1.1575661E2,1.1869942E2,1.2854417E2,1.6878636E2,1.7930788E2,2.9300858E1,2.8596405E2,5.866087E2,9.906736E1,3.8601138E2,1.7020525E2,1.22282974E2,2.1119514E1,4.817361E1,4.17359E1,2.0512606E1,7.2727684E1,1.2697332E1,1.6588982E2,1.21485985E2,8.762458E1,6.0198685E1,7.991742E1,3.5839184E1,7.351977E1,4.517965E1,6.1708652E1,6.6835526E1,1.04761444E2,6.402492E1,6.7151405E1,1.1215647E2,4.1753645E0,2.5125494E1,2.5926822E2,2.669585E1,1.504232E2,4.3618552E2,2.6558643E1,7.250871E1,3.5153375E2,3.447762E1],"tree_param":{"num_deleted":"0","num_feature":"32","num_nodes":"63","size_leaf_vector":"1"}},{"base_weights":[1.2922325E-3,4.6344388E-1,-3.6576286E-1,7.9430026E-1,2.105892E-1,1.9720238E-1,-5.5869555E-1,8.8872075E-1,5.4860544E-1,3.740616E-1,-3.473141E-1,7.0043606E-1,-4.6292894E-2,-3.8119203E-1,-8.3128595E-1,9.5221025E-1,7.43929E-1,7.2112113E-1,9.051404E-2,4.2350787E-1,-2.3614098E-1,-5.763362E-1,1.5935303E-1,8.887697E-1,3.7897268E-1,5.6581512E-2,-3.757291E-1,-5.1376086E-1,-1.23013526E-1,-7.162784E-1,-8.896311E-1,1.0389573E-1,6.465828E-2,9.611956E-2,6.8483226E-2,1.1113321E-1,6.094294E-2,-1.5849609E-2,3.9834656E-2,5.200589E-2,-1.9826893E-2,-1.29990345E-2,-7.946636E-2,-5.2193806E-2,-1.24647655E-1,-5.9928924E-2,2.4864795E-2,9.821094E-2,-7.783012E-2,8.175971E-2,-0E0,1.6094444E-2,-2.819093E-2,-2.6020948E-2,-9.526292E-2,-4.8811976E-2,-7.146454E-2,5.004109E-3,-3.3874176E-2,-6.0174234E-2,-1.0286675E-1,3.820978E-2,-9.3272135E-2],"categories":[0,1,0,0,0,1,0,0,1,2,3,0,1,5,9,0,3,0,2,1,3,0,3,2,0,1,0,1,0,1,3,0,1,2,3,2,0,1,1,2,0,0,4,0,1,2,3,4,0,0,1,2,0,1,0,1,2,0,1,3,4],"categories_nodes":[0,1,2,3,4,5,6,7,8,9,10,11,12,13,14,15,16,17,18,19,20,21,22,23,24,25,26,27,28,29,30],"categories_segments":[0,2,3,4,6,7,11,12,15,17,18,19,21,23,24,26,28,31,35,36,38,40,41,42,43,45,48,49,52,54,57],"categories_sizes":[2,1,1,2,1,4,1,3,2,1,1,2,2,1,2,2,3,4,1,2,2,1,1,1,2,3,1,3,2,3,4],"default_left":[1,1,1,1,1,1,1,1,1,1,1,1,1,1,1,1,1,1,1,1,1,1,1,1,1,1,1,1,1,1,1,0,0,0,0,0,0,0,0,0,0,0,0,0,0,0,0,0,0,0,0,0,0,0,0,0,0,0,0,0,0,0,0],"id":10,"left_children":[1,3,5,7,9,11,13,15,17,19,21,23,25,27,29,31,33,35,37,39,41,43,45,47,49,51,53,55,57,59,61,-1,-1,-1,-1,-1,-1,-1,-1,-1,-1,-1,-1,-1,-1,-1,-1,-1,-1,-1,-1,-1,-1,-1,-1,-1,-1,-1,-1,-1,-1,-1,-1],"loss_changes":[5.088758E2,1.10778046E2,1.8167278E2,1.2815033E1,6.8755264E1,5.2446434E1,5.983081E1,3.1740112E0,1.2451714E1,1.7672813E1,1.9917969E1,7.9984283E0,9.829674E0,2.5639282E1,2.6963196E0,3.6842651E0,1.4048309E0,4.8680496E0,3.2442944E0,2.5218979E1,2.2532191E0,4.8856964E0,2.991031E0,7.874504E0,7.9493318E0,6.9596133E0,4.289134E0,3.4708405E0,8.982241E0,5.72937E0,2.5480194E0,0E0,0E0,0E0,0E0,0E0,0E0,0E0,0E0,0E0,0E0,0E0,0E0,0E0,0E0,0E0,0E0,0E0,0E0,0E0,0E0,0E0,0E0,0E0,0E0,0E0,0E0,0E0,0E0,0E0,0E0,0E0,0E0],"parents":[2147483647,0,0,1,1,2,2,3,3,4,4,5,5,6,6,7,7,8,8,9,9,10,10,11,11,12,12,13,13,14,14,15,15,16,16,17,17,18,18,19,19,20,20,21,21,22,22,23,23,24,24,25,25,26,26,27,27,28,28,29,29,30,30],"right_children":[2,4,6,8,10,12,14,16,18,20,22,24,26,28,30,32,34,36,38,40,42,44,46,48,50,52,54,56,58,60,62,-1,-1,-1,-1,-1,-1,-1,-1,-1,-1,-1,-1,-1,-1,-1,-1,-1,-1,-1,-1,-1,-1,-1,-1,-1,-1,-1,-1,-1,-1,-1,-1],"split_conditions":[NaN,NaN,NaN,NaN,NaN,NaN,NaN,NaN,NaN,NaN,NaN,NaN,NaN,NaN,NaN,NaN,NaN,NaN,NaN,NaN,NaN,NaN,NaN,NaN,NaN,NaN,NaN,NaN,NaN,NaN,NaN,1.0389573E-1,6.465828E-2,9.611956E-2,6.8483226E-2,1.1113321E-1,6.094294E-2,-1.5849609E-2,3.9834656E-2,5.200589E-2,-1.9826893E-2,-1.29990345E-2,-7.946636E-2,-5.2193806E-2,-1.24647655E-1,-5.9928924E-2,2.4864795E-2,9.821094E-2,-7.783012E-2,8.175971E-2,-0E0,1.6094444E-2,-2.819093E-2,-2.6020948E-2,-9.526292E-2,-4.8811976E-2,-7.146454E-2,5.004109E-3,-3.3874176E-2,-6.0174234E-2,-1.0286675E-1,3.820978E-2,-9.3272135E-2],"split_indices":[18,10,10,20,20,20,18,28,0,1,1,21,0,1,0,22,18,18,1,22,22,1,2,16,0,16,22,22,0,22,16,0,0,0,0,0,0,0,0,0,0,0,0,0,0,0,0,0,0,0,0,0,0,0,0,0,0,0,0,0,0,0,0],"split_type":[1,1,1,1,1,1,1,1,1,1,1,1,1,1,1,1,1,1,1,1,1,1,1,1,1,1,1,1,1,1,1,0,0,0,0,0,0,0,0,0,0,0,0,0,0,0,0,0,0,0,0,0,0,0,0,0,0,0,0,0,0,0,0],"sum_hessian":[2.9993462E3,1.328041E3,1.671305E3,5.746165E2,7.5342456E2,4.2616718E2,1.2451378E3,4.138996E2,1.6071692E2,5.8315735E2,1.7026715E2,1.3928847E2,2.8687872E2,7.5500006E2,4.901378E2,2.8566077E2,1.2823883E2,1.1619528E2,4.4521637E1,5.3995715E2,4.3200214E1,1.17669426E2,5.259773E1,8.705591E1,5.2232555E1,2.1799019E2,6.888851E1,4.9795975E2,2.5704034E2,1.674256E2,3.227122E2,2.5032315E2,3.533761E1,4.017329E1,8.8065544E1,3.1884789E1,8.431049E1,2.3770315E1,2.0751322E1,4.811294E2,5.8827763E1,3.630043E1,6.8997865E0,1.056203E2,1.20491295E1,4.654398E0,4.794333E1,8.451783E1,2.5380812E0,2.4966381E1,2.7266176E1,1.6856998E2,4.9420223E1,5.648168E1,1.2406833E1,3.9637167E2,1.0158806E2,1.3846764E2,1.1857271E2,1.11863815E2,5.5561783E1,1.1829841E0,3.215292E2],"tree_param":{"num_deleted":"0","num_feature":"32","num_nodes":"63","size_leaf_vector":"1"}},{"base_weights":[-5.494301E-3,2.6690698E-1,-1.1389994E-1,5.134932E-1,2.0449013E-3,3.918582E-1,-3.687531E-1,5.492405E-1,-1.3058959E-1,3.7998613E-2,-6.1315495E-1,6.143044E-1,2.9051992E-1,-9.470785E-2,-4.5069543E-1,5.801157E-1,1.7719215E-1,1.3428771E-1,-9.812445E-2,1.4681153E-1,-4.8053512E-1,-2.1364558E-1,-1.274099E-1,9.3320924E-1,5.4603094E-1,3.992755E-1,-2.3082922E-1,1.1930547E-1,-2.648856E-1,-3.3724666E-1,-5.565447E-1,3.822542E-2,8.4719814E-2,4.5297187E-2,-6.556315E-2,1.4076622E-1,-4.282721E-3,5.784208E-2,-1.3353029E-2,2.6130866E-2,-6.710393E-2,-4.727847E-3,-1.06343254E-1,1.369219E-1,4.935646E-2,7.16902E-2,4.8176806E-2,8.902677E-2,1.9082423E-2,1.1016393E-2,-4.150344E-2,5.530396E-2,-1.6094787E-2,1.598782E-2,-5.3291786E-2,2.1964358E-2,-5.0297283E-2,-7.2750044E-3,-7.079501E-2],"categories":[0,1,2,0,1,2,3,0,1,2,3,3,0,1,0,0,0,1,2,1,0,1,4,5,7,9,0,1,3,4,0,1,2,0,1,2,5,6,7,2,5,6,8,9,2,0,2,3,5,0,0,0,1,2,4,5,6,7,9,0,4,6,9,1,2,4,5,6,9,0,0,0,0,0,0],"categories_nodes":[0,1,2,3,4,5,6,7,8,9,10,11,12,13,14,15,16,17,19,20,21,23,24,25,26,27,28,29,30],"categories_segments":[0,3,7,11,12,14,15,16,19,20,22,26,30,33,39,44,45,49,50,51,59,60,63,69,70,71,72,73,74],"categories_sizes":[3,4,4,1,2,1,1,3,1,2,4,4,3,6,5,1,4,1,1,8,1,3,6,1,1,1,1,1,1],"default_left":[1,1,1,1,1,1,1,1,1,1,1,1,1,1,1,1,1,1,0,1,1,1,0,1,1,1,1,1,1,1,1,0,0,0,0,0,0,0,0,0,0,0,0,0,0,0,0,0,0,0,0,0,0,0,0,0,0,0,0],"id":11,"left_children":[1,3,5,7,9,11,13,15,17,19,21,23,25,27,29,31,33,35,-1,37,39,41,-1,43,45,47,49,51,53,55,57,-1,-1,-1,-1,-1,-1,-1,-1,-1,-1,-1,-1,-1,-1,-1,-1,-1,-1,-1,-1,-1,-1,-1,-1,-1,-1,-1,-1],"loss_changes":[8.673895E1,5.4428963E1,2.710929E2,1.0092506E1,8.755422E0,1.5570221E1,3.1238556E1,4.459503E0,5.082183E0,2.1464333E1,4.833845E0,4.2408295E0,2.7573254E1,1.1816121E1,1.2615906E1,1.8364449E1,6.7147303E0,3.9849496E0,0E0,3.5682713E1,8.02275E0,1.5202897E0,0E0,5.9485664E0,1.7554245E0,3.9205956E1,4.79804E0,1.6177526E1,1.8785187E1,4.168725E1,3.3003937E1,0E0,0E0,0E0,0E0,0E0,0E0,0E0,0E0,0E0,0E0,0E0,0E0,0E0,0E0,0E0,0E0,0E0,0E0,0E0,0E0,0E0,0E0,0E0,0E0,0E0,0E0,0E0,0E0],"parents":[2147483647,0,0,1,1,2,2,3,3,4,4,5,5,6,6,7,7,8,8,9,9,10,10,11,11,12,12,13,13,14,14,15,15,16,16,17,17,19,19,20,20,21,21,23,23,24,24,25,25,26,26,27,27,28,28,29,29,30,30],"right_children":[2,4,6,8,10,12,14,16,18,20,22,24,26,28,30,32,34,36,-1,38,40,42,-1,44,46,48,50,52,54,56,58,-1,-1,-1,-1,-1,-1,-1,-1,-1,-1,-1,-1,-1,-1,-1,-1,-1,-1,-1,-1,-1,-1,-1,-1,-1,-1,-1,-1],"split_conditions":[NaN,NaN,NaN,NaN,NaN,NaN,NaN,NaN,NaN,NaN,NaN,NaN,NaN,NaN,NaN,NaN,NaN,NaN,-9.812445E-2,NaN,NaN,NaN,-1.274099E-1,NaN,NaN,NaN,NaN,NaN,NaN,NaN,NaN,3.822542E-2,8.4719814E-2,4.5297187E-2,-6.556315E-2,1.4076622E-1,-4.282721E-3,5.784208E-2,-1.3353029E-2,2.6130866E-2,-6.710393E-2,-4.727847E-3,-1.06343254E-1,1.369219E-1,4.935646E-2,7.16902E-2,4.8176806E-2,8.902677E-2,1.9082423E-2,1.1016393E-2,-4.150344E-2,5.530396E-2,-1.6094787E-2,1.598782E-2,-5.3291786E-2,2.1964358E-2,-5.0297283E-2,-7.2750044E-3,-7.079501E-2],"split_indices":[15,17,17,30,14,11,11,14,22,22,28,14,22,28,28,1,28,12,0,10,28,1,0,28,28,10,10,10,10,10,10,0,0,0,0,0,0,0,0,0,0,0,0,0,0,0,0,0,0,0,0,0,0,0,0,0,0,0,0],"split_type":[1,1,1,1,1,1,1,1,1,1,1,1,1,1,1,1,1,1,0,1,1,1,0,1,1,1,1,1,1,1,1,0,0,0,0,0,0,0,0,0,0,0,0,0,0,0,0,0,0,0,0,0,0,0,0,0,0,0,0],"sum_hessian":[2.938633E3,8.356746E2,2.1029585E3,4.3208902E2,4.035856E2,7.0419037E2,1.3987681E3,4.0984543E2,2.2243612E1,3.819108E2,2.1674782E1,2.1920238E2,4.8498798E2,3.2291788E2,1.0758502E3,3.7759305E2,3.2252357E1,1.6576086E1,5.6675262E0,3.1625174E2,6.565906E1,1.3526436E1,8.148347E0,3.7516525E1,1.8168585E2,4.0180035E2,8.318762E1,1.4225017E2,1.806677E2,5.210012E2,5.5484894E2,1.981569E2,1.7943616E2,2.4787868E1,7.464489E0,2.183381E0,1.4392705E1,1.2763988E2,1.8861188E2,1.1644014E1,5.401504E1,1.1642557E1,1.883878E0,1.9981462E1,1.7535063E1,6.547152E1,1.16214325E2,1.2870547E2,2.7309488E2,2.7056162E1,5.613146E1,5.722253E1,8.502764E1,6.65725E1,1.14095184E2,1.0888787E2,4.1211337E2,1.1253822E2,4.4231073E2],"tree_param":{"num_deleted":"0","num_feature":"32","num_nodes":"59","size_leaf_vector":"1"}},{"base_weights":[-2.246107E-3,4.18787E-1,-2.692557E-1,7.40149E-1,1.9069147E-1,2.026521E-1,-4.507702E-1,8.303426E-1,4.2389858E-1,4.0683764E-1,-2.3190299E-1,3.3279505E-1,-4.6220326E-1,-3.5151437E-1,-8.450147E-1,8.703454E-1,5.1494E-1,6.105888E-1,4.043978E-2,5.971756E-1,2.9292312E-1,-9.259562E-2,-6.525368E-1,7.3383415E-1,1.8889867E-1,1.2126998E-1,-6.2426364E-1,8.235426E-2,-4.4444814E-1,-5.638983E-1,-9.055212E-1,9.254341E-2,2.8931573E-2,1.3053174E-1,3.873058E-2,7.583637E-2,1.9215012E-2,6.354475E-2,-1.9380508E-2,7.528739E-2,4.325248E-2,6.477127E-2,1.8127108E-2,9.212323E-2,-2.7161E-2,1.2001166E-2,-7.627154E-2,9.399198E-2,5.284185E-2,2.5883442E-2,-6.9671504E-2,1.15375385E-1,-7.0168406E-2,-2.3083884E-2,-1.0319715E-1,2.5596654E-2,-4.6508532E-2,3.557018E-2,-5.64185E-2,-2.4903433E-2,-7.821141E-2,-7.878351E-2,-1.0241234E-1],"categories":[0,1,2,3,0,0,0,1,0,1,0,1,0,1,0,1,2,5,6,7,0,1,2,3,0,1,0,1,2,3,0,1,3,4,0,1,2,3,0,1,2,4,2,2,3,3,0,1,4,1,2,3,4,0,1,4,0,0,2,5,6,7,8,0,0,2,3,5,6,7,0,1,5,8,9,2,3,4,0,0,1,5,6,7,8,1,2,4,5,7,8,9],"categories_nodes":[0,1,2,3,4,5,6,7,8,9,10,11,12,13,14,15,16,17,18,19,20,21,22,23,24,25,26,27,28,29,30],"categories_segments":[0,4,5,6,8,10,12,14,16,20,24,26,30,34,38,42,43,45,46,49,53,56,57,58,63,64,70,75,78,79,85],"categories_sizes":[4,1,1,2,2,2,2,2,4,4,2,4,4,4,4,1,2,1,3,4,3,1,1,5,1,6,5,3,1,6,7],"default_left":[1,1,1,1,1,1,1,1,1,1,1,1,1,1,1,1,1,1,1,1,1,1,1,1,1,1,1,1,1,1,1,0,0,0,0,0,0,0,0,0,0,0,0,0,0,0,0,0,0,0,0,0,0,0,0,0,0,0,0,0,0,0,0],"id":12,"left_children":[1,3,5,7,9,11,13,15,17,19,21,23,25,27,29,31,33,35,37,39,41,43,45,47,49,51,53,55,57,59,61,-1,-1,-1,-1,-1,-1,-1,-1,-1,-1,-1,-1,-1,-1,-1,-1,-1,-1,-1,-1,-1,-1,-1,-1,-1,-1,-1,-1,-1,-1,-1,-1],"loss_changes":[3.26563E2,8.2300735E1,1.524133E2,1.2885574E1,6.0346607E1,4.2693657E1,4.9860107E1,4.078583E0,7.2936344E0,9.176125E0,1.2822707E1,2.354314E1,7.7771835E0,4.1538643E1,3.8506165E0,3.0313416E0,3.8698053E0,3.194481E0,4.6641717E0,3.3151283E0,1.0482552E1,2.7469753E1,3.5599422E0,3.6360016E0,1.5476176E1,1.3734901E1,8.948816E0,1.557073E1,6.473654E1,2.516405E0,1.7911987E0,0E0,0E0,0E0,0E0,0E0,0E0,0E0,0E0,0E0,0E0,0E0,0E0,0E0,0E0,0E0,0E0,0E0,0E0,0E0,0E0,0E0,0E0,0E0,0E0,0E0,0E0,0E0,0E0,0E0,0E0,0E0,0E0],"parents":[2147483647,0,0,1,1,2,2,3,3,4,4,5,5,6,6,7,7,8,8,9,9,10,10,11,11,12,12,13,13,14,14,15,15,16,16,17,17,18,18,19,19,20,20,21,21,22,22,23,23,24,24,25,25,26,26,27,27,28,28,29,29,30,30],"right_children":[2,4,6,8,10,12,14,16,18,20,22,24,26,28,30,32,34,36,38,40,42,44,46,48,50,52,54,56,58,60,62,-1,-1,-1,-1,-1,-1,-1,-1,-1,-1,-1,-1,-1,-1,-1,-1,-1,-1,-1,-1,-1,-1,-1,-1,-1,-1,-1,-1,-1,-1,-1,-1],"split_conditions":[NaN,NaN,NaN,NaN,NaN,NaN,NaN,NaN,NaN,NaN,NaN,NaN,NaN,NaN,NaN,NaN,NaN,NaN,NaN,NaN,NaN,NaN,NaN,NaN,NaN,NaN,NaN,NaN,NaN,NaN,NaN,9.254341E-2,2.8931573E-2,1.3053174E-1,3.873058E-2,7.583637E-2,1.9215012E-2,6.354475E-2,-1.9380508E-2,7.528739E-2,4.325248E-2,6.477127E-2,1.8127108E-2,9.212323E-2,-2.7161E-2,1.2001166E-2,-7.627154E-2,9.399198E-2,5.284185E-2,2.5883442E-2,-6.9671504E-2,1.15375385E-1,-7.0168406E-2,-2.3083884E-2,-1.0319715E-1,2.5596654E-2,-4.6508532E-2,3.557018E-2,-5.64185E-2,-2.4903433E-2,-7.821141E-2,-7.878351E-2,-1.0241234E-1],"split_indices":[17,10,10,20,20,17,17,22,28,20,22,20,20,20,20,27,0,0,15,19,15,13,13,28,0,28,28,19,13,28,28,0,0,0,0,0,0,0,0,0,0,0,0,0,0,0,0,0,0,0,0,0,0,0,0,0,0,0,0,0,0,0,0],"split_type":[1,1,1,1,1,1,1,1,1,1,1,1,1,1,1,1,1,1,1,1,1,1,1,1,1,1,1,1,1,1,1,0,0,0,0,0,0,0,0,0,0,0,0,0,0,0,0,0,0,0,0,0,0,0,0,0,0,0,0,0,0,0,0],"sum_hessian":[2.904961E3,1.1268484E3,1.7781127E3,4.6708264E2,6.597657E2,4.9346368E2,1.284649E3,3.6248E2,1.0460264E2,4.369936E2,2.2277211E2,4.1313528E2,8.0328415E1,1.0271279E3,2.5752106E2,3.2057385E2,4.1906136E1,6.974798E1,3.4854664E1,1.6235617E2,2.7463742E2,1.680402E2,5.4731903E1,1.0836138E2,3.047739E2,1.7054016E1,6.32744E1,1.8061157E2,8.465164E2,4.6793125E1,2.1072794E2,3.1052014E2,1.0053706E1,6.265196E0,3.5640938E1,5.402708E1,1.5720895E1,1.0233192E1,2.4621471E1,9.479402E1,6.756214E1,7.207025E1,2.0256717E2,2.4309734E1,1.4373048E2,4.772428E0,4.9959473E1,6.1108013E1,4.725337E1,2.8541782E2,1.935608E1,7.758072E0,9.295945E0,3.0663433E1,3.2610966E1,1.3849394E2,4.2117626E1,9.274013E1,7.5377625E2,1.7821672E1,2.8971453E1,7.401929E1,1.3670865E2],"tree_param":{"num_deleted":"0","num_feature":"32","num_nodes":"63","size_leaf_vector":"1"}},{"base_weights":[-2.7319677E-3,3.950618E-1,-3.1705785E-1,6.4566773E-1,2.1037693E-1,1.5711252E-1,-4.8179954E-1,6.950327E-1,3.0529618E-1,4.5741978E-1,1.3426475E-1,2.6829052E-1,-8.16047E-2,-4.3817428E-1,-7.751911E-1,8.569245E-1,5.5790025E-1,5.5841494E-1,-1.6932994E-1,8.237193E-1,2.348515E-1,3.296223E-1,-1.8189037E-1,4.7489905E-1,-2.5242957E-1,8.98026E-2,-7.439356E-1,1.2320024E-2,-5.47445E-1,-6.115079E-1,-9.457127E-1,1.0273061E-1,7.474648E-2,6.563698E-2,1.9777542E-2,9.622242E-2,2.9008962E-2,3.1213112E-2,-5.9102736E-2,1.18646696E-1,5.5358116E-2,5.804008E-2,-5.8811683E-2,4.23914E-2,-3.7743993E-2,2.3019595E-2,-3.879708E-2,7.718898E-2,2.6091075E-2,-1.3885283E-2,-6.766845E-2,2.7810816E-2,-2.2405226E-2,-2.4751974E-2,-9.699388E-2,1.3951534E-2,-6.657599E-2,-5.1337965E-2,-8.3996974E-2,-2.5231564E-2,-8.506931E-2,-8.202413E-2,-1.24270305E-1],"categories":[0,1,0,0,0,1,0,1,2,3,0,0,1,1,2,3,4,3,0,1,2,0,1,0,1,3,4,0,1,2,3,1,3,4,0,1,3,0,0,1,3,0,1,4,2,3,4,0,1,0,1,1,2,3,4,1,2,3,4,3,0,1,2,1,3,4,3,4,3,4,0,2,3,3,4],"categories_nodes":[0,1,2,3,4,5,6,7,8,9,10,11,12,13,14,15,16,17,18,19,20,21,22,23,24,25,26,27,28,29,30],"categories_segments":[0,2,3,4,6,10,11,13,17,18,21,23,25,27,31,34,37,38,41,44,47,49,51,55,59,60,63,66,68,70,73],"categories_sizes":[2,1,1,2,4,1,2,4,1,3,2,2,2,4,3,3,1,3,3,3,2,2,4,4,1,3,3,2,2,3,2],"default_left":[1,1,1,1,1,1,1,1,1,1,1,1,1,1,1,1,1,1,1,1,1,1,1,1,1,1,1,1,1,1,1,0,0,0,0,0,0,0,0,0,0,0,0,0,0,0,0,0,0,0,0,0,0,0,0,0,0,0,0,0,0,0,0],"id":13,"left_children":[1,3,5,7,9,11,13,15,17,19,21,23,25,27,29,31,33,35,37,39,41,43,45,47,49,51,53,55,57,59,61,-1,-1,-1,-1,-1,-1,-1,-1,-1,-1,-1,-1,-1,-1,-1,-1,-1,-1,-1,-1,-1,-1,-1,-1,-1,-1,-1,-1,-1,-1,-1,-1],"loss_changes":[3.566351E2,5.796689E1,1.24614136E2,8.617462E0,1.3449825E1,1.095825E1,1.4719299E1,9.807739E0,8.376484E0,1.3491398E1,3.438476E1,3.0323524E1,1.4936643E1,5.094139E1,3.6748352E0,3.1818085E0,6.4529266E0,4.2111244E0,4.504697E0,5.2533607E0,2.746104E1,1.8452553E1,1.6316784E1,1.17097435E1,3.5064235E0,5.5773673E0,2.1682882E0,1.5775324E1,1.1283173E1,5.6223774E0,2.1129074E0,0E0,0E0,0E0,0E0,0E0,0E0,0E0,0E0,0E0,0E0,0E0,0E0,0E0,0E0,0E0,0E0,0E0,0E0,0E0,0E0,0E0,0E0,0E0,0E0,0E0,0E0,0E0,0E0,0E0,0E0,0E0,0E0],"parents":[2147483647,0,0,1,1,2,2,3,3,4,4,5,5,6,6,7,7,8,8,9,9,10,10,11,11,12,12,13,13,14,14,15,15,16,16,17,17,18,18,19,19,20,20,21,21,22,22,23,23,24,24,25,25,26,26,27,27,28,28,29,29,30,30],"right_children":[2,4,6,8,10,12,14,16,18,20,22,24,26,28,30,32,34,36,38,40,42,44,46,48,50,52,54,56,58,60,62,-1,-1,-1,-1,-1,-1,-1,-1,-1,-1,-1,-1,-1,-1,-1,-1,-1,-1,-1,-1,-1,-1,-1,-1,-1,-1,-1,-1,-1,-1,-1,-1],"split_conditions":[NaN,NaN,NaN,NaN,NaN,NaN,NaN,NaN,NaN,NaN,NaN,NaN,NaN,NaN,NaN,NaN,NaN,NaN,NaN,NaN,NaN,NaN,NaN,NaN,NaN,NaN,NaN,NaN,NaN,NaN,NaN,1.0273061E-1,7.474648E-2,6.563698E-2,1.9777542E-2,9.622242E-2,2.9008962E-2,3.1213112E-2,-5.9102736E-2,1.18646696E-1,5.5358116E-2,5.804008E-2,-5.8811683E-2,4.23914E-2,-3.7743993E-2,2.3019595E-2,-3.879708E-2,7.718898E-2,2.6091075E-2,-1.3885283E-2,-6.766845E-2,2.7810816E-2,-2.2405226E-2,-2.4751974E-2,-9.699388E-2,1.3951534E-2,-6.657599E-2,-5.1337965E-2,-8.3996974E-2,-2.5231564E-2,-8.506931E-2,-8.202413E-2,-1.24270305E-1],"split_indices":[18,10,10,22,18,18,14,19,16,20,20,20,16,20,19,20,20,20,20,16,22,22,19,19,16,14,19,19,19,20,16,0,0,0,0,0,0,0,0,0,0,0,0,0,0,0,0,0,0,0,0,0,0,0,0,0,0,0,0,0,0,0,0],"split_type":[1,1,1,1,1,1,1,1,1,1,1,1,1,1,1,1,1,1,1,1,1,1,1,1,1,1,1,1,1,1,1,0,0,0,0,0,0,0,0,0,0,0,0,0,0,0,0,0,0,0,0,0,0,0,0,0,0,0,0,0,0,0,0],"sum_hessian":[2.8521313E3,1.2584637E3,1.5936677E3,5.3306866E2,7.253951E2,4.104396E2,1.1832281E3,4.6461682E2,6.8451866E1,1.6971455E2,5.556805E2,2.8089667E2,1.2954292E2,1.0313112E3,1.5191702E2,2.1167445E2,2.5294235E2,4.5051884E1,2.3399982E1,6.3465317E1,1.06249245E2,3.4405612E2,2.1162437E2,2.0153929E2,7.935738E1,1.0264212E2,2.6900805E1,2.0079295E2,8.305182E2,7.87923E1,7.312472E1,1.0819532E2,1.0347913E2,2.1066774E2,4.2274616E1,1.8915524E1,2.613636E1,1.040256E1,1.2997423E1,2.9813595E1,3.3651722E1,7.60288E1,3.022044E1,3.0993213E2,3.4123974E1,6.742368E1,1.4420068E2,9.142069E1,1.1011859E2,6.1800907E1,1.7556475E1,6.557226E1,3.7069862E1,7.7996736E0,1.9101131E1,1.6970692E2,3.1086027E1,6.871912E2,1.4332692E2,2.8794327E1,4.9997974E1,4.572935E1,2.7395367E1],"tree_param":{"num_deleted":"0","num_feature":"32","num_nodes":"63","size_leaf_vector":"1"}},{"base_weights":[8.9422724E-4,3.6199233E-1,-2.8414539E-1,6.020334E-1,2.0580651E-1,-2.4960549E-1,-1.1169925E-1,7.3955125E-1,4.925414E-1,4.894784E-1,1.4933279E-2,1.8899246E-1,-4.0594107E-1,1.0097765E-1,6.8650895E-1,3.5867132E-2,6.155292E-1,6.674317E-1,3.9960822E-1,5.6649435E-1,-5.8507495E-2,-2.7468393E-2,4.16525E-1,-2.4128394E-1,-6.760491E-1,7.839482E-2,1.4858425E-2,1.4593563E-2,-7.9515375E-2,4.7998283E-2,8.207419E-2,3.4146737E-2,8.062047E-2,2.271235E-2,6.7000054E-2,7.81986E-2,-4.4943288E-2,-3.9133213E-2,8.088729E-3,4.1262154E-2,-1.1688157E-2,5.8818415E-2,-1.682654E-2,2.2389595E-3,-4.5339487E-2,-6.5453865E-2,-9.597606E-2],"categories":[0,1,1,2,3,4,2,4,0,0,0,0,0,0,0,0,0,1,2,2,0,2,0,2,4,0,0,1,2,3,1,3,2,3],"categories_nodes":[0,1,2,3,4,5,7,8,9,10,11,12,14,15,16,17,18,19,20,21,22,23,24],"categories_segments":[0,2,6,8,9,10,11,12,13,14,15,16,17,18,19,20,21,22,25,26,27,30,32],"categories_sizes":[2,4,2,1,1,1,1,1,1,1,1,1,1,1,1,1,1,3,1,1,3,2,2],"default_left":[1,1,1,1,1,1,0,1,1,1,1,1,1,0,1,1,1,1,1,1,1,1,1,1,1,0,0,0,0,0,0,0,0,0,0,0,0,0,0,0,0,0,0,0,0,0,0],"id":14,"left_children":[1,3,5,7,9,11,-1,13,15,17,19,21,23,-1,25,27,29,31,33,35,37,39,41,43,45,-1,-1,-1,-1,-1,-1,-1,-1,-1,-1,-1,-1,-1,-1,-1,-1,-1,-1,-1,-1,-1,-1],"loss_changes":[2.8726218E2,4.5904022E1,4.1992577E1,6.8601074E0,4.0295704E1,1.0253574E2,0E0,1.9861755E0,1.5043716E1,4.424637E0,1.8286032E1,1.944048E1,4.870941E1,0E0,5.989403E0,4.6791553E0,5.249428E0,3.209938E0,8.591347E0,9.905062E0,1.7132074E1,7.1131616E0,1.6571747E1,3.5078083E1,4.308319E0,0E0,0E0,0E0,0E0,0E0,0E0,0E0,0E0,0E0,0E0,0E0,0E0,0E0,0E0,0E0,0E0,0E0,0E0,0E0,0E0,0E0,0E0],"parents":[2147483647,0,0,1,1,2,2,3,3,4,4,5,5,7,7,8,8,9,9,10,10,11,11,12,12,14,14,15,15,16,16,17,17,18,18,19,19,20,20,21,21,22,22,23,23,24,24],"right_children":[2,4,6,8,10,12,-1,14,16,18,20,22,24,-1,26,28,30,32,34,36,38,40,42,44,46,-1,-1,-1,-1,-1,-1,-1,-1,-1,-1,-1,-1,-1,-1,-1,-1,-1,-1,-1,-1,-1,-1],"split_conditions":[NaN,NaN,NaN,NaN,NaN,NaN,-1.1169925E-1,NaN,NaN,NaN,NaN,NaN,NaN,1.0097765E-1,NaN,NaN,NaN,NaN,NaN,NaN,NaN,NaN,NaN,NaN,NaN,7.839482E-2,1.4858425E-2,1.4593563E-2,-7.9515375E-2,4.7998283E-2,8.207419E-2,3.4146737E-2,8.062047E-2,2.271235E-2,6.7000054E-2,7.81986E-2,-4.4943288E-2,-3.9133213E-2,8.088729E-3,4.1262154E-2,-1.1688157E-2,5.8818415E-2,-1.682654E-2,2.2389595E-3,-4.5339487E-2,-6.5453865E-2,-9.597606E-2],"split_indices":[18,19,19,10,10,10,0,13,26,23,13,9,18,0,31,31,1,26,1,19,26,13,31,19,31,0,0,0,0,0,0,0,0,0,0,0,0,0,0,0,0,0,0,0,0,0,0],"split_type":[1,1,1,1,1,1,0,1,1,1,1,1,1,0,1,1,1,1,1,1,1,1,1,1,1,0,0,0,0,0,0,0,0,0,0,0,0,0,0,0,0,0,0,0,0,0,0],"sum_hessian":[2.790389E3,1.2314242E3,1.5589646E3,4.8445474E2,7.469695E2,1.4940785E3,6.488618E1,2.1310547E2,2.7134927E2,2.9970102E2,4.472685E2,3.9208218E2,1.1019962E3,3.8380066E1,1.747254E2,5.814839E1,2.1320087E2,9.908521E1,2.006158E2,5.2933186E1,3.943353E2,2.0029967E2,1.917825E2,6.855309E2,4.164654E2,1.5524193E2,1.9483477E1,5.1892704E1,6.255688E0,1.1357504E2,9.9625824E1,2.4495008E1,7.45902E1,1.15827705E2,8.478809E1,4.497914E1,7.954042E0,1.19045265E2,2.7529004E2,3.268799E1,1.6761168E2,1.5309451E2,3.8687992E1,2.905011E2,3.950298E2,3.501586E2,6.630678E1],"tree_param":{"num_deleted":"0","num_feature":"32","num_nodes":"47","size_leaf_vector":"1"}},{"base_weights":[-3.7359747E-3,3.4877202E-1,-1.76791E-1,3.7883684E-1,1.8744677E-2,-2.9708105E-1,4.0414628E-2,6.712742E-1,2.6179883E-1,4.9252895E-1,-2.9197362E-1,-3.4429405E-2,-4.8013368E-1,2.3891115E-1,-8.701254E-2,8.4421545E-1,5.544038E-1,3.6745328E-1,1.09876536E-1,8.268755E-2,-1.7347706E-2,-4.3167773E-1,-8.518078E-2,1.910871E-2,-3.3121455E-2,-3.7105682E-1,-6.3400596E-1,5.007497E-1,1.386013E-1,-5.5497646E-1,-6.113822E-2,7.394532E-2,1.0430322E-1,7.481433E-2,3.149316E-2,4.5691174E-2,-2.5581324E-3,2.2762766E-2,-2.4058113E-2,-7.277015E-2,4.0807318E-2,-1.0747441E-2,-7.5903386E-2,5.792623E-2,-3.691483E-2,4.4378648E-3,-1.9395046E-2,-3.3686925E-2,-8.565058E-2,-5.0216943E-2,-9.110712E-2,3.0973213E-2,7.053006E-2,2.61988E-2,-1.4803913E-2,-2.857296E-2,-1.1461309E-1,1.1281068E-3,-4.7510684E-2],"categories":[0,0,2,0,1,2,3,0,1,2,3,0,1,2,0,1,2,0,1,5,6,7,8,0,1,4,6,7,8,1,0,0,0,0,0,1,3,0,1,0,0,0,2,3,0,2,1,0,1,0,1,3,3,0,1],"categories_nodes":[0,1,2,3,4,5,6,7,8,9,10,11,12,13,14,15,16,17,18,20,21,22,23,25,26,27,28,29,30],"categories_segments":[0,1,2,3,7,11,14,17,23,26,29,30,31,32,33,34,35,37,39,40,41,42,44,46,47,49,50,52,53],"categories_sizes":[1,1,1,4,4,3,3,6,3,3,1,1,1,1,1,1,2,2,1,1,1,2,2,1,2,1,2,1,2],"default_left":[1,1,1,1,1,1,1,1,1,1,1,1,1,1,1,1,1,1,1,0,1,1,1,1,0,1,1,1,1,1,1,0,0,0,0,0,0,0,0,0,0,0,0,0,0,0,0,0,0,0,0,0,0,0,0,0,0,0,0],"id":15,"left_children":[1,3,5,7,9,11,13,15,17,19,21,23,25,27,29,31,33,35,37,-1,39,41,43,45,-1,47,49,51,53,55,57,-1,-1,-1,-1,-1,-1,-1,-1,-1,-1,-1,-1,-1,-1,-1,-1,-1,-1,-1,-1,-1,-1,-1,-1,-1,-1,-1,-1],"loss_changes":[1.6904132E2,8.926071E0,4.867266E1,2.8266922E1,1.1444897E1,5.7429314E1,1.6796516E1,4.3032913E0,9.435276E0,5.006929E0,1.1721241E0,7.574244E0,1.1488785E1,6.6161966E0,4.6760893E0,1.3582001E0,5.573349E0,9.925201E0,9.129865E0,0E0,3.2812388E0,2.3362494E0,3.376885E0,1.9523356E0,0E0,8.513432E0,1.0158646E1,2.2163734E0,6.027091E0,2.6564236E0,1.0999234E1,0E0,0E0,0E0,0E0,0E0,0E0,0E0,0E0,0E0,0E0,0E0,0E0,0E0,0E0,0E0,0E0,0E0,0E0,0E0,0E0,0E0,0E0,0E0,0E0,0E0,0E0,0E0,0E0],"parents":[2147483647,0,0,1,1,2,2,3,3,4,4,5,5,6,6,7,7,8,8,9,9,10,10,11,11,12,12,13,13,14,14,15,15,16,16,17,17,18,18,20,20,21,21,22,22,23,23,25,25,26,26,27,27,28,28,29,29,30,30],"right_children":[2,4,6,8,10,12,14,16,18,20,22,24,26,28,30,32,34,36,38,-1,40,42,44,46,-1,48,50,52,54,56,58,-1,-1,-1,-1,-1,-1,-1,-1,-1,-1,-1,-1,-1,-1,-1,-1,-1,-1,-1,-1,-1,-1,-1,-1,-1,-1,-1,-1],"split_conditions":[NaN,NaN,NaN,NaN,NaN,NaN,NaN,NaN,NaN,NaN,NaN,NaN,NaN,NaN,NaN,NaN,NaN,NaN,NaN,8.268755E-2,NaN,NaN,NaN,NaN,-3.3121455E-2,NaN,NaN,NaN,NaN,NaN,NaN,7.394532E-2,1.0430322E-1,7.481433E-2,3.149316E-2,4.5691174E-2,-2.5581324E-3,2.2762766E-2,-2.4058113E-2,-7.277015E-2,4.0807318E-2,-1.0747441E-2,-7.5903386E-2,5.792623E-2,-3.691483E-2,4.4378648E-3,-1.9395046E-2,-3.3686925E-2,-8.565058E-2,-5.0216943E-2,-9.110712E-2,3.0973213E-2,7.053006E-2,2.61988E-2,-1.4803913E-2,-2.857296E-2,-1.1461309E-1,1.1281068E-3,-4.7510684E-2],"split_indices":[10,0,1,20,20,20,20,28,20,28,1,1,20,11,9,25,21,22,8,0,9,29,21,22,0,22,21,25,21,21,21,0,0,0,0,0,0,0,0,0,0,0,0,0,0,0,0,0,0,0,0,0,0,0,0,0,0,0,0],"split_type":[1,1,1,1,1,1,1,1,1,1,1,1,1,1,1,1,1,1,1,0,1,1,1,1,0,1,1,1,1,1,1,0,0,0,0,0,0,0,0,0,0,0,0,0,0,0,0,0,0,0,0,0,0,0,0,0,0,0,0],"sum_hessian":[2.7715908E3,9.1197705E2,1.8596139E3,8.3495337E2,7.70237E1,1.1976936E3,6.619202E2,2.3768939E2,5.97264E2,3.0866875E1,4.6156822E1,4.926665E2,7.050271E2,2.596917E2,4.0222852E2,9.4404274E1,1.4328511E2,3.5094547E2,2.4631848E2,1.9732336E1,1.113454E1,2.655485E1,1.960197E1,4.1361224E2,7.905426E1,4.1404602E2,2.9098108E2,7.090869E1,1.8878302E2,2.0285679E1,3.819428E2,5.2391014E1,4.2013256E1,8.593766E1,5.7347458E1,2.976752E2,5.327026E1,1.875118E2,5.880669E1,4.4218955E0,6.712644E0,1.3199827E1,1.3355023E1,5.407908E0,1.4194062E1,3.7260132E2,4.1010944E1,3.7533243E2,3.8713577E1,1.7941849E2,1.115626E2,3.392832E1,3.698037E1,1.3543304E2,5.334998E1,1.3916648E1,6.369031E0,3.2253302E2,5.9409805E1],"tree_param":{"num_deleted":"0","num_feature":"32","num_nodes":"59","size_leaf_vector":"1"}},{"base_weights":[-9.683098E-3,3.3029696E-1,-1.7400917E-1,5.415916E-1,7.357509E-2,5.754752E-2,-3.3524698E-1,7.9924744E-1,4.428832E-1,4.6616137E-1,-1.27577E-1,3.8921568E-1,-1.5720026E-1,-2.43379E-1,-7.8414E-1,8.610547E-2,-0E0,4.7982302E-1,-4.9205956E-1,5.1226485E-1,-1.1076484E-1,9.815353E-3,-5.556987E-1,5.21514E-1,2.536551E-1,-6.271597E-2,-6.050274E-1,-1.05708376E-1,-3.390439E-1,-5.629677E-1,-9.324462E-1,7.012712E-2,-7.549496E-2,6.0122605E-2,2.8755613E-2,-0E0,-7.688522E-2,7.245339E-2,-1.5204412E-2,6.489213E-2,-5.138573E-2,4.1623935E-2,-1.4725851E-2,-7.928975E-2,-2.0396754E-2,7.076537E-2,3.745569E-2,8.125834E-2,1.1925177E-2,3.087584E-2,-2.4204798E-2,4.9104016E-2,-6.8671286E-2,1.8333795E-2,-3.8452633E-2,-2.2132043E-3,-5.6295674E-2,9.662241E-2,-6.837333E-2,-2.2467583E-2,-9.9483445E-2],"categories":[0,0,1,0,1,2,0,1,2,3,0,1,2,3,0,1,2,3,0,1,2,0,1,1,2,4,0,1,2,1,3,0,1,0,1,3,0,1,2,2,3,4,0,3,0,1,3,0,1,0,1,3,0,1,2,3,0,0,1,2,0,1,3,0,1,0,0,1,0,1,0,1,3,0,1,2,3],"categories_nodes":[0,1,2,3,4,5,6,7,8,9,10,11,12,13,14,16,17,18,19,20,21,22,23,24,25,26,27,28,29,30],"categories_segments":[0,1,3,6,10,14,18,21,23,24,26,29,31,33,36,39,42,44,47,49,52,56,57,60,63,65,66,68,70,73],"categories_sizes":[1,2,3,4,4,4,3,2,1,2,3,2,2,3,3,3,2,3,2,3,4,1,3,3,2,1,2,2,3,4],"default_left":[1,1,1,1,1,1,1,1,1,1,1,1,1,1,1,0,1,1,1,1,1,1,1,1,1,1,1,1,1,1,1,0,0,0,0,0,0,0,0,0,0,0,0,0,0,0,0,0,0,0,0,0,0,0,0,0,0,0,0,0,0],"id":16,"left_children":[1,3,5,7,9,11,13,15,17,19,21,23,25,27,29,-1,31,33,35,37,39,41,43,45,47,49,51,53,55,57,59,-1,-1,-1,-1,-1,-1,-1,-1,-1,-1,-1,-1,-1,-1,-1,-1,-1,-1,-1,-1,-1,-1,-1,-1,-1,-1,-1,-1,-1,-1],"loss_changes":[1.5262955E2,4.8073807E1,6.8897644E1,1.195874E1,3.1906012E1,5.3917233E1,4.4490463E1,2.877571E0,1.2245026E1,3.7754898E0,1.5803993E1,5.0784683E0,1.9180885E1,1.1754059E1,5.4953156E0,0E0,2.3411932E0,6.4672165E0,1.61197E0,1.55463295E1,2.7454739E0,1.1921496E1,4.496662E0,3.4583664E0,1.0586978E1,2.3093435E1,4.729294E0,2.766859E1,3.3844627E1,1.0462833E1,1.3712616E0,0E0,0E0,0E0,0E0,0E0,0E0,0E0,0E0,0E0,0E0,0E0,0E0,0E0,0E0,0E0,0E0,0E0,0E0,0E0,0E0,0E0,0E0,0E0,0E0,0E0,0E0,0E0,0E0,0E0,0E0],"parents":[2147483647,0,0,1,1,2,2,3,3,4,4,5,5,6,6,7,7,8,8,9,9,10,10,11,11,12,12,13,13,14,14,16,16,17,17,18,18,19,19,20,20,21,21,22,22,23,23,24,24,25,25,26,26,27,27,28,28,29,29,30,30],"right_children":[2,4,6,8,10,12,14,16,18,20,22,24,26,28,30,-1,32,34,36,38,40,42,44,46,48,50,52,54,56,58,60,-1,-1,-1,-1,-1,-1,-1,-1,-1,-1,-1,-1,-1,-1,-1,-1,-1,-1,-1,-1,-1,-1,-1,-1,-1,-1,-1,-1,-1,-1],"split_conditions":[NaN,NaN,NaN,NaN,NaN,NaN,NaN,NaN,NaN,NaN,NaN,NaN,NaN,NaN,NaN,8.610547E-2,NaN,NaN,NaN,NaN,NaN,NaN,NaN,NaN,NaN,NaN,NaN,NaN,NaN,NaN,NaN,7.012712E-2,-7.549496E-2,6.0122605E-2,2.8755613E-2,-0E0,-7.688522E-2,7.245339E-2,-1.5204412E-2,6.489213E-2,-5.138573E-2,4.1623935E-2,-1.4725851E-2,-7.928975E-2,-2.0396754E-2,7.076537E-2,3.745569E-2,8.125834E-2,1.1925177E-2,3.087584E-2,-2.4204798E-2,4.9104016E-2,-6.8671286E-2,1.8333795E-2,-3.8452633E-2,-2.2132043E-3,-5.6295674E-2,9.662241E-2,-6.837333E-2,-2.2467583E-2,-9.9483445E-2],"split_indices":[10,18,20,20,17,17,17,14,17,16,17,0,17,0,14,0,16,0,0,20,0,20,9,18,18,18,9,18,18,18,18,0,0,0,0,0,0,0,0,0,0,0,0,0,0,0,0,0,0,0,0,0,0,0,0,0,0,0,0,0,0],"split_type":[1,1,1,1,1,1,1,1,1,1,1,1,1,1,1,0,1,1,1,1,1,1,1,1,1,1,1,1,1,1,1,0,0,0,0,0,0,0,0,0,0,0,0,0,0,0,0,0,0,0,0,0,0,0,0,0,0,0,0,0,0],"sum_hessian":[2.7325486E3,8.8972577E2,1.8428229E3,4.87289E2,4.0243677E2,7.557094E2,1.0871135E3,1.3380734E2,3.5348166E2,1.3679584E2,2.6564093E2,2.975215E2,4.581879E2,9.031934E2,1.8392009E2,1.2930359E2,4.5037475E0,3.404357E2,1.3045967E1,1.2718607E2,9.609761E0,2.0066661E2,6.497431E1,1.491987E2,1.4832281E2,3.7907318E2,7.911471E1,3.717569E2,5.314365E2,7.495285E1,1.0896724E2,2.3834758E0,2.1202714E0,2.291717E2,1.11263985E2,4.372173E0,8.673794E0,9.9847855E1,2.7338219E1,2.9831514E0,6.6266103E0,5.658479E1,1.4408182E2,4.0706482E1,2.4267828E1,7.435153E1,7.4847176E1,3.0404648E1,1.1791816E2,1.2099715E2,2.5807605E2,3.4628806E0,7.5651825E1,1.7910062E2,1.9265627E2,2.0679572E2,3.246408E2,4.144738E0,7.0808105E1,3.7937534E0,1.05173485E2],"tree_param":{"num_deleted":"0","num_feature":"32","num_nodes":"61","size_leaf_vector":"1"}},{"base_weights":[2.6148045E-3,3.0621916E-1,-2.3669446E-1,5.616797E-1,1.4524694E-1,-2.0151724E-1,-1.0737432E0,5.771737E-1,1.07749656E-1,2.2128893E-1,-1.6564925E-1,-2.969453E-1,-4.2558804E-2,-9.301735E-1,-1.3413052E-1,6.1137193E-1,3.4436855E-1,-8.641174E-2,8.4185547E-1,4.983747E-1,1.4232434E-1,-2.833294E-1,2.6066065E-1,-1.5878847E-1,-5.599361E-1,1.017175E-1,-3.1105134E-1,-3.363848E-1,-1.14749566E-1,6.542645E-2,2.5346791E-2,4.7715273E-2,5.425471E-3,1.144192E-1,1.7260086E-2,6.517169E-2,3.0887928E-2,2.0425702E-2,-5.4342825E-2,-1.1967135E-2,-6.304714E-2,1.3081354E-1,1.6876524E-2,4.8545524E-3,-3.2339837E-2,-4.2202197E-2,-6.70511E-2,1.7750958E-2,-3.9245594E-2,-2.2608923E-2,-8.662631E-2,-0E0,-6.43023E-2],"categories":[0,1,1,2,3,4,2,4,1,0,1,1,0,1,2,3,0,0,1,2,3,2,0,0,0,1,2,0,1,0,3,3,2,4,3,0,2,3,1,3,0,1,2,3,3,4,1],"categories_nodes":[0,1,2,3,4,5,6,7,8,9,10,11,12,13,15,16,18,19,20,21,22,23,24,25,26,27],"categories_segments":[0,2,6,8,9,11,12,14,16,17,21,22,23,24,27,28,29,31,32,34,35,38,40,42,44,46],"categories_sizes":[2,4,2,1,2,1,2,2,1,4,1,1,1,3,1,1,2,1,2,1,3,2,2,2,2,1],"default_left":[1,1,1,1,1,1,1,1,1,1,1,1,1,1,0,1,1,0,1,1,1,1,1,1,1,1,1,1,0,0,0,0,0,0,0,0,0,0,0,0,0,0,0,0,0,0,0,0,0,0,0,0,0],"id":17,"left_children":[1,3,5,7,9,11,13,15,17,19,21,23,25,27,-1,29,31,-1,33,35,37,39,41,43,45,47,49,51,-1,-1,-1,-1,-1,-1,-1,-1,-1,-1,-1,-1,-1,-1,-1,-1,-1,-1,-1,-1,-1,-1,-1,-1,-1],"loss_changes":[1.9515468E2,4.847397E1,4.3778976E1,2.9928284E0,1.722223E1,2.1756424E1,9.796448E-1,3.1852112E0,1.107005E1,1.2599613E1,7.1550617E0,3.244249E1,2.106812E1,3.3053474E0,0E0,2.0639954E0,1.7663293E0,0E0,1.1756296E0,2.9975204E0,1.621482E1,5.846406E0,2.5029476E0,1.8482168E1,3.640274E0,1.1512806E1,8.958672E0,1.0234398E0,0E0,0E0,0E0,0E0,0E0,0E0,0E0,0E0,0E0,0E0,0E0,0E0,0E0,0E0,0E0,0E0,0E0,0E0,0E0,0E0,0E0,0E0,0E0,0E0,0E0],"parents":[2147483647,0,0,1,1,2,2,3,3,4,4,5,5,6,6,7,7,8,8,9,9,10,10,11,11,12,12,13,13,15,15,16,16,18,18,19,19,20,20,21,21,22,22,23,23,24,24,25,25,26,26,27,27],"right_children":[2,4,6,8,10,12,14,16,18,20,22,24,26,28,-1,30,32,-1,34,36,38,40,42,44,46,48,50,52,-1,-1,-1,-1,-1,-1,-1,-1,-1,-1,-1,-1,-1,-1,-1,-1,-1,-1,-1,-1,-1,-1,-1,-1,-1],"split_conditions":[NaN,NaN,NaN,NaN,NaN,NaN,NaN,NaN,NaN,NaN,NaN,NaN,NaN,NaN,-1.3413052E-1,NaN,NaN,-8.641174E-2,NaN,NaN,NaN,NaN,NaN,NaN,NaN,NaN,NaN,NaN,-1.14749566E-1,6.542645E-2,2.5346791E-2,4.7715273E-2,5.425471E-3,1.144192E-1,1.7260086E-2,6.517169E-2,3.0887928E-2,2.0425702E-2,-5.4342825E-2,-1.1967135E-2,-6.304714E-2,1.3081354E-1,1.6876524E-2,4.8545524E-3,-3.2339837E-2,-4.2202197E-2,-6.70511E-2,1.7750958E-2,-3.9245594E-2,-2.2608923E-2,-8.662631E-2,-0E0,-6.43023E-2],"split_indices":[18,19,19,22,22,27,16,30,23,18,1,18,18,0,0,1,0,0,0,0,19,16,0,19,0,30,16,18,0,0,0,0,0,0,0,0,0,0,0,0,0,0,0,0,0,0,0,0,0,0,0,0,0],"split_type":[1,1,1,1,1,1,1,1,1,1,1,1,1,1,0,1,1,0,1,1,1,1,1,1,1,1,1,1,0,0,0,0,0,0,0,0,0,0,0,0,0,0,0,0,0,0,0,0,0,0,0,0,0],"sum_hessian":[2.6854363E3,1.1842576E3,1.5011788E3,4.568861E2,7.273714E2,1.4411703E3,6.0008545E1,4.4110638E2,1.5779727E1,5.852623E2,1.4210907E2,8.9924396E2,5.419263E2,3.7254524E1,2.2754023E1,3.832347E2,5.7871685E1,6.7367887E0,9.042937E0,1.287514E2,4.5651093E2,1.1197611E2,3.0132956E1,5.9047156E2,3.087724E2,3.5181537E2,1.901109E2,8.849437E0,2.8405087E1,3.656897E2,1.7545E1,4.0841E1,1.7030685E1,6.1553044E0,2.887633E0,7.783298E1,5.0918423E1,4.2285025E2,3.3660698E1,7.427572E1,3.7700394E1,2.275177E0,2.7857779E1,2.4998846E2,3.404831E2,1.09996346E2,1.9877606E2,3.0830124E2,4.351415E1,1.6171324E2,2.8397655E1,3.6414566E0,5.2079806E0],"tree_param":{"num_deleted":"0","num_feature":"32","num_nodes":"53","size_leaf_vector":"1"}},{"base_weights":[-8.0788916E-4,1.3763085E-1,-1.1621883E-1,1.960224E-1,-0E0,-8.08428E-2,-3.9205128E-1,2.8003687E-1,-6.1515868E-2,2.4159287E-1,-1.4266518E-1,-4.4604903E-3,-2.3689139E-1,-2.9009145E-1,-7.4417305E-1,4.4632918E-1,-2.3989862E-1,1.13684885E-1,-5.033092E-1,4.195784E-1,-0E0,1.351214E-1,-5.4424785E-2,2.8329366E-1,-2.5433433E-1,-9.042852E-2,-3.8407567E-1,-1.3198826E-1,-8.2214785E-1,-1.5081398E-1,-1.3001709E-1,1.220301E-2,5.3765766E-2,-2.1963911E-2,-9.1453865E-2,-1.8502938E-2,2.0040445E-2,-9.466876E-2,-3.8856924E-2,7.1593314E-2,1.1963266E-2,6.517211E-2,-4.5273837E-2,-5.128474E-3,4.2951617E-2,3.4326762E-2,-2.6558181E-2,-1.8746456E-2,-5.1906038E-2,-2.4964318E-2,1.8581101E-3,-3.54183E-2,-5.626998E-2,3.4705292E-2,-5.7189737E-2,-0E0,-1.0231745E-1,8.328595E-3,-1.2950726E-1],"categories":[1,2,3,4,0,2,4,0,0,1,2,3,0,0,0,2,0,0,2,0,1,0,1,0,2,0,1,2,0,3,0,0,0,1,0,2,0,0,0,0,0,0,1,2,3,0,1,2,3,0],"categories_nodes":[0,1,2,3,4,5,6,7,8,9,10,11,12,13,14,15,16,17,18,19,20,21,23,24,25,26,27,28,29],"categories_segments":[0,4,5,7,8,9,12,13,14,16,17,19,21,23,25,28,29,30,31,32,34,36,37,38,39,40,41,45,49],"categories_sizes":[4,1,2,1,1,3,1,1,2,1,2,2,2,2,3,1,1,1,1,2,2,1,1,1,1,1,4,4,1],"default_left":[1,1,1,1,1,1,1,1,1,1,1,1,1,1,1,1,1,1,1,1,1,1,0,1,1,1,1,1,1,1,0,0,0,0,0,0,0,0,0,0,0,0,0,0,0,0,0,0,0,0,0,0,0,0,0,0,0,0,0],"id":18,"left_children":[1,3,5,7,9,11,13,15,17,19,21,23,25,27,29,31,33,35,37,39,41,43,-1,45,47,49,51,53,55,57,-1,-1,-1,-1,-1,-1,-1,-1,-1,-1,-1,-1,-1,-1,-1,-1,-1,-1,-1,-1,-1,-1,-1,-1,-1,-1,-1,-1,-1],"loss_changes":[4.2620583E1,9.698206E0,1.40583E1,1.8456375E1,1.2507721E1,1.5323349E1,5.5528793E0,5.5559467E1,1.6247416E1,5.7377925E0,2.4107006E1,6.2471962E1,8.970768E0,1.049665E1,1.0350374E1,1.0978233E1,2.5103798E0,3.4193325E0,2.703761E0,6.0508633E0,1.5797162E1,6.805214E0,0E0,1.0071838E1,8.22522E0,3.5165727E0,1.1441345E0,1.9430748E1,3.908865E0,4.676058E0,0E0,0E0,0E0,0E0,0E0,0E0,0E0,0E0,0E0,0E0,0E0,0E0,0E0,0E0,0E0,0E0,0E0,0E0,0E0,0E0,0E0,0E0,0E0,0E0,0E0,0E0,0E0,0E0,0E0],"parents":[2147483647,0,0,1,1,2,2,3,3,4,4,5,5,6,6,7,7,8,8,9,9,10,10,11,11,12,12,13,13,14,14,15,15,16,16,17,17,18,18,19,19,20,20,21,21,23,23,24,24,25,25,26,26,27,27,28,28,29,29],"right_children":[2,4,6,8,10,12,14,16,18,20,22,24,26,28,30,32,34,36,38,40,42,44,-1,46,48,50,52,54,56,58,-1,-1,-1,-1,-1,-1,-1,-1,-1,-1,-1,-1,-1,-1,-1,-1,-1,-1,-1,-1,-1,-1,-1,-1,-1,-1,-1,-1,-1],"split_conditions":[NaN,NaN,NaN,NaN,NaN,NaN,NaN,NaN,NaN,NaN,NaN,NaN,NaN,NaN,NaN,NaN,NaN,NaN,NaN,NaN,NaN,NaN,-5.4424785E-2,NaN,NaN,NaN,NaN,NaN,NaN,NaN,-1.3001709E-1,1.220301E-2,5.3765766E-2,-2.1963911E-2,-9.1453865E-2,-1.8502938E-2,2.0040445E-2,-9.466876E-2,-3.8856924E-2,7.1593314E-2,1.1963266E-2,6.517211E-2,-4.5273837E-2,-5.128474E-3,4.2951617E-2,3.4326762E-2,-2.6558181E-2,-1.8746456E-2,-5.1906038E-2,-2.4964318E-2,1.8581101E-3,-3.54183E-2,-5.626998E-2,3.4705292E-2,-5.7189737E-2,-0E0,-1.0231745E-1,8.328595E-3,-1.2950726E-1],"split_indices":[19,3,19,8,8,31,8,18,18,15,18,18,18,15,18,26,30,26,26,18,18,23,0,1,18,6,18,18,18,1,0,0,0,0,0,0,0,0,0,0,0,0,0,0,0,0,0,0,0,0,0,0,0,0,0,0,0,0,0],"split_type":[1,1,1,1,1,1,1,1,1,1,1,1,1,1,1,1,1,1,1,1,1,1,0,1,1,1,1,1,1,1,0,0,0,0,0,0,0,0,0,0,0,0,0,0,0,0,0,0,0,0,0,0,0,0,0,0,0,0,0],"sum_hessian":[2.667677E3,1.2116064E3,1.4560706E3,8.496033E2,3.6200314E2,1.2917228E3,1.6434778E2,6.4151685E2,2.0808644E2,1.3489554E2,2.271076E2,8.686691E2,4.2305365E2,1.283404E2,3.6007393E1,4.8652695E2,1.5498988E2,1.485764E2,5.9510036E1,7.7215775E1,5.767976E1,1.3075424E2,9.6353355E1,4.0314642E2,4.6552274E2,2.1322357E2,2.0983008E2,9.9533775E1,2.8806608E1,1.6909084E1,1.9098307E1,8.596971E1,4.0055722E2,1.488963E2,6.0935783E0,3.0723537E1,1.1785287E2,1.3674807E1,4.583523E1,4.04639E1,3.6751873E1,2.3772415E1,3.3907345E1,7.7931786E1,5.2822464E1,3.7184042E2,3.1305984E1,3.5793112E2,1.0759164E2,9.078059E1,1.22442986E2,1.6555481E2,4.427527E1,4.6714622E1,5.2819157E1,4.617519E0,2.4189089E1,1.3841178E1,3.067906E0],"tree_param":{"num_deleted":"0","num_feature":"32","num_nodes":"59","size_leaf_vector":"1"}},{"base_weights":[-3.0868973E-3,3.2294592E-1,-9.984908E-2,4.5549276E-1,-5.0900165E-2,1.6280249E-1,-3.1246492E-1,3.4383845E-1,5.7023305E-1,6.403562E-2,-3.7671992E-1,2.0315793E-1,-5.572477E-1,-4.014037E-1,-1.6790138E-1,4.8398206E-1,1.5028545E-1,6.507505E-1,4.0735137E-1,1.9483527E-2,3.309657E-1,-7.65889E-2,2.1493347E-2,3.342394E-1,-1.7422421E-1,-2.0756696E-1,-9.37599E-1,-2.2517413E-1,-4.6698317E-1,-2.9611674E-1,-1.7250217E-2,2.1477373E-2,5.8888532E-2,-1.6314251E-2,2.495027E-2,1.0018654E-1,5.7327677E-2,7.880644E-2,2.7523581E-2,-3.891779E-3,2.4579419E-2,5.0076697E-2,-5.032962E-3,2.7183095E-2,-6.3411154E-2,4.3333087E-2,8.870703E-3,-0E0,-6.2366527E-2,2.8044675E-2,-4.909853E-2,-0E0,-1.10150516E-1,-7.41046E-2,-2.0871058E-2,-4.266092E-2,-6.068238E-2,-6.434801E-3,-4.2461004E-2,8.872316E-2,-6.698749E-3],"categories":[0,1,2,3,0,2,0,1,0,0,0,2,1,3,1,3,1,0,0,1,0,1,0,1,2,1,0,0,1,2,0,2,3,3,0,4,0,0,1,1,2,3,0,0,1,0,1,2,0],"categories_nodes":[0,1,2,3,4,5,6,7,8,9,10,11,12,13,14,15,16,17,18,19,20,22,23,24,25,26,27,28,29,30],"categories_segments":[0,4,6,8,9,10,11,12,14,16,17,18,20,22,25,26,27,28,30,31,32,33,34,36,37,39,42,43,45,48],"categories_sizes":[4,2,2,1,1,1,1,2,2,1,1,2,2,3,1,1,1,2,1,1,1,1,2,1,2,3,1,2,3,1],"default_left":[1,1,1,1,1,1,1,1,1,1,1,1,1,1,1,1,1,1,1,1,1,0,1,1,1,1,1,1,1,1,1,0,0,0,0,0,0,0,0,0,0,0,0,0,0,0,0,0,0,0,0,0,0,0,0,0,0,0,0,0,0],"id":19,"left_children":[1,3,5,7,9,11,13,15,17,19,21,23,25,27,29,31,33,35,37,39,41,-1,43,45,47,49,51,53,55,57,59,-1,-1,-1,-1,-1,-1,-1,-1,-1,-1,-1,-1,-1,-1,-1,-1,-1,-1,-1,-1,-1,-1,-1,-1,-1,-1,-1,-1,-1,-1],"loss_changes":[8.320858E1,3.002898E1,1.1377078E2,5.4022675E0,5.997275E0,2.636233E1,1.4291565E1,5.972603E0,2.4966125E0,1.2678967E0,6.1891837E0,4.2730404E1,5.9932404E0,7.8101654E0,8.217424E0,2.7067413E0,2.6830337E0,3.9689636E0,3.3482714E0,1.2984775E0,1.021453E0,0E0,2.8640704E0,1.2889145E1,1.649266E1,3.3011928E0,2.5499954E0,1.9917536E0,3.0131607E0,5.8980713E0,7.9095573E0,0E0,0E0,0E0,0E0,0E0,0E0,0E0,0E0,0E0,0E0,0E0,0E0,0E0,0E0,0E0,0E0,0E0,0E0,0E0,0E0,0E0,0E0,0E0,0E0,0E0,0E0,0E0,0E0,0E0,0E0],"parents":[2147483647,0,0,1,1,2,2,3,3,4,4,5,5,6,6,7,7,8,8,9,9,10,10,11,11,12,12,13,13,14,14,15,15,16,16,17,17,18,18,19,19,20,20,22,22,23,23,24,24,25,25,26,26,27,27,28,28,29,29,30,30],"right_children":[2,4,6,8,10,12,14,16,18,20,22,24,26,28,30,32,34,36,38,40,42,-1,44,46,48,50,52,54,56,58,60,-1,-1,-1,-1,-1,-1,-1,-1,-1,-1,-1,-1,-1,-1,-1,-1,-1,-1,-1,-1,-1,-1,-1,-1,-1,-1,-1,-1,-1,-1],"split_conditions":[NaN,NaN,NaN,NaN,NaN,NaN,NaN,NaN,NaN,NaN,NaN,NaN,NaN,NaN,NaN,NaN,NaN,NaN,NaN,NaN,NaN,-7.65889E-2,NaN,NaN,NaN,NaN,NaN,NaN,NaN,NaN,NaN,2.1477373E-2,5.8888532E-2,-1.6314251E-2,2.495027E-2,1.0018654E-1,5.7327677E-2,7.880644E-2,2.7523581E-2,-3.891779E-3,2.4579419E-2,5.0076697E-2,-5.032962E-3,2.7183095E-2,-6.3411154E-2,4.3333087E-2,8.870703E-3,-0E0,-6.2366527E-2,2.8044675E-2,-4.909853E-2,-0E0,-1.10150516E-1,-7.41046E-2,-2.0871058E-2,-4.266092E-2,-6.068238E-2,-6.434801E-3,-4.2461004E-2,8.872316E-2,-6.698749E-3],"split_indices":[20,18,18,25,0,1,1,21,21,24,25,21,20,20,24,9,9,0,9,1,21,0,21,20,20,21,0,4,21,20,4,0,0,0,0,0,0,0,0,0,0,0,0,0,0,0,0,0,0,0,0,0,0,0,0,0,0,0,0,0,0],"split_type":[1,1,1,1,1,1,1,1,1,1,1,1,1,1,1,1,1,1,1,1,1,0,1,1,1,1,1,1,1,1,1,0,0,0,0,0,0,0,0,0,0,0,0,0,0,0,0,0,0,0,0,0,0,0,0,0,0,0,0,0,0],"sum_hessian":[2.6394395E3,6.032569E2,2.0361825E3,4.4594382E2,1.573131E2,9.1027136E2,1.1259111E3,2.2768492E2,2.182589E2,1.1567702E2,4.1636074E1,8.624722E2,4.77991E1,6.955699E2,4.3034122E2,1.3100372E2,9.668119E1,1.4448297E2,7.3775925E1,1.002647E2,1.5412314E1,2.2252628E1,1.9383444E1,6.407499E2,2.2172238E2,2.5449366E1,2.2349735E1,1.9010359E2,5.054663E2,2.3129218E2,1.9904906E2,3.0650963E1,1.0035276E2,2.0970196E1,7.571099E1,3.419633E1,1.10286644E2,2.0632698E1,5.3143223E1,7.83769E1,2.1887802E1,1.1606305E1,3.8060088E0,1.44666605E1,4.916784E0,4.8141125E2,1.5933861E2,1.570722E2,6.465018E1,8.644864E0,1.68045E1,2.5295339E0,1.98202E1,8.4235935E0,1.8168001E2,3.398593E2,1.65607E2,7.553853E1,1.5575365E2,9.754538E0,1.8929451E2],"tree_param":{"num_deleted":"0","num_feature":"32","num_nodes":"61","size_leaf_vector":"1"}},{"base_weights":[-5.810065E-3,4.987536E-1,-7.271049E-2,5.8635974E-1,-2.1042614E-1,2.364878E-1,-2.6677358E-1,6.7562973E-1,4.7118347E-2,4.577232E-2,-7.662185E-1,2.8719547E-1,-9.3132004E-2,4.1745193E-2,-3.8206786E-1,8.8863514E-2,5.204997E-1,-2.0965593E-2,3.9675173E-1,3.2407203E-1,-3.924378E-1,-1.03416815E-1,-0E0,4.9547184E-1,1.459409E-1,2.7186906E-1,-2.4544658E-1,1.3756144E-1,-4.5000866E-1,-2.792422E-1,-6.782451E-1,6.608877E-2,1.37917735E-2,1.3490712E-2,8.645558E-2,-9.557935E-3,6.227724E-2,1.915201E-2,-6.855699E-2,-1.5358715E-1,1.3652737E-1,8.472632E-2,3.830396E-2,2.4288625E-2,-1.9074243E-2,-8.875577E-3,6.1969776E-2,-4.476385E-3,-4.304711E-2,-3.893775E-3,3.5637453E-2,-6.218163E-2,-1.904187E-2,-2.2700567E-2,-8.12518E-2,-1.4523584E-2,-7.24676E-2],"categories":[0,0,1,0,1,2,3,0,0,0,0,0,1,2,3,0,1,1,0,0,0,1,0,0,3,0,0,1,0,1,2,3,3,0,1,3,0,0,1,0],"categories_nodes":[0,1,2,3,4,5,6,7,8,9,10,11,12,13,14,16,18,19,20,22,23,24,25,26,27,28,29,30],"categories_segments":[0,1,3,7,8,9,10,11,15,16,17,18,19,20,22,23,25,26,27,28,30,32,33,34,36,37,38,39],"categories_sizes":[1,2,4,1,1,1,1,4,1,1,1,1,1,2,1,2,1,1,1,2,2,1,1,2,1,1,1,1],"default_left":[1,1,1,1,1,1,1,1,1,1,1,1,1,1,1,0,1,0,1,1,1,0,1,1,1,1,1,1,1,1,1,0,0,0,0,0,0,0,0,0,0,0,0,0,0,0,0,0,0,0,0,0,0,0,0,0,0],"id":20,"left_children":[1,3,5,7,9,11,13,15,17,19,21,23,25,27,29,-1,31,-1,33,35,37,-1,39,41,43,45,47,49,51,53,55,-1,-1,-1,-1,-1,-1,-1,-1,-1,-1,-1,-1,-1,-1,-1,-1,-1,-1,-1,-1,-1,-1,-1,-1,-1,-1],"loss_changes":[8.758278E1,1.9001266E1,1.3771938E2,1.2802475E1,4.943103E0,1.4846016E1,5.028428E1,5.8866043E0,3.468516E0,2.732595E0,1.8802795E0,2.2365067E1,6.518205E0,1.7965801E1,3.0970596E1,0E0,5.2754936E0,0E0,1.6326714E0,1.7849151E0,1.4429514E0,0E0,5.3627234E0,1.2144516E1,1.3176279E1,4.0852814E0,2.6886587E0,1.1594115E1,2.1755419E0,2.3120602E1,2.2046204E0,0E0,0E0,0E0,0E0,0E0,0E0,0E0,0E0,0E0,0E0,0E0,0E0,0E0,0E0,0E0,0E0,0E0,0E0,0E0,0E0,0E0,0E0,0E0,0E0,0E0,0E0],"parents":[2147483647,0,0,1,1,2,2,3,3,4,4,5,5,6,6,7,7,8,8,9,9,10,10,11,11,12,12,13,13,14,14,16,16,18,18,19,19,20,20,22,22,23,23,24,24,25,25,26,26,27,27,28,28,29,29,30,30],"right_children":[2,4,6,8,10,12,14,16,18,20,22,24,26,28,30,-1,32,-1,34,36,38,-1,40,42,44,46,48,50,52,54,56,-1,-1,-1,-1,-1,-1,-1,-1,-1,-1,-1,-1,-1,-1,-1,-1,-1,-1,-1,-1,-1,-1,-1,-1,-1,-1],"split_conditions":[NaN,NaN,NaN,NaN,NaN,NaN,NaN,NaN,NaN,NaN,NaN,NaN,NaN,NaN,NaN,8.8863514E-2,NaN,-2.0965593E-2,NaN,NaN,NaN,-1.03416815E-1,NaN,NaN,NaN,NaN,NaN,NaN,NaN,NaN,NaN,6.608877E-2,1.37917735E-2,1.3490712E-2,8.645558E-2,-9.557935E-3,6.227724E-2,1.915201E-2,-6.855699E-2,-1.5358715E-1,1.3652737E-1,8.472632E-2,3.830396E-2,2.4288625E-2,-1.9074243E-2,-8.875577E-3,6.1969776E-2,-4.476385E-3,-4.304711E-2,-3.893775E-3,3.5637453E-2,-6.218163E-2,-1.904187E-2,-2.2700567E-2,-8.12518E-2,-1.4523584E-2,-7.24676E-2],"split_indices":[13,17,17,18,3,18,10,17,29,29,29,10,10,17,18,0,0,0,3,6,17,0,0,0,0,9,0,9,9,17,9,0,0,0,0,0,0,0,0,0,0,0,0,0,0,0,0,0,0,0,0,0,0,0,0,0,0],"split_type":[1,1,1,1,1,1,1,1,1,1,1,1,1,1,1,0,1,0,1,1,1,0,1,1,1,1,1,1,1,1,1,0,0,0,0,0,0,0,0,0,0,0,0,0,0,0,0,0,0,0,0,0,0,0,0,0,0],"sum_hessian":[2.598219E3,3.035135E2,2.2947053E3,2.7055444E2,3.295904E1,8.842351E2,1.4104703E3,2.3160085E2,3.8953606E1,2.2272842E1,1.0686199E1,7.6717474E2,1.17060356E2,3.829999E2,1.0274703E3,1.06785835E2,1.24815E2,2.2293686E1,1.665992E1,1.4078285E1,8.194556E0,8.212304E0,2.4738958E0,3.0899625E2,4.5817853E2,3.383261E1,8.3227745E1,3.211615E2,6.1838432E1,7.6367834E2,2.6379205E2,9.57979E1,2.901711E1,1.0866911E1,5.793009E0,5.1795454E0,8.89874E0,2.2324524E0,5.962104E0,1.1556741E0,1.3182217E0,8.766148E1,2.2133476E2,3.6295343E2,9.5225075E1,1.5666465E1,1.8166145E1,3.8638725E1,4.458902E1,1.7235907E2,1.4880243E2,3.9032352E1,2.2806082E1,6.8110406E2,8.257427E1,8.86249E0,2.5492958E2],"tree_param":{"num_deleted":"0","num_feature":"32","num_nodes":"57","size_leaf_vector":"1"}},{"base_weights":[-2.6442907E-3,4.25778E-1,-6.050019E-2,4.8251963E-1,-1.5087874E-1,2.9919827E-1,-1.7716332E-1,5.3438526E-1,-2.610612E-1,5.6455623E-2,-4.82314E-1,4.255603E-1,1.6713698E-1,-8.899539E-3,-2.330068E-1,6.145385E-1,3.5021853E-1,-0E0,-1.20720215E-1,3.155735E-1,-6.309109E-2,-1.07306086E-1,-3.6868202E-3,4.9362096E-1,2.9353055E-1,2.1964444E-1,-1.2313661E-1,5.821613E-2,-1.4895229E-1,-2.0179977E-1,-7.709614E-1,7.468897E-2,4.0627487E-2,5.2709457E-2,1.7953318E-2,4.1867424E-2,-6.2075455E-2,4.5370527E-2,-3.404156E-2,7.1199976E-2,3.728405E-2,1.3788856E-2,4.8987802E-2,5.3781876E-3,3.9065234E-2,1.9199429E-3,-9.358456E-2,8.497457E-3,-1.840677E-2,1.4708808E-3,-2.6242845E-2,-1.1412311E-2,-4.4765078E-2,-6.982357E-2,-1.468398E-1],"categories":[0,0,0,1,2,3,2,4,0,2,3,1,2,3,4,0,0,3,1,1,2,0,0,0,1,0,0,2,1,2,3,4,0,1,3,4,0,2,4,0,0,4,0,1,3,4,0,4],"categories_nodes":[0,1,2,3,4,5,6,7,8,9,10,11,12,13,14,15,16,17,19,23,24,25,26,27,28,29,30],"categories_segments":[0,1,2,6,8,11,15,16,18,19,20,21,22,23,25,26,28,32,35,36,39,40,41,42,43,46,47],"categories_sizes":[1,1,4,2,3,4,1,2,1,1,1,1,1,2,1,2,4,3,1,3,1,1,1,1,3,1,1],"default_left":[1,1,1,1,1,1,1,1,1,1,1,1,1,1,1,1,1,1,0,1,0,0,0,1,1,1,1,1,1,1,1,0,0,0,0,0,0,0,0,0,0,0,0,0,0,0,0,0,0,0,0,0,0,0,0],"id":21,"left_children":[1,3,5,7,9,11,13,15,17,19,21,23,25,27,29,31,33,35,-1,37,-1,-1,-1,39,41,43,45,47,49,51,53,-1,-1,-1,-1,-1,-1,-1,-1,-1,-1,-1,-1,-1,-1,-1,-1,-1,-1,-1,-1,-1,-1,-1,-1],"loss_changes":[6.3656475E1,1.0108467E1,9.511271E1,1.0851021E1,1.9907106E0,9.061703E0,1.6018448E1,3.5198288E0,4.382769E0,2.711877E0,2.3518126E0,2.269722E0,4.189814E0,4.055562E0,2.1240524E1,3.7649002E0,2.0109777E0,3.3230457E0,0E0,9.8392105E-1,0E0,0E0,0E0,4.39225E0,2.5922794E0,5.917431E0,4.770479E0,1.5538974E0,2.4301336E0,2.5369553E1,3.703392E0,0E0,0E0,0E0,0E0,0E0,0E0,0E0,0E0,0E0,0E0,0E0,0E0,0E0,0E0,0E0,0E0,0E0,0E0,0E0,0E0,0E0,0E0,0E0,0E0],"parents":[2147483647,0,0,1,1,2,2,3,3,4,4,5,5,6,6,7,7,8,8,9,9,10,10,11,11,12,12,13,13,14,14,15,15,16,16,17,17,19,19,23,23,24,24,25,25,26,26,27,27,28,28,29,29,30,30],"right_children":[2,4,6,8,10,12,14,16,18,20,22,24,26,28,30,32,34,36,-1,38,-1,-1,-1,40,42,44,46,48,50,52,54,-1,-1,-1,-1,-1,-1,-1,-1,-1,-1,-1,-1,-1,-1,-1,-1,-1,-1,-1,-1,-1,-1,-1,-1],"split_conditions":[NaN,NaN,NaN,NaN,NaN,NaN,NaN,NaN,NaN,NaN,NaN,NaN,NaN,NaN,NaN,NaN,NaN,NaN,-1.20720215E-1,NaN,-6.309109E-2,-1.07306086E-1,-3.6868202E-3,NaN,NaN,NaN,NaN,NaN,NaN,NaN,NaN,7.468897E-2,4.0627487E-2,5.2709457E-2,1.7953318E-2,4.1867424E-2,-6.2075455E-2,4.5370527E-2,-3.404156E-2,7.1199976E-2,3.728405E-2,1.3788856E-2,4.8987802E-2,5.3781876E-3,3.9065234E-2,1.9199429E-3,-9.358456E-2,8.497457E-3,-1.840677E-2,1.4708808E-3,-2.6242845E-2,-1.1412311E-2,-4.4765078E-2,-6.982357E-2,-1.468398E-1],"split_indices":[13,0,20,19,30,19,11,30,0,1,1,8,1,20,1,16,19,16,0,19,0,0,0,16,25,25,16,0,19,20,16,0,0,0,0,0,0,0,0,0,0,0,0,0,0,0,0,0,0,0,0,0,0,0,0],"split_type":[1,1,1,1,1,1,1,1,1,1,1,1,1,1,1,1,1,1,0,1,0,0,0,1,1,1,1,1,1,1,1,0,0,0,0,0,0,0,0,0,0,0,0,0,0,0,0,0,0,0,0,0,0,0,0],"sum_hessian":[2.5724238E3,3.05308E2,2.2671157E3,2.784692E2,2.6838789E1,5.545188E2,1.7125969E3,2.607413E2,1.772792E1,1.601219E1,1.08266E1,2.8200403E2,2.725148E2,4.281744E2,1.2844226E3,1.8025577E2,8.048553E1,1.370785E1,4.0200706E0,1.1901385E1,4.110803E0,4.464541E0,6.362059E0,1.8425972E2,9.774429E1,2.3170575E2,4.0809048E1,2.88024E2,1.4015042E2,1.214738E3,6.9684494E1,1.2260064E2,5.7655125E1,4.183081E1,3.865472E1,8.382004E0,5.3258467E0,1.0475741E1,1.425644E0,7.559504E1,1.0866469E2,5.2179962E1,4.556433E1,1.1237761E2,1.1932813E2,3.4294E1,6.515048E0,2.6326547E2,2.4758509E1,5.313052E1,8.701989E1,8.658922E2,3.4884583E2,6.088137E1,8.803128E0],"tree_param":{"num_deleted":"0","num_feature":"32","num_nodes":"55","size_leaf_vector":"1"}},{"base_weights":[5.091844E-4,4.1876897E-1,-5.4802354E-2,4.8377326E-1,1.585652E-1,6.978497E-2,-1.3901454E-1,7.515E-1,3.465447E-1,3.5842448E-1,-1.9865341E-1,1.1486108E-1,-5.2194935E-1,-1.1276262E-2,-2.3184352E-1,8.218992E-1,1.26749985E-2,2.0282494E-1,4.6204552E-1,4.2667207E-1,-9.027061E-2,1.4626554E-1,-7.437104E-2,2.4998103E-1,4.4619575E-2,-2.073586E-1,-6.334404E-2,6.2029243E-2,-2.948799E-1,-2.0371726E-1,-4.463325E-1,8.964255E-2,-1.714975E-2,6.1917678E-2,-3.744021E-2,2.773629E-2,-6.5487005E-2,6.1605103E-2,-0E0,5.3086113E-2,-4.008814E-2,1.2703973E-1,5.291903E-4,3.5249546E-2,2.0534138E-3,1.5581672E-2,-4.3966817E-3,1.8950317E-3,-7.8563094E-2,1.9277921E-2,-3.0065702E-2,-1.14780925E-2,-5.866566E-2,4.969738E-3,-2.5501413E-2,4.0397882E-2,-5.9363216E-2],"categories":[0,2,5,7,0,1,3,0,1,2,3,1,4,0,1,1,2,3,4,0,2,3,0,2,0,1,2,3,0,0,0,3,0,2,3,4,2,3,4,0,0,1,3,4,1,2,1,2,3,4,1,1,2,3,0,1,2,1,3,4,1,2,3,4],"categories_nodes":[0,1,2,3,4,5,6,7,8,9,10,11,12,13,14,15,16,17,18,19,21,23,24,25,27,28,29,30],"categories_segments":[0,1,4,7,11,13,15,19,20,21,22,24,28,29,30,31,32,35,36,39,40,44,46,50,51,54,57,60],"categories_sizes":[1,3,3,4,2,2,4,1,1,1,2,4,1,1,1,1,3,1,3,1,4,2,4,1,3,3,3,4],"default_left":[1,1,1,1,1,1,1,1,1,1,1,1,1,1,1,1,1,1,1,1,0,1,0,1,1,1,0,1,1,1,1,0,0,0,0,0,0,0,0,0,0,0,0,0,0,0,0,0,0,0,0,0,0,0,0,0,0],"id":22,"left_children":[1,3,5,7,9,11,13,15,17,19,21,23,25,27,29,31,33,35,37,39,-1,41,-1,43,45,47,-1,49,51,53,55,-1,-1,-1,-1,-1,-1,-1,-1,-1,-1,-1,-1,-1,-1,-1,-1,-1,-1,-1,-1,-1,-1,-1,-1,-1,-1],"loss_changes":[5.9127213E1,4.839924E0,2.3653797E1,8.360283E0,4.405316E0,2.4075788E1,1.5878498E1,3.886177E0,2.4078617E0,3.2330995E0,3.9907386E0,7.9119883E0,1.455616E0,1.1879721E1,4.477127E0,2.9970512E0,1.7220953E0,3.7108274E0,4.987438E0,2.6181068E0,0E0,1.5242552E0,0E0,5.729271E0,5.1069894E0,2.04357E0,0E0,1.9409304E1,5.605321E0,7.1826305E0,9.236792E0,0E0,0E0,0E0,0E0,0E0,0E0,0E0,0E0,0E0,0E0,0E0,0E0,0E0,0E0,0E0,0E0,0E0,0E0,0E0,0E0,0E0,0E0,0E0,0E0,0E0,0E0],"parents":[2147483647,0,0,1,1,2,2,3,3,4,4,5,5,6,6,7,7,8,8,9,9,10,10,11,11,12,12,13,13,14,14,15,15,16,16,17,17,18,18,19,19,21,21,23,23,24,24,25,25,27,27,28,28,29,29,30,30],"right_children":[2,4,6,8,10,12,14,16,18,20,22,24,26,28,30,32,34,36,38,40,-1,42,-1,44,46,48,-1,50,52,54,56,-1,-1,-1,-1,-1,-1,-1,-1,-1,-1,-1,-1,-1,-1,-1,-1,-1,-1,-1,-1,-1,-1,-1,-1,-1,-1],"split_conditions":[NaN,NaN,NaN,NaN,NaN,NaN,NaN,NaN,NaN,NaN,NaN,NaN,NaN,NaN,NaN,NaN,NaN,NaN,NaN,NaN,-9.027061E-2,NaN,-7.437104E-2,NaN,NaN,NaN,-6.334404E-2,NaN,NaN,NaN,NaN,8.964255E-2,-1.714975E-2,6.1917678E-2,-3.744021E-2,2.773629E-2,-6.5487005E-2,6.1605103E-2,-0E0,5.3086113E-2,-4.008814E-2,1.2703973E-1,5.291903E-4,3.5249546E-2,2.0534138E-3,1.5581672E-2,-4.3966817E-3,1.8950317E-3,-7.8563094E-2,1.9277921E-2,-3.0065702E-2,-1.14780925E-2,-5.866566E-2,4.969738E-3,-2.5501413E-2,4.0397882E-2,-5.9363216E-2],"split_indices":[13,28,21,14,19,14,19,5,1,30,30,14,6,5,1,30,30,19,19,21,0,14,0,19,19,16,0,31,14,16,16,0,0,0,0,0,0,0,0,0,0,0,0,0,0,0,0,0,0,0,0,0,0,0,0,0,0],"split_type":[1,1,1,1,1,1,1,1,1,1,1,1,1,1,1,1,1,1,1,1,0,1,0,1,1,1,0,1,1,1,1,0,0,0,0,0,0,0,0,0,0,0,0,0,0,0,0,0,0,0,0,0,0,0,0,0,0],"sum_hessian":[2.5506172E3,2.9844223E2,2.252175E3,2.377317E2,6.071052E1,9.0686475E2,1.3453103E3,7.9567314E1,1.5816438E2,3.9485683E1,2.1224838E1,8.432724E2,6.359233E1,5.6766956E2,7.776408E2,7.2246925E1,7.320391E0,7.185352E1,8.631086E1,3.7734497E1,1.7511848E0,1.2418673E1,8.806167E0,2.8679092E2,5.564815E2,1.4552664E1,4.903967E1,4.5030133E2,1.17368195E2,6.8902606E2,8.8614746E1,6.984431E1,2.402622E0,3.1455195E0,4.1748714E0,6.720159E1,4.651934E0,6.688623E1,1.9424635E1,3.4632725E1,3.1017737E0,1.0548404E0,1.1363832E1,2.062074E2,8.058353E1,2.5349908E2,3.029824E2,1.0004883E1,4.5477805E0,3.3404828E2,1.1625305E2,7.032435E1,4.7043842E1,9.572414E1,5.9330194E2,1.1065948E1,7.75488E1],"tree_param":{"num_deleted":"0","num_feature":"32","num_nodes":"57","size_leaf_vector":"1"}},{"base_weights":[1.9767699E-3,2.1758252E-1,-1.701631E-1,4.0225378E-1,1.06035694E-1,2.1963625E-1,-2.1330032E-1,4.4625118E-1,-1.4807238E-1,1.848627E-1,-2.783917E-1,3.953832E-1,-2.7036615E-2,9.3074925E-2,-3.4230736E-1,7.14084E-1,3.9248297E-1,9.415647E-2,-3.6715323E-1,3.2568505E-1,7.244717E-2,1.3437143E-1,-3.931765E-1,5.3070134E-1,-3.492387E-2,5.2981112E-2,-5.615194E-1,1.8390997E-1,-3.0328453E-1,-2.5219607E-1,-5.9081596E-1,1.3476418E-1,6.683264E-2,5.0859425E-2,1.7709745E-2,7.0609584E-2,-3.0871835E-2,9.8857E-3,-5.9420697E-2,7.698273E-2,2.1851169E-2,2.818361E-2,-9.908514E-3,7.7594645E-2,-0E0,-2.1974407E-2,-6.5252036E-2,6.514482E-2,2.464565E-2,3.6028452E-2,-1.750844E-2,-6.5656737E-3,-1.3128264E-1,2.1106817E-2,-9.354083E-2,-2.7777848E-3,-4.7254506E-2,-1.6555594E-2,-4.9428523E-2,-4.9060907E-2,-7.9782434E-2],"categories":[0,1,1,2,3,4,0,0,1,2,2,0,2,4,0,1,2,3,0,0,2,4,0,1,3,0,1,2,0,1,0,0,1,2,0,1,2,1,2,3,4,0,0,1,2,3,0,1,3,0,1,2,3,0,2,3,0,1,3,0,0,3,0,2,4,2,3,0,1],"categories_nodes":[0,1,2,3,4,5,6,7,8,9,10,11,12,13,14,15,16,17,18,19,20,21,22,23,25,26,27,28,29,30],"categories_segments":[0,2,6,7,10,11,14,18,19,22,25,28,30,31,34,37,41,42,44,46,49,53,56,59,60,62,64,65,67,68],"categories_sizes":[2,4,1,3,1,3,4,1,3,3,3,2,1,3,3,4,1,2,2,3,4,3,3,1,2,2,1,2,1,1],"default_left":[1,1,1,1,1,1,1,1,1,1,1,1,1,1,1,1,1,1,1,1,1,1,1,1,0,1,1,1,1,1,1,0,0,0,0,0,0,0,0,0,0,0,0,0,0,0,0,0,0,0,0,0,0,0,0,0,0,0,0,0,0],"id":23,"left_children":[1,3,5,7,9,11,13,15,17,19,21,23,25,27,29,31,33,35,37,39,41,43,45,47,-1,49,51,53,55,57,59,-1,-1,-1,-1,-1,-1,-1,-1,-1,-1,-1,-1,-1,-1,-1,-1,-1,-1,-1,-1,-1,-1,-1,-1,-1,-1,-1,-1,-1,-1],"loss_changes":[9.5192894E1,2.3304897E1,2.3969086E1,1.04636E1,2.154011E1,6.2439976E0,5.082989E1,5.329239E0,1.749254E0,9.232254E0,5.7955456E0,8.3222475E0,2.652018E0,1.3647386E1,1.9965729E1,2.0152664E0,6.8509026E0,3.4076898E0,1.763639E0,1.2196447E1,1.1018931E1,2.1800852E0,3.7529697E0,1.6789455E0,0E0,3.318661E0,2.3988764E0,6.081977E0,2.7706323E0,1.3576065E1,4.589775E0,0E0,0E0,0E0,0E0,0E0,0E0,0E0,0E0,0E0,0E0,0E0,0E0,0E0,0E0,0E0,0E0,0E0,0E0,0E0,0E0,0E0,0E0,0E0,0E0,0E0,0E0,0E0,0E0,0E0,0E0],"parents":[2147483647,0,0,1,1,2,2,3,3,4,4,5,5,6,6,7,7,8,8,9,9,10,10,11,11,12,12,13,13,14,14,15,15,16,16,17,17,18,18,19,19,20,20,21,21,22,22,23,23,25,25,26,26,27,27,28,28,29,29,30,30],"right_children":[2,4,6,8,10,12,14,16,18,20,22,24,26,28,30,32,34,36,38,40,42,44,46,48,-1,50,52,54,56,58,60,-1,-1,-1,-1,-1,-1,-1,-1,-1,-1,-1,-1,-1,-1,-1,-1,-1,-1,-1,-1,-1,-1,-1,-1,-1,-1,-1,-1,-1,-1],"split_conditions":[NaN,NaN,NaN,NaN,NaN,NaN,NaN,NaN,NaN,NaN,NaN,NaN,NaN,NaN,NaN,NaN,NaN,NaN,NaN,NaN,NaN,NaN,NaN,NaN,-3.492387E-2,NaN,NaN,NaN,NaN,NaN,NaN,1.3476418E-1,6.683264E-2,5.0859425E-2,1.7709745E-2,7.0609584E-2,-3.0871835E-2,9.8857E-3,-5.9420697E-2,7.698273E-2,2.1851169E-2,2.818361E-2,-9.908514E-3,7.7594645E-2,-0E0,-2.1974407E-2,-6.5252036E-2,6.514482E-2,2.464565E-2,3.6028452E-2,-1.750844E-2,-6.5656737E-3,-1.3128264E-1,2.1106817E-2,-9.354083E-2,-2.7777848E-3,-4.7254506E-2,-1.6555594E-2,-4.9428523E-2,-4.9060907E-2,-7.9782434E-2],"split_indices":[18,19,13,17,24,15,17,13,15,21,21,17,21,22,17,15,8,0,18,18,17,0,17,8,0,17,0,15,0,18,0,0,0,0,0,0,0,0,0,0,0,0,0,0,0,0,0,0,0,0,0,0,0,0,0,0,0,0,0,0,0],"split_type":[1,1,1,1,1,1,1,1,1,1,1,1,1,1,1,1,1,1,1,1,1,1,1,1,0,1,1,1,1,1,1,0,0,0,0,0,0,0,0,0,0,0,0,0,0,0,0,0,0,0,0,0,0,0,0,0,0,0,0,0,0],"sum_hessian":[2.5641575E3,1.1391404E3,1.425017E3,4.2777222E2,7.113682E2,1.412097E2,1.2838073E3,3.9665225E2,3.1119974E1,5.910561E2,1.2031212E2,8.3140175E1,5.8069523E1,3.7970245E2,9.041048E2,6.5043236E1,3.31609E2,1.4148307E1,1.6971668E1,2.6102695E2,3.3002917E2,2.5584785E1,9.472733E1,7.0540985E1,1.2599189E1,5.0121727E1,7.9477987E0,3.0961044E2,7.0091995E1,6.646482E2,2.3945663E2,6.4749246E0,5.8568314E1,2.3072977E2,1.0087925E2,5.9451675E0,8.203139E0,4.743988E0,1.222768E1,5.640934E1,2.046176E2,1.5203731E2,1.7799185E2,4.6159434E0,2.0968842E1,5.4084377E1,4.0642956E1,5.2438435E1,1.8102552E1,2.2124847E1,2.7996878E1,4.993261E0,2.9545379E0,3.0474902E2,4.8614273E0,2.5469439E1,4.4622555E1,4.693754E2,1.9527281E2,1.4353004E2,9.592659E1],"tree_param":{"num_deleted":"0","num_feature":"32","num_nodes":"61","size_leaf_vector":"1"}},{"base_weights":[1.2786598E-2,1.9441903E-1,-1.3368174E-1,2.252778E-1,-1.6889736E-1,-3.726621E-2,-3.924716E-1,3.3427837E-1,1.1088111E-1,2.283393E-2,-3.9045643E-2,2.6086945E-2,-2.743721E-1,-3.184605E-1,-5.037733E-1,1.04232736E-1,3.2611012E-1,6.482288E-1,3.6130257E-2,2.9207426E-1,-2.277512E-1,2.4603756E-1,-9.142041E-2,3.066947E-2,-3.495931E-1,-7.303558E-2,-4.1935375E-1,-8.037069E-2,-6.6567615E-2,4.868435E-2,1.9198656E-2,7.353352E-2,-0E0,7.7851294E-3,-5.030664E-2,6.900333E-2,-2.2069704E-2,-3.93649E-2,5.9064083E-2,3.3178497E-3,4.428207E-2,6.9426442E-3,-1.9782463E-2,7.6356255E-2,-1.947023E-2,-2.791155E-2,-6.654183E-2,6.550162E-2,-1.9958638E-2,-3.554924E-2,-6.420247E-2,9.011518E-3,-6.4255595E-2],"categories":[0,1,2,0,1,0,1,0,1,2,3,1,2,0,1,2,0,0,1,2,0,0,2,0,1,0,1,2,0,0,1,2,3,4,2,4,0,1,4,0,2,0,1,0,1,4,3,4,0,1,3],"categories_nodes":[0,1,2,3,4,5,6,7,8,9,11,12,13,14,16,17,18,19,20,21,22,23,24,25,26,27],"categories_segments":[0,3,5,7,11,13,16,17,20,21,23,25,28,29,30,34,36,37,39,40,41,43,46,48,49,50],"categories_sizes":[3,2,2,4,2,3,1,3,1,2,2,3,1,1,4,2,1,2,1,1,2,3,2,1,1,1],"default_left":[1,1,1,1,1,1,1,1,1,1,0,1,1,1,1,0,1,1,1,1,1,1,1,1,1,1,1,1,0,0,0,0,0,0,0,0,0,0,0,0,0,0,0,0,0,0,0,0,0,0,0,0,0],"id":24,"left_children":[1,3,5,7,9,11,13,15,17,19,-1,21,23,25,27,-1,29,31,33,35,37,39,41,43,45,47,49,51,-1,-1,-1,-1,-1,-1,-1,-1,-1,-1,-1,-1,-1,-1,-1,-1,-1,-1,-1,-1,-1,-1,-1,-1,-1],"loss_changes":[6.698165E1,1.2631599E1,3.4609062E1,1.2792202E1,3.5588663E0,1.5333056E1,2.8273087E0,2.4231606E0,2.0180756E1,3.038508E0,0E0,2.0741543E1,5.0378227E0,5.502434E0,8.283447E0,0E0,1.0281517E1,2.4474049E0,8.824811E0,4.296073E0,2.668622E0,1.0583897E1,8.150167E0,6.5909376E0,3.788601E0,5.5130873E0,2.1488209E0,3.4598427E0,0E0,0E0,0E0,0E0,0E0,0E0,0E0,0E0,0E0,0E0,0E0,0E0,0E0,0E0,0E0,0E0,0E0,0E0,0E0,0E0,