{"learner":{"attributes":{"scikit_learn":"{\"_estimator_type\": \"classifier\"}"},"feature_names":["h1n1_concern","h1n1_knowledge","behavioral_antiviral_meds","behavioral_avoidance","behavioral_face_mask","behavioral_wash_hands","behavioral_large_gatherings","behavioral_outside_home","behavioral_touch_face","doctor_recc_h1n1","doctor_recc_seasonal","chronic_med_condition","child_under_6_months","health_worker","opinion_h1n1_vacc_effective","opinion_h1n1_risk","opinion_h1n1_sick_from_vacc","opinion_seas_vacc_effective","opinion_seas_risk","opinion_seas_sick_from_vacc","age_group","education","race","sex","income_poverty","marital_status","rent_or_own","employment_status","hhs_geo_region","census_msa","household_adults","household_children"],"feature_types":["c","c","c","c","c","c","c","c","c","c","c","c","c","c","c","c","c","c","c","c","c","c","c","c","c","c","c","c","c","c","c","c"],"gradient_booster":{"model":{"gbtree_model_param":{"num_parallel_tree":"1","num_trees":"100"},"iteration_indptr":[0,1,2,3,4,5,6,7,8,9,10,11,12,13,14,15,16,17,18,19,20,21,22,23,24,25,26,27,28,29,30,31,32,33,34,35,36,37,38,39,40,41,42,43,44,45,46,47,48,49,50,51,52,53,54,55,56,57,58,59,60,61,62,63,64,65,66,67,68,69,70,71,72,73,74,75,76,77,78,79,80,81,82,83,84,85,86,87,88,89,90,91,92,93,94,95,96,97,98,99,100],"tree_info":[0,0,0,0,0,0,0,0,0,0,0,0,0,0,0,0,0,0,0,0,0,0,0,0,0,0,0,0,0,0,0,0,0,0,0,0,0,0,0,0,0,0,0,0,0,0,0,0,0,0,0,0,0,0,0,0,0,0,0,0,0,0,0,0,0,0,0,0,0,0,0,0,0,0,0,0,0,0,0,0,0,0,0,0,0,0,0,0,0,0,0,0,0,0,0,0,0,0,0,0],"trees":[{"base_weights":[-1.2573634E-1,1.51071E0,-6.049865E-1,2.2263691E0,8.1171125E-1,3.297698E-1,-8.6380595E-1,2.6734443E0,1.6996298E0,1.7069473E0,3.8026989E-1,1.0371712E0,-1.6336468E-1,-3.2687056E-1,-1.0001045E0,2.109595E-1,1.4049909E-1,1.3798551E-1,5.7759315E-2,1.4242575E-1,3.1002548E-2,4.379692E-2,-3.924815E-2,2.0478582E-1,4.6490666E-2,7.246751E-2,-2.6540516E-2,-8.664399E-3,-4.645842E-2,-4.2463187E-2,-7.663315E-2],"categories":[0,0,1,2,0,1,2,0,1,2,3,0,1,2,3,0,1,2,3,0,1,2,3,0,1,2,0,1,2,4,0,0,1,0,0,0,0],"categories_nodes":[0,1,2,3,4,5,6,7,8,9,10,11,12,13,14],"categories_segments":[0,1,4,7,11,15,19,23,26,30,31,33,34,35,36],"categories_sizes":[1,3,3,4,4,4,4,3,4,1,2,1,1,1,1],"default_left":[1,1,1,1,1,1,1,1,1,1,1,1,1,1,1,0,0,0,0,0,0,0,0,0,0,0,0,0,0,0,0],"id":0,"left_children":[1,3,5,7,9,11,13,15,17,19,21,23,25,27,29,-1,-1,-1,-1,-1,-1,-1,-1,-1,-1,-1,-1,-1,-1,-1,-1],"loss_changes":[2.3000974E3,3.2871777E2,5.4966364E2,7.0868774E1,1.2826128E2,1.7239368E2,1.2885583E2,1.7053467E1,2.0138733E1,2.8157867E1,4.43649E1,1.3969052E2,6.4313774E1,2.2202919E1,1.973938E1,0E0,0E0,0E0,0E0,0E0,0E0,0E0,0E0,0E0,0E0,0E0,0E0,0E0,0E0,0E0,0E0],"parents":[2147483647,0,0,1,1,2,2,3,3,4,4,5,5,6,6,7,7,8,8,9,9,10,10,11,11,12,12,13,13,14,14],"right_children":[2,4,6,8,10,12,14,16,18,20,22,24,26,28,30,-1,-1,-1,-1,-1,-1,-1,-1,-1,-1,-1,-1,-1,-1,-1,-1],"split_conditions":[NaN,NaN,NaN,NaN,NaN,NaN,NaN,NaN,NaN,NaN,NaN,NaN,NaN,NaN,NaN,2.109595E-1,1.4049909E-1,1.3798551E-1,5.7759315E-2,1.4242575E-1,3.1002548E-2,4.379692E-2,-3.924815E-2,2.0478582E-1,4.6490666E-2,7.246751E-2,-2.6540516E-2,-8.664399E-3,-4.645842E-2,-4.2463187E-2,-7.663315E-2],"split_indices":[9,15,15,14,14,14,14,22,14,20,17,13,13,15,13,0,0,0,0,0,0,0,0,0,0,0,0,0,0,0,0],"split_type":[1,1,1,1,1,1,1,1,1,1,1,1,1,1,1,0,0,0,0,0,0,0,0,0,0,0,0,0,0,0,0],"sum_hessian":[2.9325085E3,6.636073E2,2.2689014E3,3.2669604E2,3.3691122E2,4.9127368E2,1.7776276E3,1.7460362E2,1.5209244E2,1.0839423E2,2.2851698E2,2.022224E2,2.890513E2,3.6150327E2,1.4161243E3,1.3998557E2,3.4618053E1,1.2768954E2,2.440289E1,9.193647E1,1.6457764E1,1.8633214E2,4.218484E1,3.7644768E1,1.6457764E2,4.123899E1,2.4781229E2,2.1508594E2,1.4641734E2,1.1123178E2,1.3048926E3],"tree_param":{"num_deleted":"0","num_feature":"32","num_nodes":"31","size_leaf_vector":"1"}},{"base_weights":[-1.2187755E-1,1.328685E0,-5.794634E-1,1.9129952E0,7.266822E-1,2.976472E-1,-8.317496E-1,2.2775478E0,1.4729828E0,1.4890069E0,3.406677E-1,1.6038647E0,2.836823E-2,-3.117232E-1,-9.672126E-1,1.772167E-1,1.1124033E-1,1.1847215E-1,5.3799503E-2,1.2027211E-1,2.8657058E-2,3.908297E-2,-3.685196E-2,1.362797E-1,-3.0208914E-2,4.2283423E-2,-2.5301388E-2,3.528779E-2,-2.914652E-2,-4.2823046E-2,-7.3992945E-2],"categories":[0,0,1,2,0,1,2,0,1,2,3,0,1,2,3,0,0,1,2,3,0,1,0,1,2,4,0,1,0,1,0,1,2,0,1,2,3,0,0],"categories_nodes":[0,1,2,3,4,5,6,7,8,9,10,11,12,13,14],"categories_segments":[0,1,4,7,11,15,16,20,22,26,28,30,33,37,38],"categories_sizes":[1,3,3,4,4,1,4,2,4,2,2,3,4,1,1],"default_left":[1,1,1,1,1,1,1,1,1,1,1,1,1,1,1,0,0,0,0,0,0,0,0,0,0,0,0,0,0,0,0],"id":1,"left_children":[1,3,5,7,9,11,13,15,17,19,21,23,25,27,29,-1,-1,-1,-1,-1,-1,-1,-1,-1,-1,-1,-1,-1,-1,-1,-1],"loss_changes":[1.9371736E3,2.4314905E2,4.9175293E2,5.1779175E1,1.000914E2,1.7292459E2,1.2027075E2,1.2111877E1,1.2979034E1,1.5320099E1,3.6540657E1,4.1859024E1,8.312339E1,2.3260494E1,1.5711426E1,0E0,0E0,0E0,0E0,0E0,0E0,0E0,0E0,0E0,0E0,0E0,0E0,0E0,0E0,0E0,0E0],"parents":[2147483647,0,0,1,1,2,2,3,3,4,4,5,5,6,6,7,7,8,8,9,9,10,10,11,11,12,12,13,13,14,14],"right_children":[2,4,6,8,10,12,14,16,18,20,22,24,26,28,30,-1,-1,-1,-1,-1,-1,-1,-1,-1,-1,-1,-1,-1,-1,-1,-1],"split_conditions":[NaN,NaN,NaN,NaN,NaN,NaN,NaN,NaN,NaN,NaN,NaN,NaN,NaN,NaN,NaN,1.772167E-1,1.1124033E-1,1.1847215E-1,5.3799503E-2,1.2027211E-1,2.8657058E-2,3.908297E-2,-3.685196E-2,1.362797E-1,-3.0208914E-2,4.2283423E-2,-2.5301388E-2,3.528779E-2,-2.914652E-2,-4.2823046E-2,-7.3992945E-2],"split_indices":[9,15,15,14,14,13,14,22,14,22,17,14,14,13,13,0,0,0,0,0,0,0,0,0,0,0,0,0,0,0,0],"split_type":[1,1,1,1,1,1,1,1,1,1,1,1,1,1,1,0,0,0,0,0,0,0,0,0,0,0,0,0,0,0,0],"sum_hessian":[2.9181902E3,6.9910754E2,2.2190828E3,3.5344058E2,3.4566696E2,4.949501E2,1.7241326E3,1.9096425E2,1.6247633E2,1.1492946E2,2.3073749E2,8.358798E1,4.1136212E2,3.5795404E2,1.3661786E3,1.639E2,2.7064264E1,1.3718965E2,2.5286684E1,1.0137553E2,1.3553934E1,1.8955898E2,4.1178524E1,7.516613E1,8.421859E0,1.6755219E2,2.4380994E2,3.2561604E1,3.2539246E2,1.0870408E2,1.2574745E3],"tree_param":{"num_deleted":"0","num_feature":"32","num_nodes":"31","size_leaf_vector":"1"}},{"base_weights":[-1.1067108E-1,8.757597E-1,-5.372448E-1,1.3911028E0,3.9801106E-1,1.18792556E-1,-7.3905814E-1,1.6059564E-1,1.1831744E0,3.9841346E-2,9.0335417E-1,5.572718E-1,-1.3249825E-1,-4.2518988E-1,-8.5834134E-1,1.1471849E-1,5.646556E-2,2.9431634E-2,-1.4619914E-2,1.0617008E-1,2.9656721E-2,6.2412493E-2,-3.4719037E-3,5.5015247E-2,-1.7066615E-2,-1.8606825E-2,-5.1786374E-2,-5.4539338E-2,-7.4216135E-2],"categories":[0,1,2,0,1,2,3,0,1,2,3,0,2,0,0,0,0,0,0,0,0,0],"categories_nodes":[0,1,2,3,4,5,6,8,9,10,11,12,13,14],"categories_segments":[0,3,7,11,12,13,14,15,16,17,18,19,20,21],"categories_sizes":[3,4,4,1,1,1,1,1,1,1,1,1,1,1],"default_left":[1,1,1,1,1,1,1,0,1,1,1,1,1,1,1,0,0,0,0,0,0,0,0,0,0,0,0,0,0],"id":2,"left_children":[1,3,5,7,9,11,13,-1,15,17,19,21,23,25,27,-1,-1,-1,-1,-1,-1,-1,-1,-1,-1,-1,-1,-1,-1],"loss_changes":[1.2173372E3,2.1315143E2,2.680808E2,6.362903E1,8.149678E1,5.2717613E1,5.662628E1,0E0,4.8732544E1,2.2946991E1,4.8259995E1,3.0809803E1,2.5559566E1,1.9578636E1,1.7755066E1,0E0,0E0,0E0,0E0,0E0,0E0,0E0,0E0,0E0,0E0,0E0,0E0,0E0,0E0],"parents":[2147483647,0,0,1,1,2,2,3,3,4,4,5,5,6,6,8,8,9,9,10,10,11,11,12,12,13,13,14,14],"right_children":[2,4,6,8,10,12,14,-1,16,18,20,22,24,26,28,-1,-1,-1,-1,-1,-1,-1,-1,-1,-1,-1,-1,-1,-1],"split_conditions":[NaN,NaN,NaN,NaN,NaN,NaN,NaN,1.6059564E-1,NaN,NaN,NaN,NaN,NaN,NaN,NaN,1.1471849E-1,5.646556E-2,2.9431634E-2,-1.4619914E-2,1.0617008E-1,2.9656721E-2,6.2412493E-2,-3.4719037E-3,5.5015247E-2,-1.7066615E-2,-1.8606825E-2,-5.1786374E-2,-5.4539338E-2,-7.4216135E-2],"split_indices":[15,14,14,13,1,10,10,0,10,10,10,15,13,15,15,0,0,0,0,0,0,0,0,0,0,0,0,0,0],"split_type":[1,1,1,1,1,1,1,0,1,1,1,1,1,1,1,0,0,0,0,0,0,0,0,0,0,0,0,0,0],"sum_hessian":[2.8924604E3,8.724442E2,2.0200164E3,4.183533E2,4.5409088E2,4.7431454E2,1.5457019E3,8.6164825E1,3.3218848E2,2.6705652E2,1.8703438E2,1.7373683E2,3.005777E2,4.2828174E2,1.1174202E3,1.7543848E2,1.5675E2,1.0773334E2,1.5932317E2,8.960728E1,9.74271E1,1.18674416E2,5.5062424E1,2.9055487E1,2.7152222E2,2.6481284E2,1.634689E2,6.1243646E2,5.0498364E2],"tree_param":{"num_deleted":"0","num_feature":"32","num_nodes":"29","size_leaf_vector":"1"}},{"base_weights":[-1.0594801E-1,1.1306566E0,-5.3378505E-1,1.4706208E0,5.558382E-1,2.1692367E-1,-7.7038217E-1,1.7530221E0,1.142532E0,1.1838416E0,2.4756461E-1,1.2686553E0,-7.1833786E-3,-2.9163805E-1,-9.029927E-1,1.4454287E-1,1.0253172E-1,9.3701914E-2,4.340712E-2,1.00872844E-1,3.1134013E-2,3.7187018E-2,-1.576138E-2,1.0780377E-1,-3.621495E-2,3.131996E-2,-2.4065373E-2,-7.3016984E-3,-4.2349543E-2,-3.5427086E-2,-6.953165E-2],"categories":[0,0,1,0,1,2,0,1,2,3,0,1,2,3,0,0,1,2,3,3,0,1,2,4,0,1,2,0,0,1,2,0,1,2,3,0,0],"categories_nodes":[0,1,2,3,4,5,6,7,8,9,10,11,12,13,14],"categories_segments":[0,1,3,6,10,14,15,19,20,24,27,28,31,35,36],"categories_sizes":[1,2,3,4,4,1,4,1,4,3,1,3,4,1,1],"default_left":[1,1,1,1,1,1,1,1,1,1,1,1,1,1,1,0,0,0,0,0,0,0,0,0,0,0,0,0,0,0,0],"id":3,"left_children":[1,3,5,7,9,11,13,15,17,19,21,23,25,27,29,-1,-1,-1,-1,-1,-1,-1,-1,-1,-1,-1,-1,-1,-1,-1,-1],"loss_changes":[1.5176123E3,1.4190466E2,3.7926947E2,3.9268127E1,5.2038208E1,1.2138733E2,1.01855835E2,1.3788513E1,1.2946716E1,1.0482643E1,2.2204205E1,3.1076233E1,5.7598225E1,1.8589968E1,1.8270874E1,0E0,0E0,0E0,0E0,0E0,0E0,0E0,0E0,0E0,0E0,0E0,0E0,0E0,0E0,0E0,0E0],"parents":[2147483647,0,0,1,1,2,2,3,3,4,4,5,5,6,6,7,7,8,8,9,9,10,10,11,11,12,12,13,13,14,14],"right_children":[2,4,6,8,10,12,14,16,18,20,22,24,26,28,30,-1,-1,-1,-1,-1,-1,-1,-1,-1,-1,-1,-1,-1,-1,-1,-1],"split_conditions":[NaN,NaN,NaN,NaN,NaN,NaN,NaN,NaN,NaN,NaN,NaN,NaN,NaN,NaN,NaN,1.4454287E-1,1.0253172E-1,9.3701914E-2,4.340712E-2,1.00872844E-1,3.1134013E-2,3.7187018E-2,-1.576138E-2,1.0780377E-1,-3.621495E-2,3.131996E-2,-2.4065373E-2,-7.3016984E-3,-4.2349543E-2,-3.5427086E-2,-6.953165E-2],"split_indices":[9,18,15,14,14,13,14,0,14,22,15,14,14,15,13,0,0,0,0,0,0,0,0,0,0,0,0,0,0,0,0],"split_type":[1,1,1,1,1,1,1,1,1,1,1,1,1,1,1,0,0,0,0,0,0,0,0,0,0,0,0,0,0,0,0],"sum_hessian":[2.8681807E3,7.365165E2,2.1316643E3,4.6134177E2,2.751747E2,5.1000824E2,1.621656E3,2.4524924E2,2.1609251E2,8.918821E1,1.8598648E2,8.9761406E1,4.2024683E2,3.5350085E2,1.2681552E3,1.5571742E2,8.9531815E1,1.7496402E2,4.1128506E1,7.098558E1,1.8202631E1,1.2083221E2,6.5154274E1,8.1597145E1,8.164268E0,1.7738719E2,2.4285965E2,2.116623E2,1.4183856E2,1.0311151E2,1.1650437E3],"tree_param":{"num_deleted":"0","num_feature":"32","num_nodes":"31","size_leaf_vector":"1"}},{"base_weights":[-9.583446E-2,7.2513384E-1,-4.8269737E-1,1.390535E0,2.0589758E-1,1.0044318E-1,-6.753183E-1,1.6098461E0,1.1098005E0,1.1444184E0,-3.0921306E-3,1.1157943E0,-2.6630786E-1,3.1455553E-1,-8.663095E-1,1.3161208E-1,9.7745545E-2,8.897464E-2,3.921339E-2,1.2375336E-1,4.258998E-2,2.84972E-2,-2.211152E-2,9.425565E-2,8.084663E-3,2.6413148E-2,-2.4955202E-2,5.525533E-2,-4.843409E-3,-3.318355E-2,-6.682249E-2],"categories":[0,1,2,0,0,1,2,3,0,1,2,3,0,0,0,3,0,1,2,4,0,1,2,3,0,1,2,3,0,0,0,1,2,0],"categories_nodes":[0,1,2,3,4,5,6,7,8,9,10,11,12,13,14],"categories_segments":[0,3,4,8,12,13,14,15,16,20,24,28,29,30,33],"categories_sizes":[3,1,4,4,1,1,1,1,4,4,4,1,1,3,1],"default_left":[1,1,1,1,1,1,1,1,1,1,1,1,1,1,1,0,0,0,0,0,0,0,0,0,0,0,0,0,0,0,0],"id":4,"left_children":[1,3,5,7,9,11,13,15,17,19,21,23,25,27,29,-1,-1,-1,-1,-1,-1,-1,-1,-1,-1,-1,-1,-1,-1,-1,-1],"loss_changes":[9.013219E2,3.1241367E2,2.172941E2,2.1207214E1,1.0130078E2,1.7910703E2,2.7509888E2,6.8361816E0,7.7483215E0,2.5799469E1,4.8013252E1,1.9078949E1,1.5587074E1,3.9102318E1,1.7316833E1,0E0,0E0,0E0,0E0,0E0,0E0,0E0,0E0,0E0,0E0,0E0,0E0,0E0,0E0,0E0,0E0],"parents":[2147483647,0,0,1,1,2,2,3,3,4,4,5,5,6,6,7,7,8,8,9,9,10,10,11,11,12,12,13,13,14,14],"right_children":[2,4,6,8,10,12,14,16,18,20,22,24,26,28,30,-1,-1,-1,-1,-1,-1,-1,-1,-1,-1,-1,-1,-1,-1,-1,-1],"split_conditions":[NaN,NaN,NaN,NaN,NaN,NaN,NaN,NaN,NaN,NaN,NaN,NaN,NaN,NaN,NaN,1.3161208E-1,9.7745545E-2,8.897464E-2,3.921339E-2,1.2375336E-1,4.258998E-2,2.84972E-2,-2.211152E-2,9.425565E-2,8.084663E-3,2.6413148E-2,-2.4955202E-2,5.525533E-2,-4.843409E-3,-3.318355E-2,-6.682249E-2],"split_indices":[15,9,14,14,13,9,9,0,14,14,14,20,13,20,13,0,0,0,0,0,0,0,0,0,0,0,0,0,0,0,0],"split_type":[1,1,1,1,1,1,1,1,1,1,1,1,1,1,1,0,0,0,0,0,0,0,0,0,0,0,0,0,0,0,0],"sum_hessian":[2.83732E3,9.079393E2,1.9293809E3,3.9684143E2,5.110978E2,4.7807108E2,1.4513097E3,2.1962624E2,1.7721521E2,9.333362E1,4.177642E2,1.2714467E2,3.509264E2,2.339758E2,1.217334E3,1.3503674E2,8.458949E1,1.5107935E2,2.6135859E1,4.7086525E1,4.6247093E1,1.7935898E2,2.3840523E2,1.0906723E2,1.8077436E1,3.4428696E1,3.164977E2,1.10236435E2,1.2373936E2,1.0060857E2,1.1167253E3],"tree_param":{"num_deleted":"0","num_feature":"32","num_nodes":"31","size_leaf_vector":"1"}},{"base_weights":[-9.3673505E-2,5.4229194E-1,-4.07912E-1,1.2901934E0,7.95922E-2,6.137444E-1,-7.0137304E-1,1.3726935E0,7.1614254E-1,5.7197124E-1,-2.6078072E-1,1.0054959E0,2.7066508E-1,-1.4050843E-1,-8.3615595E-1,1.13311484E-1,8.118064E-2,3.047783E-2,9.1631144E-2,1.0955702E-1,2.4011884E-2,-5.5044815E-3,-3.9250817E-2,1.0403173E-1,6.4851314E-2,3.5200085E-2,-2.3093082E-2,4.1263584E-2,-2.0995596E-2,-5.5612225E-2,-7.5428404E-2],"categories":[0,1,2,3,0,0,0,1,0,1,0,1,0,1,2,0,1,2,2,0,0,0,1,2,3,0,2,0,0],"categories_nodes":[0,1,2,3,4,5,6,7,8,9,10,11,12,13,14],"categories_segments":[0,4,5,6,8,10,12,15,18,19,20,21,25,27,28],"categories_sizes":[4,1,1,2,2,2,3,3,1,1,1,4,2,1,1],"default_left":[1,1,1,1,1,1,1,1,1,1,1,1,1,1,1,0,0,0,0,0,0,0,0,0,0,0,0,0,0,0,0],"id":5,"left_children":[1,3,5,7,9,11,13,15,17,19,21,23,25,27,29,-1,-1,-1,-1,-1,-1,-1,-1,-1,-1,-1,-1,-1,-1,-1,-1],"loss_changes":[5.6148126E2,3.2012558E2,5.6444617E2,1.449115E1,9.6692406E1,5.5181473E1,1.0969476E2,1.0323975E1,5.8094616E0,5.1337776E1,1.653329E1,7.4749146E0,2.7164951E1,2.8382719E1,1.6366089E1,0E0,0E0,0E0,0E0,0E0,0E0,0E0,0E0,0E0,0E0,0E0,0E0,0E0,0E0,0E0,0E0],"parents":[2147483647,0,0,1,1,2,2,3,3,4,4,5,5,6,6,7,7,8,8,9,9,10,10,11,11,12,12,13,13,14,14],"right_children":[2,4,6,8,10,12,14,16,18,20,22,24,26,28,30,-1,-1,-1,-1,-1,-1,-1,-1,-1,-1,-1,-1,-1,-1,-1,-1],"split_conditions":[NaN,NaN,NaN,NaN,NaN,NaN,NaN,NaN,NaN,NaN,NaN,NaN,NaN,NaN,NaN,1.13311484E-1,8.118064E-2,3.047783E-2,9.1631144E-2,1.0955702E-1,2.4011884E-2,-5.5044815E-3,-3.9250817E-2,1.0403173E-1,6.4851314E-2,3.5200085E-2,-2.3093082E-2,4.1263584E-2,-2.0995596E-2,-5.5612225E-2,-7.5428404E-2],"split_indices":[14,9,9,22,15,15,15,15,1,13,15,15,18,13,18,0,0,0,0,0,0,0,0,0,0,0,0,0,0,0,0],"split_type":[1,1,1,1,1,1,1,1,1,1,1,1,1,1,1,0,0,0,0,0,0,0,0,0,0,0,0,0,0,0,0],"sum_hessian":[2.8089329E3,9.2792865E2,1.8810043E3,3.535893E2,5.7433936E2,4.1897037E2,1.4620339E3,3.072086E2,4.638072E1,2.3558003E2,3.387593E2,1.9397374E2,2.2499663E2,2.8468106E2,1.1773529E3,1.9151984E2,1.1568874E2,3.0944715E1,1.5436003E1,4.9115982E1,1.8646405E2,2.0252597E2,1.3623335E2,4.4385178E1,1.4958856E2,1.675662E2,5.743044E1,4.7197575E1,2.3748347E2,8.101634E2,3.6718948E2],"tree_param":{"num_deleted":"0","num_feature":"32","num_nodes":"31","size_leaf_vector":"1"}},{"base_weights":[-8.208521E-2,8.4999466E-1,-4.513709E-1,1.1032767E0,4.0612662E-1,1.8200572E-1,-6.727502E-1,1.1685817E0,4.030728E-1,5.545546E-1,-3.4751195E-1,9.4386494E-1,1.9214574E-3,-2.3578411E-1,-8.042006E-1,9.7421214E-2,6.2387094E-2,1.1413355E-1,1.479515E-2,5.0810367E-2,-9.367242E-3,3.814856E-2,-3.8520787E-2,-3.0737594E-2,8.377803E-2,2.9144906E-2,-1.6269201E-2,2.3293708E-2,-2.2170983E-2,-2.7732573E-2,-6.2354248E-2],"categories":[0,0,1,0,1,2,0,1,2,0,1,0,0,1,2,3,3,0,1,3,4,0,1,0,1,0,0,1,3,0,0],"categories_nodes":[0,1,2,3,4,5,6,7,8,9,10,11,12,13,14],"categories_segments":[0,1,3,6,9,11,12,16,17,21,23,25,26,29,30],"categories_sizes":[1,2,3,3,2,1,4,1,4,2,2,1,3,1,1],"default_left":[1,1,1,1,1,1,1,1,1,1,1,1,1,1,1,0,0,0,0,0,0,0,0,0,0,0,0,0,0,0,0],"id":6,"left_children":[1,3,5,7,9,11,13,15,17,19,21,23,25,27,29,-1,-1,-1,-1,-1,-1,-1,-1,-1,-1,-1,-1,-1,-1,-1,-1],"loss_changes":[9.5500995E2,8.697711E1,2.792877E2,2.1279907E1,3.249736E1,6.980841E1,8.373193E1,1.95177E1,8.703522E0,2.2253914E1,7.1502624E0,2.5800812E1,3.6485916E1,1.2100834E1,1.7479614E1,0E0,0E0,0E0,0E0,0E0,0E0,0E0,0E0,0E0,0E0,0E0,0E0,0E0,0E0,0E0,0E0],"parents":[2147483647,0,0,1,1,2,2,3,3,4,4,5,5,6,6,7,7,8,8,9,9,10,10,11,11,12,12,13,13,14,14],"right_children":[2,4,6,8,10,12,14,16,18,20,22,24,26,28,30,-1,-1,-1,-1,-1,-1,-1,-1,-1,-1,-1,-1,-1,-1,-1,-1],"split_conditions":[NaN,NaN,NaN,NaN,NaN,NaN,NaN,NaN,NaN,NaN,NaN,NaN,NaN,NaN,NaN,9.7421214E-2,6.2387094E-2,1.1413355E-1,1.479515E-2,5.0810367E-2,-9.367242E-3,3.814856E-2,-3.8520787E-2,-3.0737594E-2,8.377803E-2,2.9144906E-2,-1.6269201E-2,2.3293708E-2,-2.2170983E-2,-2.7732573E-2,-6.2354248E-2],"split_indices":[9,18,15,14,17,13,14,0,17,22,15,10,21,13,13,0,0,0,0,0,0,0,0,0,0,0,0,0,0,0,0],"split_type":[1,1,1,1,1,1,1,1,1,1,1,1,1,1,1,0,0,0,0,0,0,0,0,0,0,0,0,0,0,0,0],"sum_hessian":[2.7742903E3,7.864105E2,1.9878796E3,4.989773E2,2.8743323E2,5.139188E2,1.4739608E3,4.5498462E2,4.3992672E1,2.4117686E2,4.625636E1,9.691504E1,4.170038E2,3.426816E2,1.1312792E3,3.0993225E2,1.4505237E2,5.473357E0,3.8519318E1,2.0302182E2,3.815505E1,6.741422E0,3.951494E1,1.1172797E1,8.574225E1,1.5187378E2,2.6513004E2,3.4020405E1,3.086612E2,9.510276E1,1.0361764E3],"tree_param":{"num_deleted":"0","num_feature":"32","num_nodes":"31","size_leaf_vector":"1"}},{"base_weights":[-8.108788E-2,5.61096E-1,-4.1335282E-1,1.04983E0,1.6313288E-1,4.5199525E-1,-6.4255226E-1,1.2430749E0,8.0903125E-1,8.667683E-1,-1.1439327E-3,8.0170083E-1,8.250503E-2,-2.251708E-1,-7.719133E-1,9.738386E-2,5.653524E-2,6.878918E-2,3.1208504E-2,-2.8816199E-2,7.678651E-2,2.5349343E-2,-1.54320905E-2,6.8148814E-2,-5.688807E-3,1.7748976E-2,-2.889388E-2,-4.9517855E-2,-8.02715E-3,-2.6236773E-2,-5.9991926E-2],"categories":[0,1,2,0,0,0,1,2,3,0,0,1,2,0,1,2,3,0,1,0,0,0,1,3,0,1,2,0,0,0],"categories_nodes":[0,1,2,3,4,5,6,7,8,9,10,11,12,13,14],"categories_segments":[0,3,4,5,9,10,13,17,19,20,21,24,27,28,29],"categories_sizes":[3,1,1,4,1,3,4,2,1,1,3,3,1,1,1],"default_left":[1,1,1,1,1,1,1,1,1,1,1,1,1,1,1,0,0,0,0,0,0,0,0,0,0,0,0,0,0,0,0],"id":7,"left_children":[1,3,5,7,9,11,13,15,17,19,21,23,25,27,29,-1,-1,-1,-1,-1,-1,-1,-1,-1,-1,-1,-1,-1,-1,-1,-1],"loss_changes":[5.845805E2,1.8047769E2,3.5864972E2,1.7184479E1,6.0376816E1,4.806404E1,7.625354E1,5.705475E0,7.5147095E0,2.1935936E1,2.9731241E1,2.093985E1,1.3735767E1,1.6959944E1,1.6499878E1,0E0,0E0,0E0,0E0,0E0,0E0,0E0,0E0,0E0,0E0,0E0,0E0,0E0,0E0,0E0,0E0],"parents":[2147483647,0,0,1,1,2,2,3,3,4,4,5,5,6,6,7,7,8,8,9,9,10,10,11,11,12,12,13,13,14,14],"right_children":[2,4,6,8,10,12,14,16,18,20,22,24,26,28,30,-1,-1,-1,-1,-1,-1,-1,-1,-1,-1,-1,-1,-1,-1,-1,-1],"split_conditions":[NaN,NaN,NaN,NaN,NaN,NaN,NaN,NaN,NaN,NaN,NaN,NaN,NaN,NaN,NaN,9.738386E-2,5.653524E-2,6.878918E-2,3.1208504E-2,-2.8816199E-2,7.678651E-2,2.5349343E-2,-1.54320905E-2,6.8148814E-2,-5.688807E-3,1.7748976E-2,-2.889388E-2,-4.9517855E-2,-8.02715E-3,-2.6236773E-2,-5.9991926E-2],"split_indices":[15,9,9,14,13,20,14,22,30,10,21,17,18,10,13,0,0,0,0,0,0,0,0,0,0,0,0,0,0,0,0],"split_type":[1,1,1,1,1,1,1,1,1,1,1,1,1,1,1,0,0,0,0,0,0,0,0,0,0,0,0,0,0,0,0],"sum_hessian":[2.739058E3,9.329778E2,1.8060802E3,4.1738562E2,5.1559216E2,3.7732687E2,1.4287533E3,2.2833914E2,1.890465E2,9.8074844E1,4.1751733E2,1.9236523E2,1.8496162E2,3.399239E2,1.0888295E3,1.9583435E2,3.2504795E1,1.419501E2,4.7096382E1,1.1077737E1,8.699711E1,1.5549239E2,2.6202493E2,1.7018527E2,2.2179958E1,1.4030722E2,4.465442E1,6.8721756E1,2.7120215E2,9.481801E1,9.940114E2],"tree_param":{"num_deleted":"0","num_feature":"32","num_nodes":"31","size_leaf_vector":"1"}},{"base_weights":[-7.70025E-2,5.2406865E-1,-3.9663646E-1,8.3409494E-1,2.197579E-1,-2.6666713E-1,-7.421274E-1,9.900981E-1,2.4721241E-1,3.5474992E-1,-3.0800542E-1,1.8143767E-1,-4.5061198E-1,-3.1815156E-1,-8.4982747E-1,8.2133785E-2,4.2679906E-2,7.802384E-2,7.932998E-3,7.50655E-2,1.6486032E-2,4.5184474E-3,-3.681799E-2,6.0449943E-2,6.9636214E-3,9.365599E-3,-3.807908E-2,-3.650435E-3,-5.399251E-2,-7.665243E-3,-6.440847E-2],"categories":[0,1,2,0,1,2,3,0,0,1,2,0,1,2,0,1,2,3,0,1,2,3,0,1,2,3,0,0,1,2,3,0,1,3,0,0,0,2,0],"categories_nodes":[0,1,2,3,4,5,6,7,8,9,10,11,12,13,14],"categories_segments":[0,3,7,8,11,14,18,22,26,27,31,34,35,36,38],"categories_sizes":[3,4,1,3,3,4,4,4,1,4,3,1,1,2,1],"default_left":[1,1,1,1,1,1,1,1,1,1,1,1,1,1,1,0,0,0,0,0,0,0,0,0,0,0,0,0,0,0,0],"id":8,"left_children":[1,3,5,7,9,11,13,15,17,19,21,23,25,27,29,-1,-1,-1,-1,-1,-1,-1,-1,-1,-1,-1,-1,-1,-1,-1,-1],"loss_changes":[5.1966986E2,8.7556915E1,7.840164E1,4.1256805E1,3.3989044E1,1.063202E2,2.0846375E1,1.630191E1,1.0185031E1,3.1957085E1,7.087579E0,1.993729E1,3.4079865E1,1.0387277E1,4.9928284E0,0E0,0E0,0E0,0E0,0E0,0E0,0E0,0E0,0E0,0E0,0E0,0E0,0E0,0E0,0E0,0E0],"parents":[2147483647,0,0,1,1,2,2,3,3,4,4,5,5,6,6,7,7,8,8,9,9,10,10,11,11,12,12,13,13,14,14],"right_children":[2,4,6,8,10,12,14,16,18,20,22,24,26,28,30,-1,-1,-1,-1,-1,-1,-1,-1,-1,-1,-1,-1,-1,-1,-1,-1],"split_conditions":[NaN,NaN,NaN,NaN,NaN,NaN,NaN,NaN,NaN,NaN,NaN,NaN,NaN,NaN,NaN,8.2133785E-2,4.2679906E-2,7.802384E-2,7.932998E-3,7.50655E-2,1.6486032E-2,4.5184474E-3,-3.681799E-2,6.0449943E-2,6.9636214E-3,9.365599E-3,-3.807908E-2,-3.650435E-3,-5.399251E-2,-7.665243E-3,-6.440847E-2],"split_indices":[15,14,18,22,14,14,14,17,13,15,21,13,13,20,2,0,0,0,0,0,0,0,0,0,0,0,0,0,0,0,0],"split_type":[1,1,1,1,1,1,1,1,1,1,1,1,1,1,1,0,0,0,0,0,0,0,0,0,0,0,0,0,0,0,0],"sum_hessian":[2.7042378E3,9.3778815E2,1.7664496E3,4.6269852E2,4.7508963E2,1.28605E3,4.803996E2,3.6411514E2,9.858336E1,3.7971292E2,9.53767E1,3.7297852E2,9.1307153E2,9.9319405E1,3.810802E2,2.800203E2,8.409485E1,1.3151819E1,8.543154E1,6.1628273E1,3.1808466E2,3.1018366E1,6.435834E1,4.3354057E1,3.2962445E2,8.973894E1,8.233326E2,6.166885E1,3.765055E1,1.13668E1,3.6971338E2],"tree_param":{"num_deleted":"0","num_feature":"32","num_nodes":"31","size_leaf_vector":"1"}},{"base_weights":[-7.288801E-2,6.949807E-1,-4.0087306E-1,8.9264035E-1,3.415342E-1,1.1238984E-1,-5.9987104E-1,1.0108885E0,6.395223E-1,4.3561015E-1,-4.3038672E-1,7.573373E-1,-3.7168123E-2,-2.1498048E-1,-7.2593987E-1,8.025565E-2,9.005346E-3,5.787884E-2,2.3651307E-2,4.3473143E-2,-5.649059E-3,4.4678256E-4,-5.8712743E-2,6.605873E-2,-3.7236895E-2,1.8433616E-2,-1.9901233E-2,-2.9802944E-3,-3.5580993E-2,-4.7342468E-2,-6.7989685E-2],"categories":[0,0,1,0,1,2,3,0,1,0,0,1,2,3,0,1,2,0,1,3,0,1,2,0,0,1,2,0,1,2,3,0,0],"categories_nodes":[0,1,2,3,4,5,6,7,8,9,10,11,12,13,14],"categories_segments":[0,1,3,6,7,9,10,14,17,20,23,24,27,31,32],"categories_sizes":[1,2,3,1,2,1,4,3,3,3,1,3,4,1,1],"default_left":[1,1,1,1,1,1,1,1,1,1,1,1,1,1,1,0,0,0,0,0,0,0,0,0,0,0,0,0,0,0,0],"id":9,"left_children":[1,3,5,7,9,11,13,15,17,19,21,23,25,27,29,-1,-1,-1,-1,-1,-1,-1,-1,-1,-1,-1,-1,-1,-1,-1,-1],"loss_changes":[6.7595056E2,5.4898865E1,1.9266339E2,1.3627899E1,2.1198204E1,5.1261738E1,6.5002686E1,2.1610199E1,6.575081E0,2.0662304E1,5.542946E0,1.761987E1,2.830333E1,1.5226985E1,1.534436E1,0E0,0E0,0E0,0E0,0E0,0E0,0E0,0E0,0E0,0E0,0E0,0E0,0E0,0E0,0E0,0E0],"parents":[2147483647,0,0,1,1,2,2,3,3,4,4,5,5,6,6,7,7,8,8,9,9,10,10,11,11,12,12,13,13,14,14],"right_children":[2,4,6,8,10,12,14,16,18,20,22,24,26,28,30,-1,-1,-1,-1,-1,-1,-1,-1,-1,-1,-1,-1,-1,-1,-1,-1],"split_conditions":[NaN,NaN,NaN,NaN,NaN,NaN,NaN,NaN,NaN,NaN,NaN,NaN,NaN,NaN,NaN,8.025565E-2,9.005346E-3,5.787884E-2,2.3651307E-2,4.3473143E-2,-5.649059E-3,4.4678256E-4,-5.8712743E-2,6.605873E-2,-3.7236895E-2,1.8433616E-2,-1.9901233E-2,-2.9802944E-3,-3.5580993E-2,-4.7342468E-2,-6.7989685E-2],"split_indices":[9,18,15,0,14,13,14,14,14,22,24,14,14,15,18,0,0,0,0,0,0,0,0,0,0,0,0,0,0,0,0],"split_type":[1,1,1,1,1,1,1,1,1,1,1,1,1,1,1,0,0,0,0,0,0,0,0,0,0,0,0,0,0,0,0],"sum_hessian":[2.6837014E3,8.022795E2,1.881422E3,5.124807E2,2.8979874E2,5.2456335E2,1.3568586E3,3.459156E2,1.6656514E2,2.5948953E2,3.030922E1,9.934153E1,4.2522183E2,3.367699E2,1.0200888E3,3.184992E2,2.7416367E1,1.128613E2,5.370384E1,2.0130515E2,5.8184383E1,1.2989166E1,1.7320051E1,9.0451515E1,8.890012E0,1.8863316E2,2.3658865E2,2.0547876E2,1.3129114E2,7.095859E2,3.1050293E2],"tree_param":{"num_deleted":"0","num_feature":"32","num_nodes":"31","size_leaf_vector":"1"}},{"base_weights":[-7.414774E-2,6.340435E-1,-3.838589E-1,7.077246E-1,-2.2194003E-1,1.0067055E-1,-5.76639E-1,7.7144337E-1,4.0279012E-2,-5.194622E-1,1.9994414E-1,-1.4750934E-1,4.372415E-1,-2.0535325E-1,-7.018991E-1,7.05797E-2,4.3606497E-2,2.9747004E-2,-1.8011902E-2,-0E0,-4.855365E-2,3.2654785E-2,-6.299532E-2,1.2680341E-2,-2.7442757E-2,-1.8290078E-2,4.3035567E-2,-4.5928024E-2,-7.1929935E-3,-4.3043427E-2,-6.3238904E-2],"categories":[0,0,1,0,1,2,0,0,2,0,1,2,3,0,1,2,3,0,1,2,0,3,5,0,1,2,3,0,0,0],"categories_nodes":[0,1,2,3,4,5,6,7,8,9,10,11,12,13,14],"categories_segments":[0,1,3,6,7,8,9,13,17,20,21,23,27,28,29],"categories_sizes":[1,2,3,1,1,1,4,4,3,1,2,4,1,1,1],"default_left":[1,1,1,1,1,1,1,1,1,1,1,1,1,1,1,0,0,0,0,0,0,0,0,0,0,0,0,0,0,0,0],"id":10,"left_children":[1,3,5,7,9,11,13,15,17,19,21,23,25,27,29,-1,-1,-1,-1,-1,-1,-1,-1,-1,-1,-1,-1,-1,-1,-1,-1],"loss_changes":[5.794058E2,5.115103E1,1.7222644E2,3.081195E1,8.25695E0,4.394292E1,6.0424072E1,2.0824738E1,6.9862394E0,3.1903467E0,6.3243947E0,2.1557667E1,2.2422688E1,1.4407952E1,1.6576569E1,0E0,0E0,0E0,0E0,0E0,0E0,0E0,0E0,0E0,0E0,0E0,0E0,0E0,0E0,0E0,0E0],"parents":[2147483647,0,0,1,1,2,2,3,3,4,4,5,5,6,6,7,7,8,8,9,9,10,10,11,11,12,12,13,13,14,14],"right_children":[2,4,6,8,10,12,14,16,18,20,22,24,26,28,30,-1,-1,-1,-1,-1,-1,-1,-1,-1,-1,-1,-1,-1,-1,-1,-1],"split_conditions":[NaN,NaN,NaN,NaN,NaN,NaN,NaN,NaN,NaN,NaN,NaN,NaN,NaN,NaN,NaN,7.05797E-2,4.3606497E-2,2.9747004E-2,-1.8011902E-2,-0E0,-4.855365E-2,3.2654785E-2,-6.299532E-2,1.2680341E-2,-2.7442757E-2,-1.8290078E-2,4.3035567E-2,-4.5928024E-2,-7.1929935E-3,-4.3043427E-2,-6.3238904E-2],"split_indices":[9,17,15,18,29,1,14,14,20,13,28,14,10,10,15,0,0,0,0,0,0,0,0,0,0,0,0,0,0,0,0],"split_type":[1,1,1,1,1,1,1,1,1,1,1,1,1,1,1,0,0,0,0,0,0,0,0,0,0,0,0,0,0,0,0],"sum_hessian":[2.6413813E3,8.026867E2,1.8386947E3,7.400457E2,6.2640953E1,5.2220386E2,1.3164907E3,6.743461E2,6.569963E1,3.7800827E1,2.4840126E1,2.993482E2,2.2285567E2,3.341402E2,9.823506E2,3.335984E2,3.407477E2,3.0048567E1,3.5651066E1,6.9080925E0,3.0892736E1,2.1109177E1,3.7309492E0,1.2183857E2,1.7750964E2,3.774144E1,1.8511423E2,6.690973E1,2.6723047E2,5.5404016E2,4.2831042E2],"tree_param":{"num_deleted":"0","num_feature":"32","num_nodes":"31","size_leaf_vector":"1"}},{"base_weights":[-6.3598886E-2,5.9471536E-1,-3.5994813E-1,7.687871E-1,2.859093E-1,5.5628236E-2,-5.531075E-1,8.783013E-1,5.3104997E-1,6.290757E-1,1.0735585E-1,7.650549E-1,-6.447142E-2,-2.5965738E-1,-7.2905624E-1,6.9909096E-2,5.8471775E-3,4.980419E-2,1.919553E-2,5.8345087E-2,-6.833809E-3,3.4766834E-2,1.2957199E-3,1.8518098E-2,7.295705E-2,9.245294E-3,-2.0947253E-2,1.8796442E-2,-2.6329955E-2,-4.9773775E-2,-7.350295E-2],"categories":[0,0,1,0,1,2,3,3,0,0,0,1,0,1,2,0,2,3,6,0,1,2,0,2,0,1,0,0,1],"categories_nodes":[0,1,2,3,4,5,6,7,8,9,10,11,12,13,14],"categories_segments":[0,1,3,7,8,9,10,12,15,19,22,23,24,26,27],"categories_sizes":[1,2,4,1,1,1,2,3,4,3,1,1,2,1,2],"default_left":[1,1,1,1,1,1,1,1,1,1,1,1,1,1,1,0,0,0,0,0,0,0,0,0,0,0,0,0,0,0,0],"id":11,"left_children":[1,3,5,7,9,11,13,15,17,19,21,23,25,27,29,-1,-1,-1,-1,-1,-1,-1,-1,-1,-1,-1,-1,-1,-1,-1,-1],"loss_changes":[5.0938498E2,4.254651E1,1.4507501E2,1.2006378E1,1.7406895E1,4.9251053E1,6.2667328E1,1.7684662E1,5.5550613E0,1.200983E1,5.9785748E0,8.356625E0,2.0347134E1,2.306321E1,9.700897E0,0E0,0E0,0E0,0E0,0E0,0E0,0E0,0E0,0E0,0E0,0E0,0E0,0E0,0E0,0E0,0E0],"parents":[2147483647,0,0,1,1,2,2,3,3,4,4,5,5,6,6,7,7,8,8,9,9,10,10,11,11,12,12,13,13,14,14],"right_children":[2,4,6,8,10,12,14,16,18,20,22,24,26,28,30,-1,-1,-1,-1,-1,-1,-1,-1,-1,-1,-1,-1,-1,-1,-1,-1],"split_conditions":[NaN,NaN,NaN,NaN,NaN,NaN,NaN,NaN,NaN,NaN,NaN,NaN,NaN,NaN,NaN,6.9909096E-2,5.8471775E-3,4.980419E-2,1.919553E-2,5.8345087E-2,-6.833809E-3,3.4766834E-2,1.2957199E-3,1.8518098E-2,7.295705E-2,9.245294E-3,-2.0947253E-2,1.8796442E-2,-2.6329955E-2,-4.9773775E-2,-7.350295E-2],"split_indices":[9,18,14,0,11,13,18,14,28,17,13,1,18,13,14,0,0,0,0,0,0,0,0,0,0,0,0,0,0,0,0],"split_type":[1,1,1,1,1,1,1,1,1,1,1,1,1,1,1,0,0,0,0,0,0,0,0,0,0,0,0,0,0,0,0],"sum_hessian":[2.6108022E3,8.094115E2,1.8013909E3,5.153788E2,2.9403268E2,5.703813E2,1.2310095E3,3.4941556E2,1.6596323E2,9.8558136E1,1.9547455E2,8.312704E1,4.8725427E2,4.6371402E2,7.672955E2,3.2157483E2,2.7840721E1,1.0645876E2,5.9504467E1,8.161822E1,1.6939919E1,3.6529976E1,1.5894458E2,2.6437408E1,5.668963E1,2.5916986E2,2.2808441E2,7.1611374E1,3.9210266E2,6.364252E2,1.3087035E2],"tree_param":{"num_deleted":"0","num_feature":"32","num_nodes":"31","size_leaf_vector":"1"}},{"base_weights":[-6.25909E-2,5.404577E-1,-3.4115663E-1,7.88957E-1,3.3206838E-1,1.017333E-1,-5.245964E-1,8.517906E-1,3.519096E-1,4.3262962E-1,-2.578731E-1,6.284883E-1,-3.6203086E-2,-1.8177399E-1,-6.470442E-1,8.331254E-2,5.777181E-2,4.246595E-2,-1.5407528E-2,6.8805456E-2,2.5338855E-2,1.0821384E-2,-3.7857804E-2,5.684796E-2,-3.5772517E-2,2.221442E-2,-1.737457E-2,-4.2540587E-2,-6.025448E-3,-4.1119847E-2,-6.3520215E-2],"categories":[0,0,1,2,3,0,1,2,0,1,0,1,2,3,4,0,1,2,3,0,0,2,8,9,0,1,3,0,1,3,5,6,8,3,4,0,1,3,0,0],"categories_nodes":[0,1,2,3,4,5,6,7,8,9,10,11,12,13,14],"categories_segments":[0,1,5,8,10,11,15,19,20,24,27,33,35,38,39],"categories_sizes":[1,4,3,2,1,4,4,1,4,3,6,2,3,1,1],"default_left":[1,1,1,1,1,1,1,1,1,1,1,1,1,1,1,0,0,0,0,0,0,0,0,0,0,0,0,0,0,0,0],"id":12,"left_children":[1,3,5,7,9,11,13,15,17,19,21,23,25,27,29,-1,-1,-1,-1,-1,-1,-1,-1,-1,-1,-1,-1,-1,-1,-1,-1],"loss_changes":[4.332633E2,4.1097305E1,1.4383147E2,8.9767E0,2.6648888E1,3.8014698E1,5.1721985E1,4.1785736E0,6.4640265E0,1.5914131E1,6.912628E0,1.7286724E1,2.7272099E1,1.2510717E1,1.6311035E1,0E0,0E0,0E0,0E0,0E0,0E0,0E0,0E0,0E0,0E0,0E0,0E0,0E0,0E0,0E0,0E0],"parents":[2147483647,0,0,1,1,2,2,3,3,4,4,5,5,6,6,7,7,8,8,9,9,10,10,11,11,12,12,13,13,14,14],"right_children":[2,4,6,8,10,12,14,16,18,20,22,24,26,28,30,-1,-1,-1,-1,-1,-1,-1,-1,-1,-1,-1,-1,-1,-1,-1,-1],"split_conditions":[NaN,NaN,NaN,NaN,NaN,NaN,NaN,NaN,NaN,NaN,NaN,NaN,NaN,NaN,NaN,8.331254E-2,5.777181E-2,4.246595E-2,-1.5407528E-2,6.8805456E-2,2.5338855E-2,1.0821384E-2,-3.7857804E-2,5.684796E-2,-3.5772517E-2,2.221442E-2,-1.737457E-2,-4.2540587E-2,-6.025448E-3,-4.1119847E-2,-6.3520215E-2],"split_indices":[9,14,15,22,18,16,14,13,28,15,28,19,21,10,18,0,0,0,0,0,0,0,0,0,0,0,0,0,0,0,0],"split_type":[1,1,1,1,1,1,1,1,1,1,1,1,1,1,1,0,0,0,0,0,0,0,0,0,0,0,0,0,0,0,0],"sum_hessian":[2.578897E3,8.1375665E2,1.7651404E3,3.6863022E2,4.4512643E2,5.1573627E2,1.2494042E3,3.2017328E2,4.845693E1,3.8162262E2,6.350383E1,1.07840546E2,4.0789572E2,3.3095557E2,9.1844855E2,6.1841843E1,2.5833145E2,3.5747597E1,1.27093315E1,5.6401695E1,3.2522092E2,2.3334751E1,4.0169075E1,9.661826E1,1.1222282E1,1.4976418E2,2.5813156E2,6.509033E1,2.6586523E2,6.453176E2,2.7313092E2],"tree_param":{"num_deleted":"0","num_feature":"32","num_nodes":"31","size_leaf_vector":"1"}},{"base_weights":[-5.7052545E-2,5.0165474E-1,-3.1992176E-1,7.372959E-1,3.0464232E-1,9.930334E-2,-4.9907187E-1,8.1318474E-1,3.8523245E-1,5.37009E-1,9.570198E-2,6.1929315E-1,-2.3472192E-2,-1.6768692E-1,-6.2033343E-1,8.3302304E-2,5.4437604E-2,4.411114E-2,-1.1893929E-2,5.6205302E-2,2.7115146E-2,2.9453546E-2,-1.3354609E-2,5.4504544E-2,-3.5567485E-2,1.9009976E-2,-1.4785705E-2,-3.626313E-4,-3.118699E-2,-3.6705934E-2,-5.78912E-2],"categories":[0,0,1,2,3,0,1,2,0,1,2,0,1,0,0,1,2,3,0,1,2,3,4,6,7,9,0,2,8,9,0,1,3,0,1,2,0,1,2,0,1,3,0,0],"categories_nodes":[0,1,2,3,4,5,6,7,8,9,10,11,12,13,14],"categories_segments":[0,1,5,8,11,13,14,18,26,30,33,36,39,42,43],"categories_sizes":[1,4,3,3,2,1,4,8,4,3,3,3,3,1,1],"default_left":[1,1,1,1,1,1,1,1,1,1,1,1,1,1,1,0,0,0,0,0,0,0,0,0,0,0,0,0,0,0,0],"id":13,"left_children":[1,3,5,7,9,11,13,15,17,19,21,23,25,27,29,-1,-1,-1,-1,-1,-1,-1,-1,-1,-1,-1,-1,-1,-1,-1,-1],"loss_changes":[3.7418286E2,3.6827713E1,1.3060373E2,8.682541E0,2.1127937E1,3.358884E1,4.8174866E1,5.285141E0,8.283616E0,6.863014E0,2.006149E1,1.3346699E1,2.0674685E1,1.3216554E1,1.661676E1,0E0,0E0,0E0,0E0,0E0,0E0,0E0,0E0,0E0,0E0,0E0,0E0,0E0,0E0,0E0,0E0],"parents":[2147483647,0,0,1,1,2,2,3,3,4,4,5,5,6,6,7,7,8,8,9,9,10,10,11,11,12,12,13,13,14,14],"right_children":[2,4,6,8,10,12,14,16,18,20,22,24,26,28,30,-1,-1,-1,-1,-1,-1,-1,-1,-1,-1,-1,-1,-1,-1,-1,-1],"split_conditions":[NaN,NaN,NaN,NaN,NaN,NaN,NaN,NaN,NaN,NaN,NaN,NaN,NaN,NaN,NaN,8.3302304E-2,5.4437604E-2,4.411114E-2,-1.1893929E-2,5.6205302E-2,2.7115146E-2,2.9453546E-2,-1.3354609E-2,5.4504544E-2,-3.5567485E-2,1.9009976E-2,-1.4785705E-2,-3.626313E-4,-3.118699E-2,-3.6705934E-2,-5.78912E-2],"split_indices":[9,14,15,22,15,13,14,28,28,21,20,14,21,15,15,0,0,0,0,0,0,0,0,0,0,0,0,0,0,0,0],"split_type":[1,1,1,1,1,1,1,1,1,1,1,1,1,1,1,0,0,0,0,0,0,0,0,0,0,0,0,0,0,0,0],"sum_hessian":[2.5475874E3,8.139507E2,1.7336367E3,3.680223E2,4.4592838E2,5.177422E2,1.2158945E3,3.0022116E2,6.780115E1,2.0883817E2,2.3709023E2,9.9732414E1,4.1800977E2,3.2791492E2,8.879796E2,5.605611E1,2.4416505E2,4.996119E1,1.7839958E1,8.768356E1,1.21154594E2,1.1448976E2,1.2260046E2,9.097381E1,8.758608E0,1.5949315E2,2.585166E2,2.0209149E2,1.2582344E2,5.0653488E2,3.8144473E2],"tree_param":{"num_deleted":"0","num_feature":"32","num_nodes":"31","size_leaf_vector":"1"}},{"base_weights":[-5.660479E-2,4.6537513E-1,-3.0633464E-1,5.251747E-1,-2.3678923E-1,8.2585864E-2,-4.7638318E-1,6.907783E-1,3.304371E-1,-5.1494634E-1,1.5544023E-1,3.6206073E-1,-1.5549931E-1,-1.6486803E-1,-5.933703E-1,3.643044E-2,6.443157E-2,2.9724501E-2,-5.215761E-4,3.8865732E-4,-4.498596E-2,2.6877044E-2,-5.9264306E-2,5.9990007E-2,2.0390959E-3,1.9865636E-2,-2.0405415E-2,-2.453001E-2,3.5950274E-3,-3.492639E-2,-5.5841006E-2],"categories":[0,0,1,0,1,2,0,1,2,0,0,1,2,3,0,1,2,3,2,0,0,1,3,3,5,1,2,3,4,0,1,3,2,0],"categories_nodes":[0,1,2,3,4,5,6,7,8,9,10,11,12,13,14],"categories_segments":[0,1,3,6,9,10,14,18,19,20,23,25,29,32,33],"categories_sizes":[1,2,3,3,1,4,4,1,1,3,2,4,3,1,1],"default_left":[1,1,1,1,1,1,1,1,1,1,1,1,1,1,1,0,0,0,0,0,0,0,0,0,0,0,0,0,0,0,0],"id":14,"left_children":[1,3,5,7,9,11,13,15,17,19,21,23,25,27,29,-1,-1,-1,-1,-1,-1,-1,-1,-1,-1,-1,-1,-1,-1,-1,-1],"loss_changes":[3.279153E2,3.445987E1,1.1298749E2,2.3240631E1,7.2309995E0,3.4613194E1,4.2563812E1,1.3020004E1,8.701935E0,2.349865E0,4.855232E0,3.5259857E1,1.4222847E1,1.1859051E1,1.5628998E1,0E0,0E0,0E0,0E0,0E0,0E0,0E0,0E0,0E0,0E0,0E0,0E0,0E0,0E0,0E0,0E0],"parents":[2147483647,0,0,1,1,2,2,3,3,4,4,5,5,6,6,7,7,8,8,9,9,10,10,11,11,12,12,13,13,14,14],"right_children":[2,4,6,8,10,12,14,16,18,20,22,24,26,28,30,-1,-1,-1,-1,-1,-1,-1,-1,-1,-1,-1,-1,-1,-1,-1,-1],"split_conditions":[NaN,NaN,NaN,NaN,NaN,NaN,NaN,NaN,NaN,NaN,NaN,NaN,NaN,NaN,NaN,3.643044E-2,6.443157E-2,2.9724501E-2,-5.215761E-4,3.8865732E-4,-4.498596E-2,2.6877044E-2,-5.9264306E-2,5.9990007E-2,2.0390959E-3,1.9865636E-2,-2.0405415E-2,-2.453001E-2,3.5950274E-3,-3.492639E-2,-5.5841006E-2],"split_indices":[9,17,15,15,29,14,14,1,18,15,28,19,18,1,15,0,0,0,0,0,0,0,0,0,0,0,0,0,0,0,0],"split_type":[1,1,1,1,1,1,1,1,1,1,1,1,1,1,1,0,0,0,0,0,0,0,0,0,0,0,0,0,0,0,0],"sum_hessian":[2.5153809E3,8.1276587E2,1.702615E3,7.501922E2,6.2573677E1,5.16584E2,1.186031E3,4.0235132E2,3.4784088E2,3.7733116E1,2.4840563E1,2.3908879E2,2.774952E2,3.2610004E2,8.599309E2,1.94475E2,2.0787631E2,2.8914267E2,5.8698215E1,4.4600945E0,3.327302E1,2.1405798E1,3.4347641E0,1.0073052E2,1.3835826E2,5.964567E1,2.1784953E2,1.8513289E2,1.4096716E2,4.9471118E2,3.6521973E2],"tree_param":{"num_deleted":"0","num_feature":"32","num_nodes":"31","size_leaf_vector":"1"}},{"base_weights":[-5.0881572E-2,4.274055E-1,-2.8384206E-1,6.140736E-1,2.2387363E-1,9.2807315E-2,-4.5396385E-1,4.5178393E-1,7.630125E-1,4.833476E-1,-5.0385702E-2,-1.1710884E-1,3.7048468E-1,-1.4441429E-1,-5.7257456E-1,4.3570224E-2,1.345111E-2,5.9474375E-2,-8.769699E-3,4.029998E-2,-1.6234638E-2,3.6978086E-3,-3.159131E-2,-1.159568E-3,-5.2577503E-2,-1.562948E-2,3.6253974E-2,-3.884552E-2,-3.620458E-3,-7.5808284E-3,-4.5815147E-2],"categories":[0,0,1,2,0,1,2,2,0,1,2,2,0,1,2,3,1,2,3,0,1,0,1,0,1,2,0,1,2,0,0,0],"categories_nodes":[0,1,2,3,4,5,6,7,8,9,10,11,12,13,14],"categories_segments":[0,1,4,7,8,11,12,16,19,21,23,26,29,30,31],"categories_sizes":[1,3,3,1,3,1,4,3,2,2,3,3,1,1,1],"default_left":[1,1,1,1,1,1,1,1,1,1,1,1,1,1,1,0,0,0,0,0,0,0,0,0,0,0,0,0,0,0,0],"id":15,"left_children":[1,3,5,7,9,11,13,15,17,19,21,23,25,27,29,-1,-1,-1,-1,-1,-1,-1,-1,-1,-1,-1,-1,-1,-1,-1,-1],"loss_changes":[2.7626337E2,3.0056305E1,1.0727223E2,8.973251E0,2.82049E1,3.044442E1,4.163716E1,6.9020004E0,8.358803E0,9.052277E0,7.4684463E0,1.7087065E1,1.5914898E1,1.12002945E1,1.7532043E1,0E0,0E0,0E0,0E0,0E0,0E0,0E0,0E0,0E0,0E0,0E0,0E0,0E0,0E0,0E0,0E0],"parents":[2147483647,0,0,1,1,2,2,3,3,4,4,5,5,6,6,7,7,8,8,9,9,10,10,11,11,12,12,13,13,14,14],"right_children":[2,4,6,8,10,12,14,16,18,20,22,24,26,28,30,-1,-1,-1,-1,-1,-1,-1,-1,-1,-1,-1,-1,-1,-1,-1,-1],"split_conditions":[NaN,NaN,NaN,NaN,NaN,NaN,NaN,NaN,NaN,NaN,NaN,NaN,NaN,NaN,NaN,4.3570224E-2,1.345111E-2,5.9474375E-2,-8.769699E-3,4.029998E-2,-1.6234638E-2,3.6978086E-3,-3.159131E-2,-1.159568E-3,-5.2577503E-2,-1.562948E-2,3.6253974E-2,-3.884552E-2,-3.620458E-3,-7.5808284E-3,-4.5815147E-2],"split_indices":[9,15,15,1,20,1,14,31,17,17,14,14,10,10,13,0,0,0,0,0,0,0,0,0,0,0,0,0,0,0,0],"split_type":[1,1,1,1,1,1,1,1,1,1,1,1,1,1,1,0,0,0,0,0,0,0,0,0,0,0,0,0,0,0,0],"sum_hessian":[2.4792974E3,8.1075024E2,1.668547E3,4.2018353E2,3.905667E2,5.17726E2,1.1508209E3,2.0482861E2,2.1535493E2,2.0201033E2,1.8855638E2,2.9333847E2,2.2438754E2,3.2107864E2,8.297423E2,1.3342067E2,7.1407936E1,2.0679892E2,8.556003E0,1.8701585E2,1.4994476E1,1.4754195E2,4.101443E1,2.5219849E2,4.113999E1,3.6970493E1,1.8741705E2,6.216716E1,2.589115E2,7.647772E1,7.532646E2],"tree_param":{"num_deleted":"0","num_feature":"32","num_nodes":"31","size_leaf_vector":"1"}},{"base_weights":[-4.839682E-2,2.1341953E-1,-3.2325962E-1,4.3116373E-1,2.8879568E-2,1.3580783E-1,-3.8333556E-1,8.325884E-1,3.3975628E-1,-1.3187024E-1,2.7846357E-1,3.2987863E-1,-5.5212957E-1,-7.191841E-2,-5.06656E-1,6.804587E-2,-0E0,3.6628246E-2,7.4352655E-3,-1.6978184E-3,-3.1892985E-2,6.6114016E-2,1.3240681E-2,-2.2863536E-3,4.2137217E-2,6.8025135E-2,-5.6821566E-2,2.0382673E-2,-1.4177964E-2,-3.308372E-2,-6.015424E-2],"categories":[0,1,0,1,2,3,0,0,2,0,1,2,0,1,2,3,0,2,2,3,4,6,0,1,2,0,2,0,0,0,1],"categories_nodes":[0,1,2,3,4,5,6,7,8,9,10,11,12,13,14],"categories_segments":[0,2,6,7,8,9,12,16,18,22,25,26,27,28,29],"categories_sizes":[2,4,1,1,1,3,4,2,4,3,1,1,1,1,2],"default_left":[1,1,1,1,1,1,1,1,1,1,1,1,1,1,1,0,0,0,0,0,0,0,0,0,0,0,0,0,0,0,0],"id":16,"left_children":[1,3,5,7,9,11,13,15,17,19,21,23,25,27,29,-1,-1,-1,-1,-1,-1,-1,-1,-1,-1,-1,-1,-1,-1,-1,-1],"loss_changes":[1.7675645E2,5.0077076E1,3.3303963E1,1.9935463E1,2.7520187E1,1.8292461E1,4.029181E1,7.6981354E0,1.6942753E1,1.3091316E1,1.5524277E1,9.839079E0,9.660616E0,1.259093E1,1.2602692E1,0E0,0E0,0E0,0E0,0E0,0E0,0E0,0E0,0E0,0E0,0E0,0E0,0E0,0E0,0E0,0E0],"parents":[2147483647,0,0,1,1,2,2,3,3,4,4,5,5,6,6,7,7,8,8,9,9,10,10,11,11,12,12,13,13,14,14],"right_children":[2,4,6,8,10,12,14,16,18,20,22,24,26,28,30,-1,-1,-1,-1,-1,-1,-1,-1,-1,-1,-1,-1,-1,-1,-1,-1],"split_conditions":[NaN,NaN,NaN,NaN,NaN,NaN,NaN,NaN,NaN,NaN,NaN,NaN,NaN,NaN,NaN,6.804587E-2,-0E0,3.6628246E-2,7.4352655E-3,-1.6978184E-3,-3.1892985E-2,6.6114016E-2,1.3240681E-2,-2.2863536E-3,4.2137217E-2,6.8025135E-2,-5.6821566E-2,2.0382673E-2,-1.4177964E-2,-3.308372E-2,-6.015424E-2],"split_indices":[18,14,13,13,1,14,14,22,28,14,12,1,4,11,14,0,0,0,0,0,0,0,0,0,0,0,0,0,0,0,0],"split_type":[1,1,1,1,1,1,1,1,1,1,1,1,1,1,1,0,0,0,0,0,0,0,0,0,0,0,0,0,0,0,0],"sum_hessian":[2.4538157E3,1.2552659E3,1.1985497E3,5.734322E2,6.8183374E2,1.370292E2,1.0615205E3,1.0382584E2,4.6960632E2,4.1288187E2,2.6895187E2,1.0804364E2,2.8985569E1,3.0326755E2,7.582529E2,9.412694E1,9.698904E0,2.8239267E2,1.8721367E2,3.05127E2,1.0775486E2,3.5682774E1,2.3326909E2,4.19385E1,6.610514E1,2.9794683E0,2.6006102E1,7.575635E1,2.275112E2,6.3815063E2,1.20102325E2],"tree_param":{"num_deleted":"0","num_feature":"32","num_nodes":"31","size_leaf_vector":"1"}},{"base_weights":[-4.6733238E-2,3.9519468E-1,-2.6744488E-1,5.835066E-1,2.4119818E-1,6.869352E-2,-4.2446285E-1,6.4146733E-1,1.887849E-1,3.1211698E-1,-1.9020854E-1,1.5313835E-1,-5.3499544E-1,-1.3986388E-1,-5.390539E-1,5.380619E-2,3.1428643E-2,2.8949054E-2,-3.1735826E-2,2.6820842E-2,-1.5978688E-2,-2.6001886E-2,3.5112802E-2,-2.4220325E-2,1.9505134E-2,-1.7071188E-3,-5.2740023E-2,-3.9043598E-2,-3.219088E-3,-3.309534E-2,-5.626984E-2],"categories":[0,0,1,2,3,0,1,2,0,1,0,0,1,2,0,1,2,3,3,0,2,9,0,1,0,0,0,2,3,4,5,6,8,0,0],"categories_nodes":[0,1,2,3,4,5,6,7,8,9,10,11,12,13,14],"categories_segments":[0,1,5,8,10,11,14,18,19,22,24,25,26,33,34],"categories_sizes":[1,4,3,2,1,3,4,1,3,2,1,1,7,1,1],"default_left":[1,1,1,1,1,1,1,1,1,1,1,1,1,1,1,0,0,0,0,0,0,0,0,0,0,0,0,0,0,0,0],"id":17,"left_children":[1,3,5,7,9,11,13,15,17,19,21,23,25,27,29,-1,-1,-1,-1,-1,-1,-1,-1,-1,-1,-1,-1,-1,-1,-1,-1],"loss_changes":[2.3725427E2,2.2710838E1,8.602983E1,7.51326E0,1.3859478E1,2.603415E1,3.555748E1,4.684067E0,6.1766667E0,1.0450424E1,6.641186E0,2.4098238E1,5.0469913E0,1.15148735E1,1.4832321E1,0E0,0E0,0E0,0E0,0E0,0E0,0E0,0E0,0E0,0E0,0E0,0E0,0E0,0E0,0E0,0E0],"parents":[2147483647,0,0,1,1,2,2,3,3,4,4,5,5,6,6,7,7,8,8,9,9,10,10,11,11,12,12,13,13,14,14],"right_children":[2,4,6,8,10,12,14,16,18,20,22,24,26,28,30,-1,-1,-1,-1,-1,-1,-1,-1,-1,-1,-1,-1,-1,-1,-1,-1],"split_conditions":[NaN,NaN,NaN,NaN,NaN,NaN,NaN,NaN,NaN,NaN,NaN,NaN,NaN,NaN,NaN,5.380619E-2,3.1428643E-2,2.8949054E-2,-3.1735826E-2,2.6820842E-2,-1.5978688E-2,-2.6001886E-2,3.5112802E-2,-2.4220325E-2,1.9505134E-2,-1.7071188E-3,-5.2740023E-2,-3.9043598E-2,-3.219088E-3,-3.309534E-2,-5.626984E-2],"split_indices":[9,14,15,22,18,14,14,0,28,17,10,10,28,10,18,0,0,0,0,0,0,0,0,0,0,0,0,0,0,0,0],"split_type":[1,1,1,1,1,1,1,1,1,1,1,1,1,1,1,0,0,0,0,0,0,0,0,0,0,0,0,0,0,0,0],"sum_hessian":[2.4322979E3,8.08756E2,1.6235419E3,3.6071805E2,4.4803793E2,5.153599E2,1.1081819E3,3.124025E2,4.8315563E1,3.8655753E2,6.1480423E1,4.5368784E2,6.1672104E1,3.2053976E2,7.876422E2,2.2026286E2,9.213962E1,3.7551662E1,1.0763903E1,3.5451562E2,3.2041885E1,5.069671E1,1.0783713E1,8.3193535E1,3.7049432E2,1.7250025E1,4.4422077E1,6.1596752E1,2.5894302E2,5.6050977E2,2.2713245E2],"tree_param":{"num_deleted":"0","num_feature":"32","num_nodes":"31","size_leaf_vector":"1"}},{"base_weights":[-4.2496175E-2,3.712404E-1,-2.5143662E-1,4.1900763E-1,-2.0153536E-1,-8.117095E-3,-4.5834157E-1,5.794556E-1,2.7628925E-1,6.02078E-3,-5.1680773E-1,4.6747333E-1,-1.0466208E-1,-1.613489E-1,-5.75807E-1,4.4861153E-2,1.4588187E-4,1.4134989E-2,4.346607E-2,-1.4987445E-2,2.5573166E-2,6.0345E-3,-5.1692758E-2,8.794173E-2,2.4527475E-2,7.0657344E-3,-1.8852577E-2,-2.396006E-2,3.2361653E-3,-3.7948404E-2,-6.603524E-2],"categories":[0,0,1,0,1,0,1,2,3,1,3,0,0,1,2,3,0,0,0,0,0,0,1,2,3,2,0,1],"categories_nodes":[0,1,2,3,4,5,6,7,8,9,10,11,12,13,14],"categories_segments":[0,1,3,5,9,11,12,16,17,18,19,20,21,25,26],"categories_sizes":[1,2,2,4,2,1,4,1,1,1,1,1,4,1,2],"default_left":[1,1,1,1,1,1,1,1,1,1,1,1,1,1,1,0,0,0,0,0,0,0,0,0,0,0,0,0,0,0,0],"id":18,"left_children":[1,3,5,7,9,11,13,15,17,19,21,23,25,27,29,-1,-1,-1,-1,-1,-1,-1,-1,-1,-1,-1,-1,-1,-1,-1,-1],"loss_changes":[2.086697E2,2.236316E1,8.046141E1,1.633931E1,4.435916E0,3.372635E1,2.9553726E1,4.891426E0,9.902508E0,2.705648E0,3.359819E0,1.0645475E1,1.8691015E1,8.507256E0,1.0915131E1,0E0,0E0,0E0,0E0,0E0,0E0,0E0,0E0,0E0,0E0,0E0,0E0,0E0,0E0,0E0,0E0],"parents":[2147483647,0,0,1,1,2,2,3,3,4,4,5,5,6,6,7,7,8,8,9,9,10,10,11,11,12,12,13,13,14,14],"right_children":[2,4,6,8,10,12,14,16,18,20,22,24,26,28,30,-1,-1,-1,-1,-1,-1,-1,-1,-1,-1,-1,-1,-1,-1,-1,-1],"split_conditions":[NaN,NaN,NaN,NaN,NaN,NaN,NaN,NaN,NaN,NaN,NaN,NaN,NaN,NaN,NaN,4.4861153E-2,1.4588187E-4,1.4134989E-2,4.346607E-2,-1.4987445E-2,2.5573166E-2,6.0345E-3,-5.1692758E-2,8.794173E-2,2.4527475E-2,7.0657344E-3,-1.8852577E-2,-2.396006E-2,3.2361653E-3,-3.7948404E-2,-6.603524E-2],"split_indices":[9,17,18,14,21,13,14,1,3,29,13,12,14,1,14,0,0,0,0,0,0,0,0,0,0,0,0,0,0,0,0],"split_type":[1,1,1,1,1,1,1,1,1,1,1,1,1,1,1,0,0,0,0,0,0,0,0,0,0,0,0,0,0,0,0],"sum_hessian":[2.4138142E3,8.084892E2,1.605325E3,7.477224E2,6.0766808E1,7.398435E2,8.654815E2,3.484582E2,3.992642E2,3.540814E1,2.535867E1,1.2303548E2,6.1680804E2,2.476646E2,6.178169E2,3.3164044E2,1.6817738E1,3.1615594E2,8.310824E1,2.0577566E1,1.483057E1,4.9260616E0,2.0432608E1,1.786805E1,1.0516743E2,2.620732E2,3.547348E2,1.4025925E2,1.0740535E2,5.1866864E2,9.9148254E1],"tree_param":{"num_deleted":"0","num_feature":"32","num_nodes":"31","size_leaf_vector":"1"}},{"base_weights":[-3.8141966E-2,3.4028843E-1,-2.3258288E-1,7.2920513E-1,2.6615325E-1,-1.04366615E-1,-5.742492E-1,5.0364923E-1,9.631492E-1,4.5511112E-1,8.242405E-2,-2.561947E-1,1.2535998E-1,-6.326657E-2,-5.108315E-1,5.1622123E-2,1.2744565E-2,8.167071E-2,4.6248805E-2,4.0657952E-2,1.0386449E-2,2.0973895E-2,-5.966404E-3,-3.919477E-3,-3.0428234E-2,-3.2657586E-2,1.8588621E-2,-1.6313186E-2,-4.6411917E-2],"categories":[0,0,1,2,3,0,0,0,1,2,2,0,1,2,0,2,3,9,3,0,1,2,4,0,1,3,0,0,1,2,3],"categories_nodes":[0,1,2,3,4,5,6,7,8,9,10,11,12,14],"categories_segments":[0,1,5,6,7,10,11,12,14,18,19,23,26,27],"categories_sizes":[1,4,1,1,3,1,1,2,4,1,4,3,1,4],"default_left":[1,1,1,1,1,1,1,1,1,1,1,1,1,0,1,0,0,0,0,0,0,0,0,0,0,0,0,0,0],"id":19,"left_children":[1,3,5,7,9,11,13,15,17,19,21,23,25,-1,27,-1,-1,-1,-1,-1,-1,-1,-1,-1,-1,-1,-1,-1,-1],"loss_changes":[1.7535553E2,2.2362457E1,6.846577E1,5.2290955E0,2.3185524E1,4.0192005E1,6.249344E0,3.5711708E0,1.0347862E0,9.286858E0,1.1594021E1,2.146354E1,3.237268E1,0E0,1.1153877E1,0E0,0E0,0E0,0E0,0E0,0E0,0E0,0E0,0E0,0E0,0E0,0E0,0E0,0E0],"parents":[2147483647,0,0,1,1,2,2,3,3,4,4,5,5,6,6,7,7,8,8,9,9,10,10,11,11,12,12,14,14],"right_children":[2,4,6,8,10,12,14,16,18,20,22,24,26,-1,28,-1,-1,-1,-1,-1,-1,-1,-1,-1,-1,-1,-1,-1,-1],"split_conditions":[NaN,NaN,NaN,NaN,NaN,NaN,NaN,NaN,NaN,NaN,NaN,NaN,NaN,-6.326657E-2,NaN,5.1622123E-2,1.2744565E-2,8.167071E-2,4.6248805E-2,4.0657952E-2,1.0386449E-2,2.0973895E-2,-5.966404E-3,-3.919477E-3,-3.0428234E-2,-3.2657586E-2,1.8588621E-2,-1.6313186E-2,-4.6411917E-2],"split_indices":[9,15,15,7,20,1,10,20,28,0,15,17,10,0,17,0,0,0,0,0,0,0,0,0,0,0,0,0,0],"split_type":[1,1,1,1,1,1,1,1,1,1,1,1,1,0,1,0,0,0,0,0,0,0,0,0,0,0,0,0,0],"sum_hessian":[2.383135E3,8.072888E2,1.5758462E3,1.2666087E2,6.80628E2,1.1481417E3,4.2770444E2,6.719644E1,5.9464428E1,3.3291473E2,3.4771326E2,6.933903E2,4.547514E2,7.5119606E1,3.5258484E2,4.0427174E1,2.6769272E1,3.9378983E1,2.0085447E1,2.5382784E2,7.908688E1,1.5780446E2,1.8990878E2,3.0262784E2,3.9076248E2,8.118108E1,3.735703E2,1.0334548E2,2.4923935E2],"tree_param":{"num_deleted":"0","num_feature":"32","num_nodes":"29","size_leaf_vector":"1"}},{"base_weights":[-3.6855355E-2,3.1410086E-1,-2.185634E-1,4.9035418E-1,1.7371602E-1,7.810407E-3,-4.1836068E-1,5.4339975E-1,1.4152385E-1,2.2505425E-1,-3.4765393E-1,-4.698354E-1,1.5623581E-1,-1.4069702E-1,-5.327191E-1,4.255096E-2,8.695113E-3,2.389592E-2,-2.95017E-2,4.3815047E-2,1.20897535E-2,1.5021148E-3,-4.6712145E-2,6.107477E-3,-3.9429296E-2,2.3272214E-2,-1.5349394E-2,-2.1541E-2,3.3756841E-3,-3.4788016E-2,-6.314191E-2],"categories":[0,0,1,2,3,0,1,0,1,0,1,0,0,1,2,3,0,0,2,9,0,1,3,0,0,1,2,3,0,1,2,0,1],"categories_nodes":[0,1,2,3,4,5,6,7,8,9,10,11,12,13,14],"categories_segments":[0,1,5,7,9,11,12,16,17,20,23,24,28,30,31],"categories_sizes":[1,4,2,2,2,1,4,1,3,3,1,4,2,1,2],"default_left":[1,1,1,1,1,1,1,1,1,1,1,1,1,1,1,0,0,0,0,0,0,0,0,0,0,0,0,0,0,0,0],"id":20,"left_children":[1,3,5,7,9,11,13,15,17,19,21,23,25,27,29,-1,-1,-1,-1,-1,-1,-1,-1,-1,-1,-1,-1,-1,-1,-1,-1],"loss_changes":[1.5084259E2,1.9342865E1,7.0930664E1,5.9491806E0,1.2042886E1,5.1561413E1,2.5789291E1,3.4997177E0,4.870527E0,8.679718E0,4.6114163E0,6.3776817E0,3.2289738E1,7.0822487E0,1.044986E1,0E0,0E0,0E0,0E0,0E0,0E0,0E0,0E0,0E0,0E0,0E0,0E0,0E0,0E0,0E0,0E0],"parents":[2147483647,0,0,1,1,2,2,3,3,4,4,5,5,6,6,7,7,8,8,9,9,10,10,11,11,12,12,13,13,14,14],"right_children":[2,4,6,8,10,12,14,16,18,20,22,24,26,28,30,-1,-1,-1,-1,-1,-1,-1,-1,-1,-1,-1,-1,-1,-1,-1,-1],"split_conditions":[NaN,NaN,NaN,NaN,NaN,NaN,NaN,NaN,NaN,NaN,NaN,NaN,NaN,NaN,NaN,4.255096E-2,8.695113E-3,2.389592E-2,-2.95017E-2,4.3815047E-2,1.20897535E-2,1.5021148E-3,-4.6712145E-2,6.107477E-3,-3.9429296E-2,2.3272214E-2,-1.5349394E-2,-2.1541E-2,3.3756841E-3,-3.4788016E-2,-6.314191E-2],"split_indices":[9,14,18,22,14,10,14,18,28,15,24,15,21,1,14,0,0,0,0,0,0,0,0,0,0,0,0,0,0,0,0],"split_type":[1,1,1,1,1,1,1,1,1,1,1,1,1,1,1,0,0,0,0,0,0,0,0,0,0,0,0,0,0,0,0],"sum_hessian":[2.3654016E3,8.052237E2,1.560178E3,3.5377283E2,4.5145087E2,7.29769E2,8.3040894E2,3.0475192E2,4.9020893E1,4.1271527E2,3.8735588E1,1.7140126E2,5.5836774E2,2.4471353E2,5.8569543E2,2.8172223E2,2.3029701E1,3.8011074E1,1.1009819E1,5.6756737E1,3.5595856E2,1.5827809E1,2.290778E1,1.6185728E1,1.5521553E2,3.906973E2,1.6767046E2,1.3767778E2,1.0703576E2,4.932888E2,9.240665E1],"tree_param":{"num_deleted":"0","num_feature":"32","num_nodes":"31","size_leaf_vector":"1"}},{"base_weights":[-3.2723386E-2,2.275759E-1,-2.1934105E-1,5.7551287E-2,4.2543405E-1,-1.2879558E-1,-5.3447926E-1,4.5323953E-1,-2.6193365E-2,8.533355E-1,3.5084164E-1,3.1918865E-2,-2.7514836E-1,-3.3232144E-1,-6.834458E-1,4.9314644E-2,-0E0,3.2775095E-3,-3.205727E-2,6.743987E-2,-7.55102E-3,5.2136756E-2,1.9248387E-2,5.0817292E-2,-3.1504622E-3,-1.4327732E-2,-4.0699154E-2,-3.5679642E-2,2.415835E-3,-3.78333E-2,-6.012538E-2],"categories":[0,1,2,0,1,2,1,2,3,4,0,0,1,2,1,2,3,3,0,1,2,1,2,3,0,0,1,1],"categories_nodes":[0,1,2,3,4,5,6,7,8,9,10,11,12,13,14],"categories_segments":[0,2,3,6,10,11,14,17,18,21,22,24,25,26,27],"categories_sizes":[2,1,3,4,1,3,3,1,3,1,2,1,1,1,1],"default_left":[1,1,1,1,1,1,1,1,1,1,1,1,1,1,1,0,0,0,0,0,0,0,0,0,0,0,0,0,0,0,0],"id":21,"left_children":[1,3,5,7,9,11,13,15,17,19,21,23,25,27,29,-1,-1,-1,-1,-1,-1,-1,-1,-1,-1,-1,-1,-1,-1,-1,-1],"loss_changes":[1.1379108E2,3.243571E1,3.8399307E1,1.7855734E1,1.3167145E1,2.5233414E1,8.150543E0,9.41548E0,1.2798846E1,4.297844E0,1.1454014E1,2.5177639E1,1.1868206E1,7.5904083E0,2.4814835E0,0E0,0E0,0E0,0E0,0E0,0E0,0E0,0E0,0E0,0E0,0E0,0E0,0E0,0E0,0E0,0E0],"parents":[2147483647,0,0,1,1,2,2,3,3,4,4,5,5,6,6,7,7,8,8,9,9,10,10,11,11,12,12,13,13,14,14],"right_children":[2,4,6,8,10,12,14,16,18,20,22,24,26,28,30,-1,-1,-1,-1,-1,-1,-1,-1,-1,-1,-1,-1,-1,-1,-1,-1],"split_conditions":[NaN,NaN,NaN,NaN,NaN,NaN,NaN,NaN,NaN,NaN,NaN,NaN,NaN,NaN,NaN,4.9314644E-2,-0E0,3.2775095E-3,-3.205727E-2,6.743987E-2,-7.55102E-3,5.2136756E-2,1.9248387E-2,5.0817292E-2,-3.1504622E-3,-1.4327732E-2,-4.0699154E-2,-3.5679642E-2,2.415835E-3,-3.78333E-2,-6.012538E-2],"split_indices":[15,1,14,16,12,20,20,17,14,21,0,13,18,29,1,0,0,0,0,0,0,0,0,0,0,0,0,0,0,0,0],"split_type":[1,1,1,1,1,1,1,1,1,1,1,1,1,1,1,0,0,0,0,0,0,0,0,0,0,0,0,0,0,0,0],"sum_hessian":[2.341494E3,9.758365E2,1.3656575E3,5.274677E2,4.4836877E2,1.0635082E3,3.0214935E2,9.340997E1,4.3405774E2,6.403291E1,3.8433585E2,5.0441757E2,5.590906E2,1.3131693E2,1.7083244E2,6.410547E1,2.93045E1,3.6869675E2,6.536099E1,6.1206028E1,2.826885E0,7.582782E1,3.0850806E2,5.2171337E1,4.5224625E2,4.3422794E2,1.2486265E2,9.4567665E1,3.6749252E1,7.7122665E1,9.370977E1],"tree_param":{"num_deleted":"0","num_feature":"32","num_nodes":"31","size_leaf_vector":"1"}},{"base_weights":[-3.6243916E-2,2.8517702E-1,-2.0514487E-1,4.4782084E-1,1.5626965E-1,-8.9833766E-2,-5.2773845E-1,7.38688E-1,3.8079995E-1,2.0717096E-1,-2.3288396E-1,3.6320084E-1,-1.6900405E-1,-3.181906E-1,-6.0973763E-1,5.879407E-2,-8.004435E-3,4.484354E-2,2.0824114E-2,1.8115902E-2,-1.8147081E-2,-2.8392026E-2,2.2797339E-2,-3.987069E-2,3.7855554E-2,3.0915777E-3,-2.2325244E-2,-6.286545E-2,-1.3823981E-2,-1.4482945E-2,-4.7838252E-2],"categories":[0,0,1,2,3,0,0,0,1,0,0,1,2,3,0,0,1,2,3,0,0,0,0,1,2,3,0,0],"categories_nodes":[0,1,2,3,4,5,6,7,8,9,10,11,12,13,14],"categories_segments":[0,1,5,6,7,9,10,14,15,19,20,21,22,26,27],"categories_sizes":[1,4,1,1,2,1,4,1,4,1,1,1,4,1,1],"default_left":[1,1,1,1,1,1,1,1,1,1,1,1,1,1,1,0,0,0,0,0,0,0,0,0,0,0,0,0,0,0,0],"id":22,"left_children":[1,3,5,7,9,11,13,15,17,19,21,23,25,27,29,-1,-1,-1,-1,-1,-1,-1,-1,-1,-1,-1,-1,-1,-1,-1,-1],"loss_changes":[1.2662209E2,1.6281952E1,5.6429253E1,5.7711945E0,8.94441E0,4.0429523E1,6.0199356E0,3.5873947E0,5.645458E0,6.863783E0,4.2563443E0,2.2458126E1,2.7191946E1,7.2150593E0,3.5645676E0,0E0,0E0,0E0,0E0,0E0,0E0,0E0,0E0,0E0,0E0,0E0,0E0,0E0,0E0,0E0,0E0],"parents":[2147483647,0,0,1,1,2,2,3,3,4,4,5,5,6,6,7,7,8,8,9,9,10,10,11,11,12,12,13,13,14,14],"right_children":[2,4,6,8,10,12,14,16,18,20,22,24,26,28,30,-1,-1,-1,-1,-1,-1,-1,-1,-1,-1,-1,-1,-1,-1,-1,-1],"split_conditions":[NaN,NaN,NaN,NaN,NaN,NaN,NaN,NaN,NaN,NaN,NaN,NaN,NaN,NaN,NaN,5.879407E-2,-8.004435E-3,4.484354E-2,2.0824114E-2,1.8115902E-2,-1.8147081E-2,-2.8392026E-2,2.2797339E-2,-3.987069E-2,3.7855554E-2,3.0915777E-3,-2.2325244E-2,-6.286545E-2,-1.3823981E-2,-1.4482945E-2,-4.7838252E-2],"split_indices":[9,14,15,13,17,13,14,22,20,22,10,10,14,10,13,0,0,0,0,0,0,0,0,0,0,0,0,0,0,0,0],"split_type":[1,1,1,1,1,1,1,1,1,1,1,1,1,1,1,0,0,0,0,0,0,0,0,0,0,0,0,0,0,0,0],"sum_hessian":[2.3324243E3,8.016352E2,1.5307891E3,3.5098892E2,4.5064624E2,1.1301128E3,4.0067618E2,6.2355106E1,2.8863382E2,4.0062643E2,5.0019802E1,1.6626282E2,9.6385004E2,1.1630065E2,2.8437552E2,5.9445393E1,2.9097154E0,8.496725E1,2.0366658E2,3.7178345E2,2.8842983E1,4.0436474E1,9.583329E0,2.2485952E1,1.4377687E2,3.7009E2,5.9376E2,2.119566E1,9.5104996E1,2.5276585E1,2.5909894E2],"tree_param":{"num_deleted":"0","num_feature":"32","num_nodes":"31","size_leaf_vector":"1"}},{"base_weights":[-3.1309627E-2,2.1548048E-1,-1.947532E-1,2.7395073E-1,-2.9296118E-1,-7.688615E-2,-3.975265E-1,3.3225897E-1,-2.9578367E-1,-0E0,-3.79759E-1,1.3503054E-1,-2.629186E-1,-2.014604E-1,-5.0451994E-1,4.1433852E-2,1.4047521E-2,-0E0,-4.0593646E-2,3.4468193E-2,-5.849907E-2,1.4430293E-2,-3.7010577E-2,5.5181988E-2,4.34405E-3,-2.6208723E-3,-3.058944E-2,1.8421745E-2,-2.7833201E-2,-1.7934699E-2,-4.742654E-2],"categories":[0,1,2,1,0,0,1,2,0,0,1,2,0,1,2,3,1,2,3,0,2,4,5,6,8,0,1,6,0,2,3,4,5,6,7,8,0,1,3,4,0,1,2,3,4,6,9,0,1,5,6,8,9],"categories_nodes":[0,1,2,3,4,5,6,7,8,9,10,11,12,13,14],"categories_segments":[0,3,4,5,8,9,12,16,19,25,28,36,37,40,47],"categories_sizes":[3,1,1,3,1,3,4,3,6,3,8,1,3,7,6],"default_left":[1,1,1,1,1,1,1,1,1,1,1,1,1,1,1,0,0,0,0,0,0,0,0,0,0,0,0,0,0,0,0],"id":23,"left_children":[1,3,5,7,9,11,13,15,17,19,21,23,25,27,29,-1,-1,-1,-1,-1,-1,-1,-1,-1,-1,-1,-1,-1,-1,-1,-1],"loss_changes":[9.316985E1,2.733524E1,3.2855595E1,2.7509155E1,2.609767E0,3.49532E1,1.0036621E1,2.3653725E1,6.096228E0,7.507992E0,5.4105387E0,1.8483486E1,1.5800648E1,1.4579609E1,1.0843369E1,0E0,0E0,0E0,0E0,0E0,0E0,0E0,0E0,0E0,0E0,0E0,0E0,0E0,0E0,0E0,0E0],"parents":[2147483647,0,0,1,1,2,2,3,3,4,4,5,5,6,6,7,7,8,8,9,9,10,10,11,11,12,12,13,13,14,14],"right_children":[2,4,6,8,10,12,14,16,18,20,22,24,26,28,30,-1,-1,-1,-1,-1,-1,-1,-1,-1,-1,-1,-1,-1,-1,-1,-1],"split_conditions":[NaN,NaN,NaN,NaN,NaN,NaN,NaN,NaN,NaN,NaN,NaN,NaN,NaN,NaN,NaN,4.1433852E-2,1.4047521E-2,-0E0,-4.0593646E-2,3.4468193E-2,-5.849907E-2,1.4430293E-2,-3.7010577E-2,5.5181988E-2,4.34405E-3,-2.6208723E-3,-3.058944E-2,1.8421745E-2,-2.7833201E-2,-1.7934699E-2,-4.742654E-2],"split_indices":[15,21,15,14,4,20,17,16,28,28,28,13,19,28,28,0,0,0,0,0,0,0,0,0,0,0,0,0,0,0,0],"split_type":[1,1,1,1,1,1,1,1,1,1,1,1,1,1,1,0,0,0,0,0,0,0,0,0,0,0,0,0,0,0,0],"sum_hessian":[2.3090833E3,9.1789685E2,1.3911864E3,8.249149E2,9.298194E1,8.8285345E2,5.08333E2,7.498555E2,7.505942E1,1.9782341E1,7.31996E1,4.1072028E2,4.7213315E2,1.8276192E2,3.2557108E2,2.8573743E2,4.6411807E2,3.3381634E1,4.1677784E1,1.3079769E1,6.7025723E0,1.1429896E1,6.1769703E1,4.38792E1,3.6684106E2,1.9038902E2,2.8174414E2,4.9682983E1,1.3307893E2,1.1400372E2,2.1156737E2],"tree_param":{"num_deleted":"0","num_feature":"32","num_nodes":"31","size_leaf_vector":"1"}},{"base_weights":[-3.0309398E-2,2.6524606E-1,-1.8788555E-1,5.956608E-1,2.0293444E-1,-8.286236E-2,-4.9651423E-1,3.7342215E-1,8.310901E-1,3.497101E-1,5.832925E-2,3.335195E-1,-1.5725364E-1,-8.004911E-1,-4.291489E-1,4.7378197E-2,1.0724634E-2,6.498839E-2,-0E0,2.9543215E-2,-8.56164E-3,3.430317E-2,-9.3307684E-4,-3.5696022E-2,3.437603E-2,1.9757957E-3,-2.197304E-2,-6.414321E-3,-6.314056E-2,-1.6750524E-2,-3.8876E-2],"categories":[0,0,1,2,3,0,0,0,1,2,0,0,1,2,4,0,0,2,0,0,0,1,2,0,3,0,1],"categories_nodes":[0,1,2,3,4,5,6,7,8,9,10,11,12,13,14],"categories_segments":[0,1,5,6,7,10,11,12,15,16,18,19,20,23,25],"categories_sizes":[1,4,1,1,3,1,1,3,1,2,1,1,3,2,2],"default_left":[1,1,1,1,1,1,1,1,1,1,1,1,1,1,1,0,0,0,0,0,0,0,0,0,0,0,0,0,0,0,0],"id":24,"left_children":[1,3,5,7,9,11,13,15,17,19,21,23,25,27,29,-1,-1,-1,-1,-1,-1,-1,-1,-1,-1,-1,-1,-1,-1,-1,-1],"loss_changes":[1.0672568E2,1.565377E1,4.8033348E1,5.310684E0,1.3922241E1,3.4572704E1,6.5332565E0,3.3575258E0,2.6233826E0,7.879856E0,1.0210119E1,1.8097338E1,2.4690485E1,1.6573792E0,5.417301E0,0E0,0E0,0E0,0E0,0E0,0E0,0E0,0E0,0E0,0E0,0E0,0E0,0E0,0E0,0E0,0E0],"parents":[2147483647,0,0,1,1,2,2,3,3,4,4,5,5,6,6,7,7,8,8,9,9,10,10,11,11,12,12,13,13,14,14],"right_children":[2,4,6,8,10,12,14,16,18,20,22,24,26,28,30,-1,-1,-1,-1,-1,-1,-1,-1,-1,-1,-1,-1,-1,-1,-1,-1],"split_conditions":[NaN,NaN,NaN,NaN,NaN,NaN,NaN,NaN,NaN,NaN,NaN,NaN,NaN,NaN,NaN,4.7378197E-2,1.0724634E-2,6.498839E-2,-0E0,2.9543215E-2,-8.56164E-3,3.430317E-2,-9.3307684E-4,-3.5696022E-2,3.437603E-2,1.9757957E-3,-2.197304E-2,-6.414321E-3,-6.314056E-2,-1.6750524E-2,-3.8876E-2],"split_indices":[9,15,15,7,20,13,10,16,1,22,12,10,20,22,0,0,0,0,0,0,0,0,0,0,0,0,0,0,0,0,0],"split_type":[1,1,1,1,1,1,1,1,1,1,1,1,1,1,1,0,0,0,0,0,0,0,0,0,0,0,0,0,0,0,0],"sum_hessian":[2.2917847E3,7.950144E2,1.4967704E3,1.2326747E2,6.7174695E2,1.1192823E3,3.774879E2,6.596977E1,5.7297703E1,3.3014462E2,3.416023E2,1.6768163E2,9.5160077E2,6.513386E1,3.1235406E2,2.8296972E1,3.76728E1,5.4658333E1,2.6393697E0,3.000733E2,3.0071318E1,5.2148777E1,2.8945352E2,2.2117813E1,1.4556381E2,4.0834955E2,5.432512E2,5.6579423E0,5.9475914E1,1.0385489E2,2.0849918E2],"tree_param":{"num_deleted":"0","num_feature":"32","num_nodes":"31","size_leaf_vector":"1"}},{"base_weights":[-3.2561626E-2,2.4402243E-1,-1.8193139E-1,5.52783E-1,1.862584E-1,3.0665265E-3,-3.5626012E-1,6.0169584E-1,-9.879661E-3,2.4030098E-1,-1.4613724E-1,2.0594831E-1,-1.4673927E-1,-2.572403E-1,-6.5427524E-1,2.9830692E-2,5.933349E-2,2.0132456E-2,-2.8988924E-2,8.721746E-3,-3.546386E-2,2.7808448E-2,-5.952023E-4,-4.864431E-3,-4.0919572E-2,1.3229107E-2,-2.3151994E-2,-3.711759E-2,-6.098298E-2],"categories":[0,0,1,2,3,0,1,0,0,1,0,1,3,0,1,2,0,0,1,1,2,0,1,3,0,1,2,0,1,5,6,9],"categories_nodes":[0,1,2,3,4,5,6,7,9,10,11,12,13,14],"categories_segments":[0,1,5,7,8,10,13,16,17,19,21,24,27,28],"categories_sizes":[1,4,2,1,2,3,3,1,2,2,3,3,1,4],"default_left":[1,1,1,1,1,1,1,1,0,1,1,1,1,1,1,0,0,0,0,0,0,0,0,0,0,0,0,0,0],"id":25,"left_children":[1,3,5,7,9,11,13,15,-1,17,19,21,23,25,27,-1,-1,-1,-1,-1,-1,-1,-1,-1,-1,-1,-1,-1,-1],"loss_changes":[9.398855E1,1.3535423E1,4.8018646E1,4.558872E0,1.2203648E1,2.1835114E1,2.1705132E1,3.432907E0,0E0,1.1641705E1,8.461182E0,1.1454103E1,1.29621105E1,1.412442E1,3.5508347E0,0E0,0E0,0E0,0E0,0E0,0E0,0E0,0E0,0E0,0E0,0E0,0E0,0E0,0E0],"parents":[2147483647,0,0,1,1,2,2,3,3,4,4,5,5,6,6,7,7,9,9,10,10,11,11,12,12,13,13,14,14],"right_children":[2,4,6,8,10,12,14,16,-1,18,20,22,24,26,28,-1,-1,-1,-1,-1,-1,-1,-1,-1,-1,-1,-1,-1,-1],"split_conditions":[NaN,NaN,NaN,NaN,NaN,NaN,NaN,NaN,-9.879661E-3,NaN,NaN,NaN,NaN,NaN,NaN,2.9830692E-2,5.933349E-2,2.0132456E-2,-2.8988924E-2,8.721746E-3,-3.546386E-2,2.7808448E-2,-5.952023E-4,-4.864431E-3,-4.0919572E-2,1.3229107E-2,-2.3151994E-2,-3.711759E-2,-6.098298E-2],"split_indices":[9,15,18,1,22,21,14,7,0,14,21,14,14,13,28,0,0,0,0,0,0,0,0,0,0,0,0,0,0],"split_type":[1,1,1,1,1,1,1,1,0,1,1,1,1,1,1,0,0,0,0,0,0,0,0,0,0,0,0,0,0],"sum_hessian":[2.2750679E3,7.9574207E2,1.4793259E3,1.2239005E2,6.73352E2,7.1568384E2,7.636421E2,1.154325E2,6.957547E0,5.814508E2,9.190119E1,3.062321E2,4.0945175E2,5.7606433E2,1.8757777E2,6.086164E1,5.4570866E1,5.551895E2,2.6261307E1,5.0096222E1,4.180497E1,1.7263643E2,1.3359566E2,3.436182E2,6.583357E1,6.3348644E1,5.1271564E2,1.0250101E2,8.5076775E1],"tree_param":{"num_deleted":"0","num_feature":"32","num_nodes":"29","size_leaf_vector":"1"}},{"base_weights":[-2.4692705E-2,2.3482984E-1,-1.6546087E-1,3.290242E-1,7.534214E-2,1.018267E-2,-3.3347607E-1,4.3833244E-1,9.7008124E-2,3.5788846E-1,-6.537462E-2,3.1722733E-1,-8.321647E-2,-2.3896395E-1,-6.2357736E-1,4.529908E-3,3.935324E-2,2.0064402E-2,-7.4815676E-3,3.894133E-2,-1.6250059E-2,9.749799E-3,-1.3864512E-2,-2.0449838E-2,3.847953E-2,-3.432423E-2,1.6714119E-3,-1.0303855E-2,-3.3381503E-2,-1.4479528E-2,-5.029942E-2],"categories":[0,0,1,0,1,3,0,0,1,2,4,0,1,2,0,0,2,3,6,8,0,1,2,1,2,3,0,0,0,0,1,3,4],"categories_nodes":[0,1,2,3,4,5,6,7,8,9,10,11,12,13,14],"categories_segments":[0,1,3,5,6,7,11,14,15,20,23,26,27,28,29],"categories_sizes":[1,2,2,1,1,4,3,1,5,3,3,1,1,1,4],"default_left":[1,1,1,1,1,1,1,1,1,1,1,1,1,1,1,0,0,0,0,0,0,0,0,0,0,0,0,0,0,0,0],"id":26,"left_children":[1,3,5,7,9,11,13,15,17,19,21,23,25,27,29,-1,-1,-1,-1,-1,-1,-1,-1,-1,-1,-1,-1,-1,-1,-1,-1],"loss_changes":[8.245554E1,1.1554783E1,4.354055E1,1.2080391E1,1.2108301E1,2.0713741E1,1.9819283E1,1.1252525E1,5.728586E0,1.0151195E1,4.8103504E0,2.061511E1,2.2383133E1,1.1539776E1,3.580452E0,0E0,0E0,0E0,0E0,0E0,0E0,0E0,0E0,0E0,0E0,0E0,0E0,0E0,0E0,0E0,0E0],"parents":[2147483647,0,0,1,1,2,2,3,3,4,4,5,5,6,6,7,7,8,8,9,9,10,10,11,11,12,12,13,13,14,14],"right_children":[2,4,6,8,10,12,14,16,18,20,22,24,26,28,30,-1,-1,-1,-1,-1,-1,-1,-1,-1,-1,-1,-1,-1,-1,-1,-1],"split_conditions":[NaN,NaN,NaN,NaN,NaN,NaN,NaN,NaN,NaN,NaN,NaN,NaN,NaN,NaN,NaN,4.529908E-3,3.935324E-2,2.0064402E-2,-7.4815676E-3,3.894133E-2,-1.6250059E-2,9.749799E-3,-1.3864512E-2,-2.0449838E-2,3.847953E-2,-3.432423E-2,1.6714119E-3,-1.0303855E-2,-3.3381503E-2,-1.4479528E-2,-5.029942E-2],"split_indices":[9,18,18,0,11,20,14,26,28,22,14,10,10,18,17,0,0,0,0,0,0,0,0,0,0,0,0,0,0,0,0],"split_type":[1,1,1,1,1,1,1,1,1,1,1,1,1,1,1,0,0,0,0,0,0,0,0,0,0,0,0,0,0,0,0],"sum_hessian":[2.2574263E3,7.916673E2,1.465759E3,4.940882E2,2.975791E2,7.144802E2,7.5127875E2,3.331009E2,1.609873E2,1.0058239E2,1.9699672E2,1.6837936E2,5.461008E2,5.69592E2,1.8168677E2,6.808617E1,2.650147E2,8.777831E1,7.3208984E1,7.9023705E1,2.1558687E1,7.270628E1,1.24290436E2,4.1784424E1,1.2659494E2,1.2005619E2,4.2604468E2,3.9072287E2,1.7886911E2,2.3062813E1,1.5862396E2],"tree_param":{"num_deleted":"0","num_feature":"32","num_nodes":"31","size_leaf_vector":"1"}},{"base_weights":[-2.7183784E-2,2.1022215E-1,-1.5725286E-1,2.4465111E-1,-2.0077717E-1,5.6077972E-2,-2.8629366E-1,2.7911028E-1,-8.57606E-2,-4.813099E-1,1.6777413E-1,1.929284E-1,-2.3696311E-1,-1.1436867E-1,-4.2098022E-1,3.6368698E-2,1.5108676E-2,1.2604742E-2,-2.588102E-2,-1.6063072E-2,-5.702504E-2,3.0440167E-2,-9.982096E-3,-2.2222666E-2,2.3402153E-2,-2.8368885E-2,2.6273823E-4,-3.374195E-2,-2.2284333E-4,-2.6761249E-2,-5.5993404E-2],"categories":[0,0,1,0,1,2,3,0,0,1,2,3,0,1,2,3,0,1,2,1,3,0,1,2,0,1,0,0,1],"categories_nodes":[0,1,2,3,4,5,6,7,8,9,10,11,12,13,14],"categories_segments":[0,1,3,7,8,9,12,14,16,19,21,24,25,26,27],"categories_sizes":[1,2,4,1,1,3,2,2,3,2,3,1,1,1,2],"default_left":[1,1,1,1,1,1,1,1,1,1,1,1,1,1,1,0,0,0,0,0,0,0,0,0,0,0,0,0,0,0,0],"id":27,"left_children":[1,3,5,7,9,11,13,15,17,19,21,23,25,27,29,-1,-1,-1,-1,-1,-1,-1,-1,-1,-1,-1,-1,-1,-1,-1,-1],"loss_changes":[6.913189E1,1.1253075E1,4.009944E1,8.503757E0,6.4647484E0,2.1820894E1,2.0502945E1,9.95293E0,4.730282E0,1.785923E0,2.095511E0,2.2771114E1,6.3562765E0,1.48861065E1,8.982712E0,0E0,0E0,0E0,0E0,0E0,0E0,0E0,0E0,0E0,0E0,0E0,0E0,0E0,0E0,0E0,0E0],"parents":[2147483647,0,0,1,1,2,2,3,3,4,4,5,5,6,6,7,7,8,8,9,9,10,10,11,11,12,12,13,13,14,14],"right_children":[2,4,6,8,10,12,14,16,18,20,22,24,26,28,30,-1,-1,-1,-1,-1,-1,-1,-1,-1,-1,-1,-1,-1,-1,-1,-1],"split_conditions":[NaN,NaN,NaN,NaN,NaN,NaN,NaN,NaN,NaN,NaN,NaN,NaN,NaN,NaN,NaN,3.6368698E-2,1.5108676E-2,1.2604742E-2,-2.588102E-2,-1.6063072E-2,-5.702504E-2,3.0440167E-2,-9.982096E-3,-2.2222666E-2,2.3402153E-2,-2.8368885E-2,2.6273823E-4,-3.374195E-2,-2.2284333E-4,-2.6761249E-2,-5.5993404E-2],"split_indices":[9,17,14,18,29,17,18,0,20,21,14,10,24,10,14,0,0,0,0,0,0,0,0,0,0,0,0,0,0,0,0],"split_type":[1,1,1,1,1,1,1,1,1,1,1,1,1,1,1,0,0,0,0,0,0,0,0,0,0,0,0,0,0,0,0],"sum_hessian":[2.239013E3,7.901425E2,1.4488704E3,7.311303E2,5.901223E1,5.4380194E2,9.0506836E2,6.6441644E2,6.671387E1,3.4675434E1,2.4336796E1,3.7273694E2,1.7106499E2,4.0072192E2,5.0434647E2,1.6963629E2,4.9478012E2,3.238342E1,3.433045E1,2.0131804E1,1.4543632E1,1.4877349E1,9.459447E0,7.304813E1,2.996888E2,1.0825662E2,6.280837E1,9.626612E1,3.044558E2,4.3165723E2,7.268925E1],"tree_param":{"num_deleted":"0","num_feature":"32","num_nodes":"31","size_leaf_vector":"1"}},{"base_weights":[-2.0123297E-2,1.6723081E-1,-1.6187523E-1,1.4570778E-2,3.4438545E-1,8.006278E-2,-2.635252E-1,3.1144458E-1,-6.8029925E-2,7.827759E-1,2.7007142E-1,1.1721706E-1,-3.2770577E-1,-1.8098813E-1,-5.091511E-1,3.278291E-2,-2.5892742E-2,8.635819E-3,-1.4998756E-2,6.247085E-2,-2.1224288E-2,4.4656355E-2,1.3652556E-2,2.0227764E-2,-4.047663E-3,5.6971256E-3,-4.359791E-2,-4.011699E-2,-6.4466326E-3,-2.9638112E-2,-5.3181555E-2],"categories":[0,1,2,0,2,3,0,0,1,0,0,0,0,2,2,3,0,1,2,0,2,3,4,7,8,9,0,1,3,9],"categories_nodes":[0,1,2,3,4,5,6,7,8,9,10,11,12,13,14],"categories_segments":[0,2,3,4,6,7,9,10,11,12,14,16,19,26,27],"categories_sizes":[2,1,1,2,1,2,1,1,1,2,2,3,7,1,3],"default_left":[1,1,1,1,1,1,1,1,1,1,1,1,1,1,1,0,0,0,0,0,0,0,0,0,0,0,0,0,0,0,0],"id":28,"left_children":[1,3,5,7,9,11,13,15,17,19,21,23,25,27,29,-1,-1,-1,-1,-1,-1,-1,-1,-1,-1,-1,-1,-1,-1,-1,-1],"loss_changes":[5.9194298E1,2.5600136E1,3.143098E1,1.2901667E1,1.3371029E1,5.5179315E0,1.7580666E1,1.01623125E1,1.0111347E1,4.6669044E0,1.01106415E1,9.453776E0,3.5736823E0,2.2350452E1,3.989788E0,0E0,0E0,0E0,0E0,0E0,0E0,0E0,0E0,0E0,0E0,0E0,0E0,0E0,0E0,0E0,0E0],"parents":[2147483647,0,0,1,1,2,2,3,3,4,4,5,5,6,6,7,7,8,8,9,9,10,10,11,11,12,12,13,13,14,14],"right_children":[2,4,6,8,10,12,14,16,18,20,22,24,26,28,30,-1,-1,-1,-1,-1,-1,-1,-1,-1,-1,-1,-1,-1,-1,-1,-1],"split_conditions":[NaN,NaN,NaN,NaN,NaN,NaN,NaN,NaN,NaN,NaN,NaN,NaN,NaN,NaN,NaN,3.278291E-2,-2.5892742E-2,8.635819E-3,-1.4998756E-2,6.247085E-2,-2.1224288E-2,4.4656355E-2,1.3652556E-2,2.0227764E-2,-4.047663E-3,5.6971256E-3,-4.359791E-2,-4.011699E-2,-6.4466326E-3,-2.9638112E-2,-5.3181555E-2],"split_indices":[15,1,9,0,12,14,18,1,9,18,0,20,28,10,28,0,0,0,0,0,0,0,0,0,0,0,0,0,0,0,0],"split_type":[1,1,1,1,1,1,1,1,1,1,1,1,1,1,1,0,0,0,0,0,0,0,0,0,0,0,0,0,0,0,0],"sum_hessian":[2.2278943E3,9.5705E2,1.2708445E3,5.168916E2,4.4015836E2,3.7361853E2,8.972259E2,1.14335396E2,4.025562E2,6.1402657E1,3.787557E2,3.44642E2,2.8976545E1,6.748143E2,2.2241165E2,9.656088E1,1.7774513E1,1.6717393E2,2.3538228E2,5.891113E1,2.4915257E0,7.470045E1,3.0405527E2,1.8294803E2,1.6169395E2,1.0295761E1,1.8680784E1,1.3685732E2,5.379569E2,1.5013896E2,7.227269E1],"tree_param":{"num_deleted":"0","num_feature":"32","num_nodes":"31","size_leaf_vector":"1"}},{"base_weights":[-2.415452E-2,5.3846326E-2,-3.2220393E-1,3.9215937E-1,-1.3372535E-2,-1.946911E-1,-4.6899918E-1,4.695557E-1,-2.265375E-1,1.4571376E-1,-1.4642134E-1,-1.470223E-1,-5.7941425E-1,1.6299261E-1,-4.9957323E-1,6.1249614E-2,2.821787E-2,8.30515E-3,-4.757405E-2,2.4828484E-2,1.2544225E-3,1.5976068E-3,-1.9329106E-2,1.2705012E-3,-2.4268257E-2,1.9143537E-2,-5.8233242E-2,1.147055E-1,-3.5376116E-3,-3.070574E-2,-5.757479E-2],"categories":[0,0,0,0,1,2,0,1,2,0,1,0,0,1,2,3,0,2,4,5,6,0,1,3,0,1,2,3,0,1,2,6,9,2,3,0,2],"categories_nodes":[0,1,2,3,4,5,6,7,8,9,10,11,12,13,14],"categories_segments":[0,1,2,3,6,9,11,12,16,21,24,28,33,35,36],"categories_sizes":[1,1,1,3,3,2,1,4,5,3,4,5,2,1,1],"default_left":[1,1,1,1,1,1,1,1,1,1,1,1,1,1,1,0,0,0,0,0,0,0,0,0,0,0,0,0,0,0,0],"id":29,"left_children":[1,3,5,7,9,11,13,15,17,19,21,23,25,27,29,-1,-1,-1,-1,-1,-1,-1,-1,-1,-1,-1,-1,-1,-1,-1,-1],"loss_changes":[5.1584236E1,4.0089966E1,8.020443E0,1.424144E1,3.0866108E1,3.9454193E0,4.3935814E0,7.0685387E0,4.9441442E0,1.5868916E1,1.5566923E1,6.955931E0,4.9867153E0,3.8834822E0,3.6014328E0,0E0,0E0,0E0,0E0,0E0,0E0,0E0,0E0,0E0,0E0,0E0,0E0,0E0,0E0,0E0,0E0],"parents":[2147483647,0,0,1,1,2,2,3,3,4,4,5,5,6,6,7,7,8,8,9,9,10,10,11,11,12,12,13,13,14,14],"right_children":[2,4,6,8,10,12,14,16,18,20,22,24,26,28,30,-1,-1,-1,-1,-1,-1,-1,-1,-1,-1,-1,-1,-1,-1,-1,-1],"split_conditions":[NaN,NaN,NaN,NaN,NaN,NaN,NaN,NaN,NaN,NaN,NaN,NaN,NaN,NaN,NaN,6.1249614E-2,2.821787E-2,8.30515E-3,-4.757405E-2,2.4828484E-2,1.2544225E-3,1.5976068E-3,-1.9329106E-2,1.2705012E-3,-2.4268257E-2,1.9143537E-2,-5.8233242E-2,1.147055E-1,-3.5376116E-3,-3.070574E-2,-5.757479E-2],"split_indices":[15,13,18,14,20,14,2,15,28,21,14,28,22,13,20,0,0,0,0,0,0,0,0,0,0,0,0,0,0,0,0],"split_type":[1,1,1,1,1,1,1,1,1,1,1,1,1,1,1,0,0,0,0,0,0,0,0,0,0,0,0,0,0,0,0],"sum_hessian":[2.2083596E3,1.7484825E3,4.59877E2,2.913895E2,1.457093E3,2.4981448E2,2.1006253E2,2.6029556E2,3.109391E1,6.607711E2,7.9632196E2,2.2488101E2,2.4933475E1,8.337015E0,2.0172552E2,4.8669525E1,2.1162605E2,1.6284956E1,1.4808954E1,2.6413342E2,3.9663766E2,3.2048242E2,4.7583954E2,1.1577709E2,1.0910392E2,4.13295E0,2.0800526E1,1.1348531E0,7.202162E0,1.5805667E2,4.366885E1],"tree_param":{"num_deleted":"0","num_feature":"32","num_nodes":"31","size_leaf_vector":"1"}},{"base_weights":[-1.8073283E-2,1.8565388E-1,-1.3133717E-1,4.7031292E-1,1.3370842E-1,6.888568E-2,-2.5586167E-1,6.8052065E-1,2.546361E-1,1.9197851E-1,-1.016609E-1,1.9148183E-1,-2.004496E-1,-2.0206504E-1,-6.917123E-1,5.4190677E-2,-8.3373225E-4,3.1034272E-2,-1.0304835E-2,1.6684156E-2,-1.7305445E-2,7.683871E-3,-2.4131067E-2,3.978892E-2,2.370958E-3,-2.4750648E-2,9.845459E-4,1.276487E-2,-1.8819982E-2,-0E0,-5.417704E-2],"categories":[0,0,1,2,3,0,1,2,3,1,2,4,0,1,2,1,2,3,0,1,0,1,6,0,1,0,1,2,1,2,3,4,5,6,7,1,0,1,3,0],"categories_nodes":[0,1,2,3,4,5,6,7,8,9,10,11,12,13,14],"categories_segments":[0,1,5,9,12,15,18,20,21,23,25,28,35,36,39],"categories_sizes":[1,4,4,3,3,3,2,1,2,2,3,7,1,3,1],"default_left":[1,1,1,1,1,1,1,1,1,1,1,1,1,1,1,0,0,0,0,0,0,0,0,0,0,0,0,0,0,0,0],"id":30,"left_children":[1,3,5,7,9,11,13,15,17,19,21,23,25,27,29,-1,-1,-1,-1,-1,-1,-1,-1,-1,-1,-1,-1,-1,-1,-1,-1],"loss_changes":[5.0716366E1,1.1051634E1,3.547744E1,4.4915466E0,9.216778E0,1.7878784E1,1.972224E1,2.660431E0,4.235116E0,7.673235E0,6.1833134E0,2.0175064E1,5.0621896E0,1.5399792E1,2.605236E0,0E0,0E0,0E0,0E0,0E0,0E0,0E0,0E0,0E0,0E0,0E0,0E0,0E0,0E0,0E0,0E0],"parents":[2147483647,0,0,1,1,2,2,3,3,4,4,5,5,6,6,7,7,8,8,9,9,10,10,11,11,12,12,13,13,14,14],"right_children":[2,4,6,8,10,12,14,16,18,20,22,24,26,28,30,-1,-1,-1,-1,-1,-1,-1,-1,-1,-1,-1,-1,-1,-1,-1,-1],"split_conditions":[NaN,NaN,NaN,NaN,NaN,NaN,NaN,NaN,NaN,NaN,NaN,NaN,NaN,NaN,NaN,5.4190677E-2,-8.3373225E-4,3.1034272E-2,-1.0304835E-2,1.6684156E-2,-1.7305445E-2,7.683871E-3,-2.4131067E-2,3.978892E-2,2.370958E-3,-2.4750648E-2,9.845459E-4,1.276487E-2,-1.8819982E-2,-0E0,-5.417704E-2],"split_indices":[9,15,14,16,22,17,14,22,28,17,18,28,24,18,2,0,0,0,0,0,0,0,0,0,0,0,0,0,0,0,0],"split_type":[1,1,1,1,1,1,1,1,1,1,1,1,1,1,1,0,0,0,0,0,0,0,0,0,0,0,0,0,0,0,0],"sum_hessian":[2.198658E3,7.828747E2,1.4157832E3,1.1765854E2,6.652162E2,5.404471E2,8.753362E2,5.7027676E1,6.063086E1,5.3609674E2,1.2911942E2,3.7360834E2,1.6683871E2,7.815911E2,9.374506E1,5.413334E1,2.8943367E0,4.4198215E1,1.6432644E1,4.9906625E2,3.7030483E1,6.564906E1,6.3470356E1,1.1575633E2,2.5785202E2,1.0471611E2,6.21226E1,9.3593376E1,6.8799774E2,5.2574825E0,8.848758E1],"tree_param":{"num_deleted":"0","num_feature":"32","num_nodes":"31","size_leaf_vector":"1"}},{"base_weights":[-2.1217508E-2,1.7140503E-1,-1.2916689E-1,4.2525002E-1,1.2585172E-1,-5.555221E-2,-4.4997457E-1,4.67971E-1,-1.0002038E-1,2.4522257E-1,7.64196E-3,3.042687E-1,-1.1862611E-1,-1.9179662E-1,-5.982448E-1,4.7350615E-2,1.932042E-2,2.9480057E-2,-2.8158415E-2,2.4431E-2,-1.1188776E-3,2.8236857E-2,-4.223429E-3,-3.203416E-2,3.104246E-2,3.5192506E-4,-1.8017817E-2,1.9772768E-2,-3.14644E-2,-5.7403356E-2,-3.550062E-2],"categories":[0,0,1,2,3,0,1,2,0,0,1,2,0,0,1,3,3,0,3,0,0,1,3,0,1,4,0],"categories_nodes":[0,1,2,3,4,5,6,7,8,9,10,11,12,13,14],"categories_segments":[0,1,5,8,9,12,13,16,17,18,19,20,21,23,26],"categories_sizes":[1,4,3,1,3,1,3,1,1,1,1,1,2,3,1],"default_left":[1,1,1,1,1,1,1,1,1,1,1,1,1,1,1,0,0,0,0,0,0,0,0,0,0,0,0,0,0,0,0],"id":31,"left_children":[1,3,5,7,9,11,13,15,17,19,21,23,25,27,29,-1,-1,-1,-1,-1,-1,-1,-1,-1,-1,-1,-1,-1,-1,-1,-1],"loss_changes":[4.5431713E1,8.565359E0,3.2725533E1,2.9344406E0,9.203908E0,2.5846193E1,9.231876E0,3.0356064E0,1.1560625E0,7.522524E0,8.487955E0,1.4440122E1,1.5235917E1,1.0656822E1,2.1773453E0,0E0,0E0,0E0,0E0,0E0,0E0,0E0,0E0,0E0,0E0,0E0,0E0,0E0,0E0,0E0,0E0],"parents":[2147483647,0,0,1,1,2,2,3,3,4,4,5,5,6,6,7,7,8,8,9,9,10,10,11,11,12,12,13,13,14,14],"right_children":[2,4,6,8,10,12,14,16,18,20,22,24,26,28,30,-1,-1,-1,-1,-1,-1,-1,-1,-1,-1,-1,-1,-1,-1,-1,-1],"split_conditions":[NaN,NaN,NaN,NaN,NaN,NaN,NaN,NaN,NaN,NaN,NaN,NaN,NaN,NaN,NaN,4.7350615E-2,1.932042E-2,2.9480057E-2,-2.8158415E-2,2.4431E-2,-1.1188776E-3,2.8236857E-2,-4.223429E-3,-3.203416E-2,3.104246E-2,3.5192506E-4,-1.8017817E-2,1.9772768E-2,-3.14644E-2,-5.7403356E-2,-3.550062E-2],"split_indices":[9,15,14,1,20,13,21,0,4,0,12,10,17,18,6,0,0,0,0,0,0,0,0,0,0,0,0,0,0,0,0],"split_type":[1,1,1,1,1,1,1,1,1,1,1,1,1,1,1,0,0,0,0,0,0,0,0,0,0,0,0,0,0,0,0],"sum_hessian":[2.1853904E3,7.820171E2,1.4033733E3,1.15509056E2,6.66508E2,1.1440813E3,2.592919E2,1.08327545E2,7.1815114E0,3.278559E2,3.386521E2,1.6836511E2,9.757162E2,9.709191E1,1.622E2,5.6343964E1,5.1983585E1,1.4431024E0,5.738409E0,2.494888E2,7.836712E1,5.142444E1,2.8722766E2,2.1578308E1,1.467868E2,4.8770428E2,4.880119E2,3.151121E1,6.55807E1,6.0902645E1,1.01297356E2],"tree_param":{"num_deleted":"0","num_feature":"32","num_nodes":"31","size_leaf_vector":"1"}},{"base_weights":[-1.4638615E-2,1.469189E-1,-1.3877065E-1,3.0218158E-2,3.8404375E-1,5.85422E-2,-2.2564878E-1,2.9041883E-1,-3.3594765E-2,4.196772E-1,-4.1702455E-1,1.8822013E-1,-7.685058E-2,-5.2172667E-1,-1.6160521E-1,2.8289983E-2,-2.2926588E-2,2.461025E-2,-8.28219E-3,5.115E-2,2.4058264E-2,5.346552E-3,-5.8443144E-2,4.8232473E-2,8.967237E-3,-1.3083166E-2,1.0751496E-2,1.1224491E-3,-4.205173E-2,2.420843E-3,-2.238745E-2],"categories":[0,1,1,0,2,3,0,0,1,2,0,0,1,2,3,4,0,1,3,0,1,4,0,0,1,2,3,4,5,6,7,8,9,0,1,2],"categories_nodes":[0,1,2,3,4,5,6,7,8,9,10,11,12,13,14],"categories_segments":[0,2,3,4,6,7,10,11,12,16,19,22,23,24,33],"categories_sizes":[2,1,1,2,1,3,1,1,4,3,3,1,1,9,3],"default_left":[1,1,1,1,1,1,1,1,1,1,1,1,1,1,1,0,0,0,0,0,0,0,0,0,0,0,0,0,0,0,0],"id":32,"left_children":[1,3,5,7,9,11,13,15,17,19,21,23,25,27,29,-1,-1,-1,-1,-1,-1,-1,-1,-1,-1,-1,-1,-1,-1,-1,-1],"loss_changes":[4.3565456E1,2.5697405E1,2.1255688E1,1.073898E1,8.89566E0,6.6670012E0,1.5659546E1,7.1523857E0,1.4375856E1,6.641243E0,2.8885274E0,5.3579893E0,4.0431604E0,4.207676E0,1.9630032E1,0E0,0E0,0E0,0E0,0E0,0E0,0E0,0E0,0E0,0E0,0E0,0E0,0E0,0E0,0E0,0E0],"parents":[2147483647,0,0,1,1,2,2,3,3,4,4,5,5,6,6,7,7,8,8,9,9,10,10,11,11,12,12,13,13,14,14],"right_children":[2,4,6,8,10,12,14,16,18,20,22,24,26,28,30,-1,-1,-1,-1,-1,-1,-1,-1,-1,-1,-1,-1,-1,-1,-1,-1],"split_conditions":[NaN,NaN,NaN,NaN,NaN,NaN,NaN,NaN,NaN,NaN,NaN,NaN,NaN,NaN,NaN,2.8289983E-2,-2.2926588E-2,2.461025E-2,-8.28219E-3,5.115E-2,2.4058264E-2,5.346552E-3,-5.8443144E-2,4.8232473E-2,8.967237E-3,-1.3083166E-2,1.0751496E-2,1.1224491E-3,-4.205173E-2,2.420843E-3,-2.238745E-2],"split_indices":[15,24,9,0,22,20,10,1,16,15,16,13,8,28,20,0,0,0,0,0,0,0,0,0,0,0,0,0,0,0,0],"split_type":[1,1,1,1,1,1,1,1,1,1,1,1,1,1,1,0,0,0,0,0,0,0,0,0,0,0,0,0,0,0,0],"sum_hessian":[2.1715361E3,9.406062E2,1.23093E3,6.3312836E2,3.0747784E2,3.7346118E2,8.574688E2,1.2683051E2,5.0629785E2,2.956274E2,1.18504305E1,1.9374641E2,1.7971475E2,1.494786E2,7.0799023E2,1.1136495E2,1.5465565E1,8.703768E1,4.1926016E2,7.3192726E1,2.224347E2,4.369114E0,7.4813166E0,2.2300005E1,1.7144641E2,1.2658367E2,5.3131084E1,1.05393E1,1.389393E2,2.9533588E2,4.1265436E2],"tree_param":{"num_deleted":"0","num_feature":"32","num_nodes":"31","size_leaf_vector":"1"}},{"base_weights":[-1.3739966E-2,1.4982533E-1,-1.24461055E-1,4.6932003E-1,8.875424E-2,5.162784E-2,-2.1857174E-1,6.3277876E-1,2.725818E-1,1.7936592E-1,-1.04907915E-1,-0E0,2.4106836E-1,-1.6992453E-1,-6.290708E-1,5.294764E-2,-0E0,3.5334227E-3,4.115893E-2,2.6780194E-2,2.292992E-3,8.144477E-2,-1.1341582E-2,6.61115E-3,-1.3152698E-2,3.7697412E-2,-4.898873E-4,-7.997327E-3,-3.4963157E-2,5.556476E-3,-5.0505057E-2],"categories":[0,1,2,3,0,0,0,1,4,1,0,0,1,1,0,2,3,4,5,6,7,1,2,3,1,2,0,3,0,0],"categories_nodes":[0,1,2,3,4,5,6,7,8,9,10,11,12,13,14],"categories_segments":[0,4,5,6,9,10,11,13,14,15,21,24,26,28,29],"categories_sizes":[4,1,1,3,1,1,2,1,1,6,3,2,2,1,1],"default_left":[1,1,1,1,1,1,1,1,1,1,1,1,1,1,1,0,0,0,0,0,0,0,0,0,0,0,0,0,0,0,0],"id":33,"left_children":[1,3,5,7,9,11,13,15,17,19,21,23,25,27,29,-1,-1,-1,-1,-1,-1,-1,-1,-1,-1,-1,-1,-1,-1,-1,-1],"loss_changes":[3.917531E1,1.650584E1,2.1581385E1,3.5757904E0,1.2949468E1,4.5212765E0,1.6179691E1,4.315338E0,3.674294E0,1.3293379E1,1.2803121E1,5.6209993E0,6.9521866E0,1.3699039E1,3.8253136E0,0E0,0E0,0E0,0E0,0E0,0E0,0E0,0E0,0E0,0E0,0E0,0E0,0E0,0E0,0E0,0E0],"parents":[2147483647,0,0,1,1,2,2,3,3,4,4,5,5,6,6,7,7,8,8,9,9,10,10,11,11,12,12,13,13,14,14],"right_children":[2,4,6,8,10,12,14,16,18,20,22,24,26,28,30,-1,-1,-1,-1,-1,-1,-1,-1,-1,-1,-1,-1,-1,-1,-1,-1],"split_conditions":[NaN,NaN,NaN,NaN,NaN,NaN,NaN,NaN,NaN,NaN,NaN,NaN,NaN,NaN,NaN,5.294764E-2,-0E0,3.5334227E-3,4.115893E-2,2.6780194E-2,2.292992E-3,8.144477E-2,-1.1341582E-2,6.61115E-3,-1.3152698E-2,3.7697412E-2,-4.898873E-4,-7.997327E-3,-3.4963157E-2,5.556476E-3,-5.0505057E-2],"split_indices":[14,13,9,20,16,3,14,31,29,28,0,16,15,18,2,0,0,0,0,0,0,0,0,0,0,0,0,0,0,0,0],"split_type":[1,1,1,1,1,1,1,1,1,1,1,1,1,1,1,0,0,0,0,0,0,0,0,0,0,0,0,0,0,0,0],"sum_hessian":[2.1631616E3,8.701212E2,1.2930404E3,1.3685585E2,7.332654E2,4.4741162E2,8.456287E2,7.177257E1,6.5083275E1,5.0246182E2,2.3080354E2,3.4963702E2,9.77746E1,7.5854913E2,8.707959E1,6.444399E1,7.3285737E0,3.8294346E1,2.678893E1,2.224582E2,2.800036E2,7.7636337E0,2.2303992E2,2.306989E2,1.18938126E2,4.8235096E1,4.9539505E1,6.32686E2,1.2586316E2,5.036239E0,8.204335E1],"tree_param":{"num_deleted":"0","num_feature":"32","num_nodes":"31","size_leaf_vector":"1"}},{"base_weights":[-1.26216E-2,4.4442657E-2,-3.0573657E-1,3.4279764E-1,-1.379471E-2,1.7787379E-1,-3.782457E-1,4.7832283E-1,1.4001662E-1,1.3372456E-1,-9.77561E-2,1.1538671E0,-8.334912E-2,-1.4608015E-1,-4.7697687E-1,4.9674075E-2,2.329596E-2,2.2912364E-2,-1.4240692E-2,1.3241775E-2,-9.9646E-3,1.460055E-3,-1.6202172E-2,1.1533866E-1,-1.5064223E-2,9.443254E-3,-3.8000785E-2,-0E0,-3.925213E-2,-2.8120037E-2,-5.2901946E-2],"categories":[0,1,2,0,0,1,3,4,1,2,3,6,0,0,1,2,3,5,6,8,9,0,0,2,3,1,4,2,1,3,0,0,1,2,0,1],"categories_nodes":[0,1,2,3,4,5,6,7,8,9,10,11,12,13,14],"categories_segments":[0,3,4,8,12,13,21,22,25,27,28,30,31,32,34],"categories_sizes":[3,1,4,4,1,8,1,3,2,1,2,1,1,2,2],"default_left":[1,1,1,1,1,1,1,1,1,1,1,1,1,1,1,0,0,0,0,0,0,0,0,0,0,0,0,0,0,0,0],"id":34,"left_children":[1,3,5,7,9,11,13,15,17,19,21,23,25,27,29,-1,-1,-1,-1,-1,-1,-1,-1,-1,-1,-1,-1,-1,-1,-1,-1],"loss_changes":[3.61195E1,3.1454254E1,1.2551853E1,7.5712357E0,1.8553112E1,1.2363955E1,6.5050087E0,4.569519E0,6.985714E0,6.610388E0,1.3828978E1,6.8823605E0,3.5518923E0,5.1956577E0,3.8647423E0,0E0,0E0,0E0,0E0,0E0,0E0,0E0,0E0,0E0,0E0,0E0,0E0,0E0,0E0,0E0,0E0],"parents":[2147483647,0,0,1,1,2,2,3,3,4,4,5,5,6,6,7,7,8,8,9,9,10,10,11,11,12,12,13,13,14,14],"right_children":[2,4,6,8,10,12,14,16,18,20,22,24,26,28,30,-1,-1,-1,-1,-1,-1,-1,-1,-1,-1,-1,-1,-1,-1,-1,-1],"split_conditions":[NaN,NaN,NaN,NaN,NaN,NaN,NaN,NaN,NaN,NaN,NaN,NaN,NaN,NaN,NaN,4.9674075E-2,2.329596E-2,2.2912364E-2,-1.4240692E-2,1.3241775E-2,-9.9646E-3,1.460055E-3,-1.6202172E-2,1.1533866E-1,-1.5064223E-2,9.443254E-3,-3.8000785E-2,-0E0,-3.925213E-2,-2.8120037E-2,-5.2901946E-2],"split_indices":[14,13,17,28,9,28,9,18,19,24,17,0,18,31,17,0,0,0,0,0,0,0,0,0,0,0,0,0,0,0,0],"split_type":[1,1,1,1,1,1,1,1,1,1,1,1,1,1,1,0,0,0,0,0,0,0,0,0,0,0,0,0,0,0,0],"sum_hessian":[2.1455405E3,1.7939661E3,3.515745E2,2.9483447E2,1.4991316E3,4.4251663E1,3.073228E2,1.7382544E2,1.21009026E2,5.400791E2,9.590525E2,9.595064E0,3.46566E1,9.460762E1,2.127152E2,7.6620094E1,9.7205345E1,8.179565E1,3.9213375E1,4.65E2,7.50791E1,4.8375266E2,4.752998E2,7.7929544E0,1.8021094E0,2.2239792E1,1.2416808E1,6.949338E1,2.511424E1,1.5462051E2,5.809469E1],"tree_param":{"num_deleted":"0","num_feature":"32","num_nodes":"31","size_leaf_vector":"1"}},{"base_weights":[-1.4884743E-2,4.827708E-2,-2.6594818E-1,2.0160982E-1,-5.674108E-2,-5.0173834E-2,-3.4424597E-1,7.426826E-1,1.4133272E-1,1.10137604E-1,-1.7669402E-1,9.028541E-2,-3.5153198E-1,-1.7855038E-1,-4.8730364E-1,7.828967E-2,1.1258571E-2,1.2690806E-2,-3.9670255E-2,4.23563E-2,3.506785E-3,1.2265437E-3,-2.170874E-2,5.9436888E-2,-1.1995512E-3,2.7134402E-2,-3.6896E-2,2.4005335E-3,-2.6900014E-2,-0E0,-3.985803E-2],"categories":[0,1,2,3,4,0,0,0,1,2,1,0,1,3,0,0,1,2,3,0,0,1,2,4,0,1,3,4,1,2,3,0,2,3],"categories_nodes":[0,1,2,3,4,5,6,7,8,9,10,11,12,13,14],"categories_segments":[0,1,5,6,7,10,11,12,14,15,19,20,24,28,31],"categories_sizes":[1,4,1,1,3,1,1,2,1,4,1,4,4,3,3],"default_left":[1,1,1,1,1,1,1,1,1,1,1,1,1,1,1,0,0,0,0,0,0,0,0,0,0,0,0,0,0,0,0],"id":35,"left_children":[1,3,5,7,9,11,13,15,17,19,21,23,25,27,29,-1,-1,-1,-1,-1,-1,-1,-1,-1,-1,-1,-1,-1,-1,-1,-1],"loss_changes":[3.4168922E1,2.7662771E1,6.988762E0,2.199198E1,2.0327856E1,5.265112E0,6.8727455E0,1.1666012E1,1.2633612E1,1.1679398E1,1.357756E1,6.704133E0,4.4134917E0,6.1166196E0,4.498127E0,0E0,0E0,0E0,0E0,0E0,0E0,0E0,0E0,0E0,0E0,0E0,0E0,0E0,0E0,0E0,0E0],"parents":[2147483647,0,0,1,1,2,2,3,3,4,4,5,5,6,6,7,7,8,8,9,9,10,10,11,11,12,12,13,13,14,14],"right_children":[2,4,6,8,10,12,14,16,18,20,22,24,26,28,30,-1,-1,-1,-1,-1,-1,-1,-1,-1,-1,-1,-1,-1,-1,-1,-1],"split_conditions":[NaN,NaN,NaN,NaN,NaN,NaN,NaN,NaN,NaN,NaN,NaN,NaN,NaN,NaN,NaN,7.828967E-2,1.1258571E-2,1.2690806E-2,-3.9670255E-2,4.23563E-2,3.506785E-3,1.2265437E-3,-2.170874E-2,5.9436888E-2,-1.1995512E-3,2.7134402E-2,-3.6896E-2,2.4005335E-3,-2.6900014E-2,-0E0,-3.985803E-2],"split_indices":[15,19,9,12,20,29,23,21,1,15,9,16,14,20,21,0,0,0,0,0,0,0,0,0,0,0,0,0,0,0,0],"split_type":[1,1,1,1,1,1,1,1,1,1,1,1,1,1,1,0,0,0,0,0,0,0,0,0,0,0,0,0,0,0,0],"sum_hessian":[2.1424011E3,1.7095122E3,4.3288895E2,6.978776E2,1.0116345E3,1.18306465E2,3.145825E2,6.793456E1,6.2994305E2,4.202164E2,5.9141815E2,7.910662E1,3.9199844E1,1.4902005E2,1.6556245E2,4.3087093E1,2.484747E1,6.0466516E2,2.5277908E1,4.810536E1,3.7211102E2,2.201415E2,3.7127664E2,1.0798759E1,6.830786E1,5.5655236E0,3.363432E1,6.7752365E1,8.1267685E1,1.4633862E1,1.5092859E2],"tree_param":{"num_deleted":"0","num_feature":"32","num_nodes":"31","size_leaf_vector":"1"}},{"base_weights":[-1.4970071E-2,9.294723E-2,-1.4662609E-1,2.393838E-1,-1.8707437E-2,6.980617E-2,-2.1818498E-1,3.4967628E-1,6.0201924E-2,2.8214446E-1,-7.424012E-2,2.7994475E-1,-7.8301765E-2,5.514905E-2,-2.6228648E-1,5.6402765E-2,1.953531E-2,1.3458022E-2,-1.4415232E-2,4.0153746E-2,6.347634E-3,-1.6799188E-3,-2.9187609E-2,6.8826206E-2,1.3067063E-2,1.84048E-2,-1.981608E-2,3.9307743E-2,-1.9091178E-2,-1.5463295E-2,-3.5376024E-2],"categories":[0,1,0,1,3,0,2,4,6,9,0,0,0,0,1,3,1,2,0,2,3,0,1,2,0,1,2,3,4,5,6,7,8,0,1,2,3,2,3,4,5,6,7,1,2],"categories_nodes":[0,1,2,3,4,5,6,7,8,9,10,11,12,13,14],"categories_segments":[0,2,5,6,10,11,12,13,16,18,21,24,33,37,43],"categories_sizes":[2,3,1,4,1,1,1,3,2,3,3,9,4,6,2],"default_left":[1,1,1,1,1,1,1,1,1,1,1,1,1,1,1,0,0,0,0,0,0,0,0,0,0,0,0,0,0,0,0],"id":36,"left_children":[1,3,5,7,9,11,13,15,17,19,21,23,25,27,29,-1,-1,-1,-1,-1,-1,-1,-1,-1,-1,-1,-1,-1,-1,-1,-1],"loss_changes":[3.036022E1,1.9300875E1,1.5069647E1,9.710621E0,1.0879735E1,7.5623775E0,8.953014E0,1.0073959E1,6.1359835E0,4.6100063E0,8.901268E0,5.749509E0,8.56169E0,1.5060728E1,6.6201096E0,0E0,0E0,0E0,0E0,0E0,0E0,0E0,0E0,0E0,0E0,0E0,0E0,0E0,0E0,0E0,0E0],"parents":[2147483647,0,0,1,1,2,2,3,3,4,4,5,5,6,6,7,7,8,8,9,9,10,10,11,11,12,12,13,13,14,14],"right_children":[2,4,6,8,10,12,14,16,18,20,22,24,26,28,30,-1,-1,-1,-1,-1,-1,-1,-1,-1,-1,-1,-1,-1,-1,-1,-1],"split_conditions":[NaN,NaN,NaN,NaN,NaN,NaN,NaN,NaN,NaN,NaN,NaN,NaN,NaN,NaN,NaN,5.6402765E-2,1.953531E-2,1.3458022E-2,-1.4415232E-2,4.0153746E-2,6.347634E-3,-1.6799188E-3,-2.9187609E-2,6.8826206E-2,1.3067063E-2,1.84048E-2,-1.981608E-2,3.9307743E-2,-1.9091178E-2,-1.5463295E-2,-3.5376024E-2],"split_indices":[18,21,11,28,13,9,13,15,16,14,14,28,14,28,14,0,0,0,0,0,0,0,0,0,0,0,0,0,0,0,0],"split_type":[1,1,1,1,1,1,1,1,1,1,1,1,1,1,1,0,0,0,0,0,0,0,0,0,0,0,0,0,0,0,0],"sum_hessian":[2.132615E3,1.1686233E3,9.639917E2,5.0847098E2,6.601523E2,2.366752E2,7.2731647E2,3.1155896E2,1.96912E2,1.0019357E2,5.599587E2,9.993339E1,1.3674182E2,9.843452E1,6.2888196E2,5.1162975E1,2.60396E2,1.3560619E2,6.130582E1,4.083379E1,5.935978E1,4.8506E2,7.48987E1,1.1989547E1,8.794384E1,4.850569E1,8.823612E1,3.994268E1,5.8491833E1,5.0820212E2,1.2067985E2],"tree_param":{"num_deleted":"0","num_feature":"32","num_nodes":"31","size_leaf_vector":"1"}},{"base_weights":[-1.1219466E-2,4.5079313E-2,-2.3783833E-1,1.791587E-1,-4.6934716E-2,-9.927837E-2,-3.5248545E-1,6.7552906E-1,1.2333814E-1,1.0289383E-1,-1.5568092E-1,1.6950169E-1,-3.0219653E-1,-8.8254355E-2,-4.5817485E-1,3.0080741E-2,6.7465216E-2,3.1798914E-2,4.4429805E-3,1.8281788E-2,-4.5754695E-3,1.7484498E-3,-1.9685965E-2,5.1224288E-2,-1.3480564E-3,3.2635875E-2,-2.7206471E-2,1.7088456E-2,-2.1337908E-2,1.5377059E-2,-3.7557337E-2],"categories":[0,1,2,3,4,0,0,0,1,2,0,1,6,8,9,0,0,0,0,2,3,0,0,1,2,3,0,1,2,1,2,3,0,2,3],"categories_nodes":[0,1,2,3,4,5,6,7,8,9,10,11,12,13,14],"categories_segments":[0,1,5,6,7,10,15,16,17,18,21,22,26,29,32],"categories_sizes":[1,4,1,1,3,5,1,1,1,3,1,4,3,3,3],"default_left":[1,1,1,1,1,1,1,1,1,1,1,1,1,1,1,0,0,0,0,0,0,0,0,0,0,0,0,0,0,0,0],"id":37,"left_children":[1,3,5,7,9,11,13,15,17,19,21,23,25,27,29,-1,-1,-1,-1,-1,-1,-1,-1,-1,-1,-1,-1,-1,-1,-1,-1],"loss_changes":[2.7234844E1,2.1051182E1,6.3629913E0,1.8536215E1,1.6398785E1,1.0859814E1,5.928299E0,3.060234E0,1.1730382E1,1.0112151E1,1.1771411E1,8.723959E0,5.575468E0,4.45486E0,5.609001E0,0E0,0E0,0E0,0E0,0E0,0E0,0E0,0E0,0E0,0E0,0E0,0E0,0E0,0E0,0E0,0E0],"parents":[2147483647,0,0,1,1,2,2,3,3,4,4,5,5,6,6,7,7,8,8,9,9,10,10,11,11,12,12,13,13,14,14],"right_children":[2,4,6,8,10,12,14,16,18,20,22,24,26,28,30,-1,-1,-1,-1,-1,-1,-1,-1,-1,-1,-1,-1,-1,-1,-1,-1],"split_conditions":[NaN,NaN,NaN,NaN,NaN,NaN,NaN,NaN,NaN,NaN,NaN,NaN,NaN,NaN,NaN,3.0080741E-2,6.7465216E-2,3.1798914E-2,4.4429805E-3,1.8281788E-2,-4.5754695E-3,1.7484498E-3,-1.9685965E-2,5.1224288E-2,-1.3480564E-3,3.2635875E-2,-2.7206471E-2,1.7088456E-2,-2.1337908E-2,1.5377059E-2,-3.7557337E-2],"split_indices":[15,19,23,12,20,28,9,9,13,30,9,20,0,30,22,0,0,0,0,0,0,0,0,0,0,0,0,0,0,0,0],"split_type":[1,1,1,1,1,1,1,1,1,1,1,1,1,1,1,0,0,0,0,0,0,0,0,0,0,0,0,0,0,0,0],"sum_hessian":[2.1211802E3,1.6965383E3,4.24642E2,6.938646E2,1.0026737E3,1.960028E2,2.2863918E2,6.800948E1,6.2585516E2,4.1851532E2,5.841583E2,8.261396E1,1.1338885E2,6.784867E1,1.6079051E2,3.4146194E1,3.3863293E1,1.04376724E2,5.214784E2,2.2570766E2,1.9280768E2,2.1985805E2,3.643003E2,2.2581347E1,6.0032616E1,7.8932104E0,1.05495636E2,2.452556E1,4.332311E1,9.8134E0,1.5097711E2],"tree_param":{"num_deleted":"0","num_feature":"32","num_nodes":"31","size_leaf_vector":"1"}},{"base_weights":[-1.2901231E-2,2.4491279E-1,-6.154019E-2,3.36247E-1,9.332245E-3,5.1163208E-2,-1.7466642E-1,3.8725698E-1,-4.21874E-2,-1.0466355E-1,3.558301E-1,-9.3284026E-2,1.7714918E-1,-1.3414547E-1,-5.7770395E-1,4.8946436E-2,2.1527044E-2,3.036866E-2,-2.7113486E-2,4.263715E-3,-2.7723858E-2,6.778902E-2,-0E0,3.15264E-3,-1.4379148E-2,1.5549956E-2,-5.9694756E-2,9.8620225E-3,-1.45358285E-2,1.1203755E-2,-5.0323606E-2],"categories":[0,2,3,6,0,1,3,0,1,2,1,0,0,1,0,1,2,4,1,2,3,0,1,2,0,1,2,0,0,0,1,2,3,0,1,3],"categories_nodes":[0,1,2,3,4,5,6,7,8,9,10,11,12,13,14],"categories_segments":[0,1,4,7,10,11,12,14,18,21,24,27,28,29,33],"categories_sizes":[1,3,3,3,1,1,2,4,3,3,3,1,1,4,3],"default_left":[1,1,1,1,1,1,1,1,1,1,1,1,1,1,1,0,0,0,0,0,0,0,0,0,0,0,0,0,0,0,0],"id":38,"left_children":[1,3,5,7,9,11,13,15,17,19,21,23,25,27,29,-1,-1,-1,-1,-1,-1,-1,-1,-1,-1,-1,-1,-1,-1,-1,-1],"loss_changes":[2.6419847E1,6.892334E0,2.2867134E1,4.8853645E0,4.032366E0,1.6294184E1,1.3981447E1,4.696331E0,3.9902663E0,3.3893476E0,5.031393E0,5.7913795E0,1.5152642E1,1.3648946E1,6.4400463E0,0E0,0E0,0E0,0E0,0E0,0E0,0E0,0E0,0E0,0E0,0E0,0E0,0E0,0E0,0E0,0E0],"parents":[2147483647,0,0,1,1,2,2,3,3,4,4,5,5,6,6,7,7,8,8,9,9,10,10,11,11,12,12,13,13,14,14],"right_children":[2,4,6,8,10,12,14,16,18,20,22,24,26,28,30,-1,-1,-1,-1,-1,-1,-1,-1,-1,-1,-1,-1,-1,-1,-1,-1],"split_conditions":[NaN,NaN,NaN,NaN,NaN,NaN,NaN,NaN,NaN,NaN,NaN,NaN,NaN,NaN,NaN,4.8946436E-2,2.1527044E-2,3.036866E-2,-2.7113486E-2,4.263715E-3,-2.7723858E-2,6.778902E-2,-0E0,3.15264E-3,-1.4379148E-2,1.5549956E-2,-5.9694756E-2,9.8620225E-3,-1.45358285E-2,1.1203755E-2,-5.0323606E-2],"split_indices":[13,28,17,14,29,25,14,20,20,18,16,11,30,20,30,0,0,0,0,0,0,0,0,0,0,0,0,0,0,0,0],"split_type":[1,1,1,1,1,1,1,1,1,1,1,1,1,1,1,0,0,0,0,0,0,0,0,0,0,0,0,0,0,0,0],"sum_hessian":[2.11765E3,3.3305295E2,1.7845968E3,2.3731061E2,9.574235E1,8.904828E2,8.941141E2,2.1102676E2,2.6283854E1,7.055515E1,2.5187197E1,4.1187344E2,4.7860934E2,8.149815E2,7.9132576E1,5.178815E1,1.5923862E2,9.847354E0,1.6436499E1,4.24444E1,2.8110752E1,9.310293E0,1.5876904E1,1.7229852E2,2.395749E2,4.6433142E2,1.42779255E1,1.5132922E2,6.636523E2,8.715113E0,7.041746E1],"tree_param":{"num_deleted":"0","num_feature":"32","num_nodes":"31","size_leaf_vector":"1"}},{"base_weights":[-9.2902575E-3,1.1126406E-1,-1.0458151E-1,4.9660536E-3,3.2624167E-1,-5.0016437E-2,-2.950487E-1,2.8612065E-1,-6.602869E-2,4.4336626E-1,9.6826755E-2,9.160766E-2,-1.6825482E-1,5.8290776E-2,-3.3491194E-1,2.836076E-2,-4.444152E-2,1.2587994E-2,-1.0850696E-2,6.493759E-2,2.4394551E-2,3.3599332E-2,-1.4139245E-2,3.3229347E-2,2.4223495E-3,-1.8164371E-3,-2.127034E-2,4.410299E-2,-2.0312062E-2,-7.873022E-3,-3.0633073E-2],"categories":[0,1,1,0,1,2,3,4,1,2,4,1,2,3,4,0,1,2,2,3,4,2,3,1,2,3,4,5,7,8,9,0,1,4,0,0,1,2,1,2,0],"categories_nodes":[0,1,2,3,4,5,6,7,8,9,10,11,12,13,14],"categories_segments":[0,2,3,4,8,11,15,18,21,23,31,34,35,38,40],"categories_sizes":[2,1,1,4,3,4,3,3,2,8,3,1,3,2,1],"default_left":[1,1,1,1,1,1,1,1,1,1,1,1,1,1,1,0,0,0,0,0,0,0,0,0,0,0,0,0,0,0,0],"id":39,"left_children":[1,3,5,7,9,11,13,15,17,19,21,23,25,27,29,-1,-1,-1,-1,-1,-1,-1,-1,-1,-1,-1,-1,-1,-1,-1,-1],"loss_changes":[2.4257118E1,2.0947311E1,1.2006549E1,1.2657719E1,7.7176933E0,1.5543353E1,3.9016705E0,1.1005438E1,9.44874E0,8.674213E0,1.1175132E1,8.38257E0,8.420526E0,4.7881675E0,3.806593E0,0E0,0E0,0E0,0E0,0E0,0E0,0E0,0E0,0E0,0E0,0E0,0E0,0E0,0E0,0E0,0E0],"parents":[2147483647,0,0,1,1,2,2,3,3,4,4,5,5,6,6,7,7,8,8,9,9,10,10,11,11,12,12,13,13,14,14],"right_children":[2,4,6,8,10,12,14,16,18,20,22,24,26,28,30,-1,-1,-1,-1,-1,-1,-1,-1,-1,-1,-1,-1,-1,-1,-1,-1],"split_conditions":[NaN,NaN,NaN,NaN,NaN,NaN,NaN,NaN,NaN,NaN,NaN,NaN,NaN,NaN,NaN,2.836076E-2,-4.444152E-2,1.2587994E-2,-1.0850696E-2,6.493759E-2,2.4394551E-2,3.3599332E-2,-1.4139245E-2,3.3229347E-2,2.4223495E-3,-1.8164371E-3,-2.127034E-2,4.410299E-2,-2.0312062E-2,-7.873022E-3,-3.0633073E-2],"split_indices":[15,24,18,16,19,19,0,19,15,28,20,13,20,30,9,0,0,0,0,0,0,0,0,0,0,0,0,0,0,0,0],"split_type":[1,1,1,1,1,1,1,1,1,1,1,1,1,1,1,0,0,0,0,0,0,0,0,0,0,0,0,0,0,0,0],"sum_hessian":[2.1108857E3,9.2805707E2,1.1828287E3,6.2395105E2,3.0410602E2,9.233502E2,2.5947855E2,1.2777779E2,4.9617328E2,1.9859532E2,1.0551069E2,4.170201E2,5.0633014E2,2.4186731E1,2.3529181E2,1.1629295E2,1.1484828E1,1.23500496E2,3.726728E2,3.8923332E1,1.5967198E2,4.821513E1,5.7295563E1,5.6463654E1,3.6055646E2,2.3297745E2,2.7335266E2,1.0018657E1,1.4168076E1,6.348385E1,1.7180797E2],"tree_param":{"num_deleted":"0","num_feature":"32","num_nodes":"31","size_leaf_vector":"1"}},{"base_weights":[-1.0247462E-2,1.166326E-1,-9.813041E-2,1.6865727E-1,-1.9673666E-1,4.2488496E-3,-2.0332704E-1,2.9112566E-1,3.2073867E-2,-3.4912747E-1,1.6724508E-1,1.6811901E-1,-1.0905414E-1,-1.6167378E-1,-4.8567548E-1,3.1157892E-2,-2.942966E-3,1.3555969E-2,-1.1384616E-2,-6.047662E-3,-4.589481E-2,5.512617E-2,-1.234646E-2,2.0277275E-2,-1.99476E-2,-1.4278905E-2,1.5505073E-2,-6.1289803E-4,-1.9971475E-2,-0E0,-4.93894E-2],"categories":[0,1,2,3,0,1,0,1,1,2,4,6,7,2,0,1,3,0,1,1,2,3,0,2,3,0,2,3,4,9,1,3,0,0,1,3,5,6,9,1,2,3,4],"categories_nodes":[0,1,2,3,4,5,6,7,8,9,10,11,12,13,14],"categories_segments":[0,4,6,8,13,14,17,19,22,25,30,32,33,34,39],"categories_sizes":[4,2,2,5,1,3,2,3,3,5,2,1,1,5,4],"default_left":[1,1,1,1,1,1,1,1,1,1,1,1,1,1,1,0,0,0,0,0,0,0,0,0,0,0,0,0,0,0,0],"id":40,"left_children":[1,3,5,7,9,11,13,15,17,19,21,23,25,27,29,-1,-1,-1,-1,-1,-1,-1,-1,-1,-1,-1,-1,-1,-1,-1,-1],"loss_changes":[2.3436693E1,1.3964868E1,1.3587387E1,1.2063347E1,6.8396754E0,1.17234E1,6.698641E0,1.6896626E1,9.941197E0,5.6536293E0,7.149166E0,1.209552E1,9.866584E0,8.774641E0,6.9858913E0,0E0,0E0,0E0,0E0,0E0,0E0,0E0,0E0,0E0,0E0,0E0,0E0,0E0,0E0,0E0,0E0],"parents":[2147483647,0,0,1,1,2,2,3,3,4,4,5,5,6,6,7,7,8,8,9,9,10,10,11,11,12,12,13,13,14,14],"right_children":[2,4,6,8,10,12,14,16,18,20,22,24,26,28,30,-1,-1,-1,-1,-1,-1,-1,-1,-1,-1,-1,-1,-1,-1,-1,-1],"split_conditions":[NaN,NaN,NaN,NaN,NaN,NaN,NaN,NaN,NaN,NaN,NaN,NaN,NaN,NaN,NaN,3.1157892E-2,-2.942966E-3,1.3555969E-2,-1.1384616E-2,-6.047662E-3,-4.589481E-2,5.512617E-2,-1.234646E-2,2.0277275E-2,-1.99476E-2,-1.4278905E-2,1.5505073E-2,-6.1289803E-4,-1.9971475E-2,-0E0,-4.93894E-2],"split_indices":[14,22,18,28,1,21,14,17,30,28,30,20,3,28,20,0,0,0,0,0,0,0,0,0,0,0,0,0,0,0,0],"split_type":[1,1,1,1,1,1,1,1,1,1,1,1,1,1,1,0,0,0,0,0,0,0,0,0,0,0,0,0,0,0,0],"sum_hessian":[2.1020386E3,8.562651E2,1.2457734E3,7.36829E2,1.194361E2,6.276555E2,6.1811786E2,3.8497052E2,3.5185846E2,8.579828E1,3.3637817E1,2.5942868E2,3.6822687E2,5.419777E2,7.614014E1,2.7811215E2,1.0685836E2,1.9654446E2,1.55314E2,4.50928E1,4.0705482E1,1.2969831E1,2.0667988E1,2.1057681E2,4.8851864E1,2.9369147E2,7.453539E1,2.2757553E2,3.144022E2,2.0404583E1,5.5735554E1],"tree_param":{"num_deleted":"0","num_feature":"32","num_nodes":"31","size_leaf_vector":"1"}},{"base_weights":[-9.922338E-3,3.4768812E-2,-2.5101238E-1,1.0317677E-1,-9.444959E-2,1.7424424E-1,-3.1812578E-1,1.5087633E-1,-2.1427085E-1,1.7265221E-2,-1.9055058E-1,8.248622E-1,-1.792525E-1,-1.3058604E-1,-4.643158E-1,1.9517673E-2,3.9041338E-3,9.538231E-3,-2.5040021E-2,1.1418695E-2,-1.5814127E-2,5.8645736E-3,-1.9010097E-2,9.260669E-2,5.5472557E-3,3.4253106E-2,-3.0794442E-2,6.9670784E-3,-2.1678515E-2,-1.9844882E-2,-4.7023103E-2],"categories":[0,1,2,1,2,0,1,3,4,0,0,1,2,0,1,2,5,6,8,9,1,2,3,1,2,3,4,0,0,0,1,0,3,0,1,2,4,1,2,4,5,6,9,1],"categories_nodes":[0,1,2,3,4,5,6,7,8,9,10,11,12,13,14],"categories_segments":[0,3,5,9,10,13,20,23,27,28,29,31,33,37,43],"categories_sizes":[3,2,4,1,3,7,3,4,1,1,2,2,4,6,1],"default_left":[1,1,1,1,1,1,1,1,1,1,1,1,1,1,1,0,0,0,0,0,0,0,0,0,0,0,0,0,0,0,0],"id":41,"left_children":[1,3,5,7,9,11,13,15,17,19,21,23,25,27,29,-1,-1,-1,-1,-1,-1,-1,-1,-1,-1,-1,-1,-1,-1,-1,-1],"loss_changes":[2.2766054E1,1.5621792E1,9.589029E0,1.751633E1,6.6651134E0,1.0684526E1,7.3584137E0,1.0919029E1,6.5589395E0,8.750788E0,6.0727882E0,4.0794334E0,4.3332715E0,4.893728E0,4.491436E0,0E0,0E0,0E0,0E0,0E0,0E0,0E0,0E0,0E0,0E0,0E0,0E0,0E0,0E0,0E0,0E0],"parents":[2147483647,0,0,1,1,2,2,3,3,4,4,5,5,6,6,7,7,8,8,9,9,10,10,11,11,12,12,13,13,14,14],"right_children":[2,4,6,8,10,12,14,16,18,20,22,24,26,28,30,-1,-1,-1,-1,-1,-1,-1,-1,-1,-1,-1,-1,-1,-1,-1,-1],"split_conditions":[NaN,NaN,NaN,NaN,NaN,NaN,NaN,NaN,NaN,NaN,NaN,NaN,NaN,NaN,NaN,1.9517673E-2,3.9041338E-3,9.538231E-3,-2.5040021E-2,1.1418695E-2,-1.5814127E-2,5.8645736E-3,-1.9010097E-2,9.260669E-2,5.5472557E-3,3.4253106E-2,-3.0794442E-2,6.9670784E-3,-2.1678515E-2,-1.9844882E-2,-4.7023103E-2],"split_indices":[14,16,17,18,20,28,20,19,11,30,30,0,16,28,1,0,0,0,0,0,0,0,0,0,0,0,0,0,0,0,0],"split_type":[1,1,1,1,1,1,1,1,1,1,1,1,1,1,1,0,0,0,0,0,0,0,0,0,0,0,0,0,0,0,0],"sum_hessian":[2.095389E3,1.7652413E3,3.3014767E2,1.1584456E3,6.067958E2,4.320567E1,2.8694202E2,1.0096312E3,1.4881433E2,2.7686063E2,3.2993512E2,1.57610855E1,2.7444584E1,1.2863512E2,1.583069E2,4.651826E2,5.4444867E2,3.7755756E1,1.1105858E2,1.7611783E2,1.007428E2,6.264044E1,2.6729468E2,9.1031475E0,6.6579385E0,6.312555E0,2.113203E1,5.1928577E1,7.6706535E1,7.668137E1,8.162552E1],"tree_param":{"num_deleted":"0","num_feature":"32","num_nodes":"31","size_leaf_vector":"1"}},{"base_weights":[-1.1025514E-2,3.9508928E-2,-2.2218843E-1,1.1169908E-1,-9.020494E-2,-1.4129826E-1,-4.233551E-1,3.3054462E-1,3.3829514E-2,9.8129846E-2,-2.1011482E-1,5.191506E-2,-3.1138375E-1,-4.7690225E-1,3.702956E-2,7.8376874E-2,1.9770822E-2,1.433213E-2,-5.501797E-3,3.1207927E-2,3.2188752E-4,-3.1486182E-3,-2.565375E-2,-5.8580237E-3,2.0607848E-2,-1.1761026E-2,-3.688287E-2,4.3636323E-3,-3.7877545E-2,5.251924E-2,-1.2408213E-3],"categories":[0,0,1,0,1,9,1,2,3,4,0,0,2,0,0,1,3,0,1,3,1,0,0,0],"categories_nodes":[0,1,2,3,4,5,6,7,8,9,10,11,12,13,14],"categories_segments":[0,1,3,6,10,11,12,13,14,17,18,20,21,22,23],"categories_sizes":[1,2,3,4,1,1,1,1,3,1,2,1,1,1,1],"default_left":[1,1,1,1,1,1,1,1,1,1,1,1,1,1,1,0,0,0,0,0,0,0,0,0,0,0,0,0,0,0,0],"id":42,"left_children":[1,3,5,7,9,11,13,15,17,19,21,23,25,27,29,-1,-1,-1,-1,-1,-1,-1,-1,-1,-1,-1,-1,-1,-1,-1,-1],"loss_changes":[2.2458923E1,1.5791118E1,6.1213512E0,1.8202873E1,1.3615394E1,9.882373E0,3.1693687E0,1.1778032E1,1.4016811E1,6.641959E0,8.100595E0,4.2105155E0,3.9377928E0,2.3237267E0,9.660857E-1,0E0,0E0,0E0,0E0,0E0,0E0,0E0,0E0,0E0,0E0,0E0,0E0,0E0,0E0,0E0,0E0],"parents":[2147483647,0,0,1,1,2,2,3,3,4,4,5,5,6,6,7,7,8,8,9,9,10,10,11,11,12,12,13,13,14,14],"right_children":[2,4,6,8,10,12,14,16,18,20,22,24,26,28,30,-1,-1,-1,-1,-1,-1,-1,-1,-1,-1,-1,-1,-1,-1,-1,-1],"split_conditions":[NaN,NaN,NaN,NaN,NaN,NaN,NaN,NaN,NaN,NaN,NaN,NaN,NaN,NaN,NaN,7.8376874E-2,1.9770822E-2,1.433213E-2,-5.501797E-3,3.1207927E-2,3.2188752E-4,-3.1486182E-3,-2.565375E-2,-5.8580237E-3,2.0607848E-2,-1.1761026E-2,-3.688287E-2,4.3636323E-3,-3.7877545E-2,5.251924E-2,-1.2408213E-3],"split_indices":[15,20,28,16,9,23,24,12,21,12,19,27,18,4,2,0,0,0,0,0,0,0,0,0,0,0,0,0,0,0,0],"split_type":[1,1,1,1,1,1,1,1,1,1,1,1,1,1,1,0,0,0,0,0,0,0,0,0,0,0,0,0,0,0,0],"sum_hessian":[2.0895393E3,1.6832753E3,4.0626398E2,1.0855518E3,5.9772345E2,2.9336536E2,1.12898636E2,2.8163022E2,8.039216E2,2.298908E2,3.6783267E2,1.352662E2,1.5809915E2,1.027182E2,1.0180434E1,2.0780504E1,2.6084973E2,3.273622E2,4.7655936E2,4.923426E1,1.8065652E2,1.6819777E2,1.9963489E2,8.362576E1,5.1640446E1,9.010424E1,6.79949E1,4.821557E0,9.7896645E1,1.3694797E0,8.810955E0],"tree_param":{"num_deleted":"0","num_feature":"32","num_nodes":"31","size_leaf_vector":"1"}},{"base_weights":[-7.1043884E-3,2.1582381E-1,-4.915758E-2,3.343902E-1,4.493647E-2,6.4378135E-2,-1.296527E-1,7.2419673E-1,2.114272E-1,-5.546685E-2,3.7492278E-1,1.3634945E-1,-1.1595347E-1,1.3257654E-3,-2.2156312E-1,6.614753E-2,-0E0,4.6271574E-2,9.199678E-3,3.0491404E-2,-1.1244187E-2,4.9146604E-2,-0E0,1.6123084E-2,-4.3850294E-3,1.8816885E-2,-1.9671392E-2,1.1897371E-2,-1.4104653E-2,-1.5031649E-3,-2.5013117E-2],"categories":[0,1,2,3,6,0,1,2,3,0,1,2,4,1,2,4,6,0,3,0,1,2,3,0,1,3,0,1,2,3,0,1,2,3,0,1,6,9,0,1,2],"categories_nodes":[0,1,2,3,4,5,6,7,8,9,10,11,12,13,14],"categories_segments":[0,1,5,9,13,14,17,18,19,23,26,27,30,34,38],"categories_sizes":[1,4,4,4,1,3,1,1,4,3,1,3,4,4,3],"default_left":[1,1,1,1,1,1,1,1,1,1,1,1,1,1,1,0,0,0,0,0,0,0,0,0,0,0,0,0,0,0,0],"id":43,"left_children":[1,3,5,7,9,11,13,15,17,19,21,23,25,27,29,-1,-1,-1,-1,-1,-1,-1,-1,-1,-1,-1,-1,-1,-1,-1,-1],"loss_changes":[1.9421106E1,6.3248644E0,1.6126629E1,8.283413E0,4.842173E0,9.442358E0,1.2619551E1,4.763014E0,4.6521554E0,4.5252814E0,3.6463423E0,8.46329E0,1.1367772E1,1.2935149E1,1.4015755E1,0E0,0E0,0E0,0E0,0E0,0E0,0E0,0E0,0E0,0E0,0E0,0E0,0E0,0E0,0E0,0E0],"parents":[2147483647,0,0,1,1,2,2,3,3,4,4,5,5,6,6,7,7,8,8,9,9,10,10,11,11,12,12,13,13,14,14],"right_children":[2,4,6,8,10,12,14,16,18,20,22,24,26,28,30,-1,-1,-1,-1,-1,-1,-1,-1,-1,-1,-1,-1,-1,-1,-1,-1],"split_conditions":[NaN,NaN,NaN,NaN,NaN,NaN,NaN,NaN,NaN,NaN,NaN,NaN,NaN,NaN,NaN,6.614753E-2,-0E0,4.6271574E-2,9.199678E-3,3.0491404E-2,-1.1244187E-2,4.9146604E-2,-0E0,1.6123084E-2,-4.3850294E-3,1.8816885E-2,-1.9671392E-2,1.1897371E-2,-1.4104653E-2,-1.5031649E-3,-2.5013117E-2],"split_indices":[13,28,14,20,29,28,23,0,15,15,24,17,20,28,15,0,0,0,0,0,0,0,0,0,0,0,0,0,0,0,0],"split_type":[1,1,1,1,1,1,1,1,1,1,1,1,1,1,1,0,0,0,0,0,0,0,0,0,0,0,0,0,0,0,0],"sum_hessian":[2.0850266E3,3.274181E2,1.7576085E3,1.901346E2,1.372835E2,7.2496375E2,1.0326448E3,4.3318485E1,1.468161E2,1.03710846E2,3.3572647E1,5.215234E2,2.0344035E2,4.2236246E2,